(function (root) {
  const bots = [
  {
    "id": "control-0-fx20h9",
    "name": "Strategist",
    "schemaVersion": 1,
    "archetype": "control",
    "personality": "Uses blue wave timing to shape rallies, control ball routes, and keep the court predictable.",
    "generation": 1,
    "lineageId": "control-0-fx20h9",
    "difficultyBand": "absurd",
    "elo": 1054,
    "promotionScore": 1054,
    "controllerParams": {
      "fireThreshold": 0.6
    },
    "mutationProfile": {
      "source": null,
      "kind": "seed"
    },
    "network": {
      "type": "mlp",
      "inputSize": 65,
      "layers": [
        {
          "weights": [
            [
              -0.2637606194399386,
              -0.4756532621656414,
              -0.14320705330106492,
              0.3214452036331153,
              -0.020596218792816885,
              -0.3019820434102571,
              -0.29520038017152395,
              -0.36063260223000043,
              0.13854891875630004,
              -0.3035610188584804,
              0.30167937620000046,
              0.3278033300026475,
              -0.32606294803431135,
              0.31373600775956595,
              -0.06963391003000015,
              0.14329285174598286,
              -0.2718029150357629,
              -0.41995793836098855,
              0.12210757441353053,
              -0.1024645430013049,
              0.2676104510338159,
              -0.17038001653161344,
              -0.011446927429950921,
              -0.368192775373942,
              0.13887466211036217,
              -0.31295862454499557,
              -0.2418756769623587,
              -0.3750828754212516,
              0.1296208417340176,
              0.398849542202568,
              -0.12167733505054262,
              -0.13750478876754643,
              0.36712280837818984,
              0.40956633612513543,
              -0.0373127089580521,
              0.39788922671801447,
              -0.039801821345463395,
              0.3602971465559676,
              -0.3000003764871508,
              -0.4277959889732301,
              -0.1646892958553508,
              -0.01024717663307625,
              -0.29596732088830324,
              0.1634239498960658,
              -0.2342030331829826,
              -0.03175353424582417,
              0.02148048587783191,
              -0.40196671779445553,
              0.3845005887893983,
              -0.08108708947663792,
              0.3794877868853706,
              -0.1304754733120477,
              0.4196955378730084,
              0.22092196190266636,
              0.3528442772442451,
              -0.03627183353528381,
              0.32184653682634234,
              0.2729360537370667,
              -0.19320118543691933,
              0.0019657761726677063,
              0.0003983071675847976,
              0.0064267409662726845,
              -0.003657446149195704,
              -0.0001658028492706018,
              0
            ],
            [
              0.03883449367704235,
              -0.43181496729760144,
              -0.144883325910306,
              0.197759084521602,
              0.44880545835501223,
              0.16571025733170439,
              -0.06150078439626605,
              -0.40612253642160007,
              0.0706101162898306,
              0.19844198103288913,
              0.26037540358638156,
              0.1971387745416447,
              0.04979410194893199,
              -0.1366437453942913,
              -0.0447106010439763,
              0.08269781980404423,
              0.32365736411258844,
              0.05670306115451133,
              -0.09589345660060644,
              -0.19021284231323646,
              -0.13156685868437387,
              0.10902653000505999,
              0.2289927324585696,
              -0.08448813983420896,
              -0.3028841675300422,
              0.29848373480854384,
              0.4233213331723337,
              0.16991049868604366,
              0.19696766431478213,
              -0.3781238000559454,
              0.11898367035942833,
              -0.04686456341296435,
              -0.41914585274644195,
              -0.4232967587420717,
              -0.1689463087823242,
              -0.347562997620443,
              -0.39164146184921267,
              -0.2034245881251991,
              0.394516788655892,
              0.3860003530047834,
              0.4266987226204947,
              -0.329691082723329,
              -0.07511192536912858,
              0.2699719592376777,
              -0.41390483477010725,
              0.4505123461509139,
              -0.4188467001860896,
              -0.2742736461592791,
              0.262767621930729,
              -0.41491125635646636,
              -0.09685529912075265,
              0.33010304031471305,
              0.12114287143465098,
              0.211921434266427,
              -0.3300726097898049,
              0.03039035852998495,
              0.24265702574048192,
              -0.25755537603981793,
              -0.2825633868109435,
              0.006272794713631944,
              0.0047943355663798695,
              0.008536760500385328,
              0.004795998824507483,
              0.00032842844235116044,
              0
            ],
            [
              -0.01974969768134946,
              -0.03879398794396883,
              -0.3980420438811673,
              0.11958250308903444,
              -0.3316223841000787,
              -0.24709298706482788,
              -0.08825999287406291,
              -0.05657848566055021,
              -0.36941270142349364,
              0.0006368382592418329,
              -0.4248187369791842,
              -0.048245118916045736,
              0.41356732800534207,
              -0.08708380980202614,
              0.32679806097883707,
              0.16465982998751383,
              0.19989061365859995,
              0.13592716464553484,
              -0.08842653518076986,
              -0.1029944246896756,
              -0.3740912250337452,
              0.11087729196451838,
              -0.14782662300241342,
              0.11242396243972654,
              0.23825307728714232,
              0.4308324630923951,
              -0.10421421026154543,
              -0.004812877964718784,
              -0.20709598109808816,
              -0.015181632385912755,
              -0.41938511486577273,
              -0.4287664813455194,
              -0.056246912106871605,
              -0.11685988151002676,
              -0.3617502913344652,
              0.1539745141990972,
              -0.27316219203639774,
              -0.2118849509395659,
              -0.06524886887054891,
              -0.17238897853530943,
              0.352538772742264,
              -0.3483665846282126,
              -0.04162827911786735,
              -0.06605677954266778,
              -0.2121256832473147,
              0.3602858945117601,
              0.3057470861401444,
              0.12964368660240724,
              0.3091993675988433,
              0.12241127736594529,
              -0.2060690561112258,
              -0.07529319999586247,
              0.29543863064311243,
              0.19142523841895853,
              -0.08638670626062513,
              0.0645619635237381,
              0.06106977621093392,
              0.23445783548522742,
              0.2541399095440284,
              -0.00785919045677694,
              -0.0063835758019412,
              -0.012483136509304315,
              -0.007090256563129885,
              -0.0002710185067101126,
              0
            ],
            [
              -0.3220821664422166,
              0.057077035559593876,
              -0.163310610702632,
              0.41511507334508363,
              -0.013249115711282369,
              -0.08873125417027605,
              -0.061750979538119075,
              -0.20032035726147784,
              0.4273818445417302,
              0.3424874324065582,
              0.2157652066698627,
              0.4511305504792342,
              -0.2435540928983887,
              0.010547287415553048,
              0.08688733696729793,
              0.07801805390769771,
              0.31907042332841823,
              -0.1480169348440492,
              0.1297913522226736,
              -0.2568056840889478,
              -0.02870658082378941,
              0.032627119727118105,
              -0.058866699729128766,
              0.23523720396275954,
              0.36187349156017146,
              -0.22068191132617498,
              0.346260874198881,
              -0.27331748858074656,
              -0.005737873445351318,
              0.24297788398284265,
              -0.38939224984733123,
              0.2361914785578847,
              0.06991519988514483,
              0.06989959236234426,
              0.21168058044277133,
              0.30475663027204425,
              -0.027666453528217973,
              -0.25576711166650057,
              -0.3717558290809393,
              0.44239073228091,
              -0.10160821282770485,
              -0.2772615241451204,
              -0.19898163713514805,
              -0.057760593138528854,
              -0.2132505216517743,
              0.4225086444536493,
              -0.21562465819037455,
              0.387873095757131,
              -0.22805766622155693,
              0.06285120621449009,
              -0.20849980457162237,
              -0.0783209806505987,
              0.3881430497566803,
              -0.24028318550230862,
              0.34477206384174913,
              0.08508027868811041,
              0.3406376738799736,
              -0.09055264829657972,
              -0.39145313892513517,
              0.0033790525519996444,
              0.006429321307460535,
              0.007529868185479122,
              0.0090172129856697,
              0.00023759921235068365,
              0
            ],
            [
              -0.18982213942022333,
              -0.21208962493123323,
              -0.17051813543427688,
              -0.48159763821024604,
              0.10126962591411491,
              0.3786890835524327,
              0.03867936118945321,
              0.05368958067283677,
              -0.22488550862523335,
              0.046918195376164415,
              -0.4761967217364689,
              -0.386779844831569,
              -0.02553682240529557,
              -0.22609292739612566,
              0.10842501687949331,
              -0.400102781508858,
              0.05852556039412636,
              0.38812306779501726,
              -0.17458974046166986,
              0.22563980117580237,
              0.2952611060232307,
              -0.321577586478359,
              0.003089209809878692,
              -0.389771792376673,
              -0.31524303279503113,
              0.13483526482041114,
              0.39952932120450985,
              0.25251504099647964,
              0.07627974356381897,
              -0.3176755375310036,
              -0.2377311985559303,
              0.027040325989946722,
              0.17824259649496527,
              -0.24100046118255705,
              0.18553731632418932,
              -0.2534460294141623,
              -0.06269774904940277,
              0.1633002145914361,
              0.4471079406095669,
              0.09161906526423991,
              -0.07328950955998152,
              0.1800292947015534,
              0.19932152687106283,
              0.4529156356700888,
              0.2727036406669461,
              0.282094778240498,
              0.4005709001713581,
              0.1081931595464554,
              0.2860658329873624,
              0.12595242480485894,
              0.18872031991807198,
              -0.25699175304971433,
              -0.44300206569173783,
              0.24575327260619403,
              -0.22385621612888473,
              -0.027475737570784985,
              0.3353232071734965,
              -0.06947118574753404,
              -0.24669929095543922,
              -0.01261096617410532,
              -0.014014890715342345,
              -0.017586509180849672,
              -0.019751761702046143,
              0.0003071544191033143,
              0
            ],
            [
              0.049033877282392155,
              -0.14447673182807202,
              -0.42271897188139335,
              0.09626805427802511,
              -0.39133372576179504,
              0.2924100375013193,
              0.167068257319656,
              0.38542884079324896,
              0.3646112276839403,
              0.041137079862400394,
              0.3059019202444128,
              -0.14683072954043047,
              -0.4041703088586596,
              -0.43569301552485457,
              -0.4104030237223907,
              -0.3476746101055054,
              0.11294346690463905,
              0.3935174660648025,
              -0.21776946124155075,
              0.2124196196148771,
              0.26652276265568103,
              0.42487965064041433,
              0.2667344807516807,
              0.17321376196517405,
              -0.106960929036942,
              -0.04336579126905227,
              0.33065446090764955,
              0.2502803383008071,
              -0.2378664800761918,
              -0.3533029190662019,
              0.01656761375317066,
              -0.018388121947646142,
              -0.291308922925964,
              0.25595157828647647,
              -0.41500835947226733,
              -0.3159677009262778,
              -0.3903251013485715,
              -0.22286043246276677,
              0.2690843999153003,
              -0.4240440100198612,
              0.15231992918998002,
              -0.12514117256986712,
              -0.42719661123119296,
              -0.0696675873946962,
              0.1905601964602794,
              -0.17515392096717378,
              -0.19972664388322503,
              0.20338050580534617,
              0.37411845977894903,
              -0.2209654009914834,
              0.2822882064456505,
              0.14362566416267442,
              0.40098219092862075,
              0.3752691026092924,
              -0.4121973662549094,
              -0.17950738398358226,
              -0.08176328320987523,
              -0.3249246771913022,
              -0.4335953072877601,
              -0.005514846693022996,
              -0.006505385669501768,
              -0.008283456567456094,
              -0.005495940513209652,
              0.0003892372906191408,
              0
            ],
            [
              -0.16630307730745986,
              -0.045147991772033005,
              0.032440827417630866,
              0.2635041611405372,
              0.17088043953804155,
              0.3904120780456042,
              0.42011801929287806,
              -0.14901287185293793,
              -0.2960771070192649,
              -0.38275343455412497,
              0.2030346349768559,
              0.4363448741303829,
              -0.3846218129748725,
              0.19253912103579962,
              -0.28743827574042247,
              0.1028476781807957,
              0.21141921629093913,
              -0.3281722542203593,
              -0.3698690184624866,
              0.20431295663248278,
              -0.2040660497477892,
              0.2332448459070985,
              0.2523230651520641,
              0.28711368165033613,
              -0.28061873394032666,
              0.1954275034967626,
              0.1949372637191327,
              0.15358328802348967,
              0.11210381644166241,
              0.3391004004250507,
              0.30676799092840074,
              0.3960759020643309,
              -0.4069839220494032,
              0.34634986880701035,
              0.118915907246992,
              0.1814587602592295,
              0.06845697923563421,
              -0.1003427661024034,
              0.3043290027184412,
              0.19313575252890589,
              -0.004962257249280811,
              0.2661452217228006,
              0.4319772548507899,
              -0.06055174068271979,
              0.2049923999872506,
              -0.17864108920269306,
              -0.011053210968088627,
              0.05214245312424666,
              0.16823197582444363,
              0.10094504760424079,
              0.12391933868311368,
              -0.2295859236047803,
              0.1065452661738378,
              -0.426922281550926,
              0.4213451092778742,
              0.37598110749386254,
              0.2214756012428552,
              0.011739053623750806,
              0.18512005114462227,
              -0.0009018592722007791,
              -0.001324674603320269,
              -0.0013382665844189623,
              0.0007954026794137698,
              -0.0005541736356377744,
              0
            ],
            [
              0.15875759853946234,
              -0.3649032805154262,
              0.24584236680669364,
              -0.1583028298325803,
              -0.402123627004925,
              0.12202816275220588,
              0.35146616781532247,
              -0.004223276119948121,
              0.37032836583155143,
              0.37114691871780797,
              0.007937827373902497,
              -0.009651532348145368,
              0.3059854739108752,
              0.25550278350082933,
              0.02493240645810773,
              -0.3784473075081375,
              0.3876984658126237,
              0.014169423495470847,
              0.006306701526045799,
              -0.36319462872405184,
              0.3677353237720636,
              0.4131078707729743,
              -0.2875489705020039,
              -0.310886142505408,
              0.04792695460846722,
              -0.06052501716742585,
              0.39724791134755033,
              0.2545619834134613,
              -0.06359292986280997,
              0.05595577305509124,
              0.031723538614618324,
              -0.06956665604375303,
              0.389999856473878,
              -0.03690374395810068,
              -0.07286858232691884,
              -0.02678885017661034,
              0.17265381629113108,
              0.364485229854472,
              -0.26278546443209055,
              0.41767538781277835,
              -0.303290129522793,
              -0.016569755157918024,
              -0.0866016041720286,
              -0.1337306235373838,
              0.008280147311944902,
              -0.38735335081850364,
              -0.20826003668101892,
              -0.3174095542245262,
              -0.43850786269880326,
              -0.24863177742017567,
              0.177011655143495,
              -0.2619992324391159,
              0.4249741718657852,
              0.1461304773480185,
              -0.3505635322818306,
              -0.09030386083759367,
              0.25827415252570063,
              -0.3136485544033349,
              0.289494624780491,
              0.002783830279768658,
              0.0030469859067704117,
              0.005531251837868527,
              0.0040078146924497566,
              -0.00013412472486897984,
              0
            ],
            [
              0.34113844279902705,
              0.10496787174208456,
              -0.27638797114268804,
              -0.4238687921783882,
              0.24812476397043057,
              -0.3893965862570564,
              -0.018345138168053304,
              -0.32753742610739717,
              -0.32969433465406434,
              0.005029525519659326,
              -0.25238390891468165,
              -0.36178049631822706,
              0.295129719298945,
              0.4251028418840161,
              -0.18877654123873497,
              0.40296481668630174,
              -0.22078407658571964,
              -0.42054243419146775,
              0.03919249826576561,
              0.13315092172948104,
              -0.1358226974601134,
              -0.41654402225363496,
              0.13140478942585745,
              0.08594110581670568,
              -0.2461032191031653,
              -0.2991293396348672,
              -0.0809566714086934,
              0.35051754926650913,
              0.05636350818466614,
              -0.014907170048533822,
              -0.1821364375807257,
              -0.24857056089676918,
              -0.015055290120653809,
              -0.1520916729932651,
              -0.19103221648838373,
              -0.3790071670045991,
              0.3111801348393783,
              -0.23146949380170553,
              -0.24471243037842214,
              0.2830485399579629,
              -0.09040939339902253,
              0.09754363446627655,
              0.2999411885160953,
              0.05999140932484906,
              0.24777913584731645,
              0.3912661265118354,
              -0.05960505622664036,
              -0.38829121242364767,
              0.26018701472096867,
              -0.14219855263939787,
              -0.03545776396417348,
              0.022893874080529248,
              0.166611077024986,
              -0.40508143884089237,
              -0.3092678460502729,
              0.043278878065757455,
              0.29239399591460824,
              0.1213136327918619,
              -0.4475859523750842,
              -0.01682015206407262,
              -0.012746614772135735,
              -0.02010554032107375,
              -0.015105403974576501,
              -0.0012379701026203238,
              0
            ],
            [
              0.35135667812211563,
              -0.5425545510564226,
              -0.016883367523842566,
              -0.21218169706994325,
              0.118243212834758,
              -0.44483123456095097,
              -0.011303410542726476,
              -0.24448296756770937,
              -0.2363868033097688,
              -0.3508488793969506,
              0.06250262094095982,
              -0.3516759508579093,
              0.19079788929012761,
              -0.2622731315814787,
              0.23653008753616356,
              -0.3910264801386342,
              -0.13498490117828346,
              0.43029039517705847,
              -0.31630314169451595,
              0.030381274664519776,
              0.32610981116360177,
              -0.27046967069975475,
              -0.3307935411856545,
              -0.05000139106500924,
              -0.151081625904517,
              0.3101291963116993,
              0.4061278596316243,
              0.12309876679297455,
              0.15848728040402685,
              -0.2392498290023646,
              -0.25808241669791987,
              -0.009065071237273514,
              -0.424814564245753,
              0.41764944267924875,
              -0.29478629522491245,
              -0.21278012810245814,
              -0.1852129622362554,
              -0.13424258327577263,
              0.1509295034687966,
              -0.23316996695939451,
              0.10597073275130242,
              -0.3161217918476897,
              0.3288911871844903,
              -0.29434235587850255,
              -0.38342563623640913,
              -0.27246709336002556,
              -0.15525013317698116,
              0.10687663993202706,
              0.11495804928598125,
              -0.20360614253852874,
              -0.3642208203278801,
              -0.3403356928925631,
              -0.2750818512774898,
              -0.2967642672287632,
              0.43177209425681173,
              0.17601150046102704,
              0.10300941495224834,
              0.12514486599247904,
              -0.4101202866761014,
              -0.009336181313243253,
              -0.006865747728960727,
              -0.005381715429699925,
              -0.013224476549201362,
              -0.00020898821748264356,
              0
            ],
            [
              -0.37799925270886736,
              0.28809835341131207,
              0.2559076389629893,
              0.17374529638437974,
              0.1603816134978621,
              0.33489625506836124,
              0.2596664710698478,
              0.3645884952991035,
              0.4052925117876058,
              0.29600712026647613,
              0.15885272829345415,
              -0.1925072037019069,
              -0.3026575203975601,
              -0.11389675272753928,
              -0.3613724601040683,
              -0.2616129161264612,
              0.21846216564496795,
              0.26687044147268324,
              0.01709354748018086,
              -0.19537065907750745,
              -0.3742268033926552,
              -0.023599734371496796,
              -0.13083179413283297,
              -0.4131705594117069,
              -0.4386191306182803,
              -0.2075452434921353,
              -0.17220213318391414,
              0.16379845921043623,
              -0.006076513811650298,
              0.10706503497375751,
              -0.2376229119496421,
              -0.279660875396803,
              -0.000056138425134122374,
              0.2944878363981843,
              -0.417079718853347,
              0.20065044443062158,
              0.3150427873944864,
              -0.31725500256288797,
              -0.1822033531498164,
              -0.10065823327749968,
              -0.14911099530290814,
              -0.35913064199094985,
              0.0746868348447606,
              0.20926844204675774,
              0.02052670705741773,
              0.36829623068027767,
              -0.40385748503183155,
              -0.44024479008296713,
              0.11296547413903947,
              0.1966232452929414,
              -0.3382915392717321,
              0.3266787758294341,
              0.06865830688465757,
              -0.06075574197501641,
              -0.3509506798379673,
              0.2511860772036016,
              -0.034176064375787976,
              0.07852621127385646,
              -0.05556149245239794,
              0.008781383611878446,
              0.008754809800362511,
              0.013299700155539716,
              0.014150596427402906,
              0.0011477326475283593,
              0
            ],
            [
              -0.251951827267831,
              0.25358751684387265,
              -0.06912956980475488,
              0.08268153216913396,
              0.41501487006256377,
              -0.22023361695377897,
              -0.24002756914947312,
              0.3342893449326641,
              -0.36355384000630286,
              -0.14029234352207257,
              -0.1668563487284252,
              -0.343356349896182,
              0.30027625333771674,
              0.22214061834655602,
              0.12151169800541407,
              0.3249680754948298,
              0.02839351072818142,
              0.39346222868230385,
              0.23518276072572916,
              0.0857376103688373,
              -0.17288596233813097,
              0.4300083436995309,
              0.1351834700277969,
              0.23355886749339314,
              0.29391413140035344,
              -0.4480939373406313,
              -0.03762711180676355,
              -0.1377945310298421,
              0.21371707738670842,
              -0.36538522869861384,
              -0.39104936838160775,
              -0.047516370797529815,
              0.04058998594991863,
              0.3828180873999372,
              0.2975714396685362,
              0.34903267654543113,
              -0.3126500283367932,
              0.4256081603234634,
              -0.340869758091867,
              0.4450368006248027,
              0.15710007199086248,
              -0.1585685074101267,
              -0.4479966050712392,
              0.42865967829286405,
              -0.3041973320263259,
              0.2855592114580571,
              0.4418751448701041,
              0.304120019591003,
              -0.3920891024774475,
              0.12253059645443688,
              -0.21425583141055113,
              -0.15602411387610715,
              -0.13110574440382966,
              0.11403619067897337,
              -0.05806551446847594,
              -0.0174518168438226,
              0.06959499756339937,
              0.2006569241406396,
              -0.2641077685402706,
              0.000678379040802965,
              0.0004624425723231386,
              0.0011478458352505631,
              -0.0005525181621841352,
              -0.00010184303713941892,
              0
            ]
          ],
          "biases": [
            -0.07872413196242467,
            -0.16329049258969577,
            0.17264071009061066,
            -0.1666261227935534,
            -0.01060363891653695,
            -0.19970264712565786,
            -0.3166784993107657,
            0.2927056771251337,
            -0.3405069732958537,
            0.09554096882668042,
            -0.394456492098371,
            0.41557980342815326
          ]
        },
        {
          "weights": [
            [
              -0.06603916369162434,
              -0.40982247201635075,
              0.35022391991245155,
              -0.05309378119819037,
              0.3278491979559177,
              -0.0898371024674417,
              -0.1909798627734965,
              -0.1472624357086733,
              -0.018121174841614365,
              0.4013844614148337,
              -0.06635774545158994,
              -0.12201639512203294
            ],
            [
              -0.2146753582498286,
              -0.04853941261834789,
              -0.3435159933390143,
              0.3629288307646382,
              -0.27856975378514204,
              0.09021352514040172,
              -0.3654279199324363,
              -0.12293374814711115,
              -0.3291103777141293,
              0.11844647091673788,
              -0.12568109660110885,
              -0.032684871227385726
            ],
            [
              -0.3041007184263671,
              0.17549058438718781,
              -0.1764012427038495,
              0.11884490453199316,
              -0.29421873935236287,
              0.007874774000332423,
              -0.1286161466373167,
              -0.2603581510411962,
              -0.358918453813585,
              -0.40816156530963665,
              0.2474544851609029,
              -0.04345069189017994
            ],
            [
              -0.07763399756605602,
              -0.1656094150889364,
              -0.31124868780655185,
              0.06677153290957467,
              -0.13652273873393003,
              -0.19913454204741685,
              0.2215270522831467,
              -0.35005801713754264,
              0.10192287308208689,
              -0.2604404599306502,
              -0.17440849425697397,
              -0.24159792199063634
            ],
            [
              0.3317137020581844,
              -0.15201599052811518,
              -0.1801430700722642,
              0.2251727522630958,
              -0.09721820003314023,
              -0.06434586575430659,
              -0.21949080721033187,
              0.13753152282109804,
              0.3298409479627634,
              -0.028683148185654192,
              -0.28993129601644924,
              0.1839633870727175
            ],
            [
              -0.25112279979537694,
              -0.17192341388186863,
              -0.011433482264140768,
              -0.25086000668246455,
              -0.18646271164829717,
              0.22733347716806596,
              0.1899540377118489,
              0.03501761889835081,
              0.24346507346636462,
              -0.11249442326649614,
              0.15830886984185719,
              -0.180922642365167
            ],
            [
              -0.2972981317149114,
              -0.20785792660666244,
              0.27897794480610355,
              0.20336158240326468,
              -0.34538523467622917,
              -0.31517729958811574,
              -0.016667349518212502,
              0.17726600288489228,
              0.009867859768746177,
              -0.2771375740374048,
              0.1806501571102655,
              -0.04634416747276349
            ],
            [
              0.13326382544120202,
              -0.10845727766207311,
              0.016882415505029336,
              0.19348307735948653,
              -0.2891836457047832,
              0.03353036876832343,
              0.14229551231364423,
              0.2123803111128357,
              0.21605278956590887,
              -0.4532639351835944,
              0.21206067812201126,
              0.15893791122439144
            ]
          ],
          "biases": [
            -0.18175476265416507,
            0.2804884348405857,
            -0.02629066431503358,
            -0.2547920740676454,
            -0.02943453992134045,
            -0.00965964073917931,
            0.0036086227982952187,
            -0.28327856114586586
          ]
        },
        {
          "weights": [
            [
              0.17912378181733077,
              -0.031165224801578455,
              -0.4236476433266905,
              -0.09000434992175564,
              0.18854104705821645,
              -0.001710297449043277,
              -0.25291096205459673,
              -0.3673615901484842
            ],
            [
              -0.12851117274730253,
              0.14767993054863982,
              0.015234142725065673,
              0.19627777832966964,
              -0.1480950528653866,
              -0.04070281007591313,
              0.21975270131941455,
              0.3466460320564185
            ],
            [
              0.4412373437992081,
              -0.3470557369628302,
              -0.38778300443946745,
              0.17704593126075047,
              0.17277889308942018,
              0.29351419870355705,
              -0.3018639765132129,
              0.09876992560042779
            ]
          ],
          "biases": [
            0.1342696078923256,
            -0.09323700558441345,
            -0.6949810451757731
          ]
        }
      ]
    },
    "reviewBlocked": false,
    "reviewSummary": null,
    "runtimeDisabled": false,
    "runtimeValidation": {
      "totalMovedTicks": 178,
      "totalGoals": 10,
      "samples": [
        {
          "movedTicks": 41,
          "leftScore": 2,
          "rightScore": 3
        },
        {
          "movedTicks": 137,
          "leftScore": 2,
          "rightScore": 3
        }
      ]
    },
    "metadata": {
      "roleName": "Strategist",
      "designIntent": "Uses blue wave for ball control, tempo shaping, and long-term court management instead of pure rushdown.",
      "styleTags": [
        "strategist",
        "blue-wave-control",
        "ball-control",
        "tempo-manager",
        "human-tested"
      ],
      "reviewState": "active",
      "humanTrainingSummary": {
        "botId": "control-0-fx20h9",
        "botName": "Strategist",
        "sessionCount": 14,
        "botWins": 0,
        "humanWins": 14,
        "draws": 0,
        "botWinRate": 0,
        "averageGoalDiff": -6.571428571428571,
        "challengeScore": -60,
        "sampleCount": 4000
      },
      "humanFineTuneSummary": {
        "sampleCount": 1327,
        "epochs": 3,
        "batchSize": 64,
        "learningRate": 0.01,
        "positiveWeights": [
          8.151724137931035,
          8.615942028985508,
          24
        ],
        "averageLoss": 0.8541678883917271,
        "source": "browser-local-auto-train",
        "updatedAt": "2026-03-15T02:52:02.818Z",
        "newSessionCount": 1
      }
    },
    "humanTrainingSummary": {
      "botId": "control-0-fx20h9",
      "botName": "Strategist",
      "sessionCount": 14,
      "botWins": 0,
      "humanWins": 14,
      "draws": 0,
      "botWinRate": 0,
      "averageGoalDiff": -6.571428571428571,
      "challengeScore": -60,
      "sampleCount": 4000
    },
    "humanFineTuneSummary": {
      "sampleCount": 1327,
      "epochs": 3,
      "batchSize": 64,
      "learningRate": 0.01,
      "positiveWeights": [
        8.151724137931035,
        8.615942028985508,
        24
      ],
      "averageLoss": 0.8541678883917271,
      "source": "browser-local-auto-train",
      "updatedAt": "2026-03-15T02:52:02.818Z",
      "newSessionCount": 1
    }
  },
  {
    "id": "control-0-94ckep",
    "name": "Defensive Specialist",
    "schemaVersion": 1,
    "archetype": "control",
    "personality": "Prioritizes pink wave survival windows, stabilizes losing rallies, and buys time to recover position.",
    "generation": 1,
    "lineageId": "control-0-94ckep",
    "difficultyBand": "absurd",
    "elo": 1050,
    "promotionScore": 1050,
    "controllerParams": {
      "fireThreshold": 0.6
    },
    "mutationProfile": {
      "source": null,
      "kind": "seed"
    },
    "network": {
      "type": "mlp",
      "inputSize": 65,
      "layers": [
        {
          "weights": [
            [
              0.10869310757245028,
              0.38658910091964754,
              0.33947228215483116,
              -0.15733706338288123,
              -0.1751401482242578,
              0.26835118889792087,
              -0.3802902999139081,
              -0.0631889496412847,
              -0.2825135214001055,
              -0.20263094069587873,
              -0.3826940177394885,
              0.12558526226563352,
              -0.2672770708244223,
              -0.023678576671359936,
              -0.03305881480933866,
              -0.11855468879087085,
              -0.28976994169331827,
              0.20011540263552566,
              -0.09365344347897918,
              0.41466119817527,
              0.09232043633703985,
              -0.1716819866205584,
              -0.17723181267355273,
              0.09483695259010642,
              -0.41200293352605905,
              0.15976242909673602,
              0.3180827002041042,
              -0.25205912722740326,
              -0.2928245600312948,
              0.37675573782681393,
              0.1831069814041257,
              0.02871751820202917,
              0.022399986209347845,
              -0.24397972086444497,
              0.3416276411851868,
              0.429552173904729,
              -0.3022481671767309,
              0.3088639993686229,
              -0.10746705397032201,
              0.0800244898768142,
              0.44834803605917845,
              -0.34663793681037713,
              0.3990759096806869,
              -0.44245305637232146,
              -0.2195914317753914,
              0.26929397851420406,
              -0.27973945668870026,
              0.3777933213608858,
              0.39599918286720914,
              -0.2639223000508401,
              0.4435364011042775,
              0.04471206137207274,
              0.2501268271713617,
              0.2768620207218809,
              0.05041370247976092,
              0.44586613231804223,
              0.0787317173089832,
              0.19050132958218455,
              0.23447363746818156,
              0.0075295732903936825,
              0.008250872732459887,
              0.011641608283100513,
              0.005653349545779379,
              0.0006961329772229575,
              0
            ],
            [
              0.08505422426265209,
              0.43724530294614694,
              0.099995582508671,
              0.27113482724450977,
              -0.13481493496740451,
              -0.3461829279073947,
              0.2513201825402516,
              -0.4269800075918662,
              0.332891473763313,
              -0.30029663540906965,
              0.3316985445596719,
              0.2690841451989668,
              -0.3005635849840692,
              -0.4150257364913408,
              -0.34486788516645617,
              0.2588596819623469,
              0.1640030997409027,
              -0.2972542270902095,
              -0.2142502846196294,
              -0.08311993904516847,
              0.24080624498708347,
              0.12904159654209316,
              -0.34593359602188894,
              -0.26196539550325326,
              0.004758341382561554,
              0.30646479839924723,
              -0.44385793120600286,
              0.3179898991249502,
              -0.2623230350436643,
              0.43685204477067796,
              -0.27866223114542665,
              0.16062324929516764,
              -0.38513116976246237,
              -0.37092749211005865,
              -0.11702007099520416,
              -0.10400601954181016,
              -0.3620792221510783,
              -0.44775926540605726,
              0.2250830814242363,
              -0.13970497129485013,
              0.3313140814891085,
              0.168313805055988,
              -0.32443632697686553,
              0.2803185147575319,
              0.41022124560470546,
              -0.3113000833710825,
              0.35063796132420755,
              0.08136215863786575,
              0.3214781647720585,
              -0.3045211538248136,
              0.24367894781623697,
              -0.3612776103501276,
              -0.42587685118440144,
              0.030822103891454206,
              -0.010712553007824558,
              0.4286363822640851,
              0.1869263431057334,
              -0.16565399675164372,
              0.13537822030484678,
              -0.0044180512505360104,
              -0.005534894407591639,
              -0.007224328432386203,
              -0.0019455390509511123,
              0.000021184306154926957,
              0
            ],
            [
              0.40611835296197585,
              0.14732054418868298,
              -0.21811759842504652,
              -0.39065508992491743,
              0.10432417073891515,
              -0.17198786543637737,
              -0.06033808866277456,
              0.12937290061195864,
              -0.3581816800606762,
              -0.45654781668391914,
              0.09239062535783055,
              0.3157591802728836,
              0.38030640125203496,
              0.1247749049209363,
              0.2154114547182292,
              0.15325325869993003,
              -0.42198515823795685,
              -0.43919626078573,
              -0.08212917339988053,
              0.1287720274646645,
              0.21924159865512582,
              -0.23898195039291226,
              -0.361066969635361,
              0.20898613496814947,
              -0.20032957186237504,
              -0.3825974698411301,
              -0.091408680123277,
              0.36870348318479956,
              0.17538276028353722,
              0.37927835821584704,
              -0.08884767196141184,
              0.06088893015403301,
              -0.3075806174660102,
              -0.26464802348054944,
              -0.22082411048468203,
              0.3124910509487698,
              -0.326691506523639,
              -0.4403621602104977,
              0.24971336948219688,
              0.22347321999259293,
              0.22415105109103026,
              -0.22358756626079887,
              -0.3931607551407069,
              -0.12791682663407783,
              -0.33079553693393604,
              0.025841866323663493,
              0.30962661298171806,
              0.019792521008365507,
              0.028617215150386476,
              -0.27027128786349125,
              -0.32225616552490827,
              -0.32301073395176283,
              -0.18706514752879963,
              -0.2099912376913542,
              0.02108124318716186,
              0.42124908494297414,
              -0.35376972290687264,
              -0.07099391059018671,
              0.25959482782054694,
              -0.004333939551375315,
              -0.005825618351898086,
              -0.005912575213577469,
              -0.0037687242726431374,
              -0.000903276974141847,
              0
            ],
            [
              -0.09804222721330588,
              -0.31027700934582936,
              0.2607615370110476,
              0.2845550578329106,
              -0.29954026546972945,
              0.26333284919896893,
              0.3578752055868717,
              0.15340250117521112,
              0.21214089607836717,
              -0.09721446986842354,
              0.18192224523873307,
              -0.07917161709920416,
              -0.44115424232989603,
              -0.2876532680039489,
              0.0863307707475418,
              0.16727545469953756,
              0.08659383750736847,
              -0.33384343909766323,
              -0.3500458721537143,
              -0.39636661951561386,
              0.08072679710845547,
              -0.1768680618740482,
              0.2678834386044654,
              -0.16668951322185116,
              -0.16531497232995676,
              -0.307563318265602,
              -0.03812786035705358,
              -0.07787649831734599,
              0.03472193058114499,
              0.08466850656151224,
              -0.39659423602279276,
              -0.16276495065540075,
              0.24899404167663305,
              -0.11587533499114215,
              0.23261572408955544,
              0.36085407915126,
              0.156651625293307,
              0.40358601899351926,
              -0.4442157468991354,
              0.1636111934669316,
              0.07235199809074402,
              -0.3880752378416115,
              0.25737714932765815,
              -0.4170992872375052,
              -0.29396583952078514,
              -0.28918317339514715,
              0.23907363311659555,
              0.3715640330233608,
              0.30646125144047115,
              -0.2675959862725425,
              0.056556221618311434,
              0.004794178942121063,
              -0.2040386843608673,
              0.3603057841156909,
              -0.3259860074035961,
              0.021224998869001865,
              0.25108621981926266,
              -0.2001696084626019,
              0.377273783669807,
              -0.004077780898094725,
              -0.0022673913975544426,
              -0.005669689544915736,
              -0.0014298504905811125,
              0.0002485231366110784,
              0
            ],
            [
              -0.20232424255548248,
              -0.2468701681319189,
              0.4362765489984882,
              -0.07335582714685218,
              -0.062005982794752564,
              -0.2524893562821369,
              0.17918771046844773,
              0.29443085179001033,
              -0.3831062711405743,
              -0.14495498664671358,
              0.056389778300899154,
              0.09784017744617392,
              -0.015285396608902562,
              -0.20388029060111582,
              -0.24933400143165518,
              -0.2733941439361943,
              -0.2303002459253039,
              0.08347157413750167,
              -0.12471960301045329,
              0.3227855174607689,
              0.11398278769541202,
              0.3080571806185834,
              0.3861540756323146,
              -0.37425401884721576,
              -0.16605248296436684,
              -0.23717157596256586,
              -0.21890309499576688,
              0.44173090676777066,
              -0.37805310599505904,
              -0.3740845264774394,
              -0.03815174228511751,
              0.2168823250103742,
              -0.42881817002780737,
              -0.07087041058111936,
              -0.42248308821581304,
              0.23765250675840108,
              0.08956680321134627,
              -0.3890712650259957,
              -0.18551964391954243,
              -0.12275388557463884,
              -0.15174914589151742,
              0.01251325757236953,
              -0.16569909097161145,
              0.22929025966441177,
              0.3311666458368788,
              -0.23140793441157176,
              0.2176474102861108,
              0.34241807315036765,
              -0.4234404199395268,
              0.28710328328961726,
              -0.3399773237622726,
              -0.046520773388841336,
              -0.23183937711774846,
              0.31246124465872127,
              -0.14211048498863163,
              -0.4140120640397072,
              -0.4399912442313507,
              -0.07133674614597112,
              -0.24645725113805383,
              0.0051717182857818084,
              0.00499519525448037,
              0.009209687351026577,
              0.0026549803996351504,
              -0.00009851260054450552,
              0
            ],
            [
              -0.39323336976755235,
              -0.4609510819805271,
              -0.2778949604836065,
              0.1498090280622083,
              -0.2129314399094042,
              0.05638841046287734,
              -0.3924234190189212,
              -0.2301281880622594,
              -0.0820891297130102,
              0.42666402473107395,
              0.04307405219843351,
              0.16358462347618377,
              0.2038483707491003,
              0.40628596230207675,
              0.3161779948295175,
              -0.2508101253763851,
              0.0777366997615724,
              0.1667187601338517,
              -0.26051102809142324,
              -0.3051714123421076,
              0.40515295563869874,
              -0.08555401501073828,
              -0.10668359574015028,
              0.3851358268655165,
              0.1172167585124328,
              0.2845967227360234,
              -0.0006693561561405659,
              0.4143906486220658,
              -0.05940218064934016,
              0.08050186226617112,
              -0.16004617328289897,
              0.11899332250468433,
              0.435723360395059,
              0.21954824421554806,
              0.32177039079833775,
              -0.2601215579779115,
              0.38408289751969277,
              0.16483389604836704,
              0.18159679714590313,
              0.08619454018771648,
              -0.1630965666146949,
              0.11828291509307488,
              -0.2624629510100931,
              0.37455442062620004,
              -0.2649787892584591,
              -0.39937911362066436,
              0.21487492080022175,
              0.10734392853603998,
              -0.27506880612416496,
              0.12969867830376106,
              0.35322239328057403,
              -0.06252180478242371,
              -0.21769558497226765,
              0.13872942268788185,
              -0.28427588050472513,
              -0.44709029502701014,
              -0.2678778800647706,
              0.09827640778385104,
              -0.40977914824616163,
              -0.0025417966776472064,
              -0.006399126084288999,
              -0.005238122891009404,
              -0.0017908776724781818,
              -0.000847594291847991,
              0
            ],
            [
              0.23587743281700504,
              -0.3895052405939234,
              0.07210140250348278,
              -0.1191488315283274,
              0.4268512752884813,
              0.17229840138654492,
              0.07726052539132162,
              -0.38050122113352813,
              0.006026065013735357,
              0.3686954366155415,
              -0.11202753299159088,
              0.23423715740019802,
              0.06842053774039675,
              0.06955838854416996,
              0.05510123944587823,
              -0.20386751989659635,
              -0.0574985114945919,
              0.3483672276897078,
              -0.39165164523292334,
              0.18537284842662977,
              0.3920799359037971,
              0.26046628930641375,
              0.15755501908081923,
              0.43428298599121834,
              0.3277973185325402,
              0.07134452727623285,
              0.41160732409916817,
              0.38806008459068836,
              -0.0448293968802318,
              -0.18805273390565785,
              0.2879705514991656,
              -0.10826648301444948,
              0.07006820964161307,
              -0.4445430711144582,
              0.1265879728132859,
              0.3425497456108705,
              -0.07152291114907712,
              -0.2579694772604853,
              -0.21662252394016832,
              0.13308829441666603,
              0.3024085178039968,
              -0.07554336042334117,
              0.33018427952192725,
              -0.2843681616126815,
              -0.30231596946041456,
              -0.18591203122714484,
              0.19658460312500872,
              -0.28720956331443237,
              0.4422286247176311,
              0.08555751453110103,
              0.42186837143903716,
              0.2436910908867166,
              -0.05576389246449588,
              0.18427451104350528,
              -0.26423224708618703,
              -0.1012414873810485,
              0.40364463741425427,
              -0.3593758708331734,
              -0.35412943626288323,
              0.0016311950542371642,
              0.00229304417228461,
              0.00280032043013696,
              0.000779572150370382,
              0.0000513562147745597,
              0
            ],
            [
              0.11718600760081084,
              -0.41666574472365475,
              -0.14159418327145468,
              -0.4125767909118642,
              0.18078339513104302,
              -0.15854064196482115,
              -0.08812241769574707,
              -0.1434502851770415,
              0.1906812822870913,
              -0.13028696844231527,
              -0.08653791718063712,
              0.040406918187282946,
              -0.18669944462062613,
              0.30411658975245837,
              0.2560954906666059,
              0.4444449331663669,
              0.043753154188468577,
              -0.10748470794266717,
              0.3069853615248576,
              0.4114179758358977,
              -0.2606029639950214,
              -0.12639386134464708,
              -0.40767689925101314,
              -0.36689788443197535,
              -0.04552911644570619,
              0.036235252604819836,
              -0.42682288081850855,
              -0.07710003484971821,
              0.435404458316043,
              0.12830654579557668,
              0.05384719292633235,
              0.04425247949548066,
              -0.14356361918617042,
              0.0615664942888543,
              -0.20735037275590004,
              -0.13700270570006026,
              0.24252626637462527,
              -0.4411287221359089,
              -0.39358595525845885,
              0.03841839241795242,
              -0.3545377363683656,
              -0.04892440339207456,
              0.4173570487881079,
              0.2046043883766761,
              0.1933879740578301,
              0.04308310220403641,
              -0.3966235752032993,
              -0.2112037360653412,
              0.17514589997806526,
              0.3265691338330534,
              0.24203982901163107,
              -0.32426885963933455,
              -0.08529091761352521,
              0.15717410508273852,
              0.28261449193946014,
              0.05255528704728931,
              -0.4143666541669518,
              -0.14423130084760488,
              -0.11469836407341064,
              0.005466524718043416,
              0.006918686694966288,
              0.010830423770327892,
              0.0028093605670030265,
              -0.00025666586091931863,
              0
            ],
            [
              -0.31514970267097114,
              -0.01670291271199218,
              -0.2539109699686032,
              0.01853011706233693,
              -0.3598598975032802,
              0.3385295998975667,
              0.2534179744287431,
              0.06680378843782671,
              0.2586316148875,
              0.25688699411442784,
              0.11632173642042988,
              0.19818600296232758,
              0.28112714706289005,
              0.26513566885068274,
              -0.35884500339306247,
              0.30173994757284484,
              0.31691908821750037,
              0.36389206950008074,
              0.18183371897321196,
              -0.1717489187452339,
              0.39217501476025457,
              -0.2776603798479419,
              -0.042763155764437635,
              0.10032042372923966,
              0.11310036755148836,
              0.27593893529847263,
              0.1704695880878717,
              0.26371437816414983,
              0.41921996406745166,
              -0.28928079073997476,
              -0.3516771920956671,
              -0.13941628995817154,
              0.21828655572608113,
              0.12658374309539797,
              0.4069692610530183,
              0.26857256146864705,
              -0.12166890897788107,
              -0.2831943557364866,
              -0.43766432753764095,
              0.35761157346423716,
              0.18449362961109728,
              -0.4227128680770311,
              -0.4116388274822384,
              -0.21483650428613998,
              0.3733570001024849,
              0.18729712334308982,
              0.38510584348500027,
              0.136251472449197,
              -0.19899181648064296,
              -0.015280759019812393,
              -0.18821144475252438,
              0.25067013438292896,
              -0.05176782618414031,
              -0.20668751831732238,
              -0.33727973004585676,
              0.34021511636674406,
              0.3955315305618569,
              0.3499226692831144,
              0.4348366143414751,
              0.01172485260484123,
              0.011889125309136933,
              0.01615884904678056,
              0.006914941700635028,
              0.0005493437145581303,
              0
            ],
            [
              0.34258201334440413,
              -0.025620195215860127,
              -0.15229514618601908,
              0.01883436289600769,
              0.13232784321372817,
              0.010819477419151654,
              0.4305484890737503,
              0.4523764736192978,
              0.26020713764660763,
              -0.20785116504609844,
              -0.3541444902241868,
              -0.37378546865305445,
              0.3423411029925743,
              0.021521446773205583,
              -0.18324349733000234,
              -0.38514648136598,
              0.40655727265353225,
              0.38037494057422533,
              -0.3976945552742109,
              0.22509699888488294,
              0.3466325561843461,
              -0.3419309977730949,
              0.07596735183595618,
              -0.11532337117060655,
              -0.28375181440975494,
              -0.43861224870197474,
              -0.26961871585808694,
              0.15251873577944935,
              -0.42588185041677207,
              0.3818762118715072,
              -0.39771871694829314,
              -0.38400055600795896,
              0.14106766926124692,
              0.25833950706291947,
              0.40167416869662703,
              -0.3942096958615606,
              -0.008880332414992155,
              0.3406031624414027,
              0.19816520833410323,
              -0.2507715891581029,
              0.27938623961526904,
              -0.4199530124411708,
              -0.40172524235676976,
              0.129418547208356,
              -0.2408055624607114,
              -0.4524432860290707,
              0.1673750364499142,
              -0.08396840032965187,
              0.13724147843855888,
              -0.13332251177401613,
              -0.3146528209584866,
              0.1734718500582505,
              -0.3885464879515555,
              0.09205833003239502,
              -0.02205390265553174,
              -0.37343290499411524,
              0.05732101255562157,
              -0.034272733912803235,
              0.13743774904869496,
              -0.004867399381931723,
              -0.007389091145089223,
              -0.008766127183117808,
              -0.0037529359924890933,
              -0.0006447152273521873,
              0
            ],
            [
              -0.2824741899462386,
              -0.08275783923546891,
              0.1906771273577484,
              0.425951006513211,
              -0.2258260368024803,
              -0.2987191943269895,
              0.02517946512582637,
              -0.14278746798489797,
              0.127776368959832,
              0.0654769361942906,
              -0.38575903497012,
              0.1691633350202934,
              0.43675270218384,
              0.1325031466588373,
              -0.08310368122791309,
              -0.050106793560264484,
              -0.1865287707538368,
              0.02053553502158222,
              0.16192482244223358,
              -0.34035846697617816,
              -0.36660422229747647,
              0.05256220510166413,
              0.2913597250023379,
              -0.29934155141295593,
              0.2955141431939587,
              0.3295360612682998,
              -0.34248546715825795,
              0.25663090366870167,
              0.10813383457716555,
              -0.0512261566465619,
              -0.1807707727421075,
              -0.004804491600953043,
              -0.1612721852492541,
              -0.3585130888503045,
              0.16931246635504069,
              -0.2077168202718618,
              -0.24892283594235778,
              -0.3393017615424469,
              -0.3991891121026129,
              -0.32505014506168667,
              -0.42656638075131925,
              -0.36846074906567955,
              0.06877229826059193,
              -0.26819233911801743,
              -0.3954652208667854,
              -0.022180599375937075,
              0.050686545140051206,
              0.3077129685514899,
              0.342182539816284,
              -0.04736597583233924,
              -0.13509763074871256,
              0.0752872583574646,
              0.07171897163905057,
              0.32815627053172797,
              0.05602696934119322,
              -0.322420476959087,
              0.1385953873163089,
              -0.00944356278050691,
              0.11862559311557562,
              -0.0023260763576503822,
              -0.0021554388941982558,
              -0.0027998269279347165,
              -0.0013322592015043862,
              -0.0005702552771363785,
              0
            ],
            [
              0.426346121520349,
              0.4165648904439034,
              0.07485732339322666,
              -0.09906976908083381,
              -0.38841200496617584,
              -0.3191898984138631,
              0.3043143880587597,
              0.1479565067338003,
              -0.0857813821520814,
              -0.2654392315447322,
              -0.11033186200151118,
              0.24510582802974717,
              -0.300606541245449,
              -0.4086411837526941,
              -0.06757033041019862,
              -0.03588280518165634,
              -0.40149411095539095,
              -0.18023518580198106,
              0.04018410046119243,
              -0.1087307833644399,
              0.06589893574894304,
              0.43291226370751756,
              0.2032427095121244,
              0.3540916410194264,
              0.13244261165809246,
              0.2940149340312928,
              0.2570263555739075,
              -0.27625224853400143,
              -0.4446698360843584,
              -0.018605705057271823,
              0.021073224814608695,
              -0.43220998907927427,
              -0.14070233814418318,
              -0.18225075176451355,
              0.3313521818490699,
              0.0522775753075247,
              0.43167761249933395,
              0.15468027940951287,
              -0.015133293368853629,
              0.42214088696055113,
              -0.34622093313373625,
              0.32695504277013154,
              0.3511355296242982,
              0.26151186537882415,
              -0.2865464023685236,
              0.34817961491675187,
              0.21599113082524996,
              -0.4420997909600607,
              0.2495961010885192,
              -0.03380331373701629,
              -0.40048298380142183,
              0.23616541326111418,
              0.16966767352420037,
              -0.04266558907655106,
              -0.15158020457233856,
              0.028940158942714334,
              -0.4375835138373077,
              -0.18260251111350953,
              -0.25451808341313154,
              0.00035513725317498526,
              0.000013610869002604634,
              0.00038313400472958227,
              -0.000022370438675670473,
              0.00006450287714543276,
              0
            ]
          ],
          "biases": [
            0.13097551817854067,
            -0.3588344079863256,
            0.06382973421885726,
            0.1869126020504961,
            -0.14862401241896478,
            -0.29828593442223555,
            0.15481303079244468,
            0.39574857455335366,
            -0.14096299663902928,
            -0.0616917087949093,
            -0.27132434835733005,
            -0.039853436048141615
          ]
        },
        {
          "weights": [
            [
              -0.22383967610577696,
              0.3277823247494222,
              -0.19789321748604452,
              0.3085855913796382,
              -0.2756142274820832,
              -0.3429608784844458,
              0.021545386244785063,
              -0.1122012177480397,
              -0.2613376597672156,
              -0.1381561418459569,
              -0.014078400737103498,
              0.10740426779763718
            ],
            [
              -0.004369419340189632,
              0.2880400942183724,
              0.285000797853095,
              0.09222589703020177,
              -0.10600966785527573,
              0.189669323287845,
              0.15034183124317393,
              0.14123394823725527,
              0.2813842352266198,
              -0.14067409232418246,
              0.025285061116033153,
              0.28737634704717985
            ],
            [
              0.1759301561460088,
              0.045895459405488004,
              0.3022470384682966,
              -0.31986596429190384,
              0.34084197911263764,
              0.3172403786560349,
              -0.3904482698118443,
              -0.16894915563896018,
              -0.270765491979808,
              0.08152028311095044,
              0.14865427601948847,
              -0.09089358230408112
            ],
            [
              -0.3374132392388093,
              -0.09832588556302911,
              -0.11533908472379735,
              0.2746823587794741,
              -0.30789849617571213,
              0.09034484050064213,
              -0.14206911834312203,
              -0.042003170399234346,
              0.1853188644863123,
              0.2724503493479755,
              0.16900339729722838,
              0.3308288166218876
            ],
            [
              0.1885496262195335,
              -0.25189813777892095,
              0.26745707806750324,
              -0.22811422430652517,
              0.11260784559280597,
              -0.11250681801284859,
              0.017397822706490883,
              0.16756182661283978,
              0.16822582233763964,
              -0.21109124278975588,
              0.2912323040831519,
              -0.14201313219434575
            ],
            [
              -0.15787605733432153,
              0.21101585844788628,
              0.31237213976534633,
              -0.2159563000047289,
              -0.09023270421621422,
              0.32739423905061227,
              -0.16719037136276346,
              -0.2082390588040898,
              -0.1942646709380349,
              0.029093258815649194,
              -0.27282794951557665,
              -0.2976960125260582
            ],
            [
              -0.067504333523631,
              0.293577754599552,
              0.24441041779199799,
              0.23568961868807614,
              -0.08151073541262932,
              -0.2127049049283897,
              0.26820174697865706,
              0.03070051573450736,
              -0.11999329610435983,
              0.23406610444467388,
              0.12497353473284627,
              0.12142145301340686
            ],
            [
              -0.2885183110636883,
              -0.30296164392841657,
              0.25038882365618,
              -0.21475530666288875,
              0.26125098205992375,
              0.14416144327019065,
              0.06848043421954746,
              0.14612634142621728,
              -0.09550541816985167,
              0.3094797909757515,
              -0.21825072388290498,
              -0.25699738611491163
            ]
          ],
          "biases": [
            -0.12923142200917345,
            0.05125713143770478,
            -0.12662156560531398,
            -0.12855886248726753,
            0.056844093855799166,
            0.08843686944549957,
            0.11594378394635513,
            0.10433156021269896
          ]
        },
        {
          "weights": [
            [
              -0.256720955304155,
              -0.009983617944130043,
              0.11847953451995041,
              0.17261103048246315,
              -0.2536714367171637,
              0.05697741754838001,
              -0.18880528377249267,
              -0.08956679668904997
            ],
            [
              0.13026730478731646,
              -0.11090037222152666,
              -0.20228821764225027,
              -0.013677392493568509,
              0.03464747459224791,
              0.16435174930897717,
              0.03901031600197634,
              -0.27606716896773664
            ],
            [
              0.24552453308044045,
              -0.057174695216616625,
              0.36071074499296635,
              0.09266112608939453,
              -0.03185525745421,
              0.15623264361963046,
              0.23696849611882637,
              0.02119885990750349
            ]
          ],
          "biases": [
            0.16475224656406426,
            -0.10326268571955063,
            -0.0760371230664062
          ]
        }
      ]
    },
    "reviewBlocked": false,
    "reviewSummary": null,
    "runtimeDisabled": false,
    "runtimeValidation": {
      "totalMovedTicks": 0,
      "totalGoals": 8,
      "samples": [
        {
          "movedTicks": 0,
          "leftScore": 2,
          "rightScore": 3
        },
        {
          "movedTicks": 0,
          "leftScore": 1,
          "rightScore": 2
        }
      ]
    },
    "metadata": {
      "roleName": "Defensive Specialist",
      "designIntent": "Prioritizes pink wave usage to stay alive, blunt dangerous pushes, and extend fair recovery windows.",
      "styleTags": [
        "defensive-specialist",
        "pink-wave-defense",
        "survival",
        "reset-rallies",
        "human-tested"
      ],
      "reviewState": "active",
      "humanTrainingSummary": {
        "botId": "control-0-94ckep",
        "botName": "Defensive Specialist",
        "sessionCount": 1,
        "botWins": 0,
        "humanWins": 1,
        "draws": 0,
        "botWinRate": 0,
        "averageGoalDiff": -7,
        "challengeScore": -60,
        "sampleCount": 1323
      },
      "humanFineTuneSummary": {
        "sampleCount": 1323,
        "epochs": 3,
        "batchSize": 64,
        "learningRate": 0.01,
        "positiveWeights": [
          9.099236641221374,
          10.211864406779661,
          24
        ],
        "averageLoss": 1.037544048342128,
        "source": "browser-local-auto-train-repair",
        "updatedAt": "2026-03-15T02:47:09.082Z",
        "newSessionCount": 1
      }
    },
    "humanTrainingSummary": {
      "botId": "control-0-94ckep",
      "botName": "Defensive Specialist",
      "sessionCount": 1,
      "botWins": 0,
      "humanWins": 1,
      "draws": 0,
      "botWinRate": 0,
      "averageGoalDiff": -7,
      "challengeScore": -60,
      "sampleCount": 1323
    },
    "humanFineTuneSummary": {
      "sampleCount": 1323,
      "epochs": 3,
      "batchSize": 64,
      "learningRate": 0.01,
      "positiveWeights": [
        9.099236641221374,
        10.211864406779661,
        24
      ],
      "averageLoss": 1.037544048342128,
      "source": "browser-local-auto-train-repair",
      "updatedAt": "2026-03-15T02:47:09.082Z",
      "newSessionCount": 1
    }
  },
  {
    "id": "aggressive-0-9aaccq",
    "name": "Sniper",
    "schemaVersion": 1,
    "archetype": "aggressive",
    "personality": "Uses gold waves to line up pickups, create punish windows, and convert brief openings into scoring pressure.",
    "generation": 1,
    "lineageId": "aggressive-0-9aaccq",
    "difficultyBand": "absurd",
    "elo": 1048,
    "promotionScore": 1048,
    "controllerParams": {
      "fireThreshold": 0.54
    },
    "mutationProfile": {
      "source": null,
      "kind": "seed"
    },
    "network": {
      "type": "mlp",
      "inputSize": 65,
      "layers": [
        {
          "weights": [
            [
              -0.2433874211583504,
              -0.27036061357075797,
              -0.0075608133417307275,
              -0.22923985615800552,
              -0.13400603726627724,
              -0.35147744354362453,
              -0.0062664305843923565,
              -0.3916650933492452,
              0.1491945451835479,
              -0.10579476361430654,
              0.25908957712133174,
              0.07339497637351633,
              0.2512570902026411,
              -0.011371217702744645,
              0.0900696478035118,
              -0.2258691310846881,
              -0.21912460358284955,
              -0.39037810587400085,
              0.1086603710660711,
              0.23800634832775378,
              -0.26079058235265384,
              -0.2484649647015402,
              -0.2099496834485535,
              0.19131729625100538,
              -0.15325428332475105,
              -0.41112675438635055,
              -0.15733553683385254,
              -0.3371493126964197,
              0.25689230652060363,
              0.1788394325527398,
              -0.014988081716001035,
              0.3968583575449884,
              -0.10981170425657183,
              -0.32288592823315415,
              0.26101235349196944,
              0.01635286690416166,
              0.10179186095483601,
              0.42235230600927026,
              -0.15049934796988965,
              -0.01389102847315371,
              -0.09515543400775642,
              0.07959596038544904,
              -0.3512569546932355,
              0.3592694471400019,
              -0.32958934584640526,
              -0.2050657925566222,
              0.10477209274544992,
              -0.1747536789005024,
              -0.04927235951403064,
              0.35196049155403414,
              -0.40321766914156615,
              0.1124133066041395,
              -0.18178589288145305,
              0.4489532735897228,
              0.2359189753420651,
              -0.3805732375010848,
              -0.25273392009548845,
              -0.3280373231275007,
              0.17236057058908047,
              -0.0037255663604931367,
              -0.013128242430865876,
              -0.01225361670396506,
              -0.0008601256249507117,
              0,
              0
            ],
            [
              0.44644183148128214,
              0.3842765594265629,
              -0.1702788187408105,
              -0.3627260089746131,
              0.056090491296989224,
              -0.3869213348777308,
              -0.1199776653376234,
              -0.2742866879645058,
              -0.1751547212561786,
              -0.04887953567727007,
              0.4242028164175554,
              0.3387606337968395,
              0.0579568835229182,
              0.29067420396669086,
              0.057728754300365046,
              0.18793536211417164,
              -0.44201630885630777,
              0.34039464717120776,
              -0.4155523028690368,
              0.3507951734616664,
              -0.04393511413486075,
              0.03951214217408988,
              -0.13412989090168154,
              -0.038342197933980096,
              0.2763218804611338,
              -0.2763856500852853,
              -0.38882123411167413,
              -0.13305074244271964,
              0.05774442146066577,
              -0.08920130104620237,
              0.11345692479517311,
              -0.027396182832308113,
              0.3104753657709807,
              -0.4416288151871413,
              -0.42738464288413525,
              0.21397954312756423,
              -0.06807510433718562,
              -0.18391651210840793,
              0.016837831120938063,
              0.2226259250426665,
              -0.0008519992930814624,
              0.0593198618260003,
              0.21210758287925274,
              0.07588602641267116,
              -0.03458723386473981,
              0.2830281350212644,
              -0.3581043216658644,
              0.41543112562839873,
              0.35723548993052273,
              -0.30983063738216443,
              0.06930283509920117,
              0.3370291283586994,
              -0.22741230041719973,
              -0.1459506334969774,
              -0.2592098227003589,
              0.15214860979467631,
              0.36254205722361804,
              -0.21551942818332465,
              0.20711384215392173,
              -0.009206359043318105,
              -0.008128177169340813,
              -0.008860717048003732,
              0.00007828329151236912,
              0,
              0
            ],
            [
              0.17573299193364317,
              0.3816059651675924,
              -0.35745625247289553,
              0.07511183259509917,
              -0.2927542796367755,
              -0.09704616714431143,
              -0.29787340631911124,
              0.1714547979580191,
              -0.3649510474296489,
              -0.27466891409425404,
              -0.2297960426300668,
              0.182365385026744,
              0.0946446192119763,
              -0.2165626683039777,
              -0.4277261142396835,
              0.4023081278973798,
              -0.43122131672298625,
              -0.1071840261966405,
              0.35926247625611724,
              -0.31016651975491294,
              0.35925547568397254,
              -0.2093801709178953,
              0.34290341345992337,
              -0.4152401087502553,
              0.28232083743996456,
              0.09153992081992328,
              0.2798933080863208,
              0.4367339264368639,
              0.39882495109923183,
              0.31528080556381816,
              -0.28016336378641427,
              -0.039278639922849835,
              -0.38390099073294554,
              -0.04669168037362397,
              -0.34278150235768406,
              -0.06487122202451964,
              0.356584679055959,
              0.1617646710947156,
              -0.14807716466020793,
              0.2002786067314446,
              -0.34732600513380024,
              0.3612398648525434,
              0.15749683796893807,
              -0.394942926717624,
              0.16188789934399733,
              -0.39850187547202776,
              0.43788114173418174,
              0.3911093087511562,
              -0.27899155511657275,
              -0.014270569394094365,
              -0.43533127764622925,
              -0.05859197478275746,
              -0.3882327230880037,
              -0.08478116523474455,
              -0.20476894732564688,
              -0.30433070319704714,
              -0.09700341294519603,
              -0.2983952747192234,
              0.05887322241906077,
              0.00458692470616832,
              0.006798209634940007,
              0.007197966796736792,
              -0.00003112757340415332,
              0,
              0
            ],
            [
              0.2017693141748998,
              0.015527485393125234,
              0.19938793647962927,
              -0.009322634608831459,
              -0.013132533620015983,
              0.4263632531691227,
              -0.25262617634011275,
              0.3334069778694909,
              -0.236965187320566,
              0.10859422957994219,
              0.2721384784895029,
              0.2923425505514097,
              -0.04095481034071152,
              0.15763450989339164,
              0.38630404766008436,
              -0.23539537393469862,
              -0.12054827046600593,
              0.30804959276624777,
              0.37311602253466847,
              -0.34535614755610794,
              -0.11969251795191267,
              0.22773179571470367,
              0.2749789796536029,
              0.05310715530586405,
              0.07685566308793922,
              -0.06586572979576887,
              0.1951578393112868,
              0.10438291635364294,
              0.4365937405731529,
              -0.370452921357138,
              0.3127231535268948,
              -0.4463986071757972,
              -0.10504470344167204,
              -0.2014685595408082,
              -0.3025711931521073,
              -0.14549031051261527,
              0.3869557095458731,
              -0.3473890582099557,
              -0.09017255811486394,
              -0.17342562738340347,
              -0.04348185108974576,
              0.29940860130904073,
              0.20101018615532668,
              0.24499565011138205,
              0.38963470085285623,
              -0.39012051982652723,
              0.23015709117836855,
              -0.364718286240354,
              -0.18326218136895364,
              0.06593694014581243,
              0.3311932113603274,
              0.09322799148503691,
              0.36044387554284185,
              -0.3754028454422951,
              0.28388396529480814,
              -0.11729807294905185,
              0.4147966026328504,
              0.05058650393038988,
              0.10504718804731965,
              0.0017489466138245775,
              0.0013319213436173982,
              0.001955836428763179,
              0.000029009313630607026,
              0,
              0
            ],
            [
              -0.4333476011061159,
              -0.29207038157915394,
              -0.3899808403071251,
              0.2079742767755344,
              0.14529079074532697,
              0.12663567644141338,
              -0.4247191471797807,
              0.37361227836845134,
              -0.3186718639619985,
              0.0772125184035575,
              0.2292303645373881,
              -0.05099383854552464,
              -0.02703652220929817,
              0.3748028273224907,
              -0.36155178640279817,
              -0.41705608744791295,
              -0.17075873922551277,
              0.03288615987958537,
              -0.36141221921425315,
              -0.03436014785577786,
              -0.15140263596701717,
              0.01376229878808435,
              -0.19014302242749093,
              0.17883768945430767,
              0.08464583903250475,
              -0.38236097318585965,
              0.23665749749634415,
              0.21386584213469179,
              -0.282110114232637,
              0.34500415213850294,
              0.0893245154991746,
              0.245954910479486,
              -0.22489594873040916,
              0.4297010057140142,
              0.07181196736637503,
              0.2810858718396813,
              -0.03517601285129786,
              -0.07876101834699512,
              0.22174163090530782,
              0.4444211385212839,
              0.0410739115672186,
              -0.4043567366853639,
              -0.4277520328061655,
              0.12455945984943256,
              0.06644859061943145,
              -0.0885211366239728,
              -0.06173227457628958,
              -0.194318346604229,
              0.3546984100219725,
              -0.2713628932128923,
              0.2585900538064453,
              0.07223451293539256,
              0.000524685555137694,
              -0.13590075422544032,
              -0.2147316541755572,
              -0.007419284130446613,
              0.3394208266865462,
              -0.12405232954770327,
              0.04879451673477888,
              0.0036874294785419854,
              -0.004014710808219579,
              -0.0022827747966927695,
              -0.0008659728807789475,
              0,
              0
            ],
            [
              -0.3738095418464735,
              0.11275350664393004,
              0.2374038305346998,
              0.21927917383530068,
              0.41292610502886423,
              -0.02410852716320164,
              -0.367962510292561,
              0.04104293075719376,
              0.27796503694444946,
              0.0741857601586694,
              0.26849947042698136,
              -0.2957330359685602,
              0.23446110238410764,
              0.3862898113460412,
              -0.3664621708139388,
              0.0022418892309670306,
              0.020956810525565892,
              0.24569084515847822,
              0.4289537447970361,
              -0.046840103608964505,
              0.09373504315506595,
              -0.44265067806801184,
              -0.23151674115751159,
              0.05137046516136902,
              -0.4281973422235841,
              -0.017581331706605852,
              -0.3319532062159851,
              -0.1579012478236109,
              -0.21757151442579925,
              -0.34322996445537896,
              0.4378249516244978,
              0.2580695288954303,
              -0.301420735870488,
              -0.42968170281965284,
              0.15221700172405692,
              0.013588396193670077,
              -0.04965497106313706,
              0.11645349038299173,
              0.05065602029208094,
              -0.23690388752147556,
              0.21647207695059478,
              0.34944177403973997,
              -0.2675973230972886,
              -0.12801945242077686,
              0.054771665151060564,
              -0.2802976680221239,
              0.08437906870455905,
              0.3442599723969235,
              0.21293958991916345,
              0.15174652068438566,
              0.14869000776452007,
              0.14108633743599058,
              0.28109060029964894,
              0.17036308427341282,
              -0.20394800235517324,
              -0.003621925343759358,
              -0.30438383838627486,
              -0.286129642277956,
              0.3688745959661901,
              0.0021987941667012444,
              -0.0034228800350271224,
              -0.0025148901495895526,
              -0.0005973431232601923,
              0,
              0
            ],
            [
              -0.029574187826700522,
              -0.2759301200879098,
              0.30885682467931797,
              0.057046753533201426,
              0.01950963699393829,
              -0.02139760526836575,
              -0.3525706442498587,
              0.39037037025566607,
              -0.38593520107873774,
              0.147778325958793,
              -0.4123784643862543,
              0.1413234083892638,
              0.23387448815206718,
              0.39551571883238323,
              -0.29396753525017283,
              0.09132943515271945,
              -0.17397739305794188,
              0.3019561929737139,
              -0.1089212766615674,
              0.4438205954833412,
              0.3342117775274178,
              0.05214675198628365,
              0.04821880863791803,
              -0.33676837233245394,
              -0.22061866490399998,
              -0.10344144380651414,
              0.27906667012721303,
              0.17916585474740715,
              -0.28284727747086436,
              0.38344372343476674,
              -0.27408621346112344,
              -0.3106136887567118,
              -0.218378350767307,
              -0.31050796341151,
              -0.009784760512411594,
              0.07629520774557987,
              -0.11643348068464547,
              -0.26699837555643174,
              -0.11435210555791855,
              0.035657487390562896,
              0.07831023603212088,
              0.001269330575315143,
              -0.11539383970666676,
              0.19182035926604418,
              -0.4356812662140504,
              0.027259539995546367,
              -0.41524384933239056,
              -0.16573809067249604,
              -0.37753828411519436,
              -0.07359546777610668,
              -0.21395338771740655,
              -0.386374596809037,
              -0.034265179093927144,
              0.04006178020499647,
              0.1526868578977883,
              0.36203620622400196,
              0.005022075539454818,
              -0.2125625921878964,
              0.34842134155333043,
              -0.007606156747051835,
              -0.009091843443179948,
              -0.007153594474884214,
              0.000027399786850667,
              0,
              0
            ],
            [
              -0.17682867239232447,
              -0.4161682560748958,
              -0.30348668016197555,
              -0.41963551264004667,
              -0.07907900603060528,
              0.3329715614430904,
              -0.12377814800619336,
              -0.08886800197585899,
              -0.2715844842588923,
              0.16518603701244022,
              -0.2118161482210148,
              -0.18109348642552894,
              0.0024562373020691106,
              -0.22204065283304578,
              -0.07099619560746762,
              -0.4342494459270899,
              -0.44636610792358306,
              -0.1413182985997551,
              -0.31798700254876167,
              0.05810774736583198,
              0.3147879498275597,
              0.4293031792241024,
              0.022654126865886564,
              0.0775299741632717,
              -0.15565781452928065,
              0.28684476991184055,
              0.21872126951348037,
              0.37680236636660996,
              0.2852818236686289,
              0.23400328846145138,
              0.06110056734178215,
              0.2487412531161681,
              0.10629735162947328,
              0.06204183076042682,
              -0.35585863378364596,
              -0.2952527671823304,
              0.2706900492310524,
              0.010955825122073293,
              0.33426807560026645,
              0.31439737435430287,
              0.1362785186385736,
              0.2996042666254539,
              0.03997249868698418,
              0.1353877552456457,
              -0.35561913974068526,
              0.20352871034624073,
              0.4458753203838245,
              0.41625143853067553,
              -0.21790634281783394,
              0.21336014938096726,
              -0.29257101913187217,
              0.4307269548531622,
              0.16377480570226907,
              -0.26867821121122687,
              -0.30425128005445007,
              0.1611080399248749,
              -0.42892606251407417,
              -0.4227845027111471,
              0.01611028842162341,
              0.0031780103548778344,
              0.005880550327421097,
              0.0027480367806270497,
              0.00036229446152935703,
              0,
              0
            ],
            [
              -0.05454679188859053,
              -0.1991873109919983,
              0.30163637410774596,
              0.019991855492603367,
              0.2663411278309205,
              -0.21807921885728526,
              0.09821444193471436,
              -0.00573994074954357,
              -0.22457862789831406,
              -0.25524094025413846,
              0.36358032121237743,
              0.22576060553021396,
              -0.0910634474925389,
              -0.2966202781538104,
              -0.1805161954337564,
              0.16359401222961123,
              -0.3350271580536387,
              -0.17710096742733455,
              -0.3144426035229117,
              -0.16969880731786563,
              0.2144138476599644,
              0.20062638123949125,
              0.007330643919979869,
              0.067037104396628,
              0.08528258247789094,
              0.4257474310928956,
              -0.40891968361102043,
              0.3153788646217436,
              -0.2082688032416627,
              0.2625021708311526,
              -0.20407988301012667,
              -0.14340019156225026,
              -0.09336564287077635,
              -0.06833668760955335,
              -0.44804884318728,
              -0.1663338767483817,
              -0.4466197368688882,
              0.24423769069835544,
              0.15636207286734136,
              0.19433656535111368,
              0.04550336643587798,
              -0.17809433628599958,
              0.32750508568715303,
              -0.004767078491650226,
              0.3642236448216219,
              0.17817341182282828,
              0.10988771995538185,
              0.02501689394970495,
              -0.20210702299387556,
              -0.36147089284814626,
              -0.2553158221567991,
              0.09688111448194832,
              -0.40363808528054507,
              -0.38962488386314365,
              0.2966888661263511,
              0.04290513277519494,
              0.26524713111575693,
              -0.17018842531833797,
              -0.13626294527202845,
              -0.0035755878216020332,
              -0.006831616735088928,
              -0.005445339023389,
              -0.0007355287380152146,
              0,
              0
            ],
            [
              0.3033007075365423,
              0.4192521953137052,
              -0.12866802873336977,
              -0.06990398899222948,
              -0.14293842263023515,
              0.10246506392128399,
              0.39426863302259924,
              0.42795301551419185,
              0.005753165970487273,
              -0.37498469037709126,
              -0.07581007424046238,
              -0.3247838663986223,
              -0.17766208050580162,
              -0.2572002273138934,
              -0.12950888284653983,
              -0.228957833117171,
              0.06535063100335993,
              0.2858480138274051,
              0.16020024796016516,
              0.2977176332329305,
              0.437293333319031,
              -0.017960855759840865,
              -0.17665114114534886,
              -0.3218559248561933,
              0.15396338200492873,
              0.20038860936183484,
              0.16729525490663946,
              0.11088856109417976,
              0.20083595949690788,
              -0.20006992798987275,
              0.3307877027895302,
              0.10107628803234547,
              -0.27638817073311656,
              0.2947538442676887,
              -0.15831954900640996,
              -0.09070683932620537,
              -0.11010029548779131,
              0.26342880923766643,
              -0.3266312196850777,
              0.18527770531363785,
              0.003538657631725073,
              0.15208160774093618,
              0.4427078200969845,
              -0.21567143949152878,
              -0.2350035602052533,
              -0.44104911412005987,
              0.17459265481892894,
              0.005490740431834976,
              0.14848078467920967,
              -0.3433863293914956,
              -0.31500511618625804,
              -0.034070129273459315,
              0.057468216167762876,
              -0.0010218736482784153,
              -0.43741642395034436,
              -0.09249837091192603,
              -0.30694628634955734,
              -0.2615061645163223,
              0.033142234571278094,
              -0.01237525951441144,
              -0.021318446219181518,
              -0.01835200110391552,
              -0.001483222148712719,
              0,
              0
            ],
            [
              -0.21096081688685092,
              -0.033520247792393,
              -0.36675607452132425,
              0.10737479197594596,
              -0.03323539350603561,
              0.42923612235085945,
              -0.38360006163563676,
              0.29287090808321,
              0.38470159985247454,
              -0.38662213174321686,
              0.023755376529628402,
              0.36268052363450426,
              -0.2283322545243271,
              0.20883306997376844,
              0.37477252785858434,
              -0.25470367997320126,
              -0.4082690237103727,
              0.18435092550842375,
              -0.21866482661571354,
              0.03486520485462824,
              -0.23028183062650112,
              -0.2230284557401678,
              0.09234011166937035,
              0.28483358256595687,
              0.35844548754142236,
              -0.2706933022476733,
              0.18900969217065722,
              -0.0712709526065737,
              -0.11393961952999235,
              -0.39157581896903043,
              -0.33512620311230423,
              -0.31171311072539537,
              -0.04244661731645465,
              -0.30566121339797975,
              0.33269271575845777,
              -0.2841101888745097,
              0.004652860877104104,
              0.33839747216552496,
              0.29462763082701715,
              -0.1310440201079473,
              0.06728672725148499,
              -0.43390590184750083,
              0.15719754807651043,
              -0.319532794678953,
              -0.08761330954009243,
              -0.42280257147896916,
              -0.36158102095001116,
              0.23766597803232917,
              -0.4406179894901737,
              -0.34062721817130676,
              0.15851988901801073,
              0.003807069011963904,
              -0.04052293093409389,
              0.2343136954586953,
              0.022889128932729364,
              -0.2934836353641003,
              -0.2445800533052534,
              0.2460804923437536,
              -0.35762223859783265,
              0.010148611983902217,
              0.01724179884106398,
              0.015838826704067697,
              0.0009099882739961552,
              0,
              0
            ],
            [
              -0.3542645586229678,
              0.15263915246273324,
              0.04774855446300483,
              0.3503780448112719,
              0.16022806351932545,
              -0.08522180808017994,
              0.4177007017615573,
              -0.277608705012649,
              0.24709799805417693,
              0.4255610480888317,
              -0.36737041768767925,
              0.06230988500479086,
              0.24280355800897005,
              -0.2808244442900478,
              -0.4270881564288916,
              -0.27251660624685053,
              -0.37586653173168943,
              -0.21663720096750608,
              0.055474688624963166,
              -0.39591676697099304,
              -0.2550527571911193,
              -0.4406319582767697,
              0.19037490872580223,
              0.2838252874153141,
              0.20755299957880186,
              -0.29052007289137693,
              0.22244924604892732,
              -0.23904088810086252,
              0.37593505438417196,
              0.4364272348336418,
              -0.1699988088570535,
              0.3158543230500072,
              0.2281090456992388,
              0.373034533043392,
              0.4204546630382538,
              -0.4165668101529117,
              0.2802071393234655,
              0.34772723594214766,
              0.4161013703327626,
              -0.36014130476396533,
              -0.39707258390262723,
              -0.35179088262510405,
              0.36081146432552486,
              -0.12125632977434829,
              -0.1280816969451646,
              -0.11434891592080357,
              -0.1315619990904158,
              -0.42109007130761217,
              0.3684326150352083,
              0.29354908387109196,
              0.30796438940007903,
              0.28676876993849876,
              0.0033983370289206506,
              -0.22118249048944563,
              0.13887838865630328,
              0.41326558766886595,
              -0.2046792984707281,
              0.26628292039968077,
