(function (root) {
  const bots = [
  {
    "id": "control-0-fx20h9",
    "name": "Strategist",
    "schemaVersion": 1,
    "archetype": "control",
    "personality": "Uses blue wave timing to shape rallies, control ball routes, and keep the court predictable.",
    "generation": 10,
    "lineageId": "control-0-fx20h9",
    "sourceBotId": "control-0-fx20h9",
    "difficultyBand": "absurd",
    "elo": 1131,
    "promotionScore": 1071,
    "metadata": {
      "roleName": "Strategist",
      "designIntent": "Uses blue wave for ball control, tempo shaping, and long-term court management instead of pure rushdown.",
      "styleTags": [
        "strategist",
        "blue-wave-control",
        "ball-control",
        "tempo-manager",
        "human-tested",
        "control",
        "absurd",
        "static-lane",
        "goal-capable"
      ],
      "reviewState": "active",
      "humanTrainingSummary": {
        "botId": "control-0-fx20h9",
        "botName": "Strategist",
        "sessionCount": 39,
        "botWins": 0,
        "humanWins": 39,
        "draws": 0,
        "botWinRate": 0,
        "averageGoalDiff": -6.461538461538462,
        "challengeScore": -60,
        "sampleCount": 4000
      },
      "humanFineTuneSummary": {
        "sampleCount": 4000,
        "epochs": 3,
        "batchSize": 64,
        "learningRate": 0.01,
        "positiveWeights": [
          3.4101433296582138,
          3.1322314049586777,
          4.555555555555555
        ],
        "averageLoss": 0.6639289080270666,
        "controllerParams": {
          "fireThreshold": 0.34000000000000014,
          "moveThreshold": 0.55
        },
        "source": "human-model-training-repair",
        "updatedAt": "2026-03-15T03:34:38.286Z",
        "newSessionCount": 0
      },
      "rosterStatus": "published",
      "rosterVersion": 1,
      "source": "exported-bots.js",
      "publishedAt": "2026-03-15T03:06:58.051Z",
      "lineageRoot": "control-0-fx20h9",
      "sourceBotId": "control-0-fx20h9",
      "trainingHours": 0.045,
      "eloTier": "elite",
      "replacesBotId": "control-0-fx20h9",
      "promotionSeries": {
        "seeds": [
          1337,
          9256,
          17175,
          25094
        ],
        "profiles": [
          {
            "id": "standard",
            "scoreLimit": 5,
            "maxTicks": 3600
          },
          {
            "id": "sprint",
            "scoreLimit": 3,
            "maxTicks": 2700
          },
          {
            "id": "endurance",
            "scoreLimit": 7,
            "maxTicks": 5400
          }
        ],
        "matchesPlayed": 24,
        "candidateMatchPoints": 19,
        "existingMatchPoints": 5,
        "candidateWins": 19,
        "existingWins": 5,
        "draws": 0,
        "goalDiff": 39,
        "pointMargin": 14,
        "candidateWinRate": 0.7916666666666666,
        "existingWinRate": 0.20833333333333334,
        "failedChecks": [],
        "profileSummaries": [
          {
            "id": "standard",
            "scoreLimit": 5,
            "maxTicks": 3600,
            "matchesPlayed": 8,
            "candidateMatchPoints": 6,
            "existingMatchPoints": 2,
            "candidateWins": 6,
            "existingWins": 2,
            "draws": 0,
            "goalDiff": 13
          },
          {
            "id": "sprint",
            "scoreLimit": 3,
            "maxTicks": 2700,
            "matchesPlayed": 8,
            "candidateMatchPoints": 6,
            "existingMatchPoints": 2,
            "candidateWins": 6,
            "existingWins": 2,
            "draws": 0,
            "goalDiff": 9
          },
          {
            "id": "endurance",
            "scoreLimit": 7,
            "maxTicks": 5400,
            "matchesPlayed": 8,
            "candidateMatchPoints": 7,
            "existingMatchPoints": 1,
            "candidateWins": 7,
            "existingWins": 1,
            "draws": 0,
            "goalDiff": 17
          }
        ]
      }
    },
    "trainingHours": 0.045,
    "controllerParams": {
      "fireThreshold": 0.34000000000000014,
      "moveThreshold": 0.55
    },
    "mutationProfile": {
      "source": "control-8-50cuzf",
      "kind": "clone-mutate"
    },
    "network": {
      "type": "mlp",
      "inputSize": 65,
      "layers": [
        {
          "weights": [
            [
              0.4598036479333735,
              -1.706026251977528,
              -0.41914857598755645,
              0.39029906156189437,
              0.021602667391733648,
              -0.01002253259424906,
              -0.11536640411999191,
              0.3412329854539645,
              0.4092368483423117,
              0.1979939388755588,
              0.4122814492572628,
              0.2392073967422285,
              -0.6008901287508656,
              0.4126343250939892,
              -0.24453768016630273,
              0.42454996591422695,
              -0.9089998041932449,
              -0.6946337666529508,
              0.6077703992891076,
              -0.052785605869240367,
              0.04742667337931691,
              0.046729270095260574,
              0.43565275665829734,
              -0.20669200592674006,
              -0.08863765126622328,
              -0.5782484657308583,
              -0.6908299258442838,
              -0.3240817405254295,
              0.4416755706399723,
              -0.34576298897908125,
              -0.43373117958690144,
              0.217752391188609,
              0.9932763305624841,
              0.29223992935285886,
              -0.019628143388695587,
              0.20270874671533737,
              -0.15461889685256194,
              1.0365056331839104,
              -0.5931322327218251,
              0.21539991430131014,
              0.20144575484582522,
              -0.0701679653756401,
              -0.3906982009808782,
              -0.19429173512298975,
              -0.07636946770905297,
              -0.4415678688884211,
              -0.032287242231261615,
              -0.3923547530599636,
              0.3650771533296679,
              -0.3396341719767902,
              0.6260932492257898,
              -0.4282106159402476,
              -0.27250847995128835,
              0.17878414749729554,
              -0.12032996950865671,
              0.2343146249142663,
              -0.5051972012508852,
              0.35606268345257136,
              -1.0447689191775462,
              0.00005686943529893996,
              -0.09288664771763987,
              0.3669833248348307,
              0.04154701512440381,
              -0.348033454190087,
              -0.8512651369708488
            ],
            [
              -0.20193837299877787,
              -0.5443088209813856,
              -1.083171199383475,
              0.759248363351404,
              0.4023671972147219,
              0.16662622354775086,
              -0.9294386959381018,
              -0.10160781586769557,
              -0.2086981620935245,
              0.49818691141011595,
              0.44364121636576503,
              1.0877232231465435,
              -0.042872458626305676,
              0.2750556869139363,
              0.5323297203073287,
              0.07029971766449987,
              0.00047285875498632475,
              -0.13793732576517767,
              0.04386589375053182,
              0.35730852990334583,
              -0.10025555110428835,
              -0.06069350661754882,
              0.678983048820979,
              -0.1845597491047801,
              0.23965175476977393,
              0.4213580686574172,
              -0.05417958017307497,
              0.2948965762707395,
              -0.028160080724236203,
              -1.0482172956399378,
              -0.05155941083859049,
              -0.8525242110830806,
              -0.36840513915739337,
              -0.467183841831139,
              -1.0816635289611873,
              -0.5014121061794161,
              -0.21501142698243675,
              -0.5582567260977858,
              1.0332136280156943,
              0.3739555305262443,
              0.03742886103420984,
              -0.22709811008471673,
              -0.035787256670544165,
              0.1798615758280778,
              -0.39008121295597525,
              0.714365351143126,
              -0.4211474273875905,
              -0.43513522626685497,
              0.8159513464892675,
              -1.0532195917082945,
              0.05544620667567713,
              0.6294316455083716,
              -0.21526908026141042,
              0.21972898772144578,
              -0.22621316750529377,
              0.10116165687326645,
              0.48962461142994695,
              0.40679008504098274,
              -0.8210648331103293,
              0.12473680704464876,
              -0.34546785531301566,
              -0.8372005936062665,
              -0.4374009109555146,
              -0.728618454600823,
              0.056414658858842656
            ],
            [
              -0.34870579257242557,
              -0.9005549848632398,
              -0.34025946920929995,
              0.060833601630212175,
              -0.27683358369950245,
              -0.5048040213094972,
              -0.15127683614282286,
              -0.47386737103878646,
              -0.5660519778288131,
              -0.09812415829592153,
              -0.6788522105148892,
              -0.038248092004597216,
              0.02347704414496599,
              -0.05380403003158653,
              0.3792314754673108,
              -0.1467230265495943,
              0.03866529373515553,
              0.11335131047495077,
              -0.02361525332019107,
              -0.45921069977236967,
              -0.04730796894569905,
              -0.022543052766019537,
              -0.490900266247812,
              0.27748440237175676,
              -0.12506846535312988,
              0.5605864833563542,
              -0.6738263584495586,
              0.3033726015814843,
              -0.5383296953982057,
              0.012607201519373274,
              -0.4011057186796989,
              -0.6490866483311297,
              0.42097040919150275,
              -0.009068332404414542,
              -0.16419339643797903,
              0.1904695522585236,
              -0.5000784165748743,
              0.41630923449692814,
              0.0031874362359209374,
              -0.5992494785112507,
              0.3511247565560866,
              -0.0652574678143633,
              -0.5119346538989157,
              -0.3038045758060924,
              0.24937638064960232,
              0.318348546182463,
              0.28619185432232513,
              -0.09495409550937088,
              0.386837565159845,
              0.07306816915142832,
              -0.6212143835433691,
              -0.04564595140207369,
              0.5053612411249707,
              0.9460331310610006,
              -0.7145679889181507,
              0.5741061130785159,
              -0.20694406154375466,
              0.2531200228243905,
              0.27979880224050757,
              -0.10058584654518964,
              0.41572152032100085,
              -0.5086647739206654,
              -0.1776511027736887,
              -0.16788111004657333,
              -0.0933302932285657
            ],
            [
              -0.192338852462048,
              0.832186275535571,
              -0.6952328656244465,
              0.2528593328473771,
              -0.14375822351421194,
              0.18151688902181218,
              -0.2172032632560027,
              -0.15006988770645158,
              0.6083856856245373,
              -0.30649017133673273,
              0.37671284821379497,
              -0.283385605379352,
              0.020911701736490162,
              0.023612511519927343,
              -0.5958968306253799,
              0.10525123431278581,
              -0.23513872399634722,
              -0.4685911396917237,
              0.4469220508403209,
              -0.04182766573973657,
              -0.2752320366075966,
              0.17707026875330376,
              -1.08926209038849,
              -0.49025979100092326,
              -0.026419066454388098,
              -0.19067475804043918,
              0.25605450466859225,
              -1.3436297595952869,
              -0.2032676700833591,
              0.3534615236510534,
              -0.8622521557353832,
              0.019675886786659415,
              0.5126782808973981,
              -0.001790722167211392,
              -0.11842546250301741,
              -0.04430785377996429,
              -0.1095632630598603,
              0.04381152867152692,
              0.43695857389082954,
              0.7321111551860796,
              -0.13604439168375268,
              0.17820884050170252,
              0.1310271091907207,
              0.023776370342586763,
              -0.86445710915727,
              0.5597427748348793,
              -0.4287834621699086,
              0.35064157679479613,
              -0.10253639594704039,
              -0.30341294649717565,
              0.035210302888091655,
              -0.36784584221652944,
              0.5339407250357249,
              0.01357414995768715,
              0.13551864395050384,
              0.2704073919180297,
              0.6343884834484912,
              -0.42250264727789505,
              -0.38500215541321625,
              0.2113580484419173,
              0.441565798435727,
              1.0508407476973287,
              -0.21651344014169455,
              -0.09865966790552136,
              -0.4152053474559549
            ],
            [
              0.4942417211027383,
              -1.2597810718455569,
              -0.3151905125882208,
              -0.5610568011180724,
              -0.01433625837880137,
              0.47974555435051114,
              -0.05438727427606299,
              0.40734646819509435,
              -0.29523748811272554,
              0.33187002771858454,
              0.04604901707638944,
              -0.24410173090963938,
              0.2409515405656567,
              -0.20527834318783117,
              0.4609754595070888,
              -0.43927414838524226,
              0.37189952693527006,
              -0.009378386111735694,
              0.1592720694855058,
              0.05353130124328082,
              0.14058205942641683,
              -0.5176586978332073,
              -0.06735445140460464,
              -0.2513716009790054,
              -0.664359020148275,
              -0.2554079597662563,
              0.16276513243907118,
              0.47557760990241116,
              -0.06543774702548281,
              -0.20491328478265639,
              -0.15476902881488475,
              0.22260401381616512,
              0.17806779686773894,
              -0.201216122163629,
              0.009760501676448902,
              -0.4615426187973501,
              -0.18350712653823906,
              0.20913110931598722,
              0.4761437744200205,
              -0.278841676774396,
              -0.43545423360323754,
              0.48428125067445177,
              0.14161375285780622,
              0.2794702604360743,
              0.47816423721128043,
              0.11962709328723978,
              0.6257591593993643,
              0.0012435124331551107,
              0.17913119103722164,
              -0.11589912776445273,
              -0.0012573521029151029,
              -0.1620586893155751,
              -0.8528154944516758,
              0.4036232687476064,
              -0.22092092813885625,
              0.16799942880813465,
              0.12801091874773543,
              -0.4231727613422231,
              0.008473527224195754,
              0.09692514039951548,
              0.38666550219323886,
              -0.03227706881462582,
              -0.25833485574227283,
              -0.019791375105831857,
              0.08875215295376035
            ],
            [
              0.10608286867944815,
              -0.7971725018572058,
              -0.2656367987522904,
              0.38295601070426827,
              -0.6478883478956203,
              -0.09676380794875448,
              0.15269280938986712,
              0.5662384164442549,
              -0.038718365688589475,
              -0.4502987270797494,
              0.39418757406917426,
              -0.24476758807240293,
              -0.9640237707556446,
              -0.506730092308439,
              -0.7940044539301623,
              -0.3200845372738856,
              0.33659853830082365,
              0.8074782837690517,
              0.19048610262645238,
              -0.12862966297398098,
              0.40663070795498396,
              0.47781307163522996,
              0.38913025065098683,
              0.27212486388548074,
              -0.3532649787944761,
              -0.019619296998532557,
              0.5115083752535663,
              0.08540327319871459,
              0.07538371450794427,
              -0.6892350279788728,
              -0.27669218836587633,
              -1.152346160172726,
              0.03887524816956606,
              0.34505035161297964,
              -0.4991990165126405,
              -0.7998361530709824,
              -0.19841628444865525,
              0.2256416072085694,
              0.17969033637991283,
              -0.8101323621541137,
              -0.16207551499388934,
              0.19038295437584682,
              -0.3610346530856922,
              0.07649745278956298,
              0.6005430550104283,
              0.22646838129638636,
              -0.5795170035317531,
              0.7102381052113903,
              0.5235464658909649,
              -0.8709324771464106,
              0.30206882146622205,
              0.060669004959719726,
              -0.7092188134947262,
              0.41915345384442554,
              0.21395418565325292,
              0.0519536953539341,
              0.6762271729815692,
              -0.641543570146744,
              0.0853751139233351,
              0.9677646409880416,
              -0.12999999398212883,
              -0.6826082662068731,
              -0.4060715005422268,
              0.11381163178640007,
              0.3080622247607
            ],
            [
              -0.42049259967225544,
              -0.33840729404954323,
              -0.15032871438864764,
              0.5107043246691543,
              0.15120203715387912,
              0.40010235065838246,
              0.1252945138465338,
              1.3256915655760035,
              -0.5991031195873209,
              -0.6389560517501629,
              0.3708998975480938,
              0.0602666086678777,
              -0.2636269005738882,
              0.1783513994867153,
              -0.3682206959147578,
              -0.23976564860551552,
              -0.01963101314594568,
              -0.5096906958648094,
              -0.985938536492021,
              0.09898084209500228,
              -0.21770892207894782,
              0.6896049486765461,
              0.4477885041814008,
              -0.29733882510540377,
              -0.41142512896557926,
              0.2790729942987916,
              -0.0010154880654979364,
              0.28539512393770206,
              0.42177572036455657,
              0.6125132615546169,
              -0.28218084959927,
              -0.021154107537356012,
              0.0859751420333707,
              0.5469197260534956,
              0.15099281611862858,
              -0.12225025676164719,
              -0.854592377972351,
              0.24320141497256995,
              0.632665592312164,
              -0.13534999728902772,
              -0.16270452653565254,
              0.42655136992008275,
              0.10504209249679736,
              -0.25949687223887985,
              0.5513777162019207,
              -0.07690982650575597,
              -0.1708290753315007,
              0.6667519700036552,
              -0.6299931916653557,
              0.09518286246821106,
              -0.1345948583799622,
              -1.1073390115658168,
              -0.9964264010874527,
              -0.36322902194984363,
              0.5293180334662387,
              0.23222644159303488,
              0.4971808928547414,
              -0.4390987234543491,
              0.49524693261085534,
              -0.02125845557726133,
              0.1581009844285213,
              -1.496537351494813,
              0.2828012482680372,
              0.1531850174556779,
              0.0403023351034999
            ],
            [
              0.05691627527671452,
              -0.7074679613027965,
              0.7085448995684367,
              0.10194968705696254,
              -0.7921449028082472,
              -0.05906744615986337,
              0.25216744780369005,
              0.024349199339982162,
              0.5201515436141297,
              0.3664236753405556,
              -0.31433470102914873,
              -0.02615745081643282,
              0.3953787397452941,
              0.008071026811984572,
              0.20989899910222293,
              -0.6679991677434276,
              0.3048091669372058,
              -0.1921000357151023,
              0.43820477050341144,
              -0.18660520682501694,
              0.43875075241048,
              0.3142745852487338,
              -0.5933117765602106,
              -0.20558185195828627,
              0.08767755413600149,
              0.9328701375142652,
              1.0878647919991962,
              -0.07335171254314601,
              0.5977778087848264,
              -0.10581035531476056,
              -0.1658050647390155,
              -0.30667706930987965,
              0.3377231989270926,
              -0.44078471058771196,
              -0.5344409885761005,
              0.1637592583242288,
              -0.13753057031723231,
              0.5739117079421955,
              -0.7667332678342342,
              0.2588155434837284,
              -0.4722551547227474,
              0.06431188732035863,
              0.07365301005211775,
              -0.03799635823958666,
              -0.011311982149001027,
              -0.8730140386153638,
              -0.9769877848692099,
              -0.2967080626422652,
              -0.6161954795750965,
              -0.11350155374454492,
              0.4983925255368431,
              -0.24109771349300269,
              1.2672778164334872,
              -0.08613943348170593,
              -1.0003373140410108,
              0.5816486337785801,
              0.31881592061907765,
              -0.09549292404873252,
              0.35418874470856676,
              -0.5274204601898554,
              -0.15175507717190984,
              -0.14956026695916963,
              -0.23224058542811443,
              0.34267094597920145,
              0.316507859043717
            ],
            [
              0.6155076090333603,
              -0.29624026949283894,
              -0.5855396193642447,
              -0.9157783406857488,
              0.39567106090830184,
              -0.43369602777395533,
              0.1666378932866341,
              -0.22402430599744586,
              -0.35106844085818284,
              -0.13649024684705827,
              -0.5513690322848178,
              -0.9213270009850517,
              0.5008120626378294,
              0.6207591685222287,
              -0.650930668022806,
              0.367265103327093,
              -0.543687173145306,
              -0.6664899155541276,
              -0.1632910806584974,
              0.05190347047610027,
              -0.5982559431944465,
              -0.7463727412285032,
              0.5402529664711591,
              0.27431520990376873,
              0.09453509048089938,
              -0.4381808410142978,
              -0.23023126136942185,
              -0.07410491235448102,
              -0.5960925275152361,
              -0.3534652155535581,
              -1.1393534158517342,
              0.35931458057150145,
              0.06571821093191352,
              0.4321828649113164,
              0.2071490209478133,
              -0.5575976322747909,
              -0.10334849793420262,
              -0.1317124356007546,
              0.244810118725864,
              0.2330626633408895,
              -0.4173373135223538,
              0.4626332291189438,
              -0.13778715407355066,
              -0.08988359016782434,
              0.2775227239009858,
              0.36783699981503976,
              -0.307830588462385,
              0.12435985957588702,
              -0.0168747554179572,
              -0.051206854042744686,
              -0.5776788462452983,
              -0.02563015173472607,
              0.16317832584002864,
              -0.08715517291615141,
              -0.024549564433480654,
              0.20701670478785422,
              0.20186987328916514,
              0.38106037583985397,
              0.6160635471585589,
              0.296725926906004,
              -0.2020840991746662,
              -0.08267622081652265,
              -0.053084159009684655,
              0.49253996844293385,
              -0.26437337498853203
            ],
            [
              0.19053810519945258,
              -1.8171119486763283,
              -0.40234360685963705,
              0.0046177380082229255,
              0.3526741156109685,
              -0.7449453485766068,
              0.15130944227400916,
              -0.6816480178101024,
              0.3721586832528459,
              -0.05611625110463031,
              -0.442980305340533,
              -0.9697212656650231,
              -0.04767507092166098,
              -0.009585677169178412,
              0.36527497385811614,
              -0.6893635426392073,
              0.12440106143759863,
              0.5161672484109404,
              0.1313003821873301,
              0.09704842233608502,
              -0.14367094310481562,
              0.37360139012410665,
              -0.29155603998654467,
              0.14147682892576,
              -0.13643238723540624,
              0.29777680433800846,
              -0.4507178205448596,
              0.18762047289494835,
              -0.08655920036794092,
              -0.330594005067469,
              -0.4463978644107604,
              -0.35986172110294756,
              -0.8321096370993214,
              0.7091158289483883,
              -0.4015329753431518,
              -0.22889183567700852,
              0.6250143058765474,
              0.18651479017496272,
              0.5109623653666638,
              -0.7749115044378655,
              0.7341418213501343,
              -0.5909171966226507,
              0.5061311219122342,
              -0.45670637002097225,
              -0.6543873062025951,
              0.2477994235505163,
              -0.8464371362037213,
              0.41108087334691895,
              -0.46308792680025973,
              -0.1644025599553736,
              -0.6956946699356406,
              -0.28623328509270984,
              -0.16065663356769067,
              -0.3342042052521805,
              0.4243310425849922,
              0.06090968254781513,
              0.2972641882204229,
              0.012638504692120262,
              -0.5071265028639628,
              -0.05179436020550815,
              0.4204257090756031,
              0.43680487652956085,
              0.7365160386116095,
              -0.011957912300545798,
              0.15381407897939767
            ],
            [
              -0.6726331876893177,
              0.6402910749222075,
              0.28065056166175006,
              0.22793278454437776,
              -0.08736003175883496,
              0.5032878781518776,
              0.6195321597856412,
              0.10983548982976345,
              0.4515139970655365,
              0.7033448142282274,
              0.02117579980441693,
              -0.16440641693369434,
              -0.25205906922035726,
              -0.05553964056663419,
              0.8337728474585961,
              -0.5099334463409773,
              -0.06447544636556389,
              0.36229887941206596,
              -0.30233797022016473,
              -0.09094298244128063,
              0.24012080237923794,
              -0.20147878424522173,
              -0.17138991357956254,
              -0.2817893018975174,
              -0.4045425556634893,
              0.7582138947285221,
              -0.8956011665434822,
              0.20019142277554908,
              -0.38645504289600613,
              0.3821564361998209,
              -1.00665157102473,
              0.011104078357668301,
              0.1865402625697848,
              0.30837996035870496,
              -0.5146625552487619,
              0.07401660138989273,
              0.19846354683073542,
              -0.04706525306666204,
              -0.008378931994350955,
              -0.059428914934554905,
              0.1631692123429587,
              -0.5305272458039434,
              -0.3728987133823917,
              0.369577195350242,
              0.04108469394420036,
              0.42391261250125034,
              -0.24197285601709254,
              -0.27642726367526504,
              0.23305768663139104,
              -0.016374040095949283,
              0.003825914143854967,
              0.23366007745033088,
              0.22795646421196655,
              -0.09918766487084074,
              -0.9132681033117908,
              0.16916109500744778,
              0.16835086185433223,
              0.1222432296125293,
              -0.21015273534868908,
              0.5084979546987733,
              -0.08974797872073902,
              0.5643243943708118,
              -0.11585897664073422,
              0.29186828298674394,
              -0.4145505608591005
            ],
            [
              0.0015086593910529308,
              -0.0991116803443551,
              0.16257371931462622,
              -0.3268981976498368,
              0.2627126262421565,
              -0.3910099228464969,
              0.07540226979139017,
              0.14084354228607446,
              -0.5213108184133606,
              0.07192531150743615,
              -0.1546481765719728,
              -0.4309076605522222,
              0.4061159845598414,
              0.13724104633267095,
              0.13185138960161125,
              0.8231457175502487,
              -0.17847427402468252,
              1.1255387555892167,
              0.19094253071364356,
              0.08428647519961524,
              -0.5876807711843149,
              0.1398949279044273,
              -0.14659214256559253,
              0.28602685453449184,
              -0.1636370334363876,
              -0.1325684478572649,
              0.621078008821885,
              -0.07310501339091752,
              0.7632982920447168,
              -0.3208222720589247,
              -0.14855205482752795,
              -0.02844946362045561,
              0.22450887269643954,
              0.5022319264685193,
              0.014052211338172013,
              0.3859401650406738,
              -0.15853096127557748,
              0.6104615100319035,
              0.08596033624949051,
              0.5787030623025793,
              -0.14539172678127635,
              -0.21207673471651056,
              -0.54754915587125,
              -0.4268750978449807,
              -0.5631593788689371,
              0.5256114035715042,
              0.3231265540594404,
              0.6014076843571688,
              -0.7452263749908195,
              0.10295677657363365,
              -0.7108371709167044,
              -0.3070022762915303,
              -0.41932027727963317,
              0.15981936297457613,
              -0.2417350028038254,
              0.21972613849025824,
              -0.44292803274323805,
              0.24691595160367896,
              0.03945785787684819,
              -1.3150241476125204,
              0.39255727107901345,
              0.03771856797030226,
              0.2335751562919239,
              0.0795261769464633,
              -0.31546768107920864
            ]
          ],
          "biases": [
            0.11657016438542532,
            -0.16273746592086666,
            0.30689669162547173,
            -0.4347699460290564,
            -0.39556887820377834,
            -0.675829480800899,
            0.14570316662163008,
            -0.2547745757219912,
            -0.6858847053285219,
            0.45294414759565976,
            -0.37254360655512436,
            1.4337284090739417
          ]
        },
        {
          "weights": [
            [
              -0.16534597818701868,
              0.00018904582469574495,
              0.5721423928505827,
              -0.2276073367346152,
              0.15482501962732959,
              -0.40095602538959824,
              -0.4235059932712624,
              -0.366380281837039,
              0.23018992826942059,
              0.5052956196173995,
              0.5030042200739989,
              -0.491972930285009
            ],
            [
              -0.45287678085016203,
              -0.16213048005086012,
              -0.19668410525591967,
              0.39518892735372546,
              -0.6177033157993795,
              0.06440931425280284,
              -0.0445391874722592,
              -0.2935633288682996,
              -0.7284157958898699,
              -0.1335328426301081,
              0.7083381721194341,
              -0.12626622234391638
            ],
            [
              -0.5254073324212556,
              -0.35181750000895157,
              -0.518193365643842,
              -0.09073036780817921,
              -0.5859021559987667,
              0.25888463155427793,
              -0.5653306731270503,
              -0.11896186992942033,
              -0.03562285306339685,
              -1.235531110284137,
              0.5056349332766411,
              0.2158020375156526
            ],
            [
              -0.5228947314593313,
              -1.0713020338662453,
              -0.7686179456151453,
              -0.23870314985275853,
              -0.6648856044104448,
              -0.15764398806971772,
              -0.3814199166540651,
              -0.5988763058469245,
              -0.17207974044733698,
              -0.5480586686781664,
              0.7040504866151004,
              -0.7974925867983903
            ],
            [
              0.9655651012423945,
              -0.7260638704508574,
              -0.7017030412830698,
              0.398941834078234,
              0.6188324645719054,
              0.022511994071756775,
              -0.3773319874044684,
              0.6616087985608323,
              0.11495782207738171,
              0.34782674311576484,
              -0.4849750829868912,
              0.3981412148393017
            ],
            [
              -0.9463953058433939,
              -0.29784945823434744,
              -0.2747305269383073,
              0.1311370610390868,
              -0.35977933834567694,
              0.5125844193951024,
              -0.31243864231511614,
              -0.0703888092406598,
              0.5854898449710362,
              -0.400458590517655,
              0.3024421221439918,
              0.31116378955695567
            ],
            [
              -0.6145188126079267,
              -0.21085528571411857,
              0.37432867290982325,
              -0.061928883566783756,
              -0.1995857708393961,
              -0.3459670109023133,
              0.4802574373932545,
              0.3076859152157808,
              -0.11908903319520465,
              -0.34865299148941725,
              -0.3616329146778082,
              -0.43880402833252374
            ],
            [
              -0.3529855504539069,
              0.06061460680269251,
              -0.3487783626041876,
              0.4635162252122558,
              -0.35794996503620213,
              -0.345107604575753,
              0.3568245389474257,
              -0.1547589357472511,
              -0.2736627074203749,
              -0.8056124738945418,
              0.4861611268050774,
              0.3022569431391409
            ]
          ],
          "biases": [
            0.3516802898426927,
            -0.13406145294332097,
            -0.08456677846773343,
            0.14983711593642315,
            -0.3504200243130217,
            -0.8114540941073418,
            0.256016368403231,
            -0.8302394952827027
          ]
        },
        {
          "weights": [
            [
              0.9069208995500444,
              -1.3665406591387794,
              -1.933896801497255,
              -0.10784839759241481,
              0.9853894282579043,
              1.1115999207480949,
              -0.6029692965757633,
              -0.8515808793120334
            ],
            [
              -0.04403470578547521,
              0.7348512878033553,
              -0.17531180110366973,
              1.646245246495914,
              -0.0074217592571015276,
              0.666128722404339,
              1.6319142773681203,
              1.590239384923071
            ],
            [
              0.5248879943218534,
              -0.012081089538172692,
              -1.2809423699066371,
              1.0539087359909447,
              -0.24659450556350257,
              0.22590411487467238,
              -0.28450544628608226,
              0.294376493751035
            ]
          ],
          "biases": [
            -0.33180472343449824,
            -0.26813689945276636,
            -0.49329642871228757
          ]
        }
      ]
    },
    "reviewBlocked": false,
    "reviewSummary": null,
    "humanTrainingSummary": {
      "botId": "control-0-fx20h9",
      "botName": "Strategist",
      "sessionCount": 39,
      "botWins": 0,
      "humanWins": 39,
      "draws": 0,
      "botWinRate": 0,
      "averageGoalDiff": -6.461538461538462,
      "challengeScore": -60,
      "sampleCount": 4000
    },
    "humanFineTuneSummary": {
      "sampleCount": 4000,
      "epochs": 3,
      "batchSize": 64,
      "learningRate": 0.01,
      "positiveWeights": [
        3.4101433296582138,
        3.1322314049586777,
        4.555555555555555
      ],
      "averageLoss": 0.6639289080270666,
      "controllerParams": {
        "fireThreshold": 0.34000000000000014,
        "moveThreshold": 0.55
      },
      "source": "human-model-training-repair",
      "updatedAt": "2026-03-15T03:34:38.286Z",
      "newSessionCount": 0
    },
    "humanChallengeScore": -60,
    "runtimeDisabled": false,
    "runtimeValidation": {
      "totalMovedTicks": 41,
      "totalGoals": 5,
      "samples": [
        {
          "movedTicks": 41,
          "leftScore": 1,
          "rightScore": 0
        },
        {
          "movedTicks": 0,
          "leftScore": 1,
          "rightScore": 3
        }
      ]
    }
  },
  {
    "id": "control-0-94ckep",
    "name": "Defensive Specialist",
    "schemaVersion": 1,
    "archetype": "control",
    "personality": "Prioritizes pink wave survival windows, stabilizes losing rallies, and buys time to recover position.",
    "generation": 1,
    "lineageId": "control-0-94ckep",
    "difficultyBand": "absurd",
    "elo": 1050,
    "promotionScore": 1050,
    "controllerParams": {
      "fireThreshold": 0.58,
      "moveThreshold": 0.5100000000000001
    },
    "mutationProfile": {
      "source": null,
      "kind": "seed"
    },
    "network": {
      "type": "mlp",
      "inputSize": 65,
      "layers": [
        {
          "weights": [
            [
              0.1065929784781637,
              0.3971710663149428,
              0.3504519833942236,
              -0.15533109749454643,
              -0.16643728732528984,
              0.27035447491077963,
              -0.38043669786007916,
              -0.06533616805536697,
              -0.2825140807199238,
              -0.19165123945648613,
              -0.3826938667884878,
              0.13410479892276086,
              -0.265541550043724,
              -0.020962878596240582,
              -0.031157453174051976,
              -0.11822080242594821,
              -0.2870250163834701,
              0.20234854461580776,
              -0.09365344347897918,
              0.4123461445332545,
              0.0923460240231315,
              -0.1734955328448702,
              -0.1762086700751224,
              0.0983960619858956,
              -0.40697057045800394,
              0.15976242909673602,
              0.3180827002041042,
              -0.25205912722740326,
              -0.2928245600312948,
              0.36577603658742147,
              0.1831069814041257,
              0.02871751820202917,
              0.022399986209347845,
              -0.24397972086444497,
              0.3416276411851868,
              0.41857247266533654,
              -0.3022481671767309,
              0.3088639993686229,
              -0.10746705397032201,
              0.0800244898768142,
              0.44834803605917845,
              -0.3576176380497696,
              0.3990759096806869,
              -0.4425939864061953,
              -0.22125450190498966,
              0.27138505475596264,
              -0.2751543137005976,
              0.3780531441410918,
              0.39869101660147055,
              -0.2625254975353948,
              0.4453733646407785,
              0.044651380735830554,
              0.24954166631829858,
              0.2765331077550602,
              0.05013799241428893,
              0.44586613231804223,
              0.0787317173089832,
              0.19050132958218455,
              0.23447363746818156,
              0.01160282305741351,
              0.013589446499221738,
              0.017178496145893108,
              0.007640386080185176,
              0.0002177141163928799,
              0
            ],
            [
              0.08343356860446872,
              0.4529277287469118,
              0.09825943773973697,
              0.27394518646700855,
              -0.13560624824889747,
              -0.34664613264551486,
              0.2512513311210448,
              -0.4266428792792649,
              0.33289171230912185,
              -0.3020327801780037,
              0.331698494388006,
              0.26745537568298744,
              -0.3010766983389357,
              -0.4160507252861004,
              -0.34609325532805596,
              0.2589719922346413,
              0.16356906354866918,
              -0.2975829418035494,
              -0.2142502846196294,
              -0.09378296124764314,
              0.2388998980445388,
              0.12006382568662793,
              -0.34338722867954086,
              -0.24697074847466186,
              0.00396260836346679,
              0.30646479839924723,
              -0.44385793120600286,
              0.3179898991249502,
              -0.2623230350436643,
              0.43858818953961204,
              -0.27866223114542665,
              0.16062324929516764,
              -0.38513116976246237,
              -0.37092749211005865,
              -0.11702007099520416,
              -0.10226987477287613,
              -0.3620792221510783,
              -0.44775926540605726,
              0.2250830814242363,
              -0.13970497129485013,
              0.3313140814891085,
              0.17004994982492208,
              -0.32443632697686553,
              0.28029836310340844,
              0.4103564827866858,
              -0.31199613668476206,
              0.3490884841422141,
              0.08139864502092531,
              0.32183345187156726,
              -0.304323596234161,
              0.2452288015298336,
              -0.36126958856484076,
              -0.4257994947983749,
              0.030865585129642593,
              -0.010657779221008067,
              0.4286363822640851,
              0.1869263431057334,
              -0.16565399675164372,
              0.13537822030484678,
              -0.00501964321393771,
              -0.00724539580736081,
              -0.008802231307085143,
              -0.0016590071645281638,
              0.00008442974351983755,
              0
            ],
            [
              0.4060121423791149,
              0.14248404283151986,
              -0.22694597452261678,
              -0.3914807198686371,
              0.09725171060954099,
              -0.17388510500295803,
              -0.06041843900899486,
              0.13110317918566963,
              -0.3581824740798063,
              -0.46537619278148934,
              0.09239082588678993,
              0.3100722104630597,
              0.3788115382548711,
              0.12246392945960695,
              0.21372434664253903,
              0.15307156435794314,
              -0.4241922522623494,
              -0.44121028117284017,
              -0.08212917339988053,
              0.13704134167453,
              0.21390370317334592,
              -0.23535225627380635,
              -0.3618455455814092,
              0.20250340498385572,
              -0.20437591090709484,
              -0.3825974698411301,
              -0.091408680123277,
              0.36870348318479956,
              0.17538276028353722,
              0.38810673431341725,
              -0.08884767196141184,
              0.06088893015403301,
              -0.3075806174660102,
              -0.26464802348054944,
              -0.22082411048468203,
              0.32131942704634,
              -0.326691506523639,
              -0.4403621602104977,
              0.24971336948219688,
              0.22347321999259293,
              0.22415105109103026,
              -0.2147591901632286,
              -0.3931607551407069,
              -0.1279749734490102,
              -0.330692151839908,
              0.02488917376841534,
              0.3092726119321328,
              0.019498391292179097,
              0.026111541564526122,
              -0.27188607190778635,
              -0.32480005547187135,
              -0.3230869657162675,
              -0.18780027239087196,
              -0.2104044439031201,
              0.02065779611016682,
              0.42124908494297414,
              -0.35376972290687264,
              -0.07099391059018671,
              0.25959482782054694,
              -0.0065202216042733185,
              -0.009412712873253766,
              -0.007949860539409347,
              -0.006196811680570702,
              -0.001504304191255819,
              0
            ],
            [
              -0.0995950367703427,
              -0.28964122936199466,
              0.25896516843233885,
              0.28821917692228605,
              -0.2982986401611544,
              0.2630457720533378,
              0.3577958435520402,
              0.15375440037164315,
              0.21214182014402197,
              -0.09901083844713224,
              0.18192195265547875,
              -0.08060837724935116,
              -0.4417259251840447,
              -0.28898220128162205,
              0.08512385789880193,
              0.16720906399122976,
              0.08614474536269129,
              -0.3343230006889806,
              -0.3500458721537143,
              -0.4071408798319609,
              0.08200788019883186,
              -0.18278456265979104,
              0.26890477138445396,
              -0.15688027308765706,
              -0.16613830792853165,
              -0.307563318265602,
              -0.03812786035705358,
              -0.07787649831734599,
              0.03472193058114499,
              0.08646487514022094,
              -0.39659423602279276,
              -0.16276495065540075,
              0.24899404167663305,
              -0.11587533499114215,
              0.23261572408955544,
              0.36265044772996874,
              0.156651625293307,
              0.40358601899351926,
              -0.4442157468991354,
              0.1636111934669316,
              0.07235199809074402,
              -0.3862788692629028,
              0.25737714932765815,
              -0.4169819833923458,
              -0.29267904613328755,
              -0.2906799974699078,
              0.23505233421489075,
              0.3716404889159895,
              0.306824103521678,
              -0.26715837134384257,
              0.058597642737989404,
              0.00488322122318107,
              -0.20318002399785157,
              0.3607884283766876,
              -0.3254348650070633,
              0.021224998869001865,
              0.25108621981926266,
              -0.2001696084626019,
              0.377273783669807,
              -0.006316926409496768,
              -0.003662561952932045,
              -0.009698101934137596,
              -0.0007035215528484561,
              0.0009505511526062774,
              0
            ],
            [
              -0.20344023213525197,
              -0.2621903265610858,
              0.4448857761038682,
              -0.07594218684282757,
              -0.059207098926607395,
              -0.25064107918692197,
              0.17924161508127648,
              0.2927375075553303,
              -0.3831075242245198,
              -0.13634575954133357,
              0.05639017380714527,
              0.10458775226146699,
              -0.013493510892467924,
              -0.1999576996814907,
              -0.246560905760006,
              -0.27294040866794106,
              -0.22814793914895878,
              0.08695406492594336,
              -0.12471960301045329,
              0.3334458329828485,
              0.11604732574671443,
              0.3102649254714357,
              0.38037287982721385,
              -0.37765176602109185,
              -0.1621065872077344,
              -0.23717157596256586,
              -0.21890309499576688,
              0.44173090676777066,
              -0.37805310599505904,
              -0.3826937535828194,
              -0.03815174228511751,
              0.2168823250103742,
              -0.42881817002780737,
              -0.07087041058111936,
              -0.42248308821581304,
              0.22904327965302107,
              0.08956680321134627,
              -0.3890712650259957,
              -0.18551964391954243,
              -0.12275388557463884,
              -0.15174914589151742,
              0.003904030466989446,
              -0.16569909097161145,
              0.22899744810374484,
              0.3280029853584308,
              -0.2277700468807714,
              0.22537481750301638,
              0.34267577391772236,
              -0.421077390759146,
              0.28850768348076966,
              -0.33882408404806297,
              -0.046551859939078274,
              -0.2321391536755095,
              0.3122927433031019,
              -0.14233132723075642,
              -0.4140120640397072,
              -0.4399912442313507,
              -0.07133674614597112,
              -0.24645725113805383,
              0.009859192387916976,
              0.009551111732427293,
              0.019031033973509515,
              0.004727015632982983,
              -0.0003436054814453529,
              0
            ],
            [
              -0.38822582131559347,
              -0.49412275942290096,
              -0.28904561540638773,
              0.14391015237719906,
              -0.22270796173871293,
              0.05437795681990767,
              -0.39234557096166633,
              -0.227944586235947,
              -0.08208833322640466,
              0.41551336980829273,
              0.04307385863394252,
              0.15299305257524615,
              0.2029500464771982,
              0.4040493604096989,
              0.31558440503431434,
              -0.2510868789916519,
              0.07494903603087709,
              0.16308811551371388,
              -0.26051102809142324,
              -0.2983005072449596,
              0.40953804523081805,
              -0.07708669275813121,
              -0.10953386312566124,
              0.37049987506654836,
              0.11210604167282465,
              0.2845967227360234,
              -0.0006693561561405659,
              0.4143906486220658,
              -0.05940218064934016,
              0.09165251718895252,
              -0.16004617328289897,
              0.11899332250468433,
              0.435723360395059,
              0.21954824421554806,
              0.32177039079833775,
              -0.2489709030551303,
              0.38408289751969277,
              0.16483389604836704,
              0.18159679714590313,
              0.08619454018771648,
              -0.1630965666146949,
              0.12943357001585618,
              -0.2624629510100931,
              0.37506297625911794,
              -0.26079194492507696,
              -0.40180607445988803,
              0.21095921252064745,
              0.10699121241291061,
              -0.2777226627042503,
              0.12774051576239592,
              0.3482155659349119,
              -0.06265256095484935,
              -0.21895650440453,
              0.13802067269338658,
              -0.28503376704023453,
              -0.44709029502701014,
              -0.2678778800647706,
              0.09827640778385104,
              -0.40977914824616163,
              -0.006430946443735302,
              -0.014481661886039022,
              -0.013026910465514895,
              -0.0048183790115680376,
              -0.0018785033747501585,
              0
            ],
            [
              0.23518448431967465,
              -0.3877478586163886,
              0.07599679271603241,
              -0.11884511059685081,
              0.4294867198629106,
              0.1730309274875813,
              0.07729063282286788,
              -0.381262613939301,
              0.0060255678695933105,
              0.3725908268280911,
              -0.11202741585340442,
              0.2376194645188846,
              0.06905946831280238,
              0.0705464509134013,
              0.055780602293294165,
              -0.20374074620088536,
              -0.05652466394145448,
              0.34925996828142897,
              -0.39165164523292334,
              0.18616976343950367,
              0.3916321659378986,
              0.2608019707008262,
              0.15746328433026793,
              0.4337777659452412,
              0.32958270571329207,
              0.07134452727623285,
              0.41160732409916817,
              0.38806008459068836,
              -0.0448293968802318,
              -0.19194812411820752,
              0.2879705514991656,
              -0.10826648301444948,
              0.07006820964161307,
              -0.4445430711144582,
              0.1265879728132859,
              0.3386543553983209,
              -0.07152291114907712,
              -0.2579694772604853,
              -0.21662252394016832,
              0.13308829441666603,
              0.3024085178039968,
              -0.0794387506358908,
              0.33018427952192725,
              -0.2844490126631602,
              -0.30317230413622404,
              -0.18507143419631902,
              0.19816587013477727,
              -0.28713916743293166,
              0.4428702538253927,
              0.08594139341974585,
              0.42235460914772555,
              0.2436964093693038,
              -0.055712604805030715,
              0.18430333931550544,
              -0.2642057532988606,
              -0.1012414873810485,
              0.40364463741425427,
              -0.3593758708331734,
              -0.35412943626288323,
              0.002994108858561329,
              0.00411276453398458,
              0.005121257920694747,
              0.0013468673539836719,
              0.0000932882467748616,
              0
            ],
            [
              0.11602558939633535,
              -0.42425299559625723,
              -0.13210295422355908,
              -0.4137769343519471,
              0.18597651357451916,
              -0.15675639260233712,
              -0.08818932001075817,
              -0.1453042417025353,
              0.1906794214922022,
              -0.12079573939441969,
              -0.08653739687298394,
              0.04899781872073101,
              -0.1847829990776406,
              0.30708201381329375,
              0.2583090931184912,
              0.4448149735930354,
              0.046125961450442475,
              -0.10532753973432579,
              0.3069853615248576,
              0.42028654931306775,
              -0.2613647958395248,
              -0.12396874531648813,
              -0.4066029537046853,
              -0.37047835844525495,
              -0.04117896979875408,
              0.036235252604819836,
              -0.42682288081850855,
              -0.07710003484971821,
              0.435404458316043,
              0.11881531674768112,
              0.05384719292633235,
              0.04425247949548066,
              -0.14356361918617042,
              0.0615664942888543,
              -0.20735037275590004,
              -0.14649393474795588,
              0.24252626637462527,
              -0.4411287221359089,
              -0.39358595525845885,
              0.03841839241795242,
              -0.3545377363683656,
              -0.05841563243997015,
              0.4173570487881079,
              0.20429241128431533,
              0.19045666967741756,
              0.04611592590500421,
              -0.38861533917743074,
              -0.21114218063789614,
              0.17576620401446244,
              0.32690113416139127,
              0.24149725609350628,
              -0.3243512770712822,
              -0.08608569264840253,
              0.15672737011523666,
              0.2821439262520413,
              0.05255528704728931,
              -0.4143666541669518,
              -0.14423130084760488,
              -0.11469836407341064,
              0.009318478540148846,
              0.010581877236358833,
              0.019288432421777846,
              0.0032858650902398596,
              -0.0009064621772857457,
              0
            ],
            [
              -0.31438316697687996,
              -0.023941293643772378,
              -0.2374416448502596,
              0.01730003714069125,
              -0.34724407685304176,
              0.34165563174267904,
              0.25348248900100967,
              0.0635759127226359,
              0.258631179893919,
              0.27335631923277126,
              0.11632185195521523,
              0.21114929916504552,
              0.2841401615422364,
              0.2699791503135883,
              -0.35493964910646886,
              0.3021157790465627,
              0.32103641949708644,
              0.3683485174091307,
              0.18183371897321196,
              -0.17140156441904872,
              0.3961608930480244,
              -0.27391658713768563,
              -0.04227632027315312,
              0.09450126427791819,
              0.12064880823072924,
              0.27593893529847263,
              0.1704695880878717,
              0.26371437816414983,
              0.41921996406745166,
              -0.3057501158583182,
              -0.3516771920956671,
              -0.13941628995817154,
              0.21828655572608113,
              0.12658374309539797,
              0.4069692610530183,
              0.25210323635030363,
              -0.12166890897788107,
              -0.2831943557364866,
              -0.43766432753764095,
              0.35761157346423716,
              0.18449362961109728,
              -0.43918219319537455,
              -0.4116388274822384,
              -0.21513567839540396,
              0.3700728542893925,
              0.19066528876001945,
              0.38979046590452215,
              0.13676884963497998,
              -0.1941918215771728,
              -0.012464649598599472,
              -0.1843779657621997,
              0.2507007579411425,
              -0.05147251439181849,
              -0.20652152656096798,
              -0.33711986914199993,
              0.34021511636674406,
              0.3955315305618569,
              0.3499226692831144,
              0.4348366143414751,
              0.018960233754466357,
              0.019359700072429112,
              0.025360445286506432,
              0.011056480834108352,
              0.0007907862692552632,
              0
            ],
            [
              0.3452968226854356,
              -0.05466421877222635,
              -0.1668678100008379,
              0.013485903869292062,
              0.11948813602657232,
              0.008273886821593525,
              0.43079965954576277,
              0.45522150850592064,
              0.2602074293138984,
              -0.22242382886091724,
              -0.3541445686293798,
              -0.3850825767713935,
              0.34037486313871745,
              0.019191859098617717,
              -0.18468045656916346,
              -0.385567962129691,
              0.4029141066998277,
              0.37732970433978097,
              -0.3976945552742109,
              0.23264511170588625,
              0.34277412460831047,
              -0.3367137853114115,
              0.07503603910168942,
              -0.1247139457995504,
              -0.2904309519915467,
              -0.43861224870197474,
              -0.26961871585808694,
              0.15251873577944935,
              -0.42588185041677207,
              0.39644887568632603,
              -0.39771871694829314,
              -0.38400055600795896,
              0.14106766926124692,
              0.25833950706291947,
              0.40167416869662703,
              -0.3796370320467418,
              -0.008880332414992155,
              0.3406031624414027,
              0.19816520833410323,
              -0.2507715891581029,
              0.27938623961526904,
              -0.40538034862635197,
              -0.40172524235676976,
              0.12979656043738877,
              -0.2376413073053949,
              -0.45453385749864406,
              0.16298991039962024,
              -0.0843149866446661,
              0.1343142770452189,
              -0.1352268547471893,
              -0.3193842055319942,
              0.17341791788162694,
              -0.38906657146476514,
              0.09176599637673633,
              -0.022459419327722194,
              -0.37343290499411524,
              0.05732101255562157,
              -0.034272733912803235,
              0.13743774904869496,
              -0.00858292606480782,
              -0.014260880184283713,
              -0.01523887122609285,
              -0.006622423456221154,
              -0.0010699278174012019,
              0
            ],
            [
              -0.2833353340352092,
              -0.07698080314948653,
              0.18995898073046671,
              0.42694233811474575,
              -0.22628005834732898,
              -0.2988619224827411,
              0.025083259955104034,
              -0.14264490744275646,
              0.12777631031329006,
              0.06475878956700887,
              -0.3857590227430261,
              0.16907657667691312,
              0.4365993803695683,
              0.13220675307141522,
              -0.08338394319514075,
              -0.050139953231110514,
              -0.18670830741065722,
              0.020273771418382703,
              0.16192482244223358,
              -0.34047006451930123,
              -0.36782776801185135,
              0.0518990696193126,
              0.2904530959924232,
              -0.29813236589653475,
              0.2951849926564546,
              0.3295360612682998,
              -0.34248546715825795,
              0.25663090366870167,
              0.10813383457716555,
              -0.05050801001928017,
              -0.1807707727421075,
              -0.004804491600953043,
              -0.1612721852492541,
              -0.3585130888503045,
              0.16931246635504069,
              -0.20699867364458013,
              -0.24892283594235778,
              -0.3393017615424469,
              -0.3991891121026129,
              -0.32505014506168667,
              -0.42656638075131925,
              -0.36774260243839796,
              0.06877229826059193,
              -0.2681709126512483,
              -0.3952483653907243,
              -0.022269219519689736,
              0.05122468507906964,
              0.30768577183127127,
              0.3419968673626496,
              -0.04751813725573259,
              -0.1353342093941229,
              0.07526180139355258,
              0.07147348280370479,
              0.32801828375299474,
              0.055910524272571156,
              -0.322420476959087,
              0.1385953873163089,
              -0.00944356278050691,
              0.11862559311557562,
              -0.0030094354254974836,
              -0.002452843662188777,
              -0.0030948704527424915,
              -0.00157195380094557,
              -0.0007709633189300983,
              0
            ],
            [
              0.42645285130252275,
              0.4181034391479934,
              0.07310855402523564,
              -0.09886885856960657,
              -0.3885637321432061,
              -0.31942698619928983,
              0.3043562451459246,
              0.1482981804009518,
              -0.08578085531409481,
              -0.26718800091272316,
              -0.11033203979414631,
              0.24372681052222894,
              -0.300862669259027,
              -0.40918632051967274,
              -0.0678696526198426,
              -0.035999847115226795,
              -0.4019313032973887,
              -0.18078601314268417,
              0.04018410046119243,
              -0.11172052331768514,
              0.06678652828999482,
              0.4322056054335044,
              0.20332982471324298,
              0.35524138643980036,
              0.13164109236443003,
              0.2940149340312928,
              0.2570263555739075,
              -0.27625224853400143,
              -0.4446698360843584,
              -0.01685693568928087,
              0.021073224814608695,
              -0.43220998907927427,
              -0.14070233814418318,
              -0.18225075176451355,
              0.3313521818490699,
              0.05402634467551565,
              0.43167761249933395,
              0.15468027940951287,
              -0.015133293368853629,
              0.42214088696055113,
              -0.34622093313373625,
              0.3287038121381225,
              0.3511355296242982,
              0.2616380041879527,
              -0.28539595273151225,
              0.3472896524708763,
              0.2135330463569794,
              -0.4421035446116598,
              0.24939949006796389,
              -0.03381372339547566,
              -0.4004858998499844,
              0.23619868861351295,
              0.1699885573316468,
              -0.04248522355045775,
              -0.15139709580459312,
              0.028940158942714334,
              -0.4375835138373077,
              -0.18260251111350953,
              -0.25451808341313154,
              -0.000833817582937353,
              -0.0011753221180178255,
              -0.002234518778806109,
              9.591755187679857e-7,
              0.00032685273328111625,
              0
            ]
          ],
          "biases": [
            0.14195521941793326,
            -0.3605705527552597,
            0.055001358121286995,
            0.18511623347178738,
            -0.14001478531358477,
            -0.3094365893450168,
            0.15870842100499435,
            0.4052398036012492,
            -0.1244936715206857,
            -0.07626437260972813,
            -0.27204249498461164,
            -0.04160220541613256
          ]
        },
        {
          "weights": [
            [
              -0.20119244698631067,
              0.35218858187199276,
              -0.18061027771428304,
              0.2969561417175805,
              -0.28986141254592995,
              -0.363078750317669,
              -0.00010957981031943536,
              -0.14217204451747434,
              -0.2734153735683283,
              -0.1391302781674818,
              -0.028757232914754346,
              0.13248149315214897
            ],
            [
              -0.009560915751650398,
              0.2808549428180297,
              0.2809788437150198,
              0.0921628260674926,
              -0.09420170939400506,
              0.19154522107207705,
              0.15668047404812238,
              0.15776809187187307,
              0.28329052048303643,
              -0.13962410968862024,
              0.030532653581582463,
              0.2787735819099195
            ],
            [
              0.1705631281653208,
              0.073704975587825,
              0.332136720522456,
              -0.31138888003871973,
              0.3582018634150972,
              0.3087073451909994,
              -0.4301586021664037,
              -0.16098944326270162,
              -0.296937341441288,
              0.09703497853057669,
              0.12010688727161037,
              -0.06823597512643914
            ],
            [
              -0.3484368352773059,
              -0.09009969643027804,
              -0.10666026689286374,
              0.28681270600819614,
              -0.3004783034148206,
              0.0974432082914222,
              -0.156887594475517,
              -0.03515158217625399,
              0.17722575228465978,
              0.2805036413552677,
              0.15714754237729492,
              0.33620850373946287
            ],
            [
              0.20343011281075102,
              -0.25318129401046896,
              0.263643689682009,
              -0.2418165809215939,
              0.10412297456494213,
              -0.12414623912494485,
              0.025828698306388856,
              0.1548018123687155,
              0.1727648056300482,
              -0.2183414052963567,
              0.2991190017757004,
              -0.14084009048546908
            ],
            [
              -0.1506608296909188,
              0.22915719419822486,
              0.3241572625960876,
              -0.2124183461220448,
              -0.10280869230928955,
              0.3232737868897744,
              -0.1865240170562399,
              -0.23032827495759492,
              -0.20350447948405462,
              0.031428005802602396,
              -0.2874428840846172,
              -0.27955686762580356
            ],
            [
              -0.04686934313456795,
              0.3258111423341435,
              0.2716915722582119,
              0.22731071298629318,
              -0.0881498440997529,
              -0.23479160988159453,
              0.23398895039934833,
              0.008160527709541347,
              -0.1415468146026291,
              0.23895541476684184,
              0.10135746225342013,
              0.15217541368110016
            ],
            [
              -0.29560471904171437,
              -0.30562125107210514,
              0.25587004578494604,
              -0.21550011970102903,
              0.29446038143986536,
              0.14099669067991916,
              0.06532319846140755,
              0.18550092004900767,
              -0.1035765436595334,
              0.317967385368707,
              -0.2185811251380701,
              -0.26477354333736675
            ]
          ],
          "biases": [
            -0.14993037076142027,
            0.05721491967092396,
            -0.1709531961063138,
            -0.14646968572545155,
            0.06825694271140319,
            0.0685255356855179,
            0.08094152052304229,
            0.0985176807312163
          ]
        },
        {
          "weights": [
            [
              -0.26062073667715624,
              -0.003451930843623246,
              0.12226620813682296,
              0.21506248308630843,
              -0.2814707593778234,
              0.06609261906118485,
              -0.1933366434609515,
              -0.048395908130793815
            ],
            [
              0.16344737878565732,
              -0.09693153728265018,
              -0.22797922801364365,
              0.011629618561289001,
              0.019277674051441557,
              0.17824311299538623,
              0.039481519308148964,
              -0.3684031487522415
            ],
            [
              0.3332865556282757,
              -0.04156521250202602,
              0.4777264382584315,
              0.11634138833253473,
              -0.11453674264765248,
              0.2353669784358699,
              0.2870770349799863,
              -0.015271341445795688
            ]
          ],
          "biases": [
            0.1422624510910758,
            -0.07786080722186371,
            -0.25273105150593006
          ]
        }
      ]
    },
    "reviewBlocked": false,
    "reviewSummary": null,
    "runtimeDisabled": false,
    "runtimeValidation": {
      "totalMovedTicks": 82,
      "totalGoals": 10,
      "samples": [
        {
          "movedTicks": 41,
          "leftScore": 2,
          "rightScore": 3
        },
        {
          "movedTicks": 41,
          "leftScore": 2,
          "rightScore": 3
        }
      ]
    },
    "metadata": {
      "roleName": "Defensive Specialist",
      "designIntent": "Prioritizes pink wave usage to stay alive, blunt dangerous pushes, and extend fair recovery windows.",
      "styleTags": [
        "defensive-specialist",
        "pink-wave-defense",
        "survival",
        "reset-rallies",
        "human-tested",
        "control",
        "absurd",
        "static-lane",
        "goal-capable"
      ],
      "reviewState": "active",
      "humanTrainingSummary": {
        "botId": "control-0-94ckep",
        "botName": "Defensive Specialist",
        "sessionCount": 1,
        "botWins": 0,
        "humanWins": 1,
        "draws": 0,
        "botWinRate": 0,
        "averageGoalDiff": -7,
        "challengeScore": -60,
        "sampleCount": 1323
      },
      "humanFineTuneSummary": {
        "sampleCount": 1323,
        "epochs": 3,
        "batchSize": 64,
        "learningRate": 0.01,
        "positiveWeights": [
          9.099236641221374,
          10.211864406779661,
          24
        ],
        "averageLoss": 0.9456985433917038,
        "controllerParams": {
          "fireThreshold": 0.58,
          "moveThreshold": 0.5100000000000001
        },
        "source": "human-model-training-repair",
        "updatedAt": "2026-03-15T03:34:38.286Z",
        "newSessionCount": 0
      },
      "rosterStatus": "published",
      "rosterVersion": 1,
      "source": "bot-roster.js",
      "publishedAt": "2026-03-15T03:06:58.059Z",
      "lineageRoot": "control-0-94ckep",
      "sourceBotId": null,
      "trainingHours": 0,
      "eloTier": "elite"
    },
    "humanTrainingSummary": {
      "botId": "control-0-94ckep",
      "botName": "Defensive Specialist",
      "sessionCount": 1,
      "botWins": 0,
      "humanWins": 1,
      "draws": 0,
      "botWinRate": 0,
      "averageGoalDiff": -7,
      "challengeScore": -60,
      "sampleCount": 1323
    },
    "humanFineTuneSummary": {
      "sampleCount": 1323,
      "epochs": 3,
      "batchSize": 64,
      "learningRate": 0.01,
      "positiveWeights": [
        9.099236641221374,
        10.211864406779661,
        24
      ],
      "averageLoss": 0.9456985433917038,
      "controllerParams": {
        "fireThreshold": 0.58,
        "moveThreshold": 0.5100000000000001
      },
      "source": "human-model-training-repair",
      "updatedAt": "2026-03-15T03:34:38.286Z",
      "newSessionCount": 0
    },
    "trainingHours": 0
  },
  {
    "id": "aggressive-0-9aaccq",
    "name": "Sniper",
    "schemaVersion": 1,
    "archetype": "aggressive",
    "personality": "Uses gold waves to line up pickups, create punish windows, and convert brief openings into scoring pressure.",
    "generation": 1,
    "lineageId": "aggressive-0-9aaccq",
    "difficultyBand": "absurd",
    "elo": 1048,
    "promotionScore": 1048,
    "controllerParams": {
      "fireThreshold": 0.3300000000000001,
      "moveThreshold": 0.55
    },
    "mutationProfile": {
      "source": null,
      "kind": "seed"
    },
    "network": {
      "type": "mlp",
      "inputSize": 65,
      "layers": [
        {
          "weights": [
            [
              -0.22664146686582284,
              -0.3989435267298408,
              0.0014625057420273588,
              -0.25411669921065205,
              -0.12925355415445586,
              -0.35061114667020565,
              -0.006529228897667565,
              -0.39313429817083334,
              0.14917677423969414,
              -0.09680939567986076,
              0.25909538756845313,
              0.07692757664471565,
              0.2528608949667435,
              -0.010972287422931078,
              0.08950385151524268,
              -0.22514969920047145,
              -0.21671889643669587,
              -0.3904883700116983,
              0.1086603710660711,
              0.22032033674520285,
              -0.280162314263332,
              -0.25662769478707637,
              -0.19158415563511466,
              0.20429492487360315,
              -0.14884382022346923,
              -0.41112675438635055,
              -0.15733553683385254,
              -0.3371493126964197,
              0.25689230652060363,
              0.16921660396812493,
              -0.014988081716001035,
              0.3968583575449884,
              -0.10981170425657183,
              -0.32288592823315415,
              0.26101235349196944,
              0.00673003831954682,
              0.10179186095483601,
              0.42235230600927026,
              -0.15049934796988965,
              -0.01389102847315371,
              -0.09515543400775642,
              0.06997313180083421,
              -0.3512569546932355,
              0.3580452657595983,
              -0.31765142105900124,
              -0.2049032469832361,
              0.10803508523120543,
              -0.1747628552213025,
              -0.0494337714174692,
              0.35172484336755205,
              -0.403748712323667,
              0.1124133066041395,
              -0.18178589288145305,
              0.4489532735897228,
              0.2359189753420651,
              -0.3805732375010848,
              -0.25273392009548845,
              -0.3280373231275007,
              0.17236057058908047,
              0.001857037353109692,
              -0.014781588986684836,
              -0.013639873425171282,
              -0.0013298770515288321,
              0,
              0
            ],
            [
              0.43081587530045834,
              0.4551664435056351,
              -0.159654061116244,
              -0.34954845731050127,
              0.06719867031204933,
              -0.3833219985457125,
              -0.11996327338524906,
              -0.27613231080103273,
              -0.17514728916260897,
              -0.03762298099008087,
              0.4241917149696266,
              0.34284357600612,
              0.05977434641186915,
              0.29394676168551936,
              0.06027158966005136,
              0.1881063272544698,
              -0.4392901145228817,
              0.34123628238250897,
              -0.4155523028690368,
              0.35248718826801634,
              -0.03130939113889856,
              0.04105200049158452,
              -0.13842228788238645,
              -0.040592884019398374,
              0.2813199034057491,
              -0.2763856500852853,
              -0.38882123411167413,
              -0.13305074244271964,
              0.05774442146066577,
              -0.10010607837990777,
              0.11345692479517311,
              -0.027396182832308113,
              0.3104753657709807,
              -0.4416288151871413,
              -0.42738464288413525,
              0.20307476579385897,
              -0.06807510433718562,
              -0.18391651210840793,
              0.016837831120938063,
              0.2226259250426665,
              -0.0008519992930814624,
              0.04841508449229492,
              0.21210758287925274,
              0.07627030497734077,
              -0.03485884811153541,
              0.2839651264891763,
              -0.35759985193175386,
              0.415412194204695,
              0.35748918287751263,
              -0.30954469382075156,
              0.06996486326298064,
              0.3370291283586994,
              -0.22741230041719973,
              -0.1459506334969774,
              -0.2592098227003589,
              0.15214860979467631,
              0.36254205722361804,
              -0.21551942818332465,
              0.20711384215392173,
              -0.01068789424223933,
              -0.0023238752619197545,
              -0.0070761958783191435,
              0.0006168384406552194,
              0,
              0
            ],
            [
              0.15955946703585397,
              0.42751004273876686,
              -0.33260360717391424,
              0.08372539761882146,
              -0.27049918542853335,
              -0.09098387926705863,
              -0.297965024730591,
              0.16716639164626115,
              -0.36495807649557327,
              -0.24912764166422027,
              -0.22979317716587566,
              0.19646419008499902,
              0.09889333455087214,
              -0.21046345458747726,
              -0.4228434129933895,
              0.4035983175573044,
              -0.4248482437146423,
              -0.10359117442191305,
              0.35926247625611724,
              -0.31421314352596746,
              0.3658111137719593,
              -0.20555411095931134,
              0.348427513737497,
              -0.4216060389883239,
              0.29400480462192774,
              0.09153992081992328,
              0.2798933080863208,
              0.4367339264368639,
              0.39882495109923183,
              0.28978851353044305,
              -0.28016336378641427,
              -0.039278639922849835,
              -0.38390099073294554,
              -0.04669168037362397,
              -0.34278150235768406,
              -0.09036351405789471,
              0.356584679055959,
              0.1617646710947156,
              -0.14807716466020793,
              0.2002786067314446,
              -0.34732600513380024,
              0.3357475728191683,
              0.15749683796893807,
              -0.39482405710039076,
              0.16451615689633625,
              -0.3934334326303791,
              0.44951203991169103,
              0.39106390929321155,
              -0.2789800726678384,
              -0.014370375982076697,
              -0.4355397572488531,
              -0.05859197478275746,
              -0.3882327230880037,
              -0.08478116523474455,
              -0.20476894732564688,
              -0.30433070319704714,
              -0.09700341294519603,
              -0.2983952747192234,
              0.05887322241906077,
              0.01037839021055239,
              0.017628950386036606,
              0.018713133327178118,
              -0.0002735198839434886,
              0,
              0
            ],
            [
              0.1996518139142968,
              0.006547134487039403,
              0.20318575187186552,
              -0.011217580417315458,
              -0.012949173814586231,
              0.4269482169743722,
              -0.2525057575722576,
              0.33267656463740763,
              -0.23696795917653657,
              0.11248816158606612,
              0.27214177566337316,
              0.2931674825295612,
              -0.04031403526786541,
              0.1583121048942039,
              0.3867514550607978,
              -0.23537259962485338,
              -0.11958710785673674,
              0.30884771461941507,
              0.37311602253466847,
              -0.3469543036507521,
              -0.12043721817061175,
              0.22818509768551437,
              0.2755621268809836,
              0.05230234931804098,
              0.07861779453826605,
              -0.06586572979576887,
              0.1951578393112868,
              0.10438291635364294,
              0.4365937405731529,
              -0.37429757179421475,
              0.3127231535268948,
              -0.4463986071757972,
              -0.10504470344167204,
              -0.2014685595408082,
              -0.3025711931521073,
              -0.14933496094969176,
              0.3869557095458731,
              -0.3473890582099557,
              -0.09017255811486394,
              -0.17342562738340347,
              -0.04348185108974576,
              0.29556395087196397,
              0.20101018615532668,
              0.2447116407302671,
              0.3885238932933035,
              -0.389058892608431,
              0.23298121770193664,
              -0.3647010291214877,
              -0.18326922407051005,
              0.06597135403400221,
              0.3312618652596045,
              0.09322799148503691,
              0.36044387554284185,
              -0.3754028454422951,
              0.28388396529480814,
              -0.11729807294905185,
              0.4147966026328504,
              0.05058650393038988,
              0.10504718804731965,
              0.0037201086625608705,
              0.002416801645712445,
              0.00460747839016935,
              0.00011426487375251593,
              0,
              0
            ],
            [
              -0.4187013485243543,
              -0.38177897865971,
              -0.38739288920698983,
              0.19039733623794095,
              0.14168429166724156,
              0.12481645755224362,
              -0.4249142019016622,
              0.37308281243887237,
              -0.31867719891524826,
              0.0798338575141794,
              0.22924049793937845,
              -0.05246179842410734,
              -0.02654059780886948,
              0.371987147680002,
              -0.3635427302185174,
              -0.4168174686414867,
              -0.17001485262486973,
              0.03209169617426661,
              -0.36141221921425315,
              -0.044875207823521696,
              -0.16799514360261014,
              0.007155702255202485,
              -0.17873317883656603,
              0.18944275095709034,
              0.08600963113368365,
              -0.38236097318585965,
              0.23665749749634415,
              0.21386584213469179,
              -0.282110114232637,
              0.34202860573593086,
              0.0893245154991746,
              0.245954910479486,
              -0.22489594873040916,
              0.4297010057140142,
              0.07181196736637503,
              0.27811032543710923,
              -0.03517601285129786,
              -0.07876101834699512,
              0.22174163090530782,
              0.4444211385212839,
              0.0410739115672186,
              -0.407332283087936,
              -0.4277520328061655,
              0.1223562348118288,
              0.07112583005922242,
              -0.08879512815581746,
              -0.05966033536029457,
              -0.19444879423917463,
              0.3542998276741133,
              -0.272217630168711,
              0.2567114787619903,
              0.07223451293539256,
              0.000524685555137694,
              -0.13590075422544032,
              -0.2147316541755572,
              -0.007419284130446613,
              0.3394208266865462,
              -0.12405232954770327,
              0.04879451673477888,
              0.010898684619163984,
              -0.009225613305862192,
              -0.0041056172400051145,
              -0.0026715017368462747,
              0,
              0
            ],
            [
              -0.38384578283870385,
              0.1401271397179861,
              0.23421283331455733,
              0.22357202994222608,
              0.4150193427836717,
              -0.027484076278157975,
              -0.36854290947589907,
              0.04191692443323291,
              0.27789888831258364,
              0.07110322349591282,
              0.2685267509960505,
              -0.29541937420623987,
              0.2338856578200243,
              0.3788376818567375,
              -0.36967635223767165,
              0.0019733029244318866,
              0.020093643679440724,
              0.24294525589815677,
              0.4289537447970361,
              -0.06008858388256248,
              0.09659184484402586,
              -0.44959881723514455,
              -0.22741925294464896,
              0.06195695078716853,
              -0.42977981477481364,
              -0.017581331706605852,
              -0.3319532062159851,
              -0.1579012478236109,
              -0.21757151442579925,
              -0.3397772970708781,
              0.4378249516244978,
              0.2580695288954303,
              -0.301420735870488,
              -0.42968170281965284,
              0.15221700172405692,
              0.01704106357817078,
              -0.04965497106313706,
              0.11645349038299173,
              0.05065602029208094,
              -0.23690388752147556,
              0.21647207695059478,
              0.3528944414242408,
              -0.2675973230972886,
              -0.1309984996694217,
              0.06126276384958355,
              -0.2835663276980883,
              0.07748254783726187,
              0.3440802794988918,
              0.21280441317596957,
              0.1511137771980579,
              0.14731317185147055,
              0.14108633743599058,
              0.28109060029964894,
              0.17036308427341282,
              -0.20394800235517324,
              -0.003621925343759358,
              -0.30438383838627486,
              -0.286129642277956,
              0.3688745959661901,
              0.0010104888915320714,
              -0.01278806123637321,
              -0.010283618216835488,
              -0.0020209085614588066,
              0,
              0
            ],
            [
              -0.025177652815905126,
              -0.2689317216476195,
              0.30090746382709593,
              0.059065135138256064,
              0.013351178901263933,
              -0.022147272459076012,
              -0.3525156156918024,
              0.3917839785367289,
              -0.3859079563035133,
              0.13913507576166118,
              -0.4123969463981442,
              0.13845904235125034,
              0.23246086904937516,
              0.39576636285591676,
              -0.2938522804389292,
              0.09126813828390822,
              -0.17609782171197963,
              0.3020742646942203,
              -0.1089212766615674,
              0.4509694353553885,
              0.3282053513039738,
              0.05068053162500072,
              0.04529524358186476,
              -0.33426627067910836,
              -0.22450611743640284,
              -0.10344144380651414,
              0.27906667012721303,
              0.17916585474740715,
              -0.28284727747086436,
              0.3919254380509184,
              -0.27408621346112344,
              -0.3106136887567118,
              -0.218378350767307,
              -0.31050796341151,
              -0.009784760512411594,
              0.08477692236173145,
              -0.11643348068464547,
              -0.26699837555643174,
              -0.11435210555791855,
              0.035657487390562896,
              0.07831023603212088,
              0.009751045191466709,
              -0.11539383970666676,
              0.1942637008274092,
              -0.43884740618941664,
              0.027022005311813736,
              -0.4151219639022475,
              -0.16565244085458436,
              -0.37740683187900115,
              -0.07320567294700246,
              -0.2130947443601371,
              -0.386374596809037,
              -0.034265179093927144,
              0.04006178020499647,
              0.1526868578977883,
              0.36203620622400196,
              0.005022075539454818,
              -0.2125625921878964,
              0.34842134155333043,
              -0.011306004829944675,
              -0.008312472901738277,
              -0.006580950346926394,
              0.0008781650909096962,
              0,
              0
            ],
            [
              -0.15483970616080944,
              -0.5045317432842544,
              -0.30139170371377044,
              -0.4359571544149958,
              -0.0821296011625609,
              0.3333010446607112,
              -0.12365999320456252,
              -0.0891794299451462,
              -0.27156187573553736,
              0.16677482096562127,
              -0.21182464946748242,
              -0.17487431626422464,
              0.0028165355724011237,
              -0.22199055601888837,
              -0.07089435204847992,
              -0.4337444534133453,
              -0.4458256605180851,
              -0.14187720579718455,
              -0.31798700254876167,
              0.05741259644269366,
              0.29231044544745927,
              0.4285771609633509,
              0.026118441871212345,
              0.07875140020174315,
              -0.15466699428586755,
              0.28684476991184055,
              0.21872126951348037,
              0.37680236636660996,
              0.2852818236686289,
              0.2318414988394592,
              0.06110056734178215,
              0.2487412531161681,
              0.10629735162947328,
              0.06204183076042682,
              -0.35585863378364596,
              -0.29741455680432244,
              0.2706900492310524,
              0.010955825122073293,
              0.33426807560026645,
              0.31439737435430287,
              0.1362785186385736,
              0.2974424770034619,
              0.03997249868698418,
              0.13520247404567437,
              -0.3501945081912495,
              0.20292911706800656,
              0.44451205163097396,
              0.4163336064433149,
              -0.2180363849988397,
              0.213396999910606,
              -0.2925110993776566,
              0.4307269548531622,
              0.16377480570226907,
              -0.26867821121122687,
              -0.30425128005445007,
              0.1611080399248749,
              -0.42892606251407417,
              -0.4227845027111471,
              0.01611028842162341,
              0.004762980459582076,
              0.0057840668265066305,
              -0.00209373378088607,
              0.0005202219064974086,
              0,
              0
            ],
            [
              -0.03965873970206804,
              -0.2820496425478546,
              0.29357329466549426,
              0.0037725527858991498,
              0.25613026662020694,
              -0.22028045898661527,
              0.09810946037872083,
              -0.004705563112178912,
              -0.22458988622603257,
              -0.2630759560263817,
              0.36358438564037476,
              0.2191263961453462,
              -0.09229992319672671,
              -0.2980430590679344,
              -0.18328496394078342,
              0.16346289004179945,
              -0.3368818716099202,
              -0.17862973258241924,
              -0.3144426035229117,
              -0.17670623989287093,
              0.19774829768048344,
              0.19037750966967226,
              0.013955844596287825,
              0.08321960956844486,
              0.08188227429137467,
              0.4257474310928956,
              -0.40891968361102043,
              0.3153788646217436,
              -0.2082688032416627,
              0.2699210250562791,
              -0.20407988301012667,
              -0.14340019156225026,
              -0.09336564287077635,
              -0.06833668760955335,
              -0.44804884318728,
              -0.15891502252325526,
              -0.4466197368688882,
              0.24423769069835544,
              0.15636207286734136,
              0.19433656535111368,
              0.04550336643587798,
              -0.17067548206087316,
              0.32750508568715303,
              -0.0033632116444189046,
              0.3642198856401543,
              0.17626152504890644,
              0.10879675287966112,
              0.024990538379303602,
              -0.20234518676248647,
              -0.3618510327638185,
              -0.25616953125073205,
              0.09688111448194832,
              -0.40363808528054507,
              -0.38962488386314365,
              0.2966888661263511,
              0.04290513277519494,
              0.26524713111575693,
              -0.17018842531833797,
              -0.13626294527202845,
              -0.003250074907103754,
              -0.012347834504669548,
              -0.0076202777820812894,
              -0.0015054034189402458,
              0,
              0
            ],
            [
              0.2897134468296323,
              0.4819989344735759,
              -0.13431378904486385,
              -0.05828960021553759,
              -0.13476464154047374,
              0.10039179973558757,
              0.3935540214707922,
              0.42903664750191806,
              0.005700357958280468,
              -0.38003248475169676,
              -0.07579901529297134,
              -0.325133423310769,
              -0.17854647810363186,
              -0.26206905812679726,
              -0.13209303369451353,
              -0.22940370936889815,
              0.06402403460661472,
              0.2825696118367451,
              0.16020024796016516,
              0.28114533143019227,
              0.44584518047614885,
              -0.043052199360273095,
              -0.17617154316469497,
              -0.280542790885661,
              0.151531288610896,
              0.20038860936183484,
              0.16729525490663946,
              0.11088856109417976,
              0.20083595949690788,
              -0.1947635424028918,
              0.3307877027895302,
              0.10107628803234547,
              -0.27638817073311656,
              0.2947538442676887,
              -0.15831954900640996,
              -0.08540045373922447,
              -0.11010029548779131,
              0.26342880923766643,
              -0.3266312196850777,
              0.18527770531363785,
              0.003538657631725073,
              0.15738799332791714,
              0.4427078200969845,
              -0.2174303170845219,
              -0.22823237503339114,
              -0.44507844222145243,
              0.16551551351686894,
              0.005235210450247518,
              0.1484659030742797,
              -0.3440527257150976,
              -0.3164260055132832,
              -0.034070129273459315,
              0.057468216167762876,
              -0.0010218736482784153,
              -0.43741642395034436,
              -0.09249837091192603,
              -0.30694628634955734,
              -0.2615061645163223,
              0.033142234571278094,
              -0.017139277464136505,
              -0.028598935625693607,
              -0.027012424179025128,
              -0.0030518471722107967,
              0,
              0
            ],
            [
              -0.21395573914407032,
              -0.023749398626523983,
              -0.35240377792574495,
              0.10940026423287938,
              -0.027358412781662317,
              0.4335577689872166,
              -0.3831079957043606,
              0.29027616923702465,
              0.3847161595174156,
              -0.37160111446112465,
              0.0237519198821256,
              0.36904682939643685,
              -0.22586775239091234,
              0.2146182078829883,
              0.37873042672586227,
              -0.25409623094309586,
              -0.4045722705102504,
              0.18777761364031656,
              -0.21866482661571354,
              0.04027254243354953,
              -0.2264456453744306,
              -0.2114106655183925,
              0.09395580904249119,
              0.266073804985071,
              0.3652228684083131,
              -0.2706933022476733,
