(function (root) {
  const bots = [
  {
    "id": "control-0-fx20h9",
    "name": "Strategist",
    "schemaVersion": 1,
    "archetype": "control",
    "personality": "Uses blue wave timing to shape rallies, control ball routes, and keep the court predictable.",
    "generation": 1134,
    "lineageId": "control-0-fx20h9",
    "sourceBotId": "control-0-fx20h9",
    "difficultyBand": "absurd",
    "elo": 1151,
    "promotionScore": 1171,
    "selectedCandidateId": "control-1133-3xrrw7",
    "selectedCandidateGeneration": 1134,
    "selectedCandidateTrainingHours": 46.788,
    "selectedCandidatePromotionScore": 1171,
    "metadata": {
      "roleName": "Strategist",
      "designIntent": "Uses blue wave for ball control, tempo shaping, and long-term court management instead of pure rushdown.",
      "styleTags": [
        "strategist",
        "blue-wave-control",
        "ball-control",
        "tempo-manager",
        "control",
        "absurd",
        "active-mover",
        "goal-capable"
      ],
      "reviewState": "active",
      "rosterStatus": "published",
      "rosterVersion": 1,
      "source": "exported-bots.js",
      "publishedAt": "2026-03-19T19:11:31.298Z",
      "lineageRoot": "control-0-fx20h9",
      "sourceBotId": "control-0-fx20h9",
      "trainingHours": 46.788,
      "eloTier": "elite",
      "replacesBotId": "control-0-fx20h9",
      "promotionSeries": {
        "seeds": [
          1337,
          9256,
          17175,
          25094
        ],
        "matchesPlayed": 8,
        "candidateMatchPoints": 4.5,
        "existingMatchPoints": 3.5,
        "candidateWins": 4,
        "existingWins": 3,
        "draws": 1,
        "goalDiff": 2
      }
    },
    "trainingHours": 46.788,
    "controllerParams": {
      "moveThreshold": 0.4890835714228697,
      "fireThreshold": 0.646187626603831
    },
    "mutationProfile": {
      "source": "control-1132-ayuq1w",
      "kind": "clone-mutate"
    },
    "network": {
      "type": "mlp",
      "inputSize": 59,
      "layers": [
        {
          "weights": [
            [
              -1.1212571193119711,
              -0.7436958050495082,
              -0.1624853787092812,
              0.37019770595803037,
              -0.1269997796819985,
              2.629488637455504,
              -1.7140383538347777,
              -1.1823303777373018,
              -0.20751529642092872,
              -0.963140321282881,
              1.6227909950658432,
              3,
              0.410080450847441,
              -0.2946903280659374,
              -0.798992778045418,
              -1.0754431938221876,
              -2.18588927581287,
              -0.2901396331445239,
              -0.3632500809380781,
              0.0859654930329759,
              0.172909355997179,
              -0.8428518623246913,
              -2.2360289423612287,
              -0.35295582240721335,
              0.4765605368404503,
              -1.9658073966094654,
              1.2894414061410966,
              -1.094927500330176,
              2.2828986132474762,
              -0.2572471290526258,
              -1.5857991547693973,
              -1.6863578286178562,
              0.08943595003193114,
              2.6477950961428367,
              -1.183689615512275,
              0.5588664441908973,
              -0.5645253269044718,
              2.137357253441383,
              -0.30031310265459243,
              0.2565492485708248,
              0.24943668806810906,
              -1.5108282489749794,
              -0.531600079582195,
              -0.16834873082984353,
              -0.9907640247144254,
              0.19056891860543432,
              0.21723013654780227,
              1.2027120614020006,
              -0.6614869583875964,
              -1.867729102626631,
              -0.42936736717258656,
              -0.3819006594890752,
              -0.03158596061482563,
              1.524321334229168,
              -0.39371119178699143,
              1.4037152960579546,
              -0.2872533788403767,
              1.3141116193063211,
              -0.03400209718665798
            ],
            [
              1.8691839199185143,
              0.038270366883983026,
              -1.695431007909899,
              -1.3656672188310637,
              -0.8066611510046372,
              -0.06295377581632869,
              0.8526178574060808,
              -0.9449562930214466,
              -1.1289033128960193,
              0.9038829809783311,
              -0.13382531015226995,
              1.830431587802014,
              -3,
              0.09842239312611573,
              0.9327133320936424,
              0.5149728498160129,
              0.6707264453305055,
              -1.0942794463990222,
              -0.09540435902847974,
              0.4040019069840643,
              -1.897737361983022,
              0.20141842958478337,
              -0.16890289904354727,
              -0.2835291345347405,
              -2.5872023841904204,
              -0.2668644203971193,
              1.6666961037250738,
              1.927892412721257,
              0.8729219177469449,
              1.605999647845203,
              2.127772940205519,
              -1.3000210636599219,
              1.0798571190682051,
              0.7353038294417046,
              -0.699883091353037,
              1.120026824450108,
              -0.32865483111484484,
              -0.6632018559837028,
              2.5848871000441216,
              1.059629612072092,
              0.025690537011032834,
              0.2998493951401665,
              0.4517194331663838,
              1.312978304534784,
              -0.5490497694451385,
              0.3826486390682675,
              -1.8525138806274675,
              0.5357930826459811,
              -0.33182515627332937,
              0.3691242479627335,
              -1.6981213642583661,
              2.1093505017869036,
              -1.7127397751934055,
              0.3041244188406254,
              2.0061322096356173,
              -0.6560255316708762,
              0.7133773148991205,
              -0.4469195851146128,
              0.37882286763946793
            ],
            [
              2.8199498147066113,
              0.4981233915149421,
              -0.9609109939471727,
              1.1268701121204219,
              -0.11272570302877602,
              0.521929901046924,
              0.26715940684534273,
              2.014831267260778,
              -0.4283073003841972,
              -1.5263516261301595,
              -1.2080561098781972,
              2.4072765531928546,
              -1.087834900036004,
              -1.6694801521469047,
              2.074443194986349,
              -0.23068025871874645,
              -0.060701618996748946,
              -1.9290288305038463,
              1.9418612759674854,
              -2.17407286458977,
              -0.9857104541886414,
              -0.6006949851154337,
              -1.5831243095681964,
              1.4976151508992022,
              1.266473149144224,
              -2.1340796819526906,
              -2.6264625286225365,
              1.2067810746466898,
              -2.6332762069064604,
              -0.01418925234166804,
              -1.0487593897012362,
              -0.713028376844202,
              -1.8849756497955052,
              -2.416833818152546,
              -1.929701678013786,
              1.73919355616475,
              0.009793990124725758,
              -2.6799596033497766,
              1.0915282736478398,
              2.7133300749697815,
              -1.8053970513691764,
              -2.3329830208250484,
              0.8906785143859661,
              0.718525559256631,
              -0.19777293925136102,
              -0.14764801091017193,
              1.2882976461878186,
              -0.8627185444727119,
              -1.0149587136694862,
              0.6322922296812469,
              -0.8928676833714014,
              2.2485057310805336,
              2.2337391617412417,
              2.0877947466243305,
              0.3783558190462055,
              1.985227146722024,
              1.5833775655770195,
              -0.6519674513785126,
              -0.500365905921242
            ],
            [
              -2.8758496054052354,
              -1.1717919792964961,
              0.2596174566207442,
              0.15998751484377766,
              -0.7099299609336456,
              0.6021704834169856,
              -2.3523071280611476,
              -0.16036978707477847,
              -0.11648492119233643,
              -0.23521846494363155,
              -0.32427939727693345,
              0.0027724844161758078,
              -1.1602717684173438,
              0.36816429669765915,
              0.3764269869380218,
              0.7033106023230008,
              -0.5511703952380806,
              -1.503012315465108,
              -0.4533239410149318,
              -2.3170489922381243,
              2.8642312857736534,
              -0.011218324469711771,
              1.3427333812433997,
              0.08025271532631838,
              -2.4853027880068783,
              0.25964478208946484,
              0.32592069715533456,
              -0.19554123698251713,
              0.354656986307639,
              -0.3271788482285667,
              0.21229556717780784,
              0.5469541412136687,
              -1.9756861291891676,
              1.7924534657386695,
              0.9032643843719691,
              0.787712921879322,
              -0.962500069329723,
              -1.3101616008280823,
              1.0801541104674357,
              -0.410488650786005,
              -1.311306383362939,
              0.20772372103043504,
              -0.3204908376904684,
              0.11011495816257996,
              0.004788880548402097,
              -0.16359419044459372,
              -0.08886045194947012,
              0.29835091443250494,
              -0.23381599794198904,
              2.0239891166178534,
              -0.23721273686989292,
              0.48679196916310785,
              1.3434673640839183,
              1.1018348066956696,
              -1.016945369370205,
              -0.6230051047007443,
              1.9706384329011977,
              1.3640150755192826,
              -2.673608581179009
            ],
            [
              -0.6195641808659585,
              -1.8402588688116244,
              -1.3253174630514069,
              -2.6287603796321544,
              0.6751106889743743,
              1.182888564240521,
              0.07956350621796332,
              2.8271638690909078,
              -0.7344872807720592,
              -0.7847080586694782,
              -2.73347093044195,
              -2.910625286309538,
              1.9735115332674813,
              -1.4361598883900522,
              1.002890370199948,
              0.8922506772327913,
              0.30549433743404847,
              -0.13766351454871764,
              -0.6491564477634576,
              -0.20100977559645347,
              -0.018760770616886774,
              0.7927399243987489,
              1.9216711877695545,
              0.11141709320934583,
              -1.7209723223398437,
              -0.2395373219950359,
              -1.2440684208602666,
              -1.4570172654332907,
              2.11382136613343,
              0.4605340782035594,
              1.0524231924364302,
              0.3434920503315642,
              -2.3474797819737523,
              -0.8227611490343838,
              1.4668769199440612,
              2.4974053783582835,
              0.19878196815120047,
              -1.1001029412512158,
              2.022005111349899,
              -0.8323818754346481,
              -1.1037818858016362,
              -0.3600675146466329,
              0.10765544536842475,
              1.0728107515799592,
              0.03221706843082442,
              -2.1404981234824567,
              -1.9468683922970693,
              -1.1619063082372263,
              1.549201068741954,
              3,
              -0.22786025740082402,
              0.8055004098796077,
              -0.37225225058947775,
              -0.517719239005391,
              0.1671189827180673,
              1.9678470083146777,
              -1.7564637094569617,
              -0.9024451935740732,
              -0.7989246796162947
            ],
            [
              -2.3013322256835718,
              0.7385413218224164,
              -1.3817950904428027,
              2.610266827431982,
              1.0706183958543498,
              0.8612681274056719,
              1.1370874971956524,
              -1.687109922573344,
              0.6407047814604171,
              1.6695467806351805,
              0.8584742422861954,
              -1.3127158248684891,
              1.3006160681313417,
              2.096615394745363,
              -2.1340047794443677,
              0.10316305744125677,
              0.5570186419839958,
              -2.292444057143453,
              0.3802930067592782,
              2.527112173262401,
              2.9887889584247436,
              0.6646400510777298,
              -0.013830122674053431,
              3,
              -2.005390922493499,
              -1.1355794792280225,
              0.8942246989009486,
              2.7993967581365493,
              2.9294631582493906,
              -1.0480904381339207,
              -0.5996323926799613,
              -0.45844431212167275,
              0.8638060972628177,
              1.5214188693963395,
              -0.5834617888803462,
              -0.47668759530183763,
              -0.4880465627842711,
              0.6752103506656894,
              0.08176476712842606,
              1.1485699564307978,
              -0.8367315279361669,
              1.5893241703124104,
              -1.298081750453952,
              0.25210416694517757,
              -0.5409205803980518,
              2.5898168880073533,
              -0.7056486470135996,
              0.17919504445039858,
              1.4573347620279722,
              -1.4117319294563384,
              -0.545452979085211,
              -2.7624862849322676,
              -1.3026945564271708,
              -1.4220335459622107,
              -0.28015258841898183,
              3,
              -1.1477102420272447,
              0.018069028529149586,
              -0.8234601044227655
            ],
            [
              1.228600562230742,
              -0.37776901337003954,
              1.3728108806569386,
              -0.47353104446234445,
              2.120572556204361,
              2.9213275801596663,
              -0.6984284303128653,
              -0.4474423282925317,
              0.5052753741005666,
              1.9799518611157767,
              1.3972391494960965,
              -1.1761061189227293,
              -0.06729100536478291,
              1.8139594472114982,
              -0.9780289730314916,
              1.2164007346741785,
              1.1717776175509156,
              0.8786485827233815,
              -1.013052835119426,
              -0.785858219774951,
              -1.0574444025003753,
              1.6371455244463518,
              -0.5449240487640216,
              -1.0501509174019765,
              -0.6783373755236097,
              1.7667281302916624,
              2.0170462745337927,
              -0.34820415542287675,
              0.6297780704690317,
              -2.209833360995662,
              -1.0638354406845298,
              -0.6129104405859193,
              -0.5348127073264103,
              1.2593953831040539,
              0.786778361958223,
              0.8269879554266045,
              -0.43089679084009935,
              0.7967864867365484,
              -2.512017411743131,
              2.3879418147952425,
              2.179076222013396,
              -1.7462635506681037,
              2.758518017687755,
              1.936486109713632,
              2.612322242671147,
              -1.5032782563974838,
              1.1792004642241887,
              -0.4766363366920628,
              -0.09890616270386875,
              0.3633663223363688,
              -1.1886325348491844,
              -0.2947389616165999,
              0.7912067192020759,
              0.5527047925647568,
              -0.2788346392185168,
              1.0254803445145981,
              1.0513739540293505,
              1.2277980550877694,
              0.9549604692277385
            ],
            [
              -0.5964332231409305,
              1.7035294431596582,
              0.40000510783364596,
              0.015137349843883346,
              -0.06569315046542172,
              -0.5047349697764772,
              1.7544159100952792,
              -3,
              -2.688415386144706,
              -1.663850040337945,
              0.7361622559787033,
              -0.5799875208663964,
              -0.6226189364693343,
              -1.2657748482959905,
              0.533800203112678,
              -0.7150060648132317,
              2.186200222178392,
              0.37707145726338365,
              0.41289427840528625,
              -1.1852489132221853,
              -0.984822191611102,
              -2.235839703171924,
              0.18058614302978962,
              -1.9237864217075278,
              -0.5220193892522699,
              -1.8394996195143603,
              0.39754566918217993,
              -1.8256848894720665,
              -0.4006132556490585,
              -1.085738545445647,
              -1.022490751240217,
              -0.7756235163012539,
              -1.626747606637827,
              -0.5327634288550757,
              -0.766470887510035,
              -0.7016308605645087,
              1.9506414167823156,
              0.601250590028503,
              0.6836824722454871,
              -1.3121050330500321,
              1.226083570614295,
              1.035941842826003,
              -0.27254282385555895,
              -3,
              2.1405400604353138,
              -0.7114350265261,
              0.6994012954247956,
              0.5501427261758253,
              -2.4711329190221165,
              -1.0075405106771695,
              -0.6976163446889044,
              -0.47368983842717544,
              -2.1399316945790785,
              0.6508635429857318,
              -0.5513406237505187,
              -1.095772583712347,
              -0.8002612032416742,
              -1.491109647104498,
              -0.15857581973785803
            ],
            [
              -0.8029743199469506,
              0.10418421115738974,
              -0.6841533604127125,
              -1.386545928710051,
              0.7717466090868712,
              -0.3330318241915143,
              -1.003441006074084,
              1.498064390060366,
              0.048266886146748275,
              -0.7798451416141791,
              1.0886762451303948,
              -1.4096955609590731,
              0.7811104410641959,
              0.19076665675964222,
              1.4093054560053768,
              2.9648275511881974,
              -0.2971369474001305,
              -1.3487981728339686,
              2.225603939094431,
              -0.2203037109517361,
              1.3034242677891865,
              1.9502491043830288,
              1.0779643827571066,
              -0.49115767781432274,
              -2.7906521053913607,
              0.24450531300862588,
              -0.6358600304679267,
              -0.09804264895073918,
              0.5569051447835772,
              -2.362061896748231,
              0.08175032704946841,
              0.8639581284673877,
              -0.6777341996479392,
              0.554793230310233,
              -1.2229019632730767,
              -0.04304399620084909,
              1.8848235393588468,
              -0.636845143929992,
              -2.829870244147529,
              -0.6572262326609675,
              -0.010424999085093312,
              0.9549807072701105,
              -0.41976635644327176,
              -1.8558649176533648,
              0.41778269779124305,
              0.004340746581612598,
              -0.5451503750535353,
              -0.5776528388714907,
              -0.4519869790519542,
              0.6002652902259569,
              2.7769304501601453,
              2.689834450877909,
              0.4153874125127557,
              -1.8278418099496978,
              -1.0644495736603852,
              -0.9222091933530139,
              -1.1634603491971456,
              0.8475343540919688,
              -1.1846963613205552
            ],
            [
              0.07106231742950468,
              -1.3525767103340145,
              -3,
              0.7628391459151356,
              -1.5088382747826918,
              -1.0209610680038836,
              2.86506463412746,
              -0.4511472672681124,
              0.22822458143873886,
              -1.043201633328891,
              2.677176599187671,
              2.8046952502077303,
              0.5184064420526593,
              -2.534427276661505,
              2.1133834944307504,
              -0.7366220114925497,
              2.767674161753742,
              0.6976780823352015,
              1.0188972319092,
              0.9397053647826834,
              -0.20033458905192814,
              -0.23215789993522276,
              0.10614876932835338,
              -2.1446897323023393,
              2.0724167422902062,
              1.4703701579779316,
              -0.9452051651531233,
              -0.8513951529058839,
              0.15972175885860565,
              0.9376404223933997,
              0.5286150266766211,
              -1.7312935502021243,
              -1.4197347836329481,
              2.2972836007042834,
              -0.4062522158564018,
              -2.846751605255977,
              1.2615734961989007,
              -1.6673204712892313,
              -0.17817847818428784,
              -0.5125882082495927,
              2.4314987605476466,
              -2.3142973748983335,
              -1.7621320583036602,
              2.450800462363681,
              -2.929059447564633,
              0.004087299227125238,
              -0.5403966526191234,
              -0.7962571246985717,
              0.9356385781798299,
              0.40508748392382204,
              -2.724399333029618,
              1.257480450011511,
              -1.4494687714995003,
              -1.0302030809055391,
              2.7479448820797168,
              0.7317471943570875,
              -0.3248442417028566,
              0.2028386919887042,
              0.8157209999939161
            ],
            [
              1.4613207654846556,
              -0.659842381689753,
              1.175347391962938,
              0.8945006465901214,
              0.19396959976803604,
              -0.4361464480184225,
              0.573345706737223,
              -0.7148768593226154,
              1.5913123040552182,
              -0.9865262236061151,
              -2.075705835129135,
              -0.7588609332295362,
              2.4517844344147766,
              0.5780831192073451,
              2.942177013993747,
              -0.1765482821344708,
              -0.5611095064866808,
              2.760242291918904,
              0.019637661705234066,
              1.3607744514402638,
              1.4067170585575943,
              1.3820545701997224,
              0.0062147025929214506,
              1.5296358832547263,
              -0.9756613322793805,
              -2.351939419115886,
              1.015911863002546,
              1.0311255819261906,
              0.8418330142814335,
              -1.8610756923919438,
              1.5052658481768304,
              -1.4679110435048652,
              -0.12684926634643534,
              -0.6668659139972075,
              0.781716495999506,
              0.25051623539317286,
              1.729885487138142,
              -1.0176169022395132,
              -0.3120082314929926,
              0.11123488314208879,
              0.5350601674731583,
              -0.6642374824790993,
              2.5750798664178913,
              -0.8315942047176468,
              0.8517255008683797,
              0.5971766703226932,
              -1.4170649369259531,
              -1.8360877513514569,
              -0.3450839109181586,
              1.403578584757641,
              -0.6482411954429912,
              -2.141940978866532,
              -2.5177591873805993,
              -0.782104306464844,
              -2.2420007176848955,
              -2.1825820595016863,
              1.4431571423448495,
              1.0790823649089734,
              -2.1755560780202288
            ],
            [
              1.0379590684289777,
              0.31235096180740346,
              -0.38960901226369615,
              1.7161812095996933,
              0.7994628075582623,
              -1.2497432861910556,
              1.6657095004822888,
              -2.3320591696255244,
              2.4457941613227066,
              -2.697555513359462,
              -0.7428688901473872,
              -0.6860389128229596,
              2.1791825751530745,
              0.031704556480883606,
              1.6678291722236835,
              0.002355195018188816,
              0.45857889033323207,
              0.6954972867109185,
              -0.0025945501429169987,
              -0.9840258044606577,
              -0.029180756123057715,
              0.6702950399930095,
              -1.8713523068836633,
              0.5309713117211207,
              1.9854675137105264,
              1.6998222027357057,
              1.1295808834320586,
              -2.135614978578624,
              -0.8344164301240121,
              -1.4280064329946975,
              -0.17848947543118202,
              -0.11427592301297257,
              -0.31276515028241836,
              2.5089690430922174,
              -0.44790143613211947,
              1.1982879124777523,
              -1.4014722291011743,
              0.9679345173023239,
              -0.8720330014575052,
              0.8701434200940614,
              0.6040884311854658,
              1.9007289807378098,
              -2.7797174380156737,
              0.14389340679121634,
              -0.5725566816840544,
              -0.4109037711741801,
              -2.6247715050171028,
              0.07062623587916747,
              0.6649170888485254,
              1.466629048052501,
              -0.42854782681112924,
              -1.5549627106297184,
              -0.03671867985395269,
              -1.079282665713779,
              0.2692477922423866,
              0.13061151325255377,
              -2.867184895078133,
              0.8544981973987972,
              -2.190900624619307
            ]
          ],
          "biases": [
            2.3423716777024826,
            -1.17903491394083,
            -0.42251847344037324,
            -0.12773168829760786,
            -2.04655974903126,
            -2.092200200701426,
            -0.29734091852023303,
            -1.15901703321721,
            -2.048173575329122,
            2.82149049821479,
            0.31776963001279074,
            0.40445362386128075
          ]
        },
        {
          "weights": [
            [
              1.1019441720044796,
              1.0828493613875596,
              2.269789687415619,
              0.2354553938961595,
              -0.5943702371904107,
              -2.845364879103554,
              -0.8710799517113262,
              0.49816489520820817,
              1.3508658913188958,
              1.4279291905011264,
              -0.6445783096458804,
              1.3408341560194972
            ],
            [
              -0.04841592639574106,
              -2.734863593047391,
              0.7022950201227555,
              -1.869926579008467,
              -1.9120481260496118,
              2.0835019965913784,
              -0.7404457818923752,
              0.8560897116029738,
              -2.972880880341389,
              0.8765817726412746,
              -0.3803768737798836,
              0.14736491470529128
            ],
            [
              -0.07898272582105939,
              1.2868640110272802,
              0.12239982869095639,
              -0.1249034353564519,
              0.9102293117628888,
              1.6207790665846895,
              -1.3743573240310407,
              0.4808987406730001,
              1.4230717836603148,
              -2.0546503794089035,
              0.04783033130290604,
              -0.707556041984866
            ],
            [
              1.4732183498098748,
              -1.4022870648244437,
              -1.091257458866416,
              1.2553063053157154,
              0.1088586271671637,
              -0.20871438786384616,
              -2.5330595509665157,
              -2.667079286694072,
              -0.27285036143486296,
              -0.13673043011405367,
              -0.08097063421495534,
              -1.4519733772591161
            ],
            [
              0.08682702145959204,
              -1.3376721173849064,
              0.6411423510775026,
              1.5950434896329966,
              -0.42258114474774167,
              -0.8795328355451646,
              -2.4718711012366614,
              0.47156676184552243,
              -0.1995429753780647,
              -1.7163704191362363,
              -0.707456112477904,
              -0.5366437508832911
            ],
            [
              -0.09588244254043696,
              -0.9423696363223296,
              0.5278953794667852,
              0.6068394214478325,
              0.4157058610309726,
              -1.053033971764821,
              -0.8347954228076765,
              -0.47284137212368543,
              -0.7219244626530055,
              -1.6353861060858499,
              -1.620091657889152,
              -0.17626704001737825
            ],
            [
              -0.14369687142831,
              -0.8180118700485919,
              0.13493987001186558,
              2.2066435906146067,
              -0.800583811803645,
              0.08932470804085024,
              1.6982443039463222,
              0.3425925729992757,
              0.7202267376431288,
              0.4447669888223546,
              -0.1882865384683376,
              -0.2094063048683924
            ],
            [
              0.4768724720061699,
              -0.9722051027032992,
              1.7771303773981815,
              -1.4172414847795065,
              -1.4758165274328479,
              -1.2520148644842295,
              0.16066047270030911,
              2.1439526490733747,
              -0.3182562728917593,
              -1.957936529285191,
              -1.3113414992315378,
              1.0046866212743106
            ]
          ],
          "biases": [
            -2.8146418919055485,
            1.8279574387602542,
            0.7519900240828659,
            -1.0780643557046157,
            1.344358891799606,
            0.7404122207160156,
            -2.3462375235761406,
            -0.2769842839815092
          ]
        },
        {
          "weights": [
            [
              0.9207037239907059,
              0.017236408735509717,
              -0.1858330033317696,
              0.41712143838957094,
              -0.8058482193061682,
              0.011674030326317137,
              -1.7846389180903042,
              1.1342998667098154
            ],
            [
              0.2839378714684069,
              2.0053605498023064,
              0.3799905007720652,
              0.29680698900816394,
              1.0709227927136056,
              -0.6743674266812713,
              2.6792647450641733,
              -1.5470217320300605
            ],
            [
              1.3683286491409614,
              1.910947935070295,
              -2.2031555331029766,
              -1.0235186953746507,
              1.9325879562042267,
              3,
              -1.0883364338941166,
              0.9606189389822788
            ]
          ],
          "biases": [
            0.5937391133118376,
            -0.53018523096492,
            -0.34076437571395124
          ]
        }
      ]
    },
    "reviewBlocked": false,
    "profileBlocked": false,
    "roleFitScore": 248.13,
    "promotionBlockReasons": [],
    "metricAverages": {
      "win": 0.7021276595744681,
      "goals": 4.425531914893617,
      "goalDiff": 1.3829787234042554,
      "againstGoals": 3.0425531914893615,
      "rally": 9.76595744680851,
      "longestRally": 9.76595744680851,
      "durationTicks": 6795.063829787234,
      "paceScore": 1.1502772342245555,
      "shots": 80.25531914893617,
      "shotRate": 11.819544605885728,
      "powerups": 3.3404255319148937,
      "powerupRate": 0.4768888771698629,
      "ballHits": 18.21276595744681,
      "waveHits": 37.40425531914894,
      "waveHitRate": 0.4587200115723361,
      "ballHitRate": 0.22275495895849284,
      "activeMatch": 1,
      "inactiveMatch": 0,
      "movedTicks": 5211.95744680851,
      "movedTickRate": 0.7649127291990042,
      "paddleTravel": 18486.297993934368,
      "movementRate": 2.6862097785457353,
      "blueShots": 75.91489361702128,
      "pinkShots": 2.6382978723404253,
      "goldShots": 1.702127659574468,
      "blueShotShare": 0.9401794814002571,
      "pinkShotShare": 0.03648822157235334,
      "goldShotShare": 0.023332297027389426,
      "nonBlueShots": 4.340425531914893,
      "nonPinkShots": 77.61702127659575,
      "nonGoldShots": 78.55319148936171,
      "nonBlueShotShare": 0.05982051859974274,
      "nonPinkShotShare": 0.963511778427647,
      "nonGoldShotShare": 0.9766677029726109,
      "blueBallHits": 34.680851063829785,
      "pinkBallHits": 1.3404255319148937,
      "goldBallHits": 1.3829787234042554,
      "blueTowardHits": 11.25531914893617,
      "blueAwayHits": 19.76595744680851,
      "blueResistGrants": 3.574468085106383,
      "pinkThreatHits": 0.48936170212765956,
      "pinkEmergencyHits": 0.3404255319148936,
      "blueWavePowerups": 0,
      "pinkWavePowerups": 0,
      "goldWavePowerups": 0.2765957446808511,
      "goldPaddleHits": 0.8723404255319149,
      "goldCenterHits": 0.3617021276595745
    },
    "reviewSummary": null,
    "runtimeDisabled": false,
    "runtimeValidation": {
      "totalMovedTicks": 1519,
      "totalGoals": 5,
      "samples": [
        {
          "movedTicks": 648,
          "leftScore": 0,
          "rightScore": 1
        },
        {
          "movedTicks": 871,
          "leftScore": 1,
          "rightScore": 3
        }
      ]
    }
  },
  {
    "id": "control-0-94ckep",
    "name": "Defensive Specialist",
    "schemaVersion": 1,
    "archetype": "control",
    "personality": "Prioritizes pink wave survival windows, stabilizes losing rallies, and buys time to recover position.",
    "generation": 1,
    "lineageId": "control-0-94ckep",
    "difficultyBand": "absurd",
    "elo": 1050,
    "promotionScore": 1050,
    "controllerParams": {
      "fireThreshold": 0.6
    },
    "mutationProfile": {
      "source": null,
      "kind": "seed"
    },
    "network": {
      "type": "mlp",
      "inputSize": 59,
      "layers": [
        {
          "weights": [
            [
              0.11085987361148,
              0.38470928657334297,
              0.3233258813386783,
              -0.15768996372353286,
              -0.18694782739039512,
              0.26491560672875497,
              -0.38038751506246626,
              -0.06001568043138832,
              -0.28251286153681576,
              -0.21877734151203185,
              -0.3988405649084598,
              0.11154124669265002,
              -0.2701889578951523,
              -0.02967886046972126,
              -0.03721277466975153,
              -0.11899439999833704,
              -0.2938065418973565,
              0.1941064357990399,
              -0.09365344347897918,
              0.41595251590479165,
              0.09002623921260237,
              -0.17083933101966978,
              -0.1775221360847354,
              0.09329107829835266,
              -0.41940336723346267,
              0.15976242909673602,
              0.3180827002041042,
              -0.25205912722740326,
              -0.2928245600312948,
              0.39290213864296675,
              0.1831069814041257,
              0.02871751820202917,
              0.022399986209347845,
              -0.24397972086444497,
              0.3416276411851868,
              0.44569857472088187,
              -0.3022481671767309,
              0.3088639993686229,
              -0.10746705397032201,
              0.0800244898768142,
              0.44834803605917845,
              -0.33049153599422426,
              0.3990759096806869,
              -0.4421228527324274,
              -0.21578636351041497,
              0.26495294014457615,
              -0.28593493402004244,
              0.37710240518208593,
              0.38996093133464454,
              -0.2677060189889744,
              0.43811412749346346,
              0.04462376679293811,
              0.24927537711337208,
              0.27638342930004,
              0.049926977022551,
              0.44586613231804223,
              0.0787317173089832,
              0.19050132958218455,
              0.23447363746818156
            ],
            [
              0.08629514335189015,
              0.4210252510383725,
              0.11028458022046835,
              0.2681893103057519,
              -0.12726488378830256,
              -0.3440439163008705,
              0.2514135019155219,
              -0.42899334446992726,
              0.33289110325276855,
              -0.290007637697272,
              0.34198761961888524,
              0.27816687219310554,
              -0.2984298085793853,
              -0.41128172592725604,
              -0.3415137026226148,
              0.2589851533295587,
              0.16657534916885197,
              -0.2943503895308823,
              -0.2142502846196294,
              -0.07136399990413338,
              0.24511874711606652,
              0.14101105201989414,
              -0.34821111273486166,
              -0.2822768868645653,
              0.009474132000468672,
              0.30646479839924723,
              -0.44385793120600286,
              0.3179898991249502,
              -0.2623230350436643,
              0.4265630470588803,
              -0.27866223114542665,
              0.16062324929516764,
              -0.38513116976246237,
              -0.37092749211005865,
              -0.11702007099520416,
              -0.11429501725360751,
              -0.3620792221510783,
              -0.44775926540605726,
              0.2250830814242363,
              -0.13970497129485013,
              0.3313140814891085,
              0.15802480734419078,
              -0.32443632697686553,
              0.28018018626607955,
              0.40821310111787174,
              -0.308495533419773,
              0.35553998064715414,
              0.08160682513844222,
              0.32378743041772395,
              -0.30319186009000987,
              0.24400478317402305,
              -0.3612802972784266,
              -0.4259027620078996,
              0.030807539680972697,
              -0.010745765618048608,
              0.4286363822640851,
              0.1869263431057334,
              -0.16565399675164372,
              0.13537822030484678
            ],
            [
              0.4056512390496209,
              0.15206090218853205,
              -0.20457231835462153,
              -0.38983840425498784,
              0.11485327023547143,
              -0.16910509052686393,
              -0.060226879874244334,
              0.1267170348437503,
              -0.3581812325399369,
              -0.44300253661349415,
              0.10593578964471817,
              0.3254876864841208,
              0.3826350295683369,
              0.12881429283879697,
              0.21813110432121904,
              0.15357991196215154,
              -0.41859883822035043,
              -0.4354320720769465,
              -0.08212917339988053,
              0.11939725228585303,
              0.22484962132293732,
              -0.24371314994059504,
              -0.36067058821208775,
              0.21747747072950005,
              -0.1941213184967637,
              -0.3825974698411301,
              -0.091408680123277,
              0.36870348318479956,
              0.17538276028353722,
              0.36573307814542205,
              -0.08884767196141184,
              0.06088893015403301,
              -0.3075806174660102,
              -0.26464802348054944,
              -0.22082411048468203,
              0.2989457708783448,
              -0.326691506523639,
              -0.4403621602104977,
              0.24971336948219688,
              0.22347321999259293,
              0.22415105109103026,
              -0.23713284633122386,
              -0.3931607551407069,
              -0.12800308177247643,
              -0.33237609711941335,
              0.02818246486131102,
              0.31226090288255365,
              0.02024705791845918,
              0.032439527870155874,
              -0.2677727733040229,
              -0.3183498161612079,
              -0.32289616609923544,
              -0.1859603367280215,
              -0.20937023477163166,
              0.02170920674689114,
              0.42124908494297414,
              -0.35376972290687264,
              -0.07099391059018671,
              0.25959482782054694
            ],
            [
              -0.09658116430509836,
              -0.33252336841542274,
              0.2667232854757458,
              0.2803924233885482,
              -0.2963109347037971,
              0.2646778324618936,
              0.358064284035936,
              0.15223020133562387,
              0.21214043428190052,
              -0.09125272140372545,
              0.18788412725552917,
              -0.07383982152678073,
              -0.4395269938744605,
              -0.2844482616288588,
              0.08906762064434588,
              0.16736683468334376,
              0.08808427462354303,
              -0.33164860135875646,
              -0.3500458721537143,
              -0.3890285328263417,
              0.08242832268588245,
              -0.17012364682741463,
              0.26820187163539233,
              -0.17840543508064002,
              -0.16258250428363683,
              -0.307563318265602,
              -0.03812786035705358,
              -0.07787649831734599,
              0.03472193058114499,
              0.07870675809681416,
              -0.39659423602279276,
              -0.16276495065540075,
              0.24899404167663305,
              -0.11587533499114215,
              0.23261572408955544,
              0.3548923306865618,
              0.156651625293307,
              0.40358601899351926,
              -0.4442157468991354,
              0.1636111934669316,
              0.07235199809074402,
              -0.39403698630630973,
              0.25737714932765815,
              -0.4171548148384318,
              -0.2952462048036978,
              -0.2868940850486979,
              0.2428189031314105,
              0.37175040263682607,
              0.30837827268987894,
              -0.2665932107018307,
              0.05613009373191744,
              0.004762657312676311,
              -0.20434265651274472,
              0.36013492445927114,
              -0.3262410018593073,
              0.021224998869001865,
              0.25108621981926266,
              -0.2001696084626019,
              0.377273783669807
            ],
            [
              -0.20148238884285094,
              -0.23482385894749314,
              0.426731123495847,
              -0.07129054237157106,
              -0.06681299256160855,
              -0.25450551349204037,
              0.1791264742612839,
              0.2963077602675185,
              -0.38310545571148397,
              -0.1545004121493548,
              0.04684409962501377,
              0.09018500377424062,
              -0.01721967018675059,
              -0.2079449709272012,
              -0.2523294586921111,
              -0.2738050360232592,
              -0.2326866023009643,
              0.07979964909609408,
              -0.12471960301045329,
              0.31478607191238556,
              0.11136671472340823,
              0.3047830059891567,
              0.38988366443663836,
              -0.368743142997846,
              -0.17042746965307742,
              -0.23717157596256586,
              -0.21890309499576688,
              0.44173090676777066,
              -0.37805310599505904,
              -0.3645391009747982,
              -0.03815174228511751,
              0.2168823250103742,
              -0.42881817002780737,
              -0.07087041058111936,
              -0.42248308821581304,
              0.2471979322610423,
              0.08956680321134627,
              -0.3890712650259957,
              -0.18551964391954243,
              -0.12275388557463884,
              -0.15174914589151742,
              0.022058683075010778,
              -0.16569909097161145,
              0.22954368134960532,
              0.33408168449532244,
              -0.2348547823028639,
              0.21120975092053415,
              0.34208612458314747,
              -0.426526837865822,
              0.2852968888822943,
              -0.34176586128305647,
              -0.04650827846489847,
              -0.23171888496726753,
              0.3125289720715955,
              -0.14200050509534776,
              -0.4140120640397072,
              -0.4399912442313507,
              -0.07133674614597112,
              -0.24645725113805383
            ],
            [
              -0.39788864683359865,
              -0.4298166367923841,
              -0.2709337893174961,
              0.15538849490694703,
              -0.20672032185830178,
              0.05740376163739711,
              -0.3924856284633279,
              -0.23149063987657428,
              -0.0820898532634601,
              0.43362519589718435,
              0.05003540008328855,
              0.17036412111483515,
              0.2039016173221171,
              0.40688677243888377,
              0.3156617752276361,
              -0.2506082126637921,
              0.07947699255309999,
              0.16894857545848938,
              -0.26051102809142324,
              -0.31114250784739855,
              0.39969122246839106,
              -0.09364133644849063,
              -0.1037720489082858,
              0.39922044868580997,
              0.12040729529689997,
              0.2845967227360234,
              -0.0006693561561405659,
              0.4143906486220658,
              -0.05940218064934016,
              0.07354069110006094,
              -0.16004617328289897,
              0.11899332250468433,
              0.435723360395059,
              0.21954824421554806,
              0.32177039079833775,
              -0.26708272914402187,
              0.38408289751969277,
              0.16483389604836704,
              0.18159679714590313,
              0.08619454018771648,
              -0.1630965666146949,
              0.1113217439269647,
              -0.2624629510100931,
              0.37404138087294997,
              -0.2687438651919365,
              -0.39803094849921766,
              0.21696562750730664,
              0.10754559009801597,
              -0.2737331624608487,
              0.13082948948722334,
              0.3574217929271981,
              -0.0624142994871363,
              -0.21665888044517487,
              0.13931214376352727,
              -0.2836569644976407,
              -0.44709029502701014,
              -0.2678778800647706,
              0.09827640778385104,
              -0.40977914824616163
            ],
            [
              0.2368821528274566,
              -0.39284490030258895,
              0.06754826547112316,
              -0.11972829177975655,
              0.4236998119857162,
              0.1714241443667561,
              0.07723205862566829,
              -0.3796109019778669,
              0.006026614783331752,
              0.3641422995831817,
              -0.11658079724293202,
              0.23016045845579355,
              0.06769974699709565,
              0.06834155770484358,
              0.05430658848490566,
              -0.2039984301896766,
              -0.05863679575268179,
              0.3472379746148363,
              -0.39165164523292334,
              0.18472755365073681,
              0.39301809556782247,
              0.26063813525252044,
              0.1578681709477678,
              0.43396637204568833,
              0.32571046405937526,
              0.07134452727623285,
              0.41160732409916817,
              0.38806008459068836,
              -0.0448293968802318,
              -0.18349959687329828,
              0.2879705514991656,
              -0.10826648301444948,
              0.07006820964161307,
              -0.4445430711144582,
              0.1265879728132859,
              0.34710288264323025,
              -0.07152291114907712,
              -0.2579694772604853,
              -0.21662252394016832,
              0.13308829441666603,
              0.3024085178039968,
              -0.07099022339098156,
              0.33018427952192725,
              -0.28427941573318094,
              -0.30133110273163766,
              -0.18694087606854737,
              0.19467026400379836,
              -0.28730656856205317,
              0.44133792018983514,
              0.08502893617842347,
              0.42118955687619747,
              0.24368457708042116,
              -0.05582670697476715,
              0.18423920364584775,
              -0.2642655362840742,
              -0.1012414873810485,
              0.40364463741425427,
              -0.3593758708331734,
              -0.35412943626288323
            ],
            [
              0.11963609231170268,
              -0.41930418857373297,
              -0.15577897089533507,
              -0.4132350171916187,
              0.17161331386305392,
              -0.16136392371263356,
              -0.08796239253133535,
              -0.14067356328014285,
              0.1906831284519285,
              -0.14447175606619567,
              -0.10072317018639297,
              0.027366973785683514,
              -0.1892677194206044,
              0.299644893896766,
              0.25282740702386947,
              0.443943361658603,
              0.04020695728249848,
              -0.11155226365663111,
              0.3069853615248576,
              0.4035320280119777,
              -0.26049977412912995,
              -0.12944745656568557,
              -0.4076509478269145,
              -0.3620458516990766,
              -0.05203047743998468,
              0.036235252604819836,
              -0.42682288081850855,
              -0.07710003484971821,
              0.435404458316043,
              0.14249133341945708,
              0.05384719292633235,
              0.04425247949548066,
              -0.14356361918617042,
              0.0615664942888543,
              -0.20735037275590004,
              -0.12281791807617992,
              0.24252626637462527,
              -0.4411287221359089,
              -0.39358595525845885,
              0.03841839241795242,
              -0.3545377363683656,
              -0.0347396157681942,
              0.4173570487881079,
              0.2049423854565248,
              0.19693276891484857,
              0.039096689759753646,
              -0.4052566561382264,
              -0.21155243162065746,
              0.17196570897940547,
              0.32466776913497597,
              0.2398707549786195,
              -0.32423630522098396,
              -0.08497698598075658,
              0.15735056286212057,
              0.282779478142038,
              0.05255528704728931,
              -0.4143666541669518,
              -0.14423130084760488,
              -0.11469836407341064
            ],
            [
              -0.3152510175481439,
              -0.007393999071791768,
              -0.279215404484421,
              0.020151166222058238,
              -0.3792474672663957,
              0.33361599140334874,
              0.25331956010777507,
              0.07176606932189315,
              0.25863235755823555,
              0.23158255959860982,
              0.09101710505783558,
              0.17729511265642942,
              0.2764783744700253,
              0.25706016523763536,
              -0.3650308575946838,
              0.3011100484756753,
              0.31059297958854587,
              0.35618886358570306,
              0.18183371897321196,
              -0.17329073993023486,
              0.3875554081052542,
              -0.2838308145990595,
              -0.04263828210532666,
              0.11042617550119758,
              0.10150250173173846,
              0.27593893529847263,
              0.1704695880878717,
              0.26371437816414983,
              0.41921996406745166,
              -0.26397635622415694,
              -0.3516771920956671,
              -0.13941628995817154,
              0.21828655572608113,
              0.12658374309539797,
              0.4069692610530183,
              0.2938769959844649,
              -0.12166890897788107,
              -0.2831943557364866,
              -0.43766432753764095,
              0.35761157346423716,
              0.18449362961109728,
              -0.3974084335612133,
              -0.4116388274822384,
              -0.21430334814358504,
              0.3791718017309904,
              0.1813952073454857,
              0.3767199904890731,
              0.1353917063679546,
              -0.20686946357600391,
              -0.01996663296595216,
              -0.19460464208386838,
              0.25060045793652536,
              -0.05243973622564226,
              -0.20706519212108107,
              -0.33763336865231397,
              0.34021511636674406,
              0.3955315305618569,
              0.3499226692831144,
              0.4348366143414751
            ],
            [
              0.33984266461338847,
              -0.00442344001494348,
              -0.13696413380093872,
              0.022711225342936816,
              0.1448546017985791,
              0.013696742872707546,
              0.43040072615258396,
              0.44937700519803914,
              0.2602066721767187,
              -0.19252015266101807,
              -0.3388133664848283,
              -0.36140562349464744,
              0.3446422343607992,
              0.025054675969295205,
              -0.18097725904081016,
              -0.38468668749555945,
              0.4103900257498026,
              0.3845506527693942,
              -0.3976945552742109,
              0.21958952865097672,
              0.35044849771074954,
              -0.3458094112342224,
              0.07647479914594442,
              -0.108261991571635,
              -0.2767251003999263,
              -0.43861224870197474,
              -0.26961871585808694,
              0.15251873577944935,
              -0.42588185041677207,
              0.366545199486427,
              -0.39771871694829314,
              -0.38400055600795896,
              0.14106766926124692,
              0.25833950706291947,
              0.40167416869662703,
              -0.40954070824664085,
              -0.008880332414992155,
              0.3406031624414027,
              0.19816520833410323,
              -0.2507715891581029,
              0.27938623961526904,
              -0.435284024826251,
              -0.40172524235676976,
              0.12899757090490313,
              -0.24459894485771658,
              -0.4494608437176794,
              0.17282454979140313,
              -0.08351718534249812,
              0.14100022700149567,
              -0.1308400502661243,
              -0.30949300336651503,
              0.1735536230262369,
              -0.38775792766828093,
              0.09250157175119966,
              -0.021536099491640925,
              -0.37343290499411524,
              0.05732101255562157,
              -0.034272733912803235,
              0.13743774904869496
            ],
            [
              -0.2815052216174081,
              -0.08989885104820132,
              0.1959751597372815,
              0.4246452397434041,
              -0.22175166341476144,
              -0.2975878652650863,
              0.025366727099753916,
              -0.14382752487435937,
              0.12777651767246426,
              0.07077496857382358,
              -0.3804610358783975,
              0.17278216460254045,
              0.4377739087678492,
              0.13432296845130623,
              -0.08174485915806144,
              -0.049991635233163835,
              -0.18520426265895368,
              0.02212244065012783,
              0.16192482244223358,
              -0.3419623205205426,
              -0.3635940290289,
              0.05271550670731813,
              0.29264452911447736,
              -0.2995758894598112,
              0.297942408034578,
              0.3295360612682998,
              -0.34248546715825795,
              0.25663090366870167,
              0.10813383457716555,
              -0.056524189026094976,
              -0.1807707727421075,
              -0.004804491600953043,
              -0.1612721852492541,
              -0.3585130888503045,
              0.16931246635504069,
              -0.21301485265139491,
              -0.24892283594235778,
              -0.3393017615424469,
              -0.3991891121026129,
              -0.32505014506168667,
              -0.42656638075131925,
              -0.3737587814452127,
              0.06877229826059193,
              -0.26828148986678574,
              -0.3964951221132651,
              -0.02115237826947123,
              0.05135388392955065,
              0.3078674688236788,
              0.34332645137328655,
              -0.046507092216052114,
              -0.13392185415141286,
              0.07535958713851869,
              0.07241645890753716,
              0.3285483210347593,
              0.05639167784247547,
              -0.322420476959087,
              0.1385953873163089,
              -0.00944356278050691,
              0.11862559311557562
            ],
            [
              0.42609281789045783,
              0.4203949589515105,
              0.07451034192927182,
              -0.09836002481169999,
              -0.38859075566288087,
              -0.3192831630818546,
              0.30424754654522984,
              0.1480254170950502,
              -0.085781364957802,
              -0.26578621300868693,
              -0.11067884105723351,
              0.24505595199298114,
              -0.30074392987880855,
              -0.40892760555725544,
              -0.06781207749154419,
              -0.03589176996611059,
              -0.4015808563213796,
              -0.18035297258757055,
              0.04018410046119243,
              -0.10890675920527429,
              0.06533267218619586,
              0.43265994095709176,
              0.2030830534407869,
              0.35446381552610545,
              0.1322835784871131,
              0.2940149340312928,
              0.2570263555739075,
              -0.27625224853400143,
              -0.4446698360843584,
              -0.018258723593316973,
              0.021073224814608695,
              -0.43220998907927427,
              -0.14070233814418318,
              -0.18225075176451355,
              0.3313521818490699,
              0.05262455677147955,
              0.43167761249933395,
              0.15468027940951287,
              -0.015133293368853629,
              0.42214088696055113,
              -0.34622093313373625,
              0.3273020242340863,
              0.3511355296242982,
              0.2615233574761078,
              -0.286416107439436,
              0.3480377762345597,
              0.21589726698584855,
              -0.44209497682750226,
              0.24968976394739004,
              -0.0337801453890279,
              -0.40025799502618614,
              0.236157231987454,
              0.16958877914585174,
              -0.04270993480458856,
              -0.15161196389235557,
              0.028940158942714334,
              -0.4375835138373077,
              -0.18260251111350953,
              -0.25451808341313154
            ]
          ],
          "biases": [
            0.11482911736238748,
            -0.34854541027452796,
            0.07737501428928227,
            0.19287435051519425,
            -0.158169437921606,
            -0.29132476325612516,
            0.1502598937600851,
            0.3815637869294733,
            -0.16626743115484716,
            -0.04636069640982896,
            -0.2660263159777969,
            -0.040200417512096465
          ]
        },
        {
          "weights": [
            [
              -0.26648436775431034,
              0.2854997855145484,
              -0.2326215473236516,
              0.33120302089955656,
              -0.26180560123175384,
              -0.3112976150587201,
              0.0693527704104781,
              -0.07573895570822059,
              -0.23674037265591322,
              -0.15511544845066963,
              0.01107968664728105,
              0.06055529003497213
            ],
            [
              0.008064963016659021,
              0.3002669690409675,
              0.2945400810334831,
              0.08930644793435931,
              -0.1186564099509269,
              0.18449550922960042,
              0.13515349554363637,
              0.120577660552226,
              0.2760528832208365,
              -0.13577665560878813,
              0.016188166150823236,
              0.30354299480095503
            ],
            [
              0.15952403068076818,
              0.025037203752435743,
              0.2728319748537615,
              -0.3209564915159717,
              0.31883393225725737,
              0.3340341954724863,
              -0.34513763259164987,
              -0.18562536558602005,
              -0.2417849261080846,
              0.05444898821879178,
              0.17099718714598566,
              -0.12190269208513199
            ],
            [
              -0.3402903189649805,
              -0.10341159966774284,
              -0.126197471213527,
              0.2675432994728908,
              -0.31892134132795036,
              0.09098104746080934,
              -0.12259445218369364,
              -0.052983666653744876,
              0.19621419203467666,
              0.25876192590221764,
              0.17928986051119863,
              0.3190163247985765
            ],
            [
              0.17482354699168354,
              -0.26485019675455984,
              0.2629304405301809,
              -0.21304105576127766,
              0.12361537027172743,
              -0.09928802114445716,
              0.019990958063863216,
              0.18827668132726103,
              0.16907743206247686,
              -0.20671552417334169,
              0.29187337772455063,
              -0.15050062085501847
            ],
            [
              -0.17679658820852637,
              0.19197986207436768,
              0.29538614267949015,
              -0.2147953173611313,
              -0.07796563452575356,
              0.33516835225746033,
              -0.13910047486424446,
              -0.1849912430625409,
              -0.1824887497583404,
              0.01741515325848013,
              -0.25727947368286547,
              -0.3242164212279022
            ],
            [
              -0.10976930982433258,
              0.25059639909304676,
              0.20529034982901065,
              0.2552473246352747,
              -0.07656298829242586,
              -0.17932069986127316,
              0.3231980379903689,
              0.055919894343242044,
              -0.08888890510424971,
              0.21109004702884704,
              0.15345066643785685,
              0.0717905991943553
            ],
            [
              -0.2931147513678297,
              -0.3090377735905349,
              0.23921414096839724,
              -0.20975891558919102,
              0.23374989349395034,
              0.15796315032057462,
              0.0824374436168,
              0.11743447103071956,
              -0.0804687238531187,
              0.29821146719623354,
              -0.21303430816624314,
              -0.2627016385318711
            ]
          ],
          "biases": [
            -0.08060996455606073,
            0.03584220537450164,
            -0.07399607901461422,
            -0.10449260037858038,
            0.05608223853632807,
            0.11859351671300827,
            0.17388169332407413,
            0.12146455426700413
          ]
        },
        {
          "weights": [
            [
              -0.24257128627505153,
              -0.006136437063105404,
              0.12579539534635842,
              0.1388947459636256,
              -0.2448748586466536,
              0.0664264012593776,
              -0.1827069103019312,
              -0.12686376739293337
            ],
            [
              0.09325530903879553,
              -0.13423535181209445,
              -0.18833731056656688,
              -0.04932866618037224,
              0.0710473710205406,
              0.1328073135809973,
              0.04197222867514938,
              -0.1962783356430009
            ],
            [
              0.19976065296214074,
              -0.0720164900412783,
              0.1994965891353786,
              0.08696278417482972,
              0.053394167334772646,
              0.11399672739207745,
              0.23159836314152926,
              0.09489278763066977
            ]
          ],
          "biases": [
            0.1764840621035546,
            -0.11891536111943424,
            0.20004975178744644
          ]
        }
      ]
    },
    "reviewBlocked": false,
    "reviewSummary": null,
    "runtimeDisabled": false,
    "runtimeValidation": {
      "totalMovedTicks": 0,
      "totalGoals": 8,
      "samples": [
        {
          "movedTicks": 0,
          "leftScore": 2,
          "rightScore": 3
        },
        {
          "movedTicks": 0,
          "leftScore": 1,
          "rightScore": 2
        }
      ]
    },
    "metadata": {
      "roleName": "Defensive Specialist",
      "designIntent": "Prioritizes pink wave usage to stay alive, blunt dangerous pushes, and extend fair recovery windows.",
      "styleTags": [
        "defensive-specialist",
        "pink-wave-defense",
        "survival",
        "reset-rallies",
        "control",
        "absurd",
        "static-lane",
        "goal-capable"
      ],
      "reviewState": "active",
      "rosterStatus": "published",
      "rosterVersion": 1,
      "source": "bot-roster.js",
      "publishedAt": "2026-03-19T19:11:31.315Z",
      "lineageRoot": "control-0-94ckep",
      "sourceBotId": null,
      "trainingHours": 0,
      "eloTier": "elite"
    },
    "trainingHours": 0
  },
  {
    "id": "aggressive-0-9aaccq",
    "name": "Sniper",
    "schemaVersion": 1,
    "archetype": "aggressive",
    "personality": "Uses gold waves to line up pickups, create punish windows, and convert brief openings into scoring pressure.",
    "generation": 306,
    "lineageId": "aggressive-0-9aaccq",
    "sourceBotId": "aggressive-0-9aaccq",
    "difficultyBand": "absurd",
    "elo": 1570,
    "promotionScore": 1594,
    "selectedCandidateId": "aggressive-296-2tttjs",
    "selectedCandidateGeneration": 306,
    "selectedCandidateTrainingHours": 8.639,
    "selectedCandidatePromotionScore": 1594,
    "metadata": {
      "roleName": "Sniper",
      "designIntent": "Uses gold waves to secure powerups and punish exposed opponents rather than spending charge indiscriminately.",
      "styleTags": [
        "sniper",
        "gold-wave-punish",
        "powerup-hunter",
        "precision-pressure",
        "aggressive",
        "absurd",
        "active-mover",
        "goal-capable"
      ],
      "reviewState": "active",
      "rosterStatus": "published",
      "rosterVersion": 1,
      "source": "bot-roster.js",
      "publishedAt": "2026-03-19T19:11:31.315Z",
      "lineageRoot": "aggressive-0-9aaccq",
      "sourceBotId": "aggressive-0-9aaccq",
      "trainingHours": 8.639,
      "eloTier": "elite",
      "replacesBotId": "aggressive-0-9aaccq",
      "promotionSeries": {
        "seeds": [
          1337,
          9256,
          17175,
          25094
        ],
        "matchesPlayed": 8,
        "candidateMatchPoints": 5,
        "existingMatchPoints": 3,
        "candidateWins": 5,
        "existingWins": 3,
        "draws": 0,
        "goalDiff": 6
      }
    },
    "trainingHours": 8.639,
    "controllerParams": {
      "fireThreshold": 0.46503413829041124,
      "moveThreshold": 0.5296316772385503
    },
    "mutationProfile": {
      "source": "aggressive-291-3isr4j",
      "kind": "clone-mutate"
    },
    "network": {
      "type": "mlp",
      "inputSize": 59,
      "layers": [
        {
          "weights": [
            [
              1.584699210636192,
              0.2703480528213967,
              -0.5654621464782511,
              -0.7008430437317813,
              -1.3424961239185065,
              0.27392258106087936,
              0.5700017001401401,
              -1.719399400418446,
              1.5531749848086884,
              0.5826125593450294,
              0.12266026273668851,
              0.5447551730765583,
              -0.40538662834170547,
              0.6599072738677652,
              0.009444728485037635,
              -0.7121519372068958,
              -1.1811852209632756,
              0.5279016854660148,
              -0.8055044836396672,
              -0.08285508149136006,
              -1.7721923478690949,
              -0.5485929035767068,
              0.18578387448239908,
              0.980840300540869,
              -0.6674044093381009,
              -0.5609667013434685,
              0.05040368822488861,
              0.42766453721996045,
              0.47316719577500876,
              -0.5361931421392384,
              -0.6471393447055114,
              0.8960459424787888,
              -1.2275177439332496,
              -1.0796516772902602,
              1.350734931653309,
              -0.1307884867614149,
              0.1894186171363376,
              1.0851804843049841,
              -0.008526691925554025,
              -1.4064857833075637,
              -1.249641277696554,
              0.5871753306177648,
              -1.155567466310187,
              0.240892572147747,
              -0.6194531735362676,
              -0.10326297466497233,
              0.880342010112487,
              -0.10131876609586596,
              0.07294747710367075,
              0.3271073265608546,
              -0.19828080031024553,
              1.2879523652833236,
              -0.7914216167501735,
              0.27716723532925686,
              -0.014835021972299176,
              -0.16648284472643085,
              -0.5770711494663622,
              -1.516493837115186,
              -0.985978678461992
            ],
            [
              1.597129424992236,
              0.3499733400978403,
              0.6539198004418822,
              0.48164328064812123,
              0.33432402691024543,
              -0.0392174010899278,
              0.800085575148153,
              -0.34925564807054754,
              0.1938749826964552,
              -1.3849193177650279,
              0.9245216246036367,
              -0.1224502320325756,
              -0.7670164954582278,
              -0.3860493264493259,
              0.23112647852674786,
              0.024140290593110125,
              -0.959837047289203,
              2.550303284052598,
              -0.0877162945647693,
              -0.8359755687477693,
              -1.8272599804639802,
              -0.14191708547647194,
              -0.5141702741694574,
              0.4057823653094716,
              0.626873886705863,
              -0.4959590287831661,
              0.39166148135436063,
              0.43284971356083773,
              -0.4350253493050493,
              -0.3849123526936431,
              0.815536767841377,
              -0.7468141441088884,
              0.3653903357036729,
              -0.5415217165024384,
              0.40456568388250563,
              0.7677652702500124,
              -1.6438794152190486,
              0.04211089336504946,
              2.187238357302896,
              0.8584451066673335,
              0.3464826495230704,
              -0.047384850283709166,
              1.0142893078444275,
              0.20214582699848088,
              -0.0018241109064910804,
              0.71035488790131,
              -0.9569446522667624,
              0.20712096907454344,
              0.746337361597153,
              -0.3501999785974842,
              -1.0118779777015703,
              0.44221988039189525,
              -0.4435254656604586,
              0.5915243629343923,
              -0.7280388255366612,
              -0.6115421945382792,
              0.17812361261096207,
              -0.37068029555826126,
              -0.6043254044444873
            ],
            [
              0.3818352102631149,
              0.6259467308622201,
              -1.332392178031475,
              -0.5170855770751224,
              -0.9659526123999219,
              -0.6152165105496407,
              -2.7086980131026324,
              -1.1633479205000619,
              0.6634850657495519,
              -1.2814306150469614,
              -0.11985518086009492,
              1.7885516529819998,
              1.8345583036008732,
              -1.4107930892388691,
              -0.09814104632504157,
              2.2681000165465286,
              0.3834086046165248,
              -1.3985710889041674,
              -0.4137249498670191,
              0.4599739684132253,
              0.9041275498419425,
              -0.41439559087872346,
              0.6074535921754051,
              -0.3687066432492916,
              -0.01575038655321176,
              0.09259134761959242,
              -0.4348660870441895,
              0.550902086884199,
              -0.29957490936644404,
              1.8246391600253256,
              1.0633457130627804,
              0.9444896789619903,
              0.08516294557295616,
              0.6261476935362198,
              1.540350386226513,
              -0.23139859877910046,
              1.1159876651080631,
              0.46155059578513,
              1.6655340639245884,
              0.5715735731089371,
              -0.39625382659922553,
              1.9221189064792197,
              0.7695719143476325,
              -1.0320122774303784,
              -0.18006208164174495,
              -1.310067465907193,
              -1.79363812033638,
              1.3129688978726208,
              0.7130351484230933,
              0.40019212767309265,
              -0.925952624238596,
              -0.4034460073194781,
              -0.83690054977051,
              -0.19331277342404216,
              -0.8061195692209773,
              0.6200253924352767,
              -0.4024730620629653,
              -1.344014592774565,
              0.4223495842641587
            ],
            [
              0.40454635925096766,
              -0.6576602225596074,
              -0.028837538106670446,
              0.23737077666970366,
              0.5418855409520723,
              0.24798619512258893,
              1.436730184841624,
              -1.1913703820197872,
              0.3417850754689938,
              -0.6647869629391933,
              1.4423327267027741,
              0.13017855907619358,
              0.7052017042591784,
              -0.8578516633245796,
              0.5910832824601417,
              0.025471499209686665,
              0.10695061167303044,
              -0.6415280619119709,
              1.4307888622891753,
              -0.7250395200614032,
              0.1729011167726135,
              0.056743893751666455,
              0.0545055285434809,
              -0.1699170841647603,
              0.5140693018318814,
              -0.6957474447526438,
              0.7445599924613654,
              1.3990944784768566,
              0.3756978570670362,
              -0.24450571691085543,
              -0.6070537664574966,
              0.38199914485270514,
              0.7571055865875184,
              -2.122178344472407,
              -1.5225179410557634,
              1.469194210521269,
              0.5301767047634847,
              -0.6019164977258995,
              0.10050182498339333,
              -1.0425818402432472,
              0.4915453796459749,
              1.5155980291164606,
              0.05830956227005821,
              0.7353663605090354,
              1.2579683952663456,
              -0.41936303405586023,
              0.1008254838620902,
              -1.4083853409020972,
              -1.2710816258038617,
              -0.6491459796458476,
              1.358728106914454,
              -0.8162667426495935,
              -0.9695304209107504,
              -0.3719436290715835,
              -0.2850904216014795,
              2.0177447283947756,
              0.8299381420185383,
              0.01364803361087278,
              1.81356404132529
            ],
            [
              -0.5807899859448595,
              -1.2007215081903921,
              -0.19283928855456067,
              0.4231847520809887,
              0.745469148642193,
              -0.27437852784001676,
              -1.3424171979220227,
              -0.34481008515923195,
              -1.2871450958873827,
              -0.16940033397949836,
              0.2202474879027435,
              0.4867823660694179,
              2.0382741455863354,
              0.9258617123920619,
              -0.7471254439587178,
              -1.2791850930021822,
              0.04872167513562412,
              -0.20136509936442606,
              -0.15910889205158352,
              -0.5262841104627601,
              -0.8862122092403143,
              1.1378937142538366,
              -1.2557017009313676,
              -1.4907523415419452,
              0.8574183888092735,
              -1.573956397567732,
              0.2472648505132591,
              1.530560251314341,
              -0.6044912068057979,
              0.5563052023341023,
              -0.3450463851392372,
              -0.23709979839385714,
              0.9486806527122884,
              0.06025231389883386,
              -0.817406670257591,
              1.5709532466637381,
              0.8065965372277787,
              -1.0978221435519289,
              -0.5285297326929033,
              0.5034853224780952,
              1.5071538301365675,
              -0.36431678855284355,
              0.5200156340799166,
              0.5894416019363378,
              0.6693867674544391,
              -1.8690834623461678,
              0.5840005128235024,
              -0.27259678617820926,
              0.10282857399407874,
              -0.890607672000829,
              1.467971148381127,
              0.9858755737458544,
              1.466908582431126,
              1.0109565746367961,
              0.47275973980762104,
              1.2576227152214532,
              0.6228215739415488,
              -0.5691776218946206,
              -0.35401884900626
            ],
            [
              -0.9659594460918146,
              -0.08056171615775426,
              1.35178263438497,
              -0.17361303891030888,
              0.8571765380377159,
              0.023924797393158982,
              0.8876207712599743,
              0.8489466048552576,
              0.376951183591141,
              0.5241514254965616,
              1.38093183096942,
              -0.347946878263067,
              0.645479518055899,
              -0.6626239521718829,
              0.27027457615567474,
              0.40517663167504403,
              -0.9452019755644108,
              0.955322968600024,
              -0.023344821159512905,
              -0.33772626822874946,
              0.7153801426444492,
              0.6462483461060022,
              1.1304926629334762,
              0.25792045695364035,
              -0.5830805543631588,
              -0.5755960943488891,
              -0.9307000746565126,
              -0.39425280877958535,
              -0.6262171089315877,
              -0.8584650998646323,
              0.8257674347886325,
              -0.1617552096860067,
              -0.5347796468210941,
              -2.9401461379013774,
              -0.014449537993760642,
              -0.36443338147568916,
              -1.276669921329028,
              -0.2126711744361731,
              -0.7467957247496053,
              -0.6192757360103593,
              -0.10110315570977335,
              0.9716201452793842,
              0.6214836792651929,
              -0.12695589416219538,
              1.4532620146782191,
              0.1512146899576406,
              -1.101405923939553,
              0.015161367313531102,
              1.3996406790487785,
              1.1507493386726755,
              -0.17256452130383754,
              -0.19895243623022038,
              0.0019773348118883316,
              2.086490324737413,
              -1.217518488183047,
              0.19149504773027312,
              -0.9141903940869204,
              0.2641465797260998,
              2.7566443815838286
            ],
            [
              -1.2371814057761348,
              0.8238162881501767,
              0.7019940517229262,
              -0.9997649531591959,
              -0.14807239991077445,
              0.3640262275402797,
              0.43958728392601887,
              1.7687243507949175,
              0.46119844004747645,
              -1.0512453171207454,
              -1.7409596105998226,
              0.43538750194579373,
              0.3968712989609204,
              0.1914408613191009,
              -1.7139372956097887,
              -0.8557563509452557,
              -0.20260240167987728,
              -1.4947864664862465,
              0.7360275545729571,
              0.8304341921280356,
              0.26326665088472895,
              2.3711994146598845,
              1.1609410075539655,
              -0.044964278529316073,
              -0.49544604257044506,
              0.10385583294796394,
              0.07378979838233818,
              0.6402418854545073,
              -1.1214725056861508,
              -0.5842460916594078,
              0.9577270696666068,
              -2.009944595253781,
              -0.17802747876378996,
              -0.3398970440163733,
              0.7339993876375471,
              0.22433018046116515,
              0.22458884105618251,
              -0.8471494493880014,
              1.5891554158666064,
              0.3049225485244509,
              -0.36774701369097956,
              -0.16857704816628014,
              1.338743584750339,
              -0.20813409251802065,
              -0.5094356072504564,
              0.07766442535105446,
              0.179668096865309,
              -0.2757761396592562,
              0.029869280268012263,
              2.331895964143807,
              -0.34999212241300415,
              0.7462014010594498,
              -0.3157616634088636,
              -1.0121611437883478,
              1.742220975130798,
              -1.0016083998395569,
              1.2206132808328183,
              1.0833605774090385,
              0.1731762702118142
            ],
            [
              -1.8976559108775333,
              -1.2376972354128355,
              1.1972741698762415,
              0.16288714895093637,
              0.5421047574264414,
              0.11362161140339225,
              0.7588464928574876,
              -0.37679934590207,
              -0.5152743440081418,
              1.5626126531693467,
              -0.013192360960922384,
              -0.06096146538795123,
              -0.9853749835356925,
              -0.11619494985260492,
              -0.43607619662050195,
              -1.1959399805329296,
              -0.7141808172455103,
              -0.28565539129393347,
              -1.1540840299849973,
              -0.11091952284360172,
              1.6668215294598483,
              -0.12437256576092084,
              0.40737558963009124,
              -1.4281198200472376,
              -0.2595277238682445,
              0.473536839234051,
              0.4192152136903502,
              1.1277288354690709,
              1.0520202246043064,
              0.6375411632171626,
              0.6404565113994312,
              1.3355227279690383,
              0.5854254968871516,
              0.09474285836866318,
              0.3304384928848266,
              -0.4138716357689548,
              1.407406186439375,
              -0.17609849630235144,
              1.436449473481392,
              -0.5116858258468648,
              0.08235065170820587,
              1.554205533045336,
              0.006307333209916076,
              1.0936765634209868,
              -1.3531441452100093,
              0.20632633663952296,
              0.5104560479734935,
              0.41528062239598756,
              0.9393053564030053,
              0.19530717172625028,
              -0.8615940306039329,
              0.610524571805358,
              1.6457522003345515,
              1.0317013666261978,
              -1.215113174391569,
              0.5888317039849436,
              -1.0160445529078295,
              -2.0956838653696117,
              -0.25296240774034656
            ],
            [
              -1.2989328869032921,
              -0.9123280954657055,
              0.43749388884735213,
              2.0207054329365275,
              0.06356722886983521,
              -0.29311169103018253,
              -0.9771882448544481,
              0.5163578339116278,
              -0.5162934316122141,
              -0.17550909950067384,
              0.9162453629763718,
              0.030262943703744993,
              -0.2141889923709019,
              -0.637577526940909,
              0.14214435132998438,
              0.22444951295558732,
              -0.769431490149517,
              1.4653166323456732,
              1.3247474060071605,
              -2.812715464991138,
              2.1046324428612957,
              0.5846662789836384,
              -0.38345556763989885,
              -0.33295519810674884,
              0.7205806307030397,
              1.193730758263057,
              0.4102636725879666,
              0.4421427637465531,
              0.5417137522584645,
              1.1574572365446394,
              3,
              -1.3671551822354395,
              -0.22586215898271175,
              -0.7818457221654967,
              -0.3817643949690679,
              -0.29913562883964145,
              -1.4588288412749484,
              -0.30025604720701105,
              -0.5194149776351493,
              0.4450905683403349,
              0.9225379065964143,
              -0.4848395672837587,
              -0.2510536115640098,
              0.6533874670396994,
              0.743826121540901,
              -0.25081645058479796,
              -0.7494972507521003,
              0.3823028479562393,
              0.7567588118044172,
              -0.47869520403543586,
              0.5155979014702664,
              -0.00013804263792360771,
              -1.4045161626637586,
              -0.17950245073375398,
              0.5468893364476904,
              0.6580422495122178,
              0.20842210614641302,
              -1.277932539290014,
              -0.031175976756546913
            ],
            [
              0.6856261672587394,
              0.3291033681542926,
              -0.10626823235652351,
              -0.2573743511186929,
              1.1800105091449244,
              0.8753886395581778,
              -0.5068327004017853,
              0.5222127969939204,
              -0.010924433462025596,
              -1.1424192887094298,
              -0.8314860904910568,
              -0.6181635296251433,
              1.2471833936611179,
              1.2281071686196814,
              -0.8567478813412485,
              0.17986619121629424,
              -0.2644441273142993,
              0.05940292850625595,
              2.139609422387789,
              0.64907827731245,
              1.7806306912732217,
              -0.15038689277346193,
              -0.8153981039210312,
              -0.7038926787864517,
              0.4662417649366694,
              -0.11913676879274651,
              -0.4662925922956882,
              1.4130087277026662,
              -0.2427723483303751,
              -0.009581279775301543,
              0.6444550496134428,
              1.006017109341467,
              -0.6828993479178114,
              -0.7853325681077148,
              0.8663509816768318,
              -1.3041187583866425,
              -1.225913411592632,
              -1.0572940918803129,
              -0.267737655694053,
              -1.1831354639900131,
              0.4914831218645389,
              0.9533463195631924,
              -0.9787851239714351,
              -0.07983109507054896,
              -1.979166728063698,
              -0.7858956453426077,
              0.29989423677586263,
              0.7496715735456206,
              -0.008621960508801117,
              -0.47246235098789846,
              -0.3037492800425604,
              -1.0578719382593795,
              0.692676484205627,
              0.42819684997790763,
              -1.5669196062706214,
              0.7345717645992643,
              -2.27848135154027,
              0.6248317738899142,
              0.40585606436275273
            ],
            [
              -0.42676432371712825,
              0.9649486839867811,
              -0.5701936252559544,
              1.1149522326122923,
              0.04394434038392271,
              0.9313187680981206,
              -0.1734608333548283,
              -0.04169237623487223,
              0.2548584049781049,
              0.13260900588246116,
              -0.5107619172729939,
              -0.5146448641946179,
              -1.3344188389038174,
              1.7274826427565237,
              -0.5755215664120537,
              -0.24432889393707888,
              -0.47947532001901255,
              0.2639078877830654,
              -0.6329185276107461,
              0.594837626500636,
              -0.4503047440090111,
              -1.3789045531129691,
              -0.2627591542725245,
              0.46563347888512985,
              1.7207625343552975,
              -0.2564315731002972,
              1.805349170367811,
              -0.04444835309195669,
              -0.058159722645006504,
              -1.4262178136125687,
              -0.10160666297973789,
              0.15951273996932963,
              1.6565732649828786,
              -0.5922713634568137,
              0.07795592847740447,
              -2.4198710514711173,
              -0.4666737058483347,
              -0.3959212278518116,
              0.7254599783614831,
              -0.09173284861375557,
              0.6101555861483241,
              0.4993235153116902,
              0.8872717927222068,
              0.12058517196136159,
              0.4812604107084788,
              0.1511868527304678,
              -0.7017860342661294,
              1.5348044103101475,
              -1.2723129247686118,
              0.3704094634587097,
              1.3102855659273673,
              -1.7374191703538464,
              -1.20090501633547,
              -0.14937252852490496,
              -0.31646977521208675,
              -0.6176414120931489,
              -1.4285974094308698,
              0.7317584780752338,
              0.3913355296978798
            ],
            [
              0.5039494303057821,
              -0.1828533844531279,
              -0.6979912887019254,
              1.1976788263442186,
              -1.024220983815273,
              -0.5866185905144347,
              2.099685706224105,
              0.20435979294373716,
              -0.0843165940976296,
              -0.7734638964658946,
              -0.6833376522602942,
              -0.9912104580551526,
              1.2426400158964337,
              0.7942764363885176,
              -0.7900695853990882,
              -1.5701889166550334,
              -1.3081208806912232,
              1.4832465992059365,
              0.8728236985181965,
              -1.4398077711374886,
              0.027351269553148275,
              1.097964064356472,
              -0.9453822754913221,
              0.7827558315657815,
              1.409722703067104,
              -0.6445168105639336,
              2.419842915150506,
              0.23877691656900307,
              -0.7008742475436767,
              1.2063540187791513,
              0.6464175442092326,
              -0.3436687628474792,
              -0.7628284769913664,
              0.8238269832119909,
              0.42589358692499013,
              1.064066263551318,
              2.23385343513743,
              1.227925706085111,
              0.8962193828061632,
              -1.4958196885112756,
              -1.6685835103130677,
              0.32293933007498804,
              -0.1539859119084376,
              -0.25874792666902485,
              0.11803988406799973,
              0.79907054230455,
              1.8652638083106043,
              0.28301783608257514,
              1.4851103259913865,
              0.7627111713260141,
              -1.0958018532688394,
              0.22556972882302173,
              0.6337607234748797,
              -0.7673814948808113,
              -0.9219751379456784,
              0.7925360283228902,
              0.49379981798969463,
              1.1097032208938789,
              -0.6569724033635171
            ]
          ],
          "biases": [
            0.6476606483875056,
            -0.5291175277667809,
            1.0322101040719418,
            0.7323779624854039,
            -0.30602319943513995,
            -2.5418994322314954,
            -2.044724596594839,
            -0.5672816844701405,
            2.7122763349135113,
            -2.1718757130511195,
            0.2981821256820758,
            -1.5016375614613502
          ]
        },
        {
          "weights": [
            [
              0.46150984884876634,
              -0.9490765416095962,
              0.05596253738427524,
              0.006406159683051749,
              0.6579853105417357,
              -0.27397796210723757,
              -0.11446535458092894,
              0.5820116394261663,
              0.0014976711604050563,
              0.408520944192398,
              -1.0423189453710926,
              -0.26664608792982497
            ],
            [
              0.17001493701046066,
              -0.12963842555671615,
              -0.015461038503290133,
              0.8748118085909626,
              -0.3186266260883128,
              -0.352674495502774,
              -0.02102746146013232,
              -0.09325132466111297,
              0.08456258328252125,
              -2.044711982986239,
              0.795359886493484,
              -0.7324570326560215
            ],
            [
              -0.7861156691344311,
              -0.41608080137031933,
              1.3293624926312166,
              0.043769397858131984,
              -1.2840241216977986,
              1.021711929688234,
              1.6518305146222207,
              0.321562359811211,
              -0.16809330444809437,
              -0.7392578529277654,
              -0.8871463572822751,
              -0.01871045722390144
            ],
            [
              -0.6765800304780434,
              1.1938143916299768,
              -1.300530678980066,
              0.23523469413258227,
              -0.7564714673035006,
              -0.5309051197153714,
              -0.9346987130443456,
              -0.09296129166440587,
              -0.31162118648757664,
              -0.42600683852706295,
              0.4137852510159403,
              -1.338670290069645
            ],
            [
              0.07746353372796483,
              -1.1865077700691011,
              -1.3878148760828481,
              0.21662381340026432,
              -0.5488942020081966,
              0.7962204104087276,
              0.6719200825095314,
              0.5496804009324228,
              -1.1513144064036402,
              -0.9352243493327098,
              0.300905588767571,
              0.4595278008743583
            ],
            [
              0.19633483575410599,
              -0.7532860725773564,
              -0.7168023885503411,
              -0.11400169325768732,
              -0.6409263658970716,
              -1.02996614587689,
              -0.20571891650525365,
              -0.4867301707644951,
              0.2759386538346417,
              -1.4351520098868726,
              -0.0660846987632718,
              0.04038011883837729
            ],
            [
              -1.385129591499779,
              -1.6470059435182693,
              1.4217227276744713,
              -0.5419195828756292,
              -1.0167523517891477,
              0.850023839962337,
              -0.44406306610340746,
              -1.0584670174984503,
              -0.0066380787501060246,
              -1.0160139708777527,
              -2.186549356167156,
              0.17042441574885056
            ],
            [
              0.726167068669387,
              -0.03928755031070025,
              -1.4478141346841533,
              -0.5118465577200761,
              -0.9041399433204962,
              -1.69292469174694,
              -0.2541980646074523,
              -0.15112219584847533,
              -0.8993438430674838,
              0.366512837261509,
              0.18008631892686963,
              -0.2721320042282467
            ]
          ],
          "biases": [
            0.6776428676612929,
            -1.0655524979045452,
            0.8928769939325774,
            0.07638621985877012,
            -0.7604043240944287,
            -0.43223033654026477,
            2.2354739856708443,
            0.03519946619580047
          ]
        },
        {
          "weights": [
            [
              -0.56657401866868,
              0.13095697718532007,
              0.16877231496089456,
              1.3791180836719552,
              -0.9498676050035146,
              0.34428263335364784,
              -0.13716414838728574,
              -0.26355558992343564
            ],
            [
              0.5552580011209972,
              1.5922591302106193,
              -0.2100833759769819,
              0.5726813537682118,
              1.5542080607169992,
              0.9129972795126826,
              -0.2465694026426992,
              -0.18525200486702412
            ],
            [
              -0.7320519065461694,
              -0.2895668642017882,
              -1.0349039546697394,
              -1.0641505649009237,
              0.21756351968244883,
              -1.398362808862101,
              0.5714798924034892,
              0.33115262299887394
            ]
          ],
          "biases": [
            -1.1537193394729357,
            -1.5696025225102708,
            -0.3091439735667092
          ]
        }
      ]
    },
    "reviewBlocked": false,
    "profileBlocked": false,
    "roleFitScore": 281.8,
    "promotionBlockReasons": [],
    "metricAverages": {
      "win": 0.9361702127659575,
      "goals": 4.829787234042553,
      "goalDiff": 3.3191489361702127,
      "againstGoals": 1.5106382978723405,
      "rally": 5.531914893617022,
      "longestRally": 5.531914893617022,
      "durationTicks": 3781.0851063829787,
      "paceScore": 2.0094115911765495,
      "shots": 4.085106382978723,
      "shotRate": 0.9484551870464788,
