(function (root) {
  const bots = [
  {
    "id": "control-0-fx20h9",
    "name": "Strategist",
    "schemaVersion": 1,
    "archetype": "control",
    "personality": "Uses blue wave timing to shape rallies, control ball routes, and keep the court predictable.",
    "generation": 10,
    "lineageId": "control-0-fx20h9",
    "sourceBotId": "control-0-fx20h9",
    "difficultyBand": "absurd",
    "elo": 1131,
    "promotionScore": 1071,
    "metadata": {
      "roleName": "Strategist",
      "designIntent": "Uses blue wave for ball control, tempo shaping, and long-term court management instead of pure rushdown.",
      "styleTags": [
        "strategist",
        "blue-wave-control",
        "ball-control",
        "tempo-manager",
        "human-tested",
        "control",
        "absurd",
        "static-lane",
        "goal-capable"
      ],
      "reviewState": "active",
      "humanTrainingSummary": {
        "botId": "control-0-fx20h9",
        "botName": "Strategist",
        "sessionCount": 25,
        "botWins": 0,
        "humanWins": 25,
        "draws": 0,
        "botWinRate": 0,
        "averageGoalDiff": -6.52,
        "challengeScore": -60,
        "sampleCount": 4000
      },
      "humanFineTuneSummary": {
        "sampleCount": 4000,
        "epochs": 3,
        "batchSize": 64,
        "learningRate": 0.01,
        "positiveWeights": [
          9.178117048346056,
          9.362694300518134,
          24
        ],
        "averageLoss": 0.4699245268209237
      },
      "rosterStatus": "published",
      "rosterVersion": 1,
      "source": "exported-bots.js",
      "publishedAt": "2026-03-15T03:06:58.051Z",
      "lineageRoot": "control-0-fx20h9",
      "sourceBotId": "control-0-fx20h9",
      "trainingHours": 0.045,
      "eloTier": "elite",
      "replacesBotId": "control-0-fx20h9",
      "promotionSeries": {
        "seeds": [
          1337,
          9256,
          17175,
          25094
        ],
        "profiles": [
          {
            "id": "standard",
            "scoreLimit": 5,
            "maxTicks": 3600
          },
          {
            "id": "sprint",
            "scoreLimit": 3,
            "maxTicks": 2700
          },
          {
            "id": "endurance",
            "scoreLimit": 7,
            "maxTicks": 5400
          }
        ],
        "matchesPlayed": 24,
        "candidateMatchPoints": 19,
        "existingMatchPoints": 5,
        "candidateWins": 19,
        "existingWins": 5,
        "draws": 0,
        "goalDiff": 39,
        "pointMargin": 14,
        "candidateWinRate": 0.7916666666666666,
        "existingWinRate": 0.20833333333333334,
        "failedChecks": [],
        "profileSummaries": [
          {
            "id": "standard",
            "scoreLimit": 5,
            "maxTicks": 3600,
            "matchesPlayed": 8,
            "candidateMatchPoints": 6,
            "existingMatchPoints": 2,
            "candidateWins": 6,
            "existingWins": 2,
            "draws": 0,
            "goalDiff": 13
          },
          {
            "id": "sprint",
            "scoreLimit": 3,
            "maxTicks": 2700,
            "matchesPlayed": 8,
            "candidateMatchPoints": 6,
            "existingMatchPoints": 2,
            "candidateWins": 6,
            "existingWins": 2,
            "draws": 0,
            "goalDiff": 9
          },
          {
            "id": "endurance",
            "scoreLimit": 7,
            "maxTicks": 5400,
            "matchesPlayed": 8,
            "candidateMatchPoints": 7,
            "existingMatchPoints": 1,
            "candidateWins": 7,
            "existingWins": 1,
            "draws": 0,
            "goalDiff": 17
          }
        ]
      }
    },
    "trainingHours": 0.045,
    "controllerParams": {
      "fireThreshold": 0.6
    },
    "mutationProfile": {
      "source": "control-8-50cuzf",
      "kind": "clone-mutate"
    },
    "network": {
      "type": "mlp",
      "inputSize": 65,
      "layers": [
        {
          "weights": [
            [
              0.2792444621167934,
              -1.4181687489518813,
              -0.2842461963733751,
              0.2949424538690872,
              0.23962699111602817,
              0.027932298878313624,
              -0.12958459408380554,
              0.462071443124994,
              0.7089758723809365,
              0.340154323480234,
              0.4818606874473601,
              0.3464877104945903,
              -0.6035226472804097,
              0.45103381330402337,
              -0.20920659842642064,
              0.44006550122258525,
              -0.8809331667549469,
              -0.637201718540611,
              0.6077703992891076,
              -0.05222474537084733,
              0.10226520484144362,
              0.13424116882350431,
              0.6167633757138591,
              -0.40066583051577437,
              -0.026807201469160758,
              -0.5949571144265994,
              -0.6802825231341012,
              -0.335468876231085,
              0.43872847699858847,
              -0.4838982007300375,
              -0.44410612741374533,
              0.217752391188609,
              0.9932763305624841,
              0.29223992935285886,
              -0.019628143388695587,
              0.06780594715811028,
              -0.15461889685256194,
              1.0365056331839104,
              -0.5931322327218251,
              0.21539991430131014,
              0.20144575484582522,
              -0.20507076493286724,
              -0.3906982009808782,
              -0.2272330914966632,
              0.01583299871113877,
              -0.39598744265475005,
              -0.014666341666517056,
              -0.3806562036335883,
              0.40498843248660954,
              -0.2871072655657282,
              0.7207996903263818,
              -0.44076117953732974,
              -0.29853972624599834,
              0.16555210683384503,
              -0.13121389022514843,
              0.2343146249142663,
              -0.5051972012508852,
              0.35606268345257136,
              -1.0447689191775462,
              -0.013265418220257202,
              0.14832789605446556,
              0.44387342106642974,
              0.1470059207981079,
              -0.3942569189348016,
              -0.8512651369708488
            ],
            [
              -0.23205247503108323,
              -0.49974565000127236,
              -1.1221501204392528,
              0.7539879961107059,
              0.4118069085847149,
              0.16006942157159387,
              -0.9354049047375169,
              -0.08175968842212332,
              -0.1971932971760444,
              0.45939406995552234,
              0.3923411548762869,
              1.056609199170457,
              -0.04983490915004764,
              0.26802657390354107,
              0.5328616623743607,
              0.06971401947632942,
              -0.009633547395794681,
              -0.16086843141269117,
              0.04386589375053182,
              0.4070058347431009,
              -0.08822504607866061,
              -0.02455911937771514,
              0.7193506228991791,
              -0.2512545222080981,
              0.22178625543261404,
              0.42077406061034556,
              -0.05359275663873017,
              0.29546853102050935,
              -0.028663997078653324,
              -1.0116873935975634,
              -0.052222322777861985,
              -0.8525242110830806,
              -0.36840513915739337,
              -0.467183841831139,
              -1.0816635289611873,
              -0.4624328348983395,
              -0.21501142698243675,
              -0.5582567260977858,
              1.0332136280156943,
              0.3739555305262443,
              0.03742886103420984,
              -0.18811883880363928,
              -0.035787256670544165,
              0.1888095017327236,
              -0.41408554547956533,
              0.700064267959652,
              -0.4681209016618719,
              -0.4290460463130218,
              0.8287140445092578,
              -1.06060432556497,
              0.051751509795039674,
              0.624287671628733,
              -0.22950244436754022,
              0.2083993862377316,
              -0.24005302496615272,
              0.10116165687326645,
              0.48962461142994695,
              0.40679008504098274,
              -0.8210648331103293,
              0.09872666985163031,
              -0.3445607799580067,
              -0.8648712719033257,
              -0.4628488841267461,
              -0.7497381206819005,
              0.056414658858842656
            ],
            [
              -0.400329549567487,
              -0.7701443080412441,
              -0.38043554389299167,
              0.03681041415142214,
              -0.25156092958077175,
              -0.5046459225015789,
              -0.15724763663007463,
              -0.5472049220183712,
              -0.615628324350503,
              -0.13539017667129208,
              -0.7366480243523157,
              -0.08718107194185021,
              0.011582481655946802,
              -0.03642904766089308,
              0.3991261581695202,
              -0.14393554905506145,
              0.025662899958780377,
              0.1242139254378331,
              -0.02361525332019107,
              -0.5126702190164414,
              -0.07338240996388493,
              -0.049864763342775,
              -0.47132077738305084,
              0.31063861149129834,
              -0.14350342572810443,
              0.5528905196346217,
              -0.6705484966913365,
              0.2966709909287695,
              -0.5391021326821094,
              0.05259733127445733,
              -0.40650848022807884,
              -0.6490866483311297,
              0.42097040919150275,
              -0.009068332404414542,
              -0.16419339643797903,
              0.23069128398574085,
              -0.5000784165748743,
              0.41630923449692814,
              0.0031874362359209374,
              -0.5992494785112507,
              0.3511247565560866,
              -0.02503573608714607,
              -0.5119346538989157,
              -0.3119736678106699,
              0.3054805433401671,
              0.3256671669762413,
              0.25284481362019073,
              -0.0891011760312631,
              0.4321067135321231,
              0.09334145046554554,
              -0.5806570759498695,
              -0.053497621985893126,
              0.496197265277007,
              0.9350956301379904,
              -0.727915671700081,
              0.5741061130785159,
              -0.20694406154375466,
              0.2531200228243905,
              0.27979880224050757,
              -0.11342100581885745,
              0.48817258831793775,
              -0.4950853056128025,
              -0.14848347458550168,
              -0.195522197187594,
              -0.0933302932285657
            ],
            [
              -0.16179205275217545,
              0.78443309881829,
              -0.6590479793397328,
              0.26259072664252514,
              -0.16911062729392948,
              0.1848680064573065,
              -0.21532810087825038,
              -0.18963621829205507,
              0.5744078612968817,
              -0.2711051742723243,
              0.4289338577160594,
              -0.24639520791237451,
              0.030664434925618114,
              0.03707769379073447,
              -0.5857459957443782,
              0.10530848629460343,
              -0.22609558509001956,
              -0.45944131003770033,
              0.4469220508403209,
              -0.021234361392104127,
              -0.27532342290305534,
              0.2061534854675509,
              -1.1226322611634556,
              -0.5472118574151715,
              -0.009833112819671697,
              -0.19064395792197864,
              0.2560566069433875,
              -1.3435813563340253,
              -0.20330568355587408,
              0.3171789379041655,
              -0.8622590213751651,
              0.019675886786659415,
              0.5126782808973981,
              -0.001790722167211392,
              -0.11842546250301741,
              -0.08049538898298203,
              -0.1095632630598603,
              0.04381152867152692,
              0.43695857389082954,
              0.7321111551860796,
              -0.13604439168375268,
              0.14202130529868492,
              0.1310271091907207,
              0.01986402378694571,
              -0.9127044849968858,
              0.5741470502526207,
              -0.378881931414831,
              0.34861104498899204,
              -0.11530854554613018,
              -0.3078038937943337,
              0.024733935861237507,
              -0.3670082904882389,
              0.5376166025950351,
              0.015264454922775048,
              0.13690620512870894,
              0.2704073919180297,
              0.6343884834484912,
              -0.42250264727789505,
              -0.38500215541321625,
              0.25437503932929795,
              0.4390007079854673,
              1.105020872153204,
              -0.2323107889587045,
              -0.0952979963464595,
              -0.4152053474559549
            ],
            [
              0.3603526970761622,
              -0.9214988671238659,
              -0.323522463353149,
              -0.6578623773526368,
              0.12429288235857296,
              0.49502029626737665,
              -0.062227473692832325,
              0.5073887155351966,
              -0.1287106829280109,
              0.3321986526108546,
              -0.04214243438557311,
              -0.28833137673782705,
              0.20870616798337407,
              -0.19607157410257503,
              0.4697847236098627,
              -0.4327456104206161,
              0.3644583137701311,
              -0.0001819489332600733,
              0.1592720694855058,
              0.04183926648958225,
              0.11968068170518459,
              -0.5476988006726637,
              -0.03256324886283524,
              -0.2101774538826058,
              -0.6682006666258766,
              -0.26976450378028,
              0.1694046237041456,
              0.4639245067463047,
              -0.06857484869278668,
              -0.19757557864770134,
              -0.16456960647337088,
              0.22260401381616512,
              0.17806779686773894,
              -0.201216122163629,
              0.009760501676448902,
              -0.4531608446644024,
              -0.18350712653823906,
              0.20913110931598722,
              0.4761437744200205,
              -0.278841676774396,
              -0.43545423360323754,
              0.4926630248073997,
              0.14161375285780622,
              0.2784367887792802,
              0.6383671347248798,
              0.13065569794866036,
              0.5719052799145115,
              0.0002353467092590586,
              0.21252236945207836,
              -0.09121406958742806,
              0.022643014723091492,
              -0.17288368157890588,
              -0.8812726005840505,
              0.3872401527954845,
              -0.24039879549026885,
              0.16799942880813465,
              0.12801091874773543,
              -0.4231727613422231,
              0.008473527224195754,
              0.025237668601710672,
              0.597665087489725,
              -0.05914686241343096,
              -0.23214923895653158,
              -0.06774602405608053,
              0.08875215295376035
            ],
            [
              0.11172675173629544,
              -0.8347947414403167,
              -0.22333737320413452,
              0.3721619115744625,
              -0.5746625584915037,
              -0.08887446796723891,
              0.14900302854685726,
              0.5702229001007522,
              -0.00825009491618483,
              -0.4088113093266744,
              0.43641513574940655,
              -0.20258966883033636,
              -0.9572497814835392,
              -0.5015606515641422,
              -0.7880746876605905,
              -0.31713121686625095,
              0.3464554581726251,
              0.8167440281863594,
              0.19048610262645238,
              -0.13129945313980085,
              0.4174638782194726,
              0.4827811655778605,
              0.44157799318245894,
              0.2510453946961928,
              -0.3338775859796598,
              -0.021857072841892602,
              0.5133312756733666,
              0.08366160187637922,
              0.07541428419964762,
              -0.731557831702597,
              -0.2780085614157221,
              -1.152346160172726,
              0.03887524816956606,
              0.34505035161297964,
              -0.4991990165126405,
              -0.8421359192124017,
              -0.19841628444865525,
              0.2256416072085694,
              0.17969033637991283,
              -0.8101323621541137,
              -0.16207551499388934,
              0.14808318823442926,
              -0.3610346530856922,
              0.07056138318674993,
              0.6097406939544996,
              0.2337567586319565,
              -0.5664581876452752,
              0.712151331466532,
              0.5286177870918957,
              -0.8633332219905976,
              0.3157774205035534,
              0.06071788983664784,
              -0.7114155041552905,
              0.41754627603418515,
              0.21176787500818714,
              0.0519536953539341,
              0.6762271729815692,
              -0.641543570146744,
              0.0853751139233351,
              0.9760613693027362,
              -0.11592839900353447,
              -0.6717473772642064,
              -0.3901123029056941,
              0.11239736733946878,
              0.3080622247607
            ],
            [
              -0.4162013373352147,
              -0.34167960851634527,
              -0.18705238433888688,
              0.5155696524586232,
              0.11878192262275092,
              0.3938665769911738,
              0.12602701868550356,
              1.322660433983604,
              -0.6091459813386908,
              -0.6757959327781058,
              0.3369661987327539,
              0.02420610280789015,
              -0.2699575963028044,
              0.1726674021136039,
              -0.3736888238781131,
              -0.2420375599866274,
              -0.028778426666916046,
              -0.5139245821162102,
              -0.985938536492021,
              0.11070019565811379,
              -0.2201163526421303,
              0.6708821525615595,
              0.4278331110622676,
              -0.26111376435045414,
              -0.4282569769274987,
              0.27978902465981415,
              -0.0031470073711954982,
              0.2856037686543815,
              0.4212992362499477,
              0.6492615025890086,
              -0.2821192597591293,
              -0.021154107537356012,
              0.0859751420333707,
              0.5469197260534956,
              0.15099281611862858,
              -0.08552622484473194,
              -0.854592377972351,
              0.24320141497256995,
              0.632665592312164,
              -0.13534999728902772,
              -0.16270452653565254,
              0.4632754018369983,
              0.10504209249679736,
              -0.25867199091779663,
              0.5468455393994741,
              -0.08118653660652429,
              -0.17697278993747317,
              0.6652790677050802,
              -0.6301593873559959,
              0.09327621569816771,
              -0.137643995734469,
              -1.1072485773844323,
              -0.9959283023615557,
              -0.36315218354236073,
              0.5289578323623236,
              0.23222644159303488,
              0.4971808928547414,
              -0.4390987234543491,
              0.49524693261085534,
              -0.033996501454716214,
              0.14734143514084014,
              -1.5041228205818244,
              0.27830183759333404,
              0.15328106414996273,
              0.0403023351034999
            ],
            [
              0.012414828165055812,
              -0.5971438133038558,
              0.7408544390834756,
              0.08393885044761251,
              -0.6741621528944737,
              -0.04170001082758737,
              0.24605102058123296,
              0.050284476686997905,
              0.5904217030302226,
              0.4008998045331932,
              -0.3801615134767037,
              0.004163515907266338,
              0.40471645273771945,
              0.024839548244871848,
              0.22744554766622924,
              -0.6636862301415227,
              0.3111897611321004,
              -0.17408069621812086,
              0.43820477050341144,
              -0.19240846928313357,
              0.4753092866173842,
              0.37154523821665797,
              -0.5603748539893768,
              -0.2922068290109105,
              0.10249249562802618,
              0.9275399471979853,
              1.0925664574673482,
              -0.07720762163591254,
              0.597595365360548,
              -0.13854121231077765,
              -0.16892225020706697,
              -0.30667706930987965,
              0.3377231989270926,
              -0.44078471058771196,
              -0.5344409885761005,
              0.1314357496143567,
              -0.13753057031723231,
              0.5739117079421955,
              -0.7667332678342342,
              0.2588155434837284,
              -0.4722551547227474,
              0.031988378610486666,
              0.07365301005211775,
              -0.03762043544480753,
              0.007507953793561208,
              -0.8632932389402689,
              -0.9925190878316672,
              -0.2795841841431513,
              -0.6329291585192963,
              -0.09469641692945369,
              0.5337353130484672,
              -0.2431640586516244,
              1.2589006674513723,
              -0.09021834176652802,
              -1.0042291080037757,
              0.5816486337785801,
              0.31881592061907765,
              -0.09549292404873252,
              0.35418874470856676,
              -0.5754494880378667,
              -0.1297781918854048,
              -0.14881721215075203,
              -0.16784037267245558,
              0.3328748471018869,
              0.316507859043717
            ],
            [
              0.5892208313641126,
              -0.2508578558546967,
              -0.511191299581148,
              -0.93378898291952,
              0.40906723360599084,
              -0.41392906278293207,
              0.16682374659657595,
              -0.316688421483024,
              -0.39150711686001155,
              -0.06400114549263539,
              -0.48205355301883035,
              -0.8641227079113708,
              0.5090928459502843,
              0.6578626625342113,
              -0.6290580062560437,
              0.37057671435548056,
              -0.5252688497021633,
              -0.6522537284644867,
              -0.1632910806584974,
              0.06133463951494732,
              -0.6216835009864822,
              -0.7939311957620002,
              0.5573197154083113,
              0.35297154078808235,
              0.1286114165873928,
              -0.43847964680702756,
              -0.2299554826981834,
              -0.07448573047113718,
              -0.5961913182635269,
              -0.42781567803896203,
              -1.1396628156457995,
              0.35931458057150145,
              0.06571821093191352,
              0.4321828649113164,
              0.2071490209478133,
              -0.6319459801435041,
              -0.10334849793420262,
              -0.1317124356007546,
              0.244810118725864,
              0.2330626633408895,
              -0.4173373135223538,
              0.38828488125022975,
              -0.13778715407355066,
              -0.10267568971779784,
              0.3039968066577412,
              0.3940538302574469,
              -0.2527146100308928,
              0.12119086688757805,
              -0.021739303073188027,
              -0.051735447058875644,
              -0.5890528234085516,
              -0.030609590611258564,
              0.15809010683227612,
              -0.09164281519847613,
              -0.0310843812620073,
              0.20701670478785422,
              0.20186987328916514,
              0.38106037583985397,
              0.6160635471585589,
              0.3495930706313962,
              -0.1274097524801423,
              -0.01867021007360449,
              -0.06666529186955857,
              0.4787984503024032,
              -0.26437337498853203
            ],
            [
              0.09630385618383502,
              -1.4847800874478607,
              -0.5399462524727562,
              -0.09239027336254221,
              0.37080717102666944,
              -0.7508551860703574,
              0.14380126068920948,
              -0.7290330265356915,
              0.4249888415510113,
              -0.18505886345485836,
              -0.6126962174243205,
              -1.1471049039399448,
              -0.09354742509376018,
              -0.0032840243318475472,
              0.36846464296019554,
              -0.6894641009526404,
              0.08371019146149593,
              0.5536910636186418,
              0.1313003821873301,
              0.11371233492433185,
              -0.20801086841835414,
              0.2984000264786187,
              -0.37110667065207126,
              0.2807417754532706,
              -0.1995281505985042,
              0.2815966462821927,
              -0.4456401931094701,
              0.17400164379119806,
              -0.09052851857051097,
              -0.1940631451575204,
              -0.4579020293371836,
              -0.35986172110294756,
              -0.8321096370993214,
              0.7091158289483883,
              -0.4015329753431518,
              -0.09122835197570273,
              0.6250143058765474,
              0.18651479017496272,
              0.5109623653666638,
              -0.7749115044378655,
              0.7341418213501343,
              -0.4532537129213456,
              0.5061311219122342,
              -0.46054397272717207,
              -0.5226299835599739,
              0.25146095142832553,
              -0.9494708190813415,
              0.42053210679652425,
              -0.44963981423218025,
              -0.10469724892596324,
              -0.6023671297243507,
              -0.2997354373498224,
              -0.18013710099435676,
              -0.3425078544118721,
              0.41715620818007604,
              0.06090968254781513,
              0.2972641882204229,
              0.012638504692120262,
              -0.5071265028639628,
              -0.14316880641439947,
              0.5661653148187106,
              0.43375936675995785,
              0.8671409140363613,
              -0.043010421810671176,
              0.15381407897939767
            ],
            [
              -0.6137872933850871,
              0.433402175172644,
              0.2640636767218479,
              0.26796965895288183,
              -0.21185417003087167,
              0.5031949725257847,
              0.6245130384586273,
              0.11008565764519723,
              0.4052831630535323,
              0.684659277160414,
              0.09229498978086331,
              -0.1644482202091812,
              -0.24199629030406156,
              -0.03206317672594686,
              0.8427455561200795,
              -0.5188726918428863,
              -0.06691115450316568,
              0.3851788203447968,
              -0.30233797022016473,
              -0.04028918339443914,
              0.26656372741135415,
              -0.21784546234267826,
              -0.23955206497502674,
              -0.24197749037319868,
              -0.41214736927388623,
              0.7623691802314576,
              -0.8975340809576758,
              0.20389050743835888,
              -0.38536486078511767,
              0.399113169274513,
              -1.0035122223332695,
              0.011104078357668301,
              0.1865402625697848,
              0.30837996035870496,
              -0.5146625552487619,
              0.09060892199439613,
              0.19846354683073542,
              -0.04706525306666204,
              -0.008378931994350955,
              -0.059428914934554905,
              0.1631692123429587,
              -0.5139349251994403,
              -0.3728987133823917,
              0.3627547778494005,
              -0.024960951650432717,
              0.4325707923145407,
              -0.19462675265806173,
              -0.2855893985207984,
              0.20750707814955976,
              -0.010226030908985089,
              0.012588920998455003,
              0.2445421376474193,
              0.24836312681357103,
              -0.08380921778023365,
              -0.8938155248370567,
              0.16916109500744778,
              0.16835086185433223,
              0.1222432296125293,
              -0.21015273534868908,
              0.5364943544354774,
              -0.15502570489144973,
              0.5979838561508601,
              -0.09008512922885417,
              0.33205292789556823,
              -0.4145505608591005
            ],
            [
              -0.014768101326120331,
              -0.022061602170938145,
              0.13873046872071582,
              -0.33115317054558957,
              0.35835202426761886,
              -0.3986440532114079,
              0.06876275383396632,
              0.20994359347557073,
              -0.44145745384568486,
              0.04808980340807019,
              -0.2207653224846152,
              -0.4568102353970702,
              0.39385753086326925,
              0.09749462844910219,
              0.10971813729841934,
              0.8272357617163029,
              -0.18743327150260114,
              1.1111923077209005,
              0.19094253071364356,
              0.0951352711793521,
              -0.6235530456219257,
              0.19652201670139718,
              -0.11008420965174562,
              0.17758619579458707,
              -0.17456419684327962,
              -0.14066823193078326,
              0.6276429208703007,
              -0.07911632999596113,
              0.7642959826226267,
              -0.2991961728157016,
              -0.15404972013015306,
              -0.02844946362045561,
              0.22450887269643954,
              0.5022319264685193,
              0.014052211338172013,
              0.4097812488375286,
              -0.15853096127557748,
              0.6104615100319035,
              0.08596033624949051,
              0.5787030623025793,
              -0.14539172678127635,
              -0.18823565091965486,
              -0.54754915587125,
              -0.4236809921166951,
              -0.5816713628715184,
              0.512530253203851,
              0.2946115886963928,
              0.6044395007707265,
              -0.7580180838821836,
              0.09732680041330467,
              -0.7223097612880522,
              -0.30914283824511546,
              -0.41701088284757337,
              0.15808907864945954,
              -0.24365769752817834,
              0.21972613849025824,
              -0.44292803274323805,
              0.24691595160367896,
              0.03945785787684819,
              -1.3896677867736786,
              0.39442758626532193,
              -0.0021248453559789965,
              0.22379894449107535,
              0.07625115335865118,
              -0.31546768107920864
            ]
          ],
          "biases": [
            0.25147296394265223,
            -0.2017167372019441,
            0.2666749598982552,
            -0.39858241082603885,
            -0.403950652336726,
            -0.6335297146594797,
            0.10897913470471474,
            -0.22245106701211834,
            -0.6115363574598086,
            0.31528066389435344,
            -0.38913592715962786,
            1.4098873252770876
          ]
        },
        {
          "weights": [
            [
              -0.29413618338734226,
              -0.09415082887588286,
              0.6271537716872937,
              -0.15440676014786495,
              0.1007808502141244,
              -0.3842112635627855,
              -0.38597071068501,
              -0.3777752346074763,
              0.2852943571754226,
              0.43410683473729417,
              0.49532923259580364,
              -0.5402839776741927
            ],
            [
              -0.34988425987477173,
              -0.24791033065657278,
              -0.18939750202882907,
              0.5154389687284434,
              -0.5224491900615849,
              0.2088797814176612,
              0.07359158670622071,
              -0.19564514241039546,
              -0.672903183112779,
              -0.05519417428999629,
              0.6279236429019754,
              -0.2674749053487522
            ],
            [
              -0.393998053312745,
              -0.20374191628323216,
              -0.6180244898575589,
              -0.277134887596699,
              -0.6137169111398276,
              0.23158564379556032,
              -0.621935541206675,
              -0.07052709463212102,
              -0.17171613682129905,
              -1.1154483913905193,
              0.5266744112670085,
              0.3234333597437884
            ],
            [
              -0.4740862394383186,
              -1.279748051801007,
              -0.6283681285996353,
              -0.13933398107605166,
              -0.43651621564375737,
              0.1259432881479513,
              -0.22674745801846713,
              -0.5023660182325849,
              -0.015982610699378147,
              -0.4457541630097978,
              0.5105245079711742,
              -1.0559077385942417
            ],
            [
              0.8870548900342416,
              -0.7144811703382469,
              -0.7660554794736316,
              0.39120096678432015,
              0.5501078655390975,
              -0.04103100979810862,
              -0.41938793581715333,
              0.679671984147223,
              0.06534141928386566,
              0.35619045082189926,
              -0.43619639652632014,
              0.45406044446849125
            ],
            [
              -0.9963812404943269,
              -0.23604862946186633,
              -0.24457844206618573,
              0.018850457932223327,
              -0.33493498933164173,
              0.4612739011401098,
              -0.4103841146704931,
              -0.12418791048669497,
              0.5411329534575183,
              -0.31323086659155697,
              0.3096528399900355,
              0.38766123183951773
            ],
            [
              -0.7278093973535892,
              -0.2064198157634526,
              0.41871835513518696,
              -0.1495364649198101,
              -0.1650493623360345,
              -0.3740498664086751,
              0.4508012090336405,
              0.30044436032279165,
              -0.1644551324002128,
              -0.0942052552992802,
              -0.44744464560836905,
              -0.38093082853325844
            ],
            [
              -0.37561660853769396,
              -0.011379648376720512,
              -0.3218646262632615,
              0.5752504381845174,
              -0.2643043317186009,
              -0.23273659912565864,
              0.4179504560356979,
              -0.11104680496324262,
              -0.24309323975416164,
              -0.7010910580616356,
              0.38653286390245234,
              0.21573150170165062
            ]
          ],
          "biases": [
            0.28112900561436965,
            -0.23847158659118442,
            0.04398743653041967,
            -0.03139816878233572,
            -0.31488346799983,
            -0.7150061600188311,
            0.3036745802766829,
            -0.8892200228716546
          ]
        },
        {
          "weights": [
            [
              1.023830386346,
              -1.1755151358566087,
              -1.6753650595805234,
              -0.03144849180913685,
              0.7420638788569587,
              1.1197623316483003,
              -0.5205420609928975,
              -0.7962853377522489
            ],
            [
              0.09217454071040693,
              0.7270269508999394,
              -0.20482553413003568,
              1.5887866168011435,
              -0.03499154022511866,
              0.59702947247523,
              1.6805092994027335,
              1.4169698503947796
            ],
            [
              0.39050904108007695,
              -0.34868948489980073,
              -1.5923742243393746,
              0.9097174334260777,
              0.0864976750377094,
              0.28112942099176386,
              -0.39928028144797956,
              0.18271708777689422
            ]
          ],
          "biases": [
            -0.21885479372189956,
            -0.21658479054091653,
            -0.7335955633369973
          ]
        }
      ]
    },
    "reviewBlocked": false,
    "reviewSummary": null,
    "humanTrainingSummary": {
      "botId": "control-0-fx20h9",
      "botName": "Strategist",
      "sessionCount": 25,
      "botWins": 0,
      "humanWins": 25,
      "draws": 0,
      "botWinRate": 0,
      "averageGoalDiff": -6.52,
      "challengeScore": -60,
      "sampleCount": 4000
    },
    "humanFineTuneSummary": {
      "sampleCount": 4000,
      "epochs": 3,
      "batchSize": 64,
      "learningRate": 0.01,
      "positiveWeights": [
        9.178117048346056,
        9.362694300518134,
        24
      ],
      "averageLoss": 0.4699245268209237
    },
    "humanChallengeScore": -60,
    "runtimeDisabled": false,
    "runtimeValidation": {
      "totalMovedTicks": 0,
      "totalGoals": 8,
      "samples": [
        {
          "movedTicks": 0,
          "leftScore": 2,
          "rightScore": 3
        },
        {
          "movedTicks": 0,
          "leftScore": 1,
          "rightScore": 2
        }
      ]
    }
  },
  {
    "id": "control-0-94ckep",
    "name": "Defensive Specialist",
    "schemaVersion": 1,
    "archetype": "control",
    "personality": "Prioritizes pink wave survival windows, stabilizes losing rallies, and buys time to recover position.",
    "generation": 1,
    "lineageId": "control-0-94ckep",
    "difficultyBand": "absurd",
    "elo": 1050,
    "promotionScore": 1050,
    "controllerParams": {
      "fireThreshold": 0.6
    },
    "mutationProfile": {
      "source": null,
      "kind": "seed"
    },
    "network": {
      "type": "mlp",
      "inputSize": 65,
      "layers": [
        {
          "weights": [
            [
              0.10869310757245028,
              0.38658910091964754,
              0.33947228215483116,
              -0.15733706338288123,
              -0.1751401482242578,
              0.26835118889792087,
              -0.3802902999139081,
              -0.0631889496412847,
              -0.2825135214001055,
              -0.20263094069587873,
              -0.3826940177394885,
              0.12558526226563352,
              -0.2672770708244223,
              -0.023678576671359936,
              -0.03305881480933866,
              -0.11855468879087085,
              -0.28976994169331827,
              0.20011540263552566,
              -0.09365344347897918,
              0.41466119817527,
              0.09232043633703985,
              -0.1716819866205584,
              -0.17723181267355273,
              0.09483695259010642,
              -0.41200293352605905,
              0.15976242909673602,
              0.3180827002041042,
              -0.25205912722740326,
              -0.2928245600312948,
              0.37675573782681393,
              0.1831069814041257,
              0.02871751820202917,
              0.022399986209347845,
              -0.24397972086444497,
              0.3416276411851868,
              0.429552173904729,
              -0.3022481671767309,
              0.3088639993686229,
              -0.10746705397032201,
              0.0800244898768142,
              0.44834803605917845,
              -0.34663793681037713,
              0.3990759096806869,
              -0.44245305637232146,
              -0.2195914317753914,
              0.26929397851420406,
              -0.27973945668870026,
              0.3777933213608858,
              0.39599918286720914,
              -0.2639223000508401,
              0.4435364011042775,
              0.04471206137207274,
              0.2501268271713617,
              0.2768620207218809,
              0.05041370247976092,
              0.44586613231804223,
              0.0787317173089832,
              0.19050132958218455,
              0.23447363746818156,
              0.0075295732903936825,
              0.008250872732459887,
              0.011641608283100513,
              0.005653349545779379,
              0.0006961329772229575,
              0
            ],
            [
              0.08505422426265209,
              0.43724530294614694,
              0.099995582508671,
              0.27113482724450977,
              -0.13481493496740451,
              -0.3461829279073947,
              0.2513201825402516,
              -0.4269800075918662,
              0.332891473763313,
              -0.30029663540906965,
              0.3316985445596719,
              0.2690841451989668,
              -0.3005635849840692,
              -0.4150257364913408,
              -0.34486788516645617,
              0.2588596819623469,
              0.1640030997409027,
              -0.2972542270902095,
              -0.2142502846196294,
              -0.08311993904516847,
              0.24080624498708347,
              0.12904159654209316,
              -0.34593359602188894,
              -0.26196539550325326,
              0.004758341382561554,
              0.30646479839924723,
              -0.44385793120600286,
              0.3179898991249502,
              -0.2623230350436643,
              0.43685204477067796,
              -0.27866223114542665,
              0.16062324929516764,
              -0.38513116976246237,
              -0.37092749211005865,
              -0.11702007099520416,
              -0.10400601954181016,
              -0.3620792221510783,
              -0.44775926540605726,
              0.2250830814242363,
              -0.13970497129485013,
              0.3313140814891085,
              0.168313805055988,
              -0.32443632697686553,
              0.2803185147575319,
              0.41022124560470546,
              -0.3113000833710825,
              0.35063796132420755,
              0.08136215863786575,
              0.3214781647720585,
              -0.3045211538248136,
              0.24367894781623697,
              -0.3612776103501276,
              -0.42587685118440144,
              0.030822103891454206,
              -0.010712553007824558,
              0.4286363822640851,
              0.1869263431057334,
              -0.16565399675164372,
              0.13537822030484678,
              -0.0044180512505360104,
              -0.005534894407591639,
              -0.007224328432386203,
              -0.0019455390509511123,
              0.000021184306154926957,
              0
            ],
            [
              0.40611835296197585,
              0.14732054418868298,
              -0.21811759842504652,
              -0.39065508992491743,
              0.10432417073891515,
              -0.17198786543637737,
              -0.06033808866277456,
              0.12937290061195864,
              -0.3581816800606762,
              -0.45654781668391914,
              0.09239062535783055,
              0.3157591802728836,
              0.38030640125203496,
              0.1247749049209363,
              0.2154114547182292,
              0.15325325869993003,
              -0.42198515823795685,
              -0.43919626078573,
              -0.08212917339988053,
              0.1287720274646645,
              0.21924159865512582,
              -0.23898195039291226,
              -0.361066969635361,
              0.20898613496814947,
              -0.20032957186237504,
              -0.3825974698411301,
              -0.091408680123277,
              0.36870348318479956,
              0.17538276028353722,
              0.37927835821584704,
              -0.08884767196141184,
              0.06088893015403301,
              -0.3075806174660102,
              -0.26464802348054944,
              -0.22082411048468203,
              0.3124910509487698,
              -0.326691506523639,
              -0.4403621602104977,
              0.24971336948219688,
              0.22347321999259293,
              0.22415105109103026,
              -0.22358756626079887,
              -0.3931607551407069,
              -0.12791682663407783,
              -0.33079553693393604,
              0.025841866323663493,
              0.30962661298171806,
              0.019792521008365507,
              0.028617215150386476,
              -0.27027128786349125,
              -0.32225616552490827,
              -0.32301073395176283,
              -0.18706514752879963,
              -0.2099912376913542,
              0.02108124318716186,
              0.42124908494297414,
              -0.35376972290687264,
              -0.07099391059018671,
              0.25959482782054694,
              -0.004333939551375315,
              -0.005825618351898086,
              -0.005912575213577469,
              -0.0037687242726431374,
              -0.000903276974141847,
              0
            ],
            [
              -0.09804222721330588,
              -0.31027700934582936,
              0.2607615370110476,
              0.2845550578329106,
              -0.29954026546972945,
              0.26333284919896893,
              0.3578752055868717,
              0.15340250117521112,
              0.21214089607836717,
              -0.09721446986842354,
              0.18192224523873307,
              -0.07917161709920416,
              -0.44115424232989603,
              -0.2876532680039489,
              0.0863307707475418,
              0.16727545469953756,
              0.08659383750736847,
              -0.33384343909766323,
              -0.3500458721537143,
              -0.39636661951561386,
              0.08072679710845547,
              -0.1768680618740482,
              0.2678834386044654,
              -0.16668951322185116,
              -0.16531497232995676,
              -0.307563318265602,
              -0.03812786035705358,
              -0.07787649831734599,
              0.03472193058114499,
              0.08466850656151224,
              -0.39659423602279276,
              -0.16276495065540075,
              0.24899404167663305,
              -0.11587533499114215,
              0.23261572408955544,
              0.36085407915126,
              0.156651625293307,
              0.40358601899351926,
              -0.4442157468991354,
              0.1636111934669316,
              0.07235199809074402,
              -0.3880752378416115,
              0.25737714932765815,
              -0.4170992872375052,
              -0.29396583952078514,
              -0.28918317339514715,
              0.23907363311659555,
              0.3715640330233608,
              0.30646125144047115,
              -0.2675959862725425,
              0.056556221618311434,
              0.004794178942121063,
              -0.2040386843608673,
              0.3603057841156909,
              -0.3259860074035961,
              0.021224998869001865,
              0.25108621981926266,
              -0.2001696084626019,
              0.377273783669807,
              -0.004077780898094725,
              -0.0022673913975544426,
              -0.005669689544915736,
              -0.0014298504905811125,
              0.0002485231366110784,
              0
            ],
            [
              -0.20232424255548248,
              -0.2468701681319189,
              0.4362765489984882,
              -0.07335582714685218,
              -0.062005982794752564,
              -0.2524893562821369,
              0.17918771046844773,
              0.29443085179001033,
              -0.3831062711405743,
              -0.14495498664671358,
              0.056389778300899154,
              0.09784017744617392,
              -0.015285396608902562,
              -0.20388029060111582,
              -0.24933400143165518,
              -0.2733941439361943,
              -0.2303002459253039,
              0.08347157413750167,
              -0.12471960301045329,
              0.3227855174607689,
              0.11398278769541202,
              0.3080571806185834,
              0.3861540756323146,
              -0.37425401884721576,
              -0.16605248296436684,
              -0.23717157596256586,
              -0.21890309499576688,
              0.44173090676777066,
              -0.37805310599505904,
              -0.3740845264774394,
              -0.03815174228511751,
              0.2168823250103742,
              -0.42881817002780737,
              -0.07087041058111936,
              -0.42248308821581304,
              0.23765250675840108,
              0.08956680321134627,
              -0.3890712650259957,
              -0.18551964391954243,
              -0.12275388557463884,
              -0.15174914589151742,
              0.01251325757236953,
              -0.16569909097161145,
              0.22929025966441177,
              0.3311666458368788,
              -0.23140793441157176,
              0.2176474102861108,
              0.34241807315036765,
              -0.4234404199395268,
              0.28710328328961726,
              -0.3399773237622726,
              -0.046520773388841336,
              -0.23183937711774846,
              0.31246124465872127,
              -0.14211048498863163,
              -0.4140120640397072,
              -0.4399912442313507,
              -0.07133674614597112,
              -0.24645725113805383,
              0.0051717182857818084,
              0.00499519525448037,
              0.009209687351026577,
              0.0026549803996351504,
              -0.00009851260054450552,
              0
            ],
            [
              -0.39323336976755235,
              -0.4609510819805271,
              -0.2778949604836065,
              0.1498090280622083,
              -0.2129314399094042,
              0.05638841046287734,
              -0.3924234190189212,
              -0.2301281880622594,
              -0.0820891297130102,
              0.42666402473107395,
              0.04307405219843351,
              0.16358462347618377,
              0.2038483707491003,
              0.40628596230207675,
              0.3161779948295175,
              -0.2508101253763851,
              0.0777366997615724,
              0.1667187601338517,
              -0.26051102809142324,
              -0.3051714123421076,
              0.40515295563869874,
              -0.08555401501073828,
              -0.10668359574015028,
              0.3851358268655165,
              0.1172167585124328,
              0.2845967227360234,
              -0.0006693561561405659,
              0.4143906486220658,
              -0.05940218064934016,
              0.08050186226617112,
              -0.16004617328289897,
              0.11899332250468433,
              0.435723360395059,
              0.21954824421554806,
              0.32177039079833775,
              -0.2601215579779115,
              0.38408289751969277,
              0.16483389604836704,
              0.18159679714590313,
              0.08619454018771648,
              -0.1630965666146949,
              0.11828291509307488,
              -0.2624629510100931,
              0.37455442062620004,
              -0.2649787892584591,
              -0.39937911362066436,
              0.21487492080022175,
              0.10734392853603998,
              -0.27506880612416496,
              0.12969867830376106,
              0.35322239328057403,
              -0.06252180478242371,
              -0.21769558497226765,
              0.13872942268788185,
              -0.28427588050472513,
              -0.44709029502701014,
              -0.2678778800647706,
              0.09827640778385104,
              -0.40977914824616163,
              -0.0025417966776472064,
              -0.006399126084288999,
              -0.005238122891009404,
              -0.0017908776724781818,
              -0.000847594291847991,
              0
            ],
            [
              0.23587743281700504,
              -0.3895052405939234,
              0.07210140250348278,
              -0.1191488315283274,
              0.4268512752884813,
              0.17229840138654492,
              0.07726052539132162,
              -0.38050122113352813,
              0.006026065013735357,
              0.3686954366155415,
              -0.11202753299159088,
              0.23423715740019802,
              0.06842053774039675,
              0.06955838854416996,
              0.05510123944587823,
              -0.20386751989659635,
              -0.0574985114945919,
              0.3483672276897078,
              -0.39165164523292334,
              0.18537284842662977,
              0.3920799359037971,
              0.26046628930641375,
              0.15755501908081923,
              0.43428298599121834,
              0.3277973185325402,
              0.07134452727623285,
              0.41160732409916817,
              0.38806008459068836,
              -0.0448293968802318,
              -0.18805273390565785,
              0.2879705514991656,
              -0.10826648301444948,
              0.07006820964161307,
              -0.4445430711144582,
              0.1265879728132859,
              0.3425497456108705,
              -0.07152291114907712,
              -0.2579694772604853,
              -0.21662252394016832,
              0.13308829441666603,
              0.3024085178039968,
              -0.07554336042334117,
              0.33018427952192725,
              -0.2843681616126815,
              -0.30231596946041456,
              -0.18591203122714484,
              0.19658460312500872,
              -0.28720956331443237,
              0.4422286247176311,
              0.08555751453110103,
              0.42186837143903716,
              0.2436910908867166,
              -0.05576389246449588,
              0.18427451104350528,
              -0.26423224708618703,
              -0.1012414873810485,
              0.40364463741425427,
              -0.3593758708331734,
              -0.35412943626288323,
              0.0016311950542371642,
              0.00229304417228461,
              0.00280032043013696,
              0.000779572150370382,
              0.0000513562147745597,
              0
            ],
            [
              0.11718600760081084,
              -0.41666574472365475,
              -0.14159418327145468,
              -0.4125767909118642,
              0.18078339513104302,
              -0.15854064196482115,
              -0.08812241769574707,
              -0.1434502851770415,
              0.1906812822870913,
              -0.13028696844231527,
              -0.08653791718063712,
              0.040406918187282946,
              -0.18669944462062613,
              0.30411658975245837,
              0.2560954906666059,
              0.4444449331663669,
              0.043753154188468577,
              -0.10748470794266717,
              0.3069853615248576,
              0.4114179758358977,
              -0.2606029639950214,
              -0.12639386134464708,
              -0.40767689925101314,
              -0.36689788443197535,
              -0.04552911644570619,
              0.036235252604819836,
              -0.42682288081850855,
              -0.07710003484971821,
              0.435404458316043,
              0.12830654579557668,
              0.05384719292633235,
              0.04425247949548066,
              -0.14356361918617042,
              0.0615664942888543,
              -0.20735037275590004,
              -0.13700270570006026,
              0.24252626637462527,
              -0.4411287221359089,
              -0.39358595525845885,
              0.03841839241795242,
              -0.3545377363683656,
              -0.04892440339207456,
              0.4173570487881079,
              0.2046043883766761,
              0.1933879740578301,
              0.04308310220403641,
              -0.3966235752032993,
              -0.2112037360653412,
              0.17514589997806526,
              0.3265691338330534,
              0.24203982901163107,
              -0.32426885963933455,
              -0.08529091761352521,
              0.15717410508273852,
              0.28261449193946014,
              0.05255528704728931,
              -0.4143666541669518,
              -0.14423130084760488,
              -0.11469836407341064,
              0.005466524718043416,
              0.006918686694966288,
              0.010830423770327892,
              0.0028093605670030265,
              -0.00025666586091931863,
              0
            ],
            [
              -0.31514970267097114,
              -0.01670291271199218,
              -0.2539109699686032,
              0.01853011706233693,
              -0.3598598975032802,
              0.3385295998975667,
              0.2534179744287431,
              0.06680378843782671,
              0.2586316148875,
              0.25688699411442784,
              0.11632173642042988,
              0.19818600296232758,
              0.28112714706289005,
              0.26513566885068274,
              -0.35884500339306247,
              0.30173994757284484,
              0.31691908821750037,
              0.36389206950008074,
              0.18183371897321196,
              -0.1717489187452339,
              0.39217501476025457,
              -0.2776603798479419,
              -0.042763155764437635,
              0.10032042372923966,
              0.11310036755148836,
              0.27593893529847263,
              0.1704695880878717,
              0.26371437816414983,
              0.41921996406745166,
              -0.28928079073997476,
              -0.3516771920956671,
              -0.13941628995817154,
              0.21828655572608113,
              0.12658374309539797,
              0.4069692610530183,
              0.26857256146864705,
              -0.12166890897788107,
              -0.2831943557364866,
              -0.43766432753764095,
              0.35761157346423716,
              0.18449362961109728,
              -0.4227128680770311,
              -0.4116388274822384,
              -0.21483650428613998,
              0.3733570001024849,
              0.18729712334308982,
              0.38510584348500027,
              0.136251472449197,
              -0.19899181648064296,
              -0.015280759019812393,
              -0.18821144475252438,
              0.25067013438292896,
              -0.05176782618414031,
              -0.20668751831732238,
              -0.33727973004585676,
              0.34021511636674406,
              0.3955315305618569,
              0.3499226692831144,
              0.4348366143414751,
              0.01172485260484123,
              0.011889125309136933,
              0.01615884904678056,
              0.006914941700635028,
              0.0005493437145581303,
              0
            ],
            [
              0.34258201334440413,
              -0.025620195215860127,
              -0.15229514618601908,
              0.01883436289600769,
              0.13232784321372817,
              0.010819477419151654,
              0.4305484890737503,
              0.4523764736192978,
              0.26020713764660763,
              -0.20785116504609844,
              -0.3541444902241868,
              -0.37378546865305445,
              0.3423411029925743,
              0.021521446773205583,
              -0.18324349733000234,
              -0.38514648136598,
              0.40655727265353225,
              0.38037494057422533,
              -0.3976945552742109,
              0.22509699888488294,
              0.3466325561843461,
              -0.3419309977730949,
              0.07596735183595618,
              -0.11532337117060655,
              -0.28375181440975494,
              -0.43861224870197474,
              -0.26961871585808694,
              0.15251873577944935,
              -0.42588185041677207,
              0.3818762118715072,
              -0.39771871694829314,
              -0.38400055600795896,
              0.14106766926124692,
              0.25833950706291947,
              0.40167416869662703,
              -0.3942096958615606,
              -0.008880332414992155,
              0.3406031624414027,
              0.19816520833410323,
              -0.2507715891581029,
              0.27938623961526904,
              -0.4199530124411708,
              -0.40172524235676976,
              0.129418547208356,
              -0.2408055624607114,
              -0.4524432860290707,
              0.1673750364499142,
              -0.08396840032965187,
              0.13724147843855888,
              -0.13332251177401613,
              -0.3146528209584866,
              0.1734718500582505,
              -0.3885464879515555,
              0.09205833003239502,
              -0.02205390265553174,
              -0.37343290499411524,
              0.05732101255562157,
              -0.034272733912803235,
              0.13743774904869496,
              -0.004867399381931723,
              -0.007389091145089223,
              -0.008766127183117808,
              -0.0037529359924890933,
              -0.0006447152273521873,
              0
            ],
            [
              -0.2824741899462386,
              -0.08275783923546891,
              0.1906771273577484,
              0.425951006513211,
              -0.2258260368024803,
              -0.2987191943269895,
              0.02517946512582637,
              -0.14278746798489797,
              0.127776368959832,
              0.0654769361942906,
              -0.38575903497012,
              0.1691633350202934,
              0.43675270218384,
              0.1325031466588373,
              -0.08310368122791309,
              -0.050106793560264484,
              -0.1865287707538368,
              0.02053553502158222,
              0.16192482244223358,
              -0.34035846697617816,
              -0.36660422229747647,
              0.05256220510166413,
              0.2913597250023379,
              -0.29934155141295593,
              0.2955141431939587,
              0.3295360612682998,
              -0.34248546715825795,
              0.25663090366870167,
              0.10813383457716555,
              -0.0512261566465619,
              -0.1807707727421075,
              -0.004804491600953043,
              -0.1612721852492541,
              -0.3585130888503045,
              0.16931246635504069,
              -0.2077168202718618,
              -0.24892283594235778,
              -0.3393017615424469,
              -0.3991891121026129,
              -0.32505014506168667,
              -0.42656638075131925,
              -0.36846074906567955,
              0.06877229826059193,
              -0.26819233911801743,
              -0.3954652208667854,
              -0.022180599375937075,
              0.050686545140051206,
              0.3077129685514899,
              0.342182539816284,
              -0.04736597583233924,
              -0.13509763074871256,
              0.0752872583574646,
              0.07171897163905057,
              0.32815627053172797,
              0.05602696934119322,
              -0.322420476959087,
              0.1385953873163089,
              -0.00944356278050691,
              0.11862559311557562,
              -0.0023260763576503822,
              -0.0021554388941982558,
              -0.0027998269279347165,
              -0.0013322592015043862,
              -0.0005702552771363785,
              0
            ],
            [
              0.426346121520349,
              0.4165648904439034,
              0.07485732339322666,
              -0.09906976908083381,
              -0.38841200496617584,
              -0.3191898984138631,
              0.3043143880587597,
              0.1479565067338003,
              -0.0857813821520814,
              -0.2654392315447322,
              -0.11033186200151118,
              0.24510582802974717,
              -0.300606541245449,
              -0.4086411837526941,
              -0.06757033041019862,
              -0.03588280518165634,
              -0.40149411095539095,
              -0.18023518580198106,
              0.04018410046119243,
              -0.1087307833644399,
              0.06589893574894304,
              0.43291226370751756,
              0.2032427095121244,
              0.3540916410194264,
              0.13244261165809246,
              0.2940149340312928,
              0.2570263555739075,
              -0.27625224853400143,
              -0.4446698360843584,
              -0.018605705057271823,
              0.021073224814608695,
              -0.43220998907927427,
              -0.14070233814418318,
              -0.18225075176451355,
              0.3313521818490699,
              0.0522775753075247,
              0.43167761249933395,
              0.15468027940951287,
              -0.015133293368853629,
              0.42214088696055113,
              -0.34622093313373625,
              0.32695504277013154,
              0.3511355296242982,
              0.26151186537882415,
              -0.2865464023685236,
              0.34817961491675187,
              0.21599113082524996,
              -0.4420997909600607,
              0.2495961010885192,
              -0.03380331373701629,
              -0.40048298380142183,
              0.23616541326111418,
              0.16966767352420037,
              -0.04266558907655106,
              -0.15158020457233856,
              0.028940158942714334,
              -0.4375835138373077,
              -0.18260251111350953,
              -0.25451808341313154,
              0.00035513725317498526,
              0.000013610869002604634,
              0.00038313400472958227,
              -0.000022370438675670473,
              0.00006450287714543276,
              0
            ]
          ],
          "biases": [
            0.13097551817854067,
            -0.3588344079863256,
            0.06382973421885726,
            0.1869126020504961,
            -0.14862401241896478,
            -0.29828593442223555,
            0.15481303079244468,
            0.39574857455335366,
            -0.14096299663902928,
            -0.0616917087949093,
            -0.27132434835733005,
            -0.039853436048141615
          ]
        },
        {
          "weights": [
            [
              -0.22383967610577696,
              0.3277823247494222,
              -0.19789321748604452,
              0.3085855913796382,
              -0.2756142274820832,
              -0.3429608784844458,
              0.021545386244785063,
              -0.1122012177480397,
              -0.2613376597672156,
              -0.1381561418459569,
              -0.014078400737103498,
              0.10740426779763718
            ],
            [
              -0.004369419340189632,
              0.2880400942183724,
              0.285000797853095,
              0.09222589703020177,
              -0.10600966785527573,
              0.189669323287845,
              0.15034183124317393,
              0.14123394823725527,
              0.2813842352266198,
              -0.14067409232418246,
              0.025285061116033153,
              0.28737634704717985
            ],
            [
              0.1759301561460088,
              0.045895459405488004,
              0.3022470384682966,
              -0.31986596429190384,
              0.34084197911263764,
              0.3172403786560349,
              -0.3904482698118443,
              -0.16894915563896018,
              -0.270765491979808,
              0.08152028311095044,
              0.14865427601948847,
              -0.09089358230408112
            ],
            [
              -0.3374132392388093,
              -0.09832588556302911,
              -0.11533908472379735,
              0.2746823587794741,
              -0.30789849617571213,
              0.09034484050064213,
              -0.14206911834312203,
              -0.042003170399234346,
              0.1853188644863123,
              0.2724503493479755,
              0.16900339729722838,
              0.3308288166218876
            ],
            [
              0.1885496262195335,
              -0.25189813777892095,
              0.26745707806750324,
              -0.22811422430652517,
              0.11260784559280597,
              -0.11250681801284859,
              0.017397822706490883,
              0.16756182661283978,
              0.16822582233763964,
              -0.21109124278975588,
              0.2912323040831519,
              -0.14201313219434575
            ],
            [
              -0.15787605733432153,
              0.21101585844788628,
              0.31237213976534633,
              -0.2159563000047289,
              -0.09023270421621422,
              0.32739423905061227,
              -0.16719037136276346,
              -0.2082390588040898,
              -0.1942646709380349,
              0.029093258815649194,
              -0.27282794951557665,
              -0.2976960125260582
            ],
            [
              -0.067504333523631,
              0.293577754599552,
              0.24441041779199799,
              0.23568961868807614,
              -0.08151073541262932,
              -0.2127049049283897,
              0.26820174697865706,
              0.03070051573450736,
              -0.11999329610435983,
              0.23406610444467388,
              0.12497353473284627,
              0.12142145301340686
            ],
            [
              -0.2885183110636883,
              -0.30296164392841657,
              0.25038882365618,
              -0.21475530666288875,
              0.26125098205992375,
              0.14416144327019065,
              0.06848043421954746,
              0.14612634142621728,
              -0.09550541816985167,
              0.3094797909757515,
              -0.21825072388290498,
              -0.25699738611491163
            ]
          ],
          "biases": [
            -0.12923142200917345,
            0.05125713143770478,
            -0.12662156560531398,
            -0.12855886248726753,
            0.056844093855799166,
            0.08843686944549957,
            0.11594378394635513,
            0.10433156021269896
          ]
        },
        {
          "weights": [
            [
              -0.256720955304155,
              -0.009983617944130043,
              0.11847953451995041,
              0.17261103048246315,
              -0.2536714367171637,
              0.05697741754838001,
              -0.18880528377249267,
              -0.08956679668904997
            ],
            [
              0.13026730478731646,
              -0.11090037222152666,
              -0.20228821764225027,
              -0.013677392493568509,
              0.03464747459224791,
              0.16435174930897717,
              0.03901031600197634,
              -0.27606716896773664
            ],
            [
              0.24552453308044045,
              -0.057174695216616625,
              0.36071074499296635,
              0.09266112608939453,
              -0.03185525745421,
              0.15623264361963046,
              0.23696849611882637,
              0.02119885990750349
            ]
          ],
          "biases": [
            0.16475224656406426,
            -0.10326268571955063,
            -0.0760371230664062
          ]
        }
      ]
    },
    "reviewBlocked": false,
    "reviewSummary": null,
    "runtimeDisabled": false,
    "runtimeValidation": {
      "totalMovedTicks": 0,
      "totalGoals": 8,
      "samples": [
        {
          "movedTicks": 0,
          "leftScore": 2,
          "rightScore": 3
        },
        {
          "movedTicks": 0,
          "leftScore": 1,
          "rightScore": 2
        }
      ]
    },
    "metadata": {
      "roleName": "Defensive Specialist",
      "designIntent": "Prioritizes pink wave usage to stay alive, blunt dangerous pushes, and extend fair recovery windows.",
      "styleTags": [
        "defensive-specialist",
        "pink-wave-defense",
        "survival",
        "reset-rallies",
        "human-tested",
        "control",
        "absurd",
        "static-lane",
        "goal-capable"
      ],
      "reviewState": "active",
      "humanTrainingSummary": {
        "botId": "control-0-94ckep",
        "botName": "Defensive Specialist",
        "sessionCount": 1,
        "botWins": 0,
        "humanWins": 1,
        "draws": 0,
        "botWinRate": 0,
        "averageGoalDiff": -7,
        "challengeScore": -60,
        "sampleCount": 1323
      },
      "humanFineTuneSummary": {
        "sampleCount": 1323,
        "epochs": 3,
        "batchSize": 64,
        "learningRate": 0.01,
        "positiveWeights": [
          9.099236641221374,
          10.211864406779661,
          24
        ],
        "averageLoss": 1.037544048342128,
        "source": "browser-local-auto-train-repair",
        "updatedAt": "2026-03-15T02:47:09.082Z",
        "newSessionCount": 1
      },
      "rosterStatus": "published",
      "rosterVersion": 1,
      "source": "bot-roster.js",
      "publishedAt": "2026-03-15T03:06:58.059Z",
      "lineageRoot": "control-0-94ckep",
      "sourceBotId": null,
      "trainingHours": 0,
      "eloTier": "elite"
    },
    "humanTrainingSummary": {
      "botId": "control-0-94ckep",
      "botName": "Defensive Specialist",
      "sessionCount": 1,
      "botWins": 0,
      "humanWins": 1,
      "draws": 0,
      "botWinRate": 0,
      "averageGoalDiff": -7,
      "challengeScore": -60,
      "sampleCount": 1323
    },
    "humanFineTuneSummary": {
      "sampleCount": 1323,
      "epochs": 3,
      "batchSize": 64,
      "learningRate": 0.01,
      "positiveWeights": [
        9.099236641221374,
        10.211864406779661,
        24
      ],
      "averageLoss": 1.037544048342128,
      "source": "browser-local-auto-train-repair",
      "updatedAt": "2026-03-15T02:47:09.082Z",
      "newSessionCount": 1
    },
    "trainingHours": 0
  },
  {
    "id": "aggressive-0-9aaccq",
    "name": "Sniper",
    "schemaVersion": 1,
    "archetype": "aggressive",
    "personality": "Uses gold waves to line up pickups, create punish windows, and convert brief openings into scoring pressure.",
    "generation": 1,
    "lineageId": "aggressive-0-9aaccq",
    "difficultyBand": "absurd",
    "elo": 1048,
    "promotionScore": 1048,
    "controllerParams": {
      "fireThreshold": 0.54
    },
    "mutationProfile": {
      "source": null,
      "kind": "seed"
    },
    "network": {
      "type": "mlp",
      "inputSize": 65,
      "layers": [
        {
          "weights": [
            [
              -0.2433874211583504,
              -0.27036061357075797,
              -0.0075608133417307275,
              -0.22923985615800552,
              -0.13400603726627724,
              -0.35147744354362453,
              -0.0062664305843923565,
              -0.3916650933492452,
              0.1491945451835479,
              -0.10579476361430654,
              0.25908957712133174,
              0.07339497637351633,
              0.2512570902026411,
              -0.011371217702744645,
              0.0900696478035118,
              -0.2258691310846881,
              -0.21912460358284955,
              -0.39037810587400085,
              0.1086603710660711,
              0.23800634832775378,
              -0.26079058235265384,
              -0.2484649647015402,
              -0.2099496834485535,
              0.19131729625100538,
              -0.15325428332475105,
              -0.41112675438635055,
              -0.15733553683385254,
              -0.3371493126964197,
              0.25689230652060363,
              0.1788394325527398,
              -0.014988081716001035,
              0.3968583575449884,
              -0.10981170425657183,
              -0.32288592823315415,
              0.26101235349196944,
              0.01635286690416166,
              0.10179186095483601,
              0.42235230600927026,
              -0.15049934796988965,
              -0.01389102847315371,
              -0.09515543400775642,
              0.07959596038544904,
              -0.3512569546932355,
              0.3592694471400019,
              -0.32958934584640526,
              -0.2050657925566222,
              0.10477209274544992,
              -0.1747536789005024,
              -0.04927235951403064,
              0.35196049155403414,
              -0.40321766914156615,
              0.1124133066041395,
              -0.18178589288145305,
              0.4489532735897228,
              0.2359189753420651,
              -0.3805732375010848,
              -0.25273392009548845,
              -0.3280373231275007,
              0.17236057058908047,
              -0.0037255663604931367,
              -0.013128242430865876,
              -0.01225361670396506,
              -0.0008601256249507117,
              0,
              0
            ],
            [
              0.44644183148128214,
              0.3842765594265629,
              -0.1702788187408105,
              -0.3627260089746131,
              0.056090491296989224,
              -0.3869213348777308,
              -0.1199776653376234,
              -0.2742866879645058,
              -0.1751547212561786,
              -0.04887953567727007,
              0.4242028164175554,
              0.3387606337968395,
              0.0579568835229182,
              0.29067420396669086,
              0.057728754300365046,
              0.18793536211417164,
              -0.44201630885630777,
              0.34039464717120776,
              -0.4155523028690368,
              0.3507951734616664,
              -0.04393511413486075,
              0.03951214217408988,
              -0.13412989090168154,
              -0.038342197933980096,
              0.2763218804611338,
              -0.2763856500852853,
              -0.38882123411167413,
              -0.13305074244271964,
              0.05774442146066577,
              -0.08920130104620237,
              0.11345692479517311,
              -0.027396182832308113,
              0.3104753657709807,
              -0.4416288151871413,
              -0.42738464288413525,
              0.21397954312756423,
              -0.06807510433718562,
              -0.18391651210840793,
              0.016837831120938063,
              0.2226259250426665,
              -0.0008519992930814624,
              0.0593198618260003,
              0.21210758287925274,
              0.07588602641267116,
              -0.03458723386473981,
              0.2830281350212644,
              -0.3581043216658644,
              0.41543112562839873,
              0.35723548993052273,
              -0.30983063738216443,
              0.06930283509920117,
              0.3370291283586994,
              -0.22741230041719973,
              -0.1459506334969774,
              -0.2592098227003589,
              0.15214860979467631,
              0.36254205722361804,
              -0.21551942818332465,
              0.20711384215392173,
              -0.009206359043318105,
              -0.008128177169340813,
              -0.008860717048003732,
              0.00007828329151236912,
              0,
              0
            ],
            [
              0.17573299193364317,
              0.3816059651675924,
              -0.35745625247289553,
              0.07511183259509917,
              -0.2927542796367755,
              -0.09704616714431143,
              -0.29787340631911124,
              0.1714547979580191,
              -0.3649510474296489,
              -0.27466891409425404,
              -0.2297960426300668,
              0.182365385026744,
              0.0946446192119763,
              -0.2165626683039777,
              -0.4277261142396835,
              0.4023081278973798,
              -0.43122131672298625,
              -0.1071840261966405,
              0.35926247625611724,
              -0.31016651975491294,
              0.35925547568397254,
              -0.2093801709178953,
              0.34290341345992337,
              -0.4152401087502553,
              0.28232083743996456,
              0.09153992081992328,
              0.2798933080863208,
              0.4367339264368639,
              0.39882495109923183,
              0.31528080556381816,
              -0.28016336378641427,
              -0.039278639922849835,
              -0.38390099073294554,
              -0.04669168037362397,
              -0.34278150235768406,
              -0.06487122202451964,
              0.356584679055959,
              0.1617646710947156,
              -0.14807716466020793,
              0.2002786067314446,
              -0.34732600513380024,
              0.3612398648525434,
              0.15749683796893807,
              -0.394942926717624,
              0.16188789934399733,
              -0.39850187547202776,
              0.43788114173418174,
              0.3911093087511562,
              -0.27899155511657275,
              -0.014270569394094365,
              -0.43533127764622925,
              -0.05859197478275746,
              -0.3882327230880037,
              -0.08478116523474455,
              -0.20476894732564688,
              -0.30433070319704714,
              -0.09700341294519603,
              -0.2983952747192234,
              0.05887322241906077,
              0.00458692470616832,
              0.006798209634940007,
              0.007197966796736792,
              -0.00003112757340415332,
              0,
              0
            ],
            [
              0.2017693141748998,
              0.015527485393125234,
              0.19938793647962927,
              -0.009322634608831459,
              -0.013132533620015983,
              0.4263632531691227,
              -0.25262617634011275,
              0.3334069778694909,
              -0.236965187320566,
              0.10859422957994219,
              0.2721384784895029,
              0.2923425505514097,
              -0.04095481034071152,
              0.15763450989339164,
              0.38630404766008436,
              -0.23539537393469862,
              -0.12054827046600593,
              0.30804959276624777,
              0.37311602253466847,
              -0.34535614755610794,
              -0.11969251795191267,
              0.22773179571470367,
              0.2749789796536029,
              0.05310715530586405,
              0.07685566308793922,
              -0.06586572979576887,
              0.1951578393112868,
              0.10438291635364294,
              0.4365937405731529,
              -0.370452921357138,
              0.3127231535268948,
              -0.4463986071757972,
              -0.10504470344167204,
              -0.2014685595408082,
              -0.3025711931521073,
              -0.14549031051261527,
              0.3869557095458731,
              -0.3473890582099557,
              -0.09017255811486394,
              -0.17342562738340347,
              -0.04348185108974576,
              0.29940860130904073,
              0.20101018615532668,
              0.24499565011138205,
              0.38963470085285623,
              -0.39012051982652723,
              0.23015709117836855,
              -0.364718286240354,
              -0.18326218136895364,
              0.06593694014581243,
              0.3311932113603274,
              0.09322799148503691,
              0.36044387554284185,
              -0.3754028454422951,
              0.28388396529480814,
              -0.11729807294905185,
              0.4147966026328504,
              0.05058650393038988,
              0.10504718804731965,
              0.0017489466138245775,
              0.0013319213436173982,
              0.001955836428763179,
              0.000029009313630607026,
              0,
              0
            ],
            [
              -0.4333476011061159,
              -0.29207038157915394,
              -0.3899808403071251,
              0.2079742767755344,
              0.14529079074532697,
              0.12663567644141338,
              -0.4247191471797807,
              0.37361227836845134,
              -0.3186718639619985,
              0.0772125184035575,
              0.2292303645373881,
              -0.05099383854552464,
              -0.02703652220929817,
              0.3748028273224907,
              -0.36155178640279817,
              -0.41705608744791295,
              -0.17075873922551277,
              0.03288615987958537,
              -0.36141221921425315,
              -0.03436014785577786,
              -0.15140263596701717,
              0.01376229878808435,
              -0.19014302242749093,
              0.17883768945430767,
              0.08464583903250475,
              -0.38236097318585965,
              0.23665749749634415,
              0.21386584213469179,
              -0.282110114232637,
              0.34500415213850294,
              0.0893245154991746,
              0.245954910479486,
              -0.22489594873040916,
              0.4297010057140142,
              0.07181196736637503,
              0.2810858718396813,
              -0.03517601285129786,
              -0.07876101834699512,
              0.22174163090530782,
              0.4444211385212839,
              0.0410739115672186,
              -0.4043567366853639,
              -0.4277520328061655,
              0.12455945984943256,
              0.06644859061943145,
              -0.0885211366239728,
              -0.06173227457628958,
              -0.194318346604229,
              0.3546984100219725,
              -0.2713628932128923,
              0.2585900538064453,
              0.07223451293539256,
              0.000524685555137694,
              -0.13590075422544032,
              -0.2147316541755572,
              -0.007419284130446613,
              0.3394208266865462,
              -0.12405232954770327,
              0.04879451673477888,
              0.0036874294785419854,
              -0.004014710808219579,
              -0.0022827747966927695,
              -0.0008659728807789475,
              0,
              0
            ],
            [
              -0.3738095418464735,
              0.11275350664393004,
              0.2374038305346998,
              0.21927917383530068,
              0.41292610502886423,
              -0.02410852716320164,
              -0.367962510292561,
              0.04104293075719376,
              0.27796503694444946,
              0.0741857601586694,
              0.26849947042698136,
              -0.2957330359685602,
              0.23446110238410764,
              0.3862898113460412,
              -0.3664621708139388,
              0.0022418892309670306,
              0.020956810525565892,
              0.24569084515847822,
              0.4289537447970361,
              -0.046840103608964505,
              0.09373504315506595,
              -0.44265067806801184,
              -0.23151674115751159,
              0.05137046516136902,
              -0.4281973422235841,
              -0.017581331706605852,
              -0.3319532062159851,
              -0.1579012478236109,
              -0.21757151442579925,
              -0.34322996445537896,
              0.4378249516244978,
              0.2580695288954303,
              -0.301420735870488,
              -0.42968170281965284,
              0.15221700172405692,
              0.013588396193670077,
              -0.04965497106313706,
              0.11645349038299173,
              0.05065602029208094,
              -0.23690388752147556,
              0.21647207695059478,
              0.34944177403973997,
              -0.2675973230972886,
              -0.12801945242077686,
              0.054771665151060564,
              -0.2802976680221239,
              0.08437906870455905,
              0.3442599723969235,
              0.21293958991916345,
              0.15174652068438566,
              0.14869000776452007,
              0.14108633743599058,
              0.28109060029964894,
              0.17036308427341282,
              -0.20394800235517324,
              -0.003621925343759358,
              -0.30438383838627486,
              -0.286129642277956,
              0.3688745959661901,
              0.0021987941667012444,
              -0.0034228800350271224,
              -0.0025148901495895526,
              -0.0005973431232601923,
              0,
              0
            ],
            [
              -0.029574187826700522,
              -0.2759301200879098,
              0.30885682467931797,
              0.057046753533201426,
              0.01950963699393829,
              -0.02139760526836575,
              -0.3525706442498587,
              0.39037037025566607,
              -0.38593520107873774,
              0.147778325958793,
              -0.4123784643862543,
              0.1413234083892638,
              0.23387448815206718,
              0.39551571883238323,
              -0.29396753525017283,
              0.09132943515271945,
              -0.17397739305794188,
              0.3019561929737139,
              -0.1089212766615674,
              0.4438205954833412,
              0.3342117775274178,
              0.05214675198628365,
              0.04821880863791803,
              -0.33676837233245394,
              -0.22061866490399998,
              -0.10344144380651414,
              0.27906667012721303,
              0.17916585474740715,
              -0.28284727747086436,
              0.38344372343476674,
              -0.27408621346112344,
              -0.3106136887567118,
              -0.218378350767307,
              -0.31050796341151,
              -0.009784760512411594,
              0.07629520774557987,
              -0.11643348068464547,
              -0.26699837555643174,
              -0.11435210555791855,
              0.035657487390562896,
              0.07831023603212088,
              0.001269330575315143,
              -0.11539383970666676,
              0.19182035926604418,
              -0.4356812662140504,
              0.027259539995546367,
              -0.41524384933239056,
              -0.16573809067249604,
              -0.37753828411519436,
              -0.07359546777610668,
              -0.21395338771740655,
              -0.386374596809037,
              -0.034265179093927144,
              0.04006178020499647,
              0.1526868578977883,
              0.36203620622400196,
              0.005022075539454818,
              -0.2125625921878964,
              0.34842134155333043,
              -0.007606156747051835,
              -0.009091843443179948,
              -0.007153594474884214,
              0.000027399786850667,
              0,
              0
            ],
            [
              -0.17682867239232447,
              -0.4161682560748958,
              -0.30348668016197555,
              -0.41963551264004667,
              -0.07907900603060528,
              0.3329715614430904,
              -0.12377814800619336,
              -0.08886800197585899,
              -0.2715844842588923,
              0.16518603701244022,
              -0.2118161482210148,
              -0.18109348642552894,
              0.0024562373020691106,
              -0.22204065283304578,
              -0.07099619560746762,
              -0.4342494459270899,
              -0.44636610792358306,
              -0.1413182985997551,
              -0.31798700254876167,
              0.05810774736583198,
              0.3147879498275597,
              0.4293031792241024,
              0.022654126865886564,
              0.0775299741632717,
              -0.15565781452928065,
              0.28684476991184055,
              0.21872126951348037,
              0.37680236636660996,
              0.2852818236686289,
              0.23400328846145138,
              0.06110056734178215,
              0.2487412531161681,
              0.10629735162947328,
              0.06204183076042682,
              -0.35585863378364596,
              -0.2952527671823304,
              0.2706900492310524,
              0.010955825122073293,
              0.33426807560026645,
              0.31439737435430287,
              0.1362785186385736,
              0.2996042666254539,
              0.03997249868698418,
              0.1353877552456457,
              -0.35561913974068526,
              0.20352871034624073,
              0.4458753203838245,
              0.41625143853067553,
              -0.21790634281783394,
              0.21336014938096726,
              -0.29257101913187217,
              0.4307269548531622,
              0.16377480570226907,
              -0.26867821121122687,
              -0.30425128005445007,
              0.1611080399248749,
              -0.42892606251407417,
              -0.4227845027111471,
              0.01611028842162341,
              0.0031780103548778344,
              0.005880550327421097,
              0.0027480367806270497,
              0.00036229446152935703,
              0,
              0
            ],
            [
              -0.05454679188859053,
              -0.1991873109919983,
              0.30163637410774596,
              0.019991855492603367,
              0.2663411278309205,
              -0.21807921885728526,
              0.09821444193471436,
              -0.00573994074954357,
              -0.22457862789831406,
              -0.25524094025413846,
              0.36358032121237743,
              0.22576060553021396,
              -0.0910634474925389,
              -0.2966202781538104,
              -0.1805161954337564,
              0.16359401222961123,
              -0.3350271580536387,
              -0.17710096742733455,
              -0.3144426035229117,
              -0.16969880731786563,
              0.2144138476599644,
              0.20062638123949125,
              0.007330643919979869,
              0.067037104396628,
              0.08528258247789094,
              0.4257474310928956,
              -0.40891968361102043,
              0.3153788646217436,
              -0.2082688032416627,
              0.2625021708311526,
              -0.20407988301012667,
              -0.14340019156225026,
              -0.09336564287077635,
              -0.06833668760955335,
              -0.44804884318728,
              -0.1663338767483817,
              -0.4466197368688882,
              0.24423769069835544,
              0.15636207286734136,
              0.19433656535111368,
              0.04550336643587798,
              -0.17809433628599958,
              0.32750508568715303,
              -0.004767078491650226,
              0.3642236448216219,
              0.17817341182282828,
              0.10988771995538185,
              0.02501689394970495,
              -0.20210702299387556,
              -0.36147089284814626,
              -0.2553158221567991,
              0.09688111448194832,
              -0.40363808528054507,
              -0.38962488386314365,
              0.2966888661263511,
              0.04290513277519494,
              0.26524713111575693,
              -0.17018842531833797,
              -0.13626294527202845,
              -0.0035755878216020332,
              -0.006831616735088928,
              -0.005445339023389,
              -0.0007355287380152146,
              0,
              0
            ],
            [
              0.3033007075365423,
              0.4192521953137052,
              -0.12866802873336977,
              -0.06990398899222948,
              -0.14293842263023515,
              0.10246506392128399,
              0.39426863302259924,
              0.42795301551419185,
              0.005753165970487273,
              -0.37498469037709126,
              -0.07581007424046238,
              -0.3247838663986223,
              -0.17766208050580162,
              -0.2572002273138934,
              -0.12950888284653983,
              -0.228957833117171,
              0.06535063100335993,
              0.2858480138274051,
              0.16020024796016516,
              0.2977176332329305,
              0.437293333319031,
              -0.017960855759840865,
              -0.17665114114534886,
              -0.3218559248561933,
              0.15396338200492873,
              0.20038860936183484,
              0.16729525490663946,
              0.11088856109417976,
              0.20083595949690788,
              -0.20006992798987275,
              0.3307877027895302,
              0.10107628803234547,
              -0.27638817073311656,
              0.2947538442676887,
              -0.15831954900640996,
              -0.09070683932620537,
              -0.11010029548779131,
              0.26342880923766643,
              -0.3266312196850777,
              0.18527770531363785,
              0.003538657631725073,
              0.15208160774093618,
              0.4427078200969845,
              -0.21567143949152878,
              -0.2350035602052533,
              -0.44104911412005987,
              0.17459265481892894,
              0.005490740431834976,
              0.14848078467920967,
              -0.3433863293914956,
              -0.31500511618625804,
              -0.034070129273459315,
              0.057468216167762876,
              -0.0010218736482784153,
              -0.43741642395034436,
              -0.09249837091192603,
              -0.30694628634955734,
              -0.2615061645163223,
              0.033142234571278094,
              -0.01237525951441144,
              -0.021318446219181518,
              -0.01835200110391552,
              -0.001483222148712719,
              0,
              0
            ],
            [
              -0.21096081688685092,
              -0.033520247792393,
              -0.36675607452132425,
              0.10737479197594596,
              -0.03323539350603561,
              0.42923612235085945,
              -0.38360006163563676,
              0.29287090808321,
              0.38470159985247454,
              -0.38662213174321686,
              0.023755376529628402,
              0.36268052363450426,
              -0.2283322545243271,
              0.20883306997376844,
              0.37477252785858434,
              -0.25470367997320126,
              -0.4082690237103727,
              0.18435092550842375,
              -0.21866482661571354,
              0.03486520485462824,
              -0.23028183062650112,
              -0.2230284557401678,
              0.09234011166937035,
              0.28483358256595687,
              0.35844548754142236,
              -0.2706933022476733,
              0.18900969217065722,
              -0.0712709526065737,
              -0.11393961952999235,
              -0.39157581896903043,
              -0.33512620311230423,
              -0.31171311072539537,
              -0.04244661731645465,
              -0.30566121339797975,
              0.33269271575845777,
              -0.2841101888745097,
              0.004652860877104104,
              0.33839747216552496,
              0.29462763082701715,
              -0.1310440201079473,
              0.06728672725148499,
              -0.43390590184750083,
              0.15719754807651043,
              -0.319532794678953,
              -0.08761330954009243,
              -0.42280257147896916,
              -0.36158102095001116,
              0.23766597803232917,
              -0.4406179894901737,
              -0.34062721817130676,
              0.15851988901801073,
