(function (root) {
  const bots = [
  {
    "id": "control-0-fx20h9",
    "name": "Weaver 20h9",
    "schemaVersion": 1,
    "archetype": "control",
    "personality": "Leans into pickups, long exchanges, and court control.",
    "generation": 1,
    "lineageId": "control-0-fx20h9",
    "difficultyBand": "absurd",
    "elo": 1054,
    "promotionScore": 1054,
    "controllerParams": {
      "fireThreshold": 0.6
    },
    "mutationProfile": {
      "source": null,
      "kind": "seed"
    },
    "network": {
      "type": "mlp",
      "inputSize": 59,
      "layers": [
        {
          "weights": [
            [
              -0.26868886104784906,
              -0.3872313790256158,
              -0.14738595897797496,
              0.33954978541005404,
              -0.03616368079092354,
              -0.302792191458866,
              -0.29477103031240404,
              -0.37368892100639645,
              0.15499987341463567,
              -0.30779872527346014,
              0.2945090227061883,
              0.32203271314501764,
              -0.3270623227581382,
              0.3121038574492559,
              -0.07004673625342549,
              0.14332295190542937,
              -0.272863340517506,
              -0.4199553639627993,
              0.12210757441353053,
              -0.10149732590653003,
              0.2812615701695904,
              -0.17236297242343426,
              -0.01166930675972253,
              -0.3680984141305089,
              0.1369593303417787,
              -0.31287272586487236,
              -0.24181705007795246,
              -0.37511485058348626,
              0.12948885709047317,
              0.40302844787947834,
              -0.1217061166651547,
              -0.13750478876754643,
              0.36712280837818984,
              0.40956633612513543,
              -0.0373127089580521,
              0.4020681323949248,
              -0.039801821345463395,
              0.3602971465559676,
              -0.3000003764871508,
              -0.4277959889732301,
              -0.1646892958553508,
              -0.006068270956166089,
              -0.29596732088830324,
              0.16118850724305958,
              -0.23698062929324806,
              -0.03270984906703234,
              0.018039587745442988,
              -0.4032456556800753,
              0.3890579239698127,
              -0.08009740677662194,
              0.38355574475135656,
              -0.1307909484487027,
              0.42027815629262477,
              0.22098266759421678,
              0.3521682903170586,
              -0.03627183353528381,
              0.32184653682634234,
              0.2729360537370667,
              -0.19320118543691933
            ],
            [
              0.040816172445192936,
              -0.43584892549552023,
              -0.1584819697542116,
              0.1968704482074827,
              0.4427233553258702,
              0.16216382591519504,
              -0.06172768143005669,
              -0.3998056784039363,
              0.06980300119612366,
              0.18487235710490496,
              0.24695483297109605,
              0.18458362526725977,
              0.04689243198372424,
              -0.14234379935078323,
              -0.04844544210936874,
              0.08230250445194542,
              0.3202560742618516,
              0.05233610635623336,
              -0.09589345660060644,
              -0.1897485204739496,
              -0.13275231337174773,
              0.11098557387012989,
              0.23158524536993355,
              -0.08771335214842112,
              -0.30911687929183246,
              0.2984809115761891,
              0.4233203988522291,
              0.16990718103479593,
              0.1969693563412875,
              -0.3645251562120393,
              0.11898068406153471,
              -0.04686456341296435,
              -0.41914585274644195,
              -0.4232967587420717,
              -0.1689463087823242,
              -0.3339643537765369,
              -0.39164146184921267,
              -0.2034245881251991,
              0.394516788655892,
              0.3860003530047834,
              0.4266987226204947,
              -0.31609243887942284,
              -0.07511192536912858,
              0.27166362907737496,
              -0.4137505383929238,
              0.44661506270058454,
              -0.4256310192402452,
              -0.2751551393419504,
              0.2611636617220938,
              -0.4171495476504788,
              -0.1002179138828069,
              0.33005639892071487,
              0.12093948789406568,
              0.2117771060205996,
              -0.33031901966314764,
              0.03039035852998495,
              0.24265702574048192,
              -0.25755537603981793,
              -0.2825633868109435
            ],
            [
              -0.02416392902377993,
              -0.01830172275658697,
              -0.3818556100130081,
              0.12391578142996877,
              -0.3230602944502607,
              -0.24273508661426604,
              -0.0880971745820716,
              -0.06688181825447828,
              -0.36668123421259224,
              0.016811115480959416,
              -0.4089361938647926,
              -0.03311767999548465,
              0.417147596552968,
              -0.07957815772388131,
              0.33189728613942865,
              0.1650680109858513,
              0.20390402376651764,
              0.14206250938586892,
              -0.08842653518076986,
              -0.1045237040380016,
              -0.3764316272456199,
              0.11008905493654311,
              -0.15058162200730293,
              0.11382805011235178,
              0.24567185947671533,
              0.430813956912607,
              -0.10424201760906726,
              -0.004880494927056134,
              -0.20715158376842738,
              -0.031368066254071895,
              -0.4194459785241634,
              -0.4287664813455194,
              -0.056246912106871605,
              -0.11685988151002676,
              -0.3617502913344652,
              0.13778808033093812,
              -0.27316219203639774,
              -0.2118849509395659,
              -0.06524886887054891,
              -0.17238897853530943,
              0.352538772742264,
              -0.36455301849637184,
              -0.04162827911786735,
              -0.06785161220468582,
              -0.21278999929782003,
              0.36588239672128114,
              0.3159273723838851,
              0.13083107701968402,
              0.3113449308089912,
              0.12543965794611722,
              -0.20082814546767622,
              -0.07535219492856414,
              0.29577714430633933,
              0.19155498091131448,
              -0.08645871095359325,
              0.0645619635237381,
              0.06106977621093392,
              0.23445783548522742,
              0.2541399095440284
            ],
            [
              -0.31060158591717485,
              -0.022336990339681506,
              -0.17462506368756295,
              0.39964562428649514,
              -0.01758462789002806,
              -0.09155156956985593,
              -0.06187986661680043,
              -0.18565171274822206,
              0.420113496738486,
              0.3312620131066069,
              0.2048744809348136,
              0.4406761297490448,
              -0.24542986135929823,
              0.006700771045871079,
              0.08426020208280534,
              0.07733462546020746,
              0.3163005435140804,
              -0.15310647441074252,
              0.1297913522226736,
              -0.25867286247666926,
              -0.036800373299047354,
              0.02710669473744929,
              -0.06292190020903946,
              0.24530221440363675,
              0.3566877006087452,
              -0.22064822148531676,
              0.34630450552795083,
              -0.2731978629017249,
              -0.005646029440686107,
              0.25429233696777376,
              -0.3892845718888566,
              0.2361914785578847,
              0.06991519988514483,
              0.06989959236234426,
              0.21168058044277133,
              0.3160710832569748,
              -0.027666453528217973,
              -0.25576711166650057,
              -0.3717558290809393,
              0.44239073228091,
              -0.10160821282770485,
              -0.26594707116018984,
              -0.19898163713514805,
              -0.05539412156213075,
              -0.21467830210458488,
              0.41862284797243776,
              -0.22098199788015335,
              0.3874774478143081,
              -0.2326151660643518,
              0.059757443424314265,
              -0.21607667554635554,
              -0.07825839018914849,
              0.3878028850536794,
              -0.24043685363139958,
              0.3449938298435882,
              0.08508027868811041,
              0.3406376738799736,
              -0.09055264829657972,
              -0.39145313892513517
            ],
            [
              -0.21360893847886472,
              0.0005015506641939283,
              -0.14090547063387932,
              -0.4396873254328966,
              0.10619941810145975,
              0.387015349091962,
              0.03945446794386953,
              0.01407580899540335,
              -0.19921831064857543,
              0.0763748187571764,
              -0.44966218394692986,
              -0.3603668112773448,
              -0.019061040412634612,
              -0.2127021902706474,
              0.11877502212300897,
              -0.39873569409828635,
              0.06586595044936985,
              0.40072897102218125,
              -0.17458974046166986,
              0.23014716119505466,
              0.31564259428996594,
              -0.3208250286290422,
              0.0029185466235503556,
              -0.3969520427053794,
              -0.3016705614281818,
              0.1349388447124511,
              0.39959158028941605,
              0.25238718129694465,
              0.07603176422417164,
              -0.3472882023314014,
              -0.23784628815483302,
              0.027040325989946722,
              0.17824259649496527,
              -0.24100046118255705,
              0.18553731632418932,
              -0.2830586942145601,
              -0.06269774904940277,
              0.1633002145914361,
              0.4471079406095669,
              0.09161906526423991,
              -0.07328950955998152,
              0.15041662990115584,
              0.19932152687106283,
              0.44808727463241665,
              0.2699398680590093,
              0.2930603094398975,
              0.4179043564712629,
              0.10911072527524084,
              0.2955257486086339,
              0.13329251592513175,
              0.20403947259765118,
              -0.25783614318352194,
              -0.44190313161816447,
              0.2456238950835541,
              -0.2255976454121992,
              -0.027475737570784985,
              0.3353232071734965,
              -0.06947118574753404,
              -0.24669929095543922
            ],
            [
              0.04189665110316128,
              -0.11483029187656939,
              -0.40801155008375645,
              0.10196515994612128,
              -0.3810250218724832,
              0.29594989721663295,
              0.1671100850449875,
              0.3765104764373973,
              0.36576376869343225,
              0.05580410098191351,
              0.32079860698431734,
              -0.13266886565834285,
              -0.4015942736528814,
              -0.43083172424230726,
              -0.40755360354669395,
              -0.3470455680275336,
              0.11661861639004201,
              0.3976908791810274,
              -0.21776946124155075,
              0.21564231945667417,
              0.27187482600566,
              0.4322917090728879,
              0.2670385311590508,
              0.1605723730288446,
              -0.1002200273796916,
              -0.043372416961938144,
              0.3306480544153601,
              0.25027686366811397,
              -0.23786283088847995,
              -0.3680103408638388,
              0.016564486152492463,
              -0.018388121947646142,
              -0.291308922925964,
              0.25595157828647647,
              -0.41500835947226733,
              -0.3306751227239147,
              -0.3903251013485715,
              -0.22286043246276677,
              0.2690843999153003,
              -0.4240440100198612,
              0.15231992918998002,
              -0.13984859436750413,
              -0.42719661123119296,
              -0.07104364670813083,
              0.1921888413839042,
              -0.17113596531562508,
              -0.19458619623910636,
              0.20363286584615709,
              0.3759318554308266,
              -0.21890474308747798,
              0.28785614103544505,
              0.14335335474461317,
              0.40111081511713564,
              0.3751047183293849,
              -0.4127629287075251,
              -0.17950738398358226,
              -0.08176328320987523,
              -0.3249246771913022,
              -0.4335953072877601
            ],
            [
              -0.1624868562910706,
              -0.10902714910916984,
              0.03813566998578608,
              0.25077035471331327,
              0.1769559751963243,
              0.3913485122378916,
              0.42006991230882706,
              -0.1471869816072285,
              -0.30372458703350275,
              -0.37702224443200977,
              0.20980178250465542,
              0.4422066120430827,
              -0.3839027553331107,
              0.19319622251205146,
              -0.28744518365710975,
              0.10270569082349539,
              0.2129213150124997,
              -0.3279561056289822,
              -0.3698690184624866,
              0.20173174543306233,
              -0.20429066398646684,
              0.23346710982732474,
              0.2560708988690749,
              0.2882781440857798,
              -0.27800859776325526,
              0.1954431582475081,
              0.1949689954519272,
              0.15374294542707503,
              0.11225673998706043,
              0.333405557856895,
              0.306911702407524,
              0.3960759020643309,
              -0.4069839220494032,
              0.34634986880701035,
              0.118915907246992,
              0.17576391769107433,
              0.06845697923563421,
              -0.1003427661024034,
              0.3043290027184412,
              0.19313575252890589,
              -0.004962257249280811,
              0.2604503791546449,
              0.4319772548507899,
              -0.061122112814337014,
              0.20698052044026555,
              -0.17886556489393116,
              -0.012501450581476092,
              0.05238887818995863,
              0.16838308260776103,
              0.10112982890568674,
              0.1243277664296329,
              -0.22930880198255182,
              0.10653968921396882,
              -0.42666956323664634,
              0.42199607952497903,
              0.37598110749386254,
              0.2214756012428552,
              0.011739053623750806,
              0.18512005114462227
            ],
            [
              0.16449325466528536,
              -0.3928184386342764,
              0.23958074531983584,
              -0.16329080464784057,
              -0.4071072598686442,
              0.12024772209115327,
              0.35151547060813754,
              -0.00034348389599472286,
              0.3708780348999426,
              0.36488962336443365,
              0.001129032508470118,
              -0.01594968172721565,
              0.3045545744011179,
              0.2526153178419918,
              0.022783859353512525,
              -0.3787733920617029,
              0.3861742454348132,
              0.011343686585314572,
              0.006306701526045799,
              -0.3656978058395907,
              0.3668094054562971,
              0.40653814540710304,
              -0.2859917090507224,
              -0.2996328281471506,
              0.045057044760324065,
              -0.06050720382481813,
              0.39727246735710653,
              0.2546458672033623,
              -0.06352311903610826,
              0.062217394541949037,
              0.03179904443677515,
              -0.06956665604375303,
              0.389999856473878,
              -0.03690374395810068,
              -0.07286858232691884,
              -0.02052722868975252,
              0.17265381629113108,
              0.364485229854472,
              -0.26278546443209055,
              0.41767538781277835,
              -0.303290129522793,
              -0.010308133671060205,
              -0.0866016041720286,
              -0.1330506508704275,
              0.008534234203398229,
              -0.38987356340512636,
              -0.21256015640683473,
              -0.31797719362657517,
              -0.43905368058476596,
              -0.25016262775752696,
              0.17402705533895643,
              -0.261892613209784,
              0.42488033494446426,
              0.1461743967840448,
              -0.3503743696259335,
              -0.09030386083759367,
              0.25827415252570063,
              -0.3136485544033349,
              0.289494624780491
            ],
            [
              0.33489408327732234,
              0.17258709508460016,
              -0.2389704767614603,
              -0.4096790042007342,
              0.26440534999128434,
              -0.3805517389671877,
              -0.017795681906864046,
              -0.3519561221357435,
              -0.31893542935140434,
              0.04234009003266692,
              -0.21662922778632493,
              -0.32851818788331005,
              0.30237168667372316,
              0.4383683835156262,
              -0.18080276038963347,
              0.40431835383642467,
              -0.2115091648651287,
              -0.40896580880507827,
              0.03919249826576561,
              0.12961253395769745,
              -0.13356333521660418,
              -0.4276090149069205,
              0.13238383694551886,
              0.10346333272755147,
              -0.2289535341784358,
              -0.2991044639842585,
              -0.08095442808698863,
              0.3503557048039511,
              0.05616840301081538,
              -0.05232466442976147,
              -0.18228211768437177,
              -0.24857056089676918,
              -0.015055290120653809,
              -0.1520916729932651,
              -0.19103221648838373,
              -0.4164246613858268,
              0.3111801348393783,
              -0.23146949380170553,
              -0.24471243037842214,
              0.2830485399579629,
              -0.09040939339902253,
              0.060126140085048976,
              0.2999411885160953,
              0.05423503573983908,
              0.24672125971410425,
              0.4014230902539566,
              -0.04168491060845554,
              -0.38726759639102964,
              0.26626987606287006,
              -0.13625327192712575,
              -0.025233437446877362,
              0.02300639427267015,
              0.16739380827639253,
              -0.40454302069265397,
              -0.30858934787102044,
              0.043278878065757455,
              0.29239399591460824,
              0.1213136327918619,
              -0.4475859523750842
            ],
            [
              0.33872595245484266,
              -0.30844674131367356,
              -0.012207693583332003,
              -0.16597407858353108,
              0.09673273970838636,
              -0.4426174856023863,
              -0.010350327542982997,
              -0.2796593519859016,
              -0.20735388833563775,
              -0.34640019144862894,
              0.06323314101900905,
              -0.35120290042832497,
              0.19226465192623438,
              -0.25554741905070844,
              0.24205666354391725,
              -0.39031950579956176,
              -0.133964823349379,
              0.4368785880273208,
              -0.31630314169451595,
              0.024782748590223492,
              0.36820323863066734,
              -0.29693708990234885,
              -0.3546368289040402,
              -0.012073301081545652,
              -0.14893860868178307,
              0.31026891111396254,
              0.406197141087614,
              0.12279561467003078,
              0.1580143657978624,
              -0.24392550294287504,
              -0.2583552912343294,
              -0.009065071237273514,
              -0.424814564245753,
              0.41764944267924875,
              -0.29478629522491245,
              -0.21745580204296858,
              -0.1852129622362554,
              -0.13424258327577263,
              0.1509295034687966,
              -0.23316996695939451,
              0.10597073275130242,
              -0.3207974657882005,
              0.3288911871844903,
              -0.30103303932119163,
              -0.4010377240832895,
              -0.26739360953215513,
              -0.14359647436067463,
              0.10731596723198891,
              0.12299641699064523,
              -0.1993009796831757,
              -0.3575821077218279,
              -0.3408701210282743,
              -0.27405717205256225,
              -0.2966976126423106,
              0.430696424189955,
              0.17601150046102704,
              0.10300941495224834,
              0.12514486599247904,
              -0.4101202866761014
            ],
            [
              -0.36534437115769836,
              0.14463669683318586,
              0.23583593897055835,
              0.14500442517455667,
              0.16357811260968447,
              0.3279480715747923,
              0.2589468597667292,
              0.3913634515134618,
              0.387358829844743,
              0.27608154059853407,
              0.14162019363138825,
              -0.2103911662939936,
              -0.3080493450164795,
              -0.12630323432385923,
              -0.3710509235970676,
              -0.2623039272380993,
              0.21350315341260284,
              0.257350442907773,
              0.01709354748018086,
              -0.19220673150848597,
              -0.3882658261572942,
              -0.007086712005548179,
              -0.12471623306628317,
              -0.43656245092861357,
              -0.44781865978147833,
              -0.2077339818701148,
              -0.17233676430769265,
              0.16391845014877618,
              -0.005743477237410844,
              0.12713673496618869,
              -0.23751490521244706,
              -0.279660875396803,
              -0.000056138425134122374,
              0.2944878363981843,
              -0.417079718853347,
              0.22072214442305269,
              0.3150427873944864,
              -0.31725500256288797,
              -0.1822033531498164,
              -0.10065823327749968,
              -0.14911099530290814,
              -0.339058941998519,
              0.0746868348447606,
              0.21415611749980598,
              0.03008473631925881,
              0.36092070378363134,
              -0.4174996903399006,
              -0.44290337807033214,
              0.10658678545150906,
              0.19070122120901942,
              -0.3475134500535205,
              0.32654000844340775,
              0.06800513409543783,
              -0.06121903611347079,
              -0.3513139304704964,
              0.2511860772036016,
              -0.034176064375787976,
              0.07852621127385646,
              -0.05556149245239794
            ],
            [
              -0.2527382011525333,
              0.26821955388877544,
              -0.07040406642481685,
              0.08555485764518381,
              0.41260727047920226,
              -0.22053091004490852,
              -0.23998391611967237,
              0.33347364405635743,
              -0.3622924998868257,
              -0.14158057970926166,
              -0.16833371319808066,
              -0.3448002805933356,
              0.30004110268782824,
              0.22156905946321787,
              0.12129604923538864,
              0.32501056843902915,
              0.02805521667469293,
              0.3933524777647108,
              0.23518276072572916,
              0.08726354003883899,
              -0.17260673493146897,
              0.43232684663962573,
              0.13469238134566694,
              0.229388159327209,
              0.29332998711615804,
              -0.44809800535440447,
              -0.03763500466011465,
              -0.13783459381666036,
              0.2136792833916843,
              -0.36411073207855227,
              -0.3910854298621416,
              -0.047516370797529815,
              0.04058998594991863,
              0.3828180873999372,
              0.2975714396685362,
              0.3503071731654927,
              -0.3126500283367932,
              0.4256081603234634,
              -0.340869758091867,
              0.4450368006248027,
              0.15710007199086248,
              -0.15729401079006494,
              -0.4479966050712392,
              0.428530332329683,
              -0.3048713908530772,
              0.2853744696825743,
              0.44145914220716803,
              0.3039802371757105,
              -0.3917499266099185,
              0.12252613753080369,
              -0.21391471847891808,
              -0.15600797852966936,
              -0.13102254357654602,
              0.11407792281825095,
              -0.0580615847138688,
              -0.0174518168438226,
              0.06959499756339937,
              0.2006569241406396,
              -0.2641077685402706
            ]
          ],
          "biases": [
            -0.0829030376393348,
            -0.17688913643360138,
            0.18882714395876973,
            -0.17794057577848435,
            0.019009025883860886,
            -0.18499522532802076,
            -0.31098365674261,
            0.2864440556382761,
            -0.30308947891462595,
            0.10021664276719093,
            -0.4145281920908019,
            0.4143053068080917
          ]
        },
        {
          "weights": [
            [
              -0.13612671091686934,
              -0.34524417079519476,
              0.3491294582141563,
              0.009839067608118056,
              0.2959006377961486,
              -0.11587497666478157,
              -0.24622574965469538,
              -0.14103009374812245,
              -0.059901194134727116,
              0.3384699546964839,
              -0.05303918693680316,
              -0.06310567690525204
            ],
            [
              -0.18392472309060393,
              -0.07676172722131014,
              -0.34204278271645305,
              0.338291729753837,
              -0.2709131947252899,
              0.10487105194479227,
              -0.3439991007326171,
              -0.12170041759964077,
              -0.3038128537824377,
              0.16647892214823512,
              -0.14988925233483313,
              -0.07069616245571524
            ],
            [
              -0.24027577638626096,
              0.14587779608555138,
              -0.17457254561595617,
              0.05597240452188998,
              -0.24526379304006693,
              0.018132037436589598,
              -0.08536793696694076,
              -0.2442433435237035,
              -0.3479724302422255,
              -0.3467911758925766,
              0.24433542364276944,
              -0.07054751147516071
            ],
            [
              -0.07352218322921544,
              -0.15181615985929964,
              -0.31281475021969524,
              0.06588889940176158,
              -0.13465053120162337,
              -0.1902254088083282,
              0.21774989317636936,
              -0.3257601958699524,
              0.09805580314714461,
              -0.22275610361248252,
              -0.2012242185184732,
              -0.2556550289271399
            ],
            [
              0.25518667467404155,
              -0.11976012506056576,
              -0.18219589800573885,
              0.286463014036417,
              -0.139252740284428,
              -0.09142895422410219,
              -0.26423468557186425,
              0.10622664086986333,
              0.300416233157739,
              -0.1440743362531066,
              -0.23906034792307762,
              0.2522794576827437
            ],
            [
              -0.3102193995378911,
              -0.10217307966668158,
              -0.01858005046378821,
              -0.2021960063371807,
              -0.20486782856751232,
              0.20597623200155793,
              0.13846698601264507,
              0.05776090852450579,
              0.19292060958687215,
              -0.16282637175172565,
              0.1762124476954341,
              -0.12105257594957947
            ],
            [
              -0.23287948763463645,
              -0.25245755338110026,
              0.29171343392226845,
              0.146287943306379,
              -0.31552460563834756,
              -0.297243340103887,
              0.027155193337239324,
              0.18638683285098523,
              0.04254843571688979,
              -0.18256202458869664,
              0.14468535208143293,
              -0.10308367756661027
            ],
            [
              0.1907700900454074,
              -0.07335730614140629,
              0.011823510355316102,
              0.15318126445636152,
              -0.24729723648633806,
              0.06331635797396303,
              0.1521209930302575,
              0.30718205082230265,
              0.20921323625370858,
              -0.2995791777037084,
              0.13249967803712934,
              0.09895549383945762
            ]
          ],
          "biases": [
            -0.09924296508543193,
            0.24334727362729608,
            -0.07161243145819753,
            -0.24551651533693072,
            0.024949187086895107,
            0.07416827999986708,
            -0.060350880329497154,
            -0.27120977484155445
          ]
        },
        {
          "weights": [
            [
              0.13805015059188008,
              -0.0024001902202144265,
              -0.23297352495137602,
              0.021686377935111523,
              0.21447503159288317,
              0.08317515044473112,
              -0.08865401789080352,
              -0.24684277549386024
            ],
            [
              -0.09057081385981292,
              0.22588062041904777,
              -0.12559129588771611,
              0.08006909769028425,
              -0.13129840302281082,
              -0.12872819101903588,
              0.1037714370759204,
              0.16380792786367238
            ],
            [
              0.23100880696438253,
              -0.033941008150577545,
              -0.19692191784270108,
              -0.08350933156907558,
              0.1911773915635422,
              0.14415290544275194,
              -0.23988216265570372,
              -0.04490863427054137
            ]
          ],
          "biases": [
            0.07965108810458332,
            0.002898239064961672,
            -0.21354570018593222
          ]
        }
      ]
    },
    "reviewBlocked": false,
    "reviewSummary": null,
    "runtimeDisabled": false,
    "runtimeValidation": {
      "totalMovedTicks": 178,
      "totalGoals": 10,
      "samples": [
        {
          "movedTicks": 41,
          "leftScore": 2,
          "rightScore": 3
        },
        {
          "movedTicks": 137,
          "leftScore": 2,
          "rightScore": 3
        }
      ]
    }
  },
  {
    "id": "control-0-94ckep",
    "name": "Weaver ckep",
    "schemaVersion": 1,
    "archetype": "control",
    "personality": "Leans into pickups, long exchanges, and court control.",
    "generation": 1,
    "lineageId": "control-0-94ckep",
    "difficultyBand": "absurd",
    "elo": 1050,
    "promotionScore": 1050,
    "controllerParams": {
      "fireThreshold": 0.6
    },
    "mutationProfile": {
      "source": null,
      "kind": "seed"
    },
    "network": {
      "type": "mlp",
      "inputSize": 59,
      "layers": [
        {
          "weights": [
            [
              0.11085987361148,
              0.38470928657334297,
              0.3233258813386783,
              -0.15768996372353286,
              -0.18694782739039512,
              0.26491560672875497,
              -0.38038751506246626,
              -0.06001568043138832,
              -0.28251286153681576,
              -0.21877734151203185,
              -0.3988405649084598,
              0.11154124669265002,
              -0.2701889578951523,
              -0.02967886046972126,
              -0.03721277466975153,
              -0.11899439999833704,
              -0.2938065418973565,
              0.1941064357990399,
              -0.09365344347897918,
              0.41595251590479165,
              0.09002623921260237,
              -0.17083933101966978,
              -0.1775221360847354,
              0.09329107829835266,
              -0.41940336723346267,
              0.15976242909673602,
              0.3180827002041042,
              -0.25205912722740326,
              -0.2928245600312948,
              0.39290213864296675,
              0.1831069814041257,
              0.02871751820202917,
              0.022399986209347845,
              -0.24397972086444497,
              0.3416276411851868,
              0.44569857472088187,
              -0.3022481671767309,
              0.3088639993686229,
              -0.10746705397032201,
              0.0800244898768142,
              0.44834803605917845,
              -0.33049153599422426,
              0.3990759096806869,
              -0.4421228527324274,
              -0.21578636351041497,
              0.26495294014457615,
              -0.28593493402004244,
              0.37710240518208593,
              0.38996093133464454,
              -0.2677060189889744,
              0.43811412749346346,
              0.04462376679293811,
              0.24927537711337208,
              0.27638342930004,
              0.049926977022551,
              0.44586613231804223,
              0.0787317173089832,
              0.19050132958218455,
              0.23447363746818156
            ],
            [
              0.08629514335189015,
              0.4210252510383725,
              0.11028458022046835,
              0.2681893103057519,
              -0.12726488378830256,
              -0.3440439163008705,
              0.2514135019155219,
              -0.42899334446992726,
              0.33289110325276855,
              -0.290007637697272,
              0.34198761961888524,
              0.27816687219310554,
              -0.2984298085793853,
              -0.41128172592725604,
              -0.3415137026226148,
              0.2589851533295587,
              0.16657534916885197,
              -0.2943503895308823,
              -0.2142502846196294,
              -0.07136399990413338,
              0.24511874711606652,
              0.14101105201989414,
              -0.34821111273486166,
              -0.2822768868645653,
              0.009474132000468672,
              0.30646479839924723,
              -0.44385793120600286,
              0.3179898991249502,
              -0.2623230350436643,
              0.4265630470588803,
              -0.27866223114542665,
              0.16062324929516764,
              -0.38513116976246237,
              -0.37092749211005865,
              -0.11702007099520416,
              -0.11429501725360751,
              -0.3620792221510783,
              -0.44775926540605726,
              0.2250830814242363,
              -0.13970497129485013,
              0.3313140814891085,
              0.15802480734419078,
              -0.32443632697686553,
              0.28018018626607955,
              0.40821310111787174,
              -0.308495533419773,
              0.35553998064715414,
              0.08160682513844222,
              0.32378743041772395,
              -0.30319186009000987,
              0.24400478317402305,
              -0.3612802972784266,
              -0.4259027620078996,
              0.030807539680972697,
              -0.010745765618048608,
              0.4286363822640851,
              0.1869263431057334,
              -0.16565399675164372,
              0.13537822030484678
            ],
            [
              0.4056512390496209,
              0.15206090218853205,
              -0.20457231835462153,
              -0.38983840425498784,
              0.11485327023547143,
              -0.16910509052686393,
              -0.060226879874244334,
              0.1267170348437503,
              -0.3581812325399369,
              -0.44300253661349415,
              0.10593578964471817,
              0.3254876864841208,
              0.3826350295683369,
              0.12881429283879697,
              0.21813110432121904,
              0.15357991196215154,
              -0.41859883822035043,
              -0.4354320720769465,
              -0.08212917339988053,
              0.11939725228585303,
              0.22484962132293732,
              -0.24371314994059504,
              -0.36067058821208775,
              0.21747747072950005,
              -0.1941213184967637,
              -0.3825974698411301,
              -0.091408680123277,
              0.36870348318479956,
              0.17538276028353722,
              0.36573307814542205,
              -0.08884767196141184,
              0.06088893015403301,
              -0.3075806174660102,
              -0.26464802348054944,
              -0.22082411048468203,
              0.2989457708783448,
              -0.326691506523639,
              -0.4403621602104977,
              0.24971336948219688,
              0.22347321999259293,
              0.22415105109103026,
              -0.23713284633122386,
              -0.3931607551407069,
              -0.12800308177247643,
              -0.33237609711941335,
              0.02818246486131102,
              0.31226090288255365,
              0.02024705791845918,
              0.032439527870155874,
              -0.2677727733040229,
              -0.3183498161612079,
              -0.32289616609923544,
              -0.1859603367280215,
              -0.20937023477163166,
              0.02170920674689114,
              0.42124908494297414,
              -0.35376972290687264,
              -0.07099391059018671,
              0.25959482782054694
            ],
            [
              -0.09658116430509836,
              -0.33252336841542274,
              0.2667232854757458,
              0.2803924233885482,
              -0.2963109347037971,
              0.2646778324618936,
              0.358064284035936,
              0.15223020133562387,
              0.21214043428190052,
              -0.09125272140372545,
              0.18788412725552917,
              -0.07383982152678073,
              -0.4395269938744605,
              -0.2844482616288588,
              0.08906762064434588,
              0.16736683468334376,
              0.08808427462354303,
              -0.33164860135875646,
              -0.3500458721537143,
              -0.3890285328263417,
              0.08242832268588245,
              -0.17012364682741463,
              0.26820187163539233,
              -0.17840543508064002,
              -0.16258250428363683,
              -0.307563318265602,
              -0.03812786035705358,
              -0.07787649831734599,
              0.03472193058114499,
              0.07870675809681416,
              -0.39659423602279276,
              -0.16276495065540075,
              0.24899404167663305,
              -0.11587533499114215,
              0.23261572408955544,
              0.3548923306865618,
              0.156651625293307,
              0.40358601899351926,
              -0.4442157468991354,
              0.1636111934669316,
              0.07235199809074402,
              -0.39403698630630973,
              0.25737714932765815,
              -0.4171548148384318,
              -0.2952462048036978,
              -0.2868940850486979,
              0.2428189031314105,
              0.37175040263682607,
              0.30837827268987894,
              -0.2665932107018307,
              0.05613009373191744,
              0.004762657312676311,
              -0.20434265651274472,
              0.36013492445927114,
              -0.3262410018593073,
              0.021224998869001865,
              0.25108621981926266,
              -0.2001696084626019,
              0.377273783669807
            ],
            [
              -0.20148238884285094,
              -0.23482385894749314,
              0.426731123495847,
              -0.07129054237157106,
              -0.06681299256160855,
              -0.25450551349204037,
              0.1791264742612839,
              0.2963077602675185,
              -0.38310545571148397,
              -0.1545004121493548,
              0.04684409962501377,
              0.09018500377424062,
              -0.01721967018675059,
              -0.2079449709272012,
              -0.2523294586921111,
              -0.2738050360232592,
              -0.2326866023009643,
              0.07979964909609408,
              -0.12471960301045329,
              0.31478607191238556,
              0.11136671472340823,
              0.3047830059891567,
              0.38988366443663836,
              -0.368743142997846,
              -0.17042746965307742,
              -0.23717157596256586,
              -0.21890309499576688,
              0.44173090676777066,
              -0.37805310599505904,
              -0.3645391009747982,
              -0.03815174228511751,
              0.2168823250103742,
              -0.42881817002780737,
              -0.07087041058111936,
              -0.42248308821581304,
              0.2471979322610423,
              0.08956680321134627,
              -0.3890712650259957,
              -0.18551964391954243,
              -0.12275388557463884,
              -0.15174914589151742,
              0.022058683075010778,
              -0.16569909097161145,
              0.22954368134960532,
              0.33408168449532244,
              -0.2348547823028639,
              0.21120975092053415,
              0.34208612458314747,
              -0.426526837865822,
              0.2852968888822943,
              -0.34176586128305647,
              -0.04650827846489847,
              -0.23171888496726753,
              0.3125289720715955,
              -0.14200050509534776,
              -0.4140120640397072,
              -0.4399912442313507,
              -0.07133674614597112,
              -0.24645725113805383
            ],
            [
              -0.39788864683359865,
              -0.4298166367923841,
              -0.2709337893174961,
              0.15538849490694703,
              -0.20672032185830178,
              0.05740376163739711,
              -0.3924856284633279,
              -0.23149063987657428,
              -0.0820898532634601,
              0.43362519589718435,
              0.05003540008328855,
              0.17036412111483515,
              0.2039016173221171,
              0.40688677243888377,
              0.3156617752276361,
              -0.2506082126637921,
              0.07947699255309999,
              0.16894857545848938,
              -0.26051102809142324,
              -0.31114250784739855,
              0.39969122246839106,
              -0.09364133644849063,
              -0.1037720489082858,
              0.39922044868580997,
              0.12040729529689997,
              0.2845967227360234,
              -0.0006693561561405659,
              0.4143906486220658,
              -0.05940218064934016,
              0.07354069110006094,
              -0.16004617328289897,
              0.11899332250468433,
              0.435723360395059,
              0.21954824421554806,
              0.32177039079833775,
              -0.26708272914402187,
              0.38408289751969277,
              0.16483389604836704,
              0.18159679714590313,
              0.08619454018771648,
              -0.1630965666146949,
              0.1113217439269647,
              -0.2624629510100931,
              0.37404138087294997,
              -0.2687438651919365,
              -0.39803094849921766,
              0.21696562750730664,
              0.10754559009801597,
              -0.2737331624608487,
              0.13082948948722334,
              0.3574217929271981,
              -0.0624142994871363,
              -0.21665888044517487,
              0.13931214376352727,
              -0.2836569644976407,
              -0.44709029502701014,
              -0.2678778800647706,
              0.09827640778385104,
              -0.40977914824616163
            ],
            [
              0.2368821528274566,
              -0.39284490030258895,
              0.06754826547112316,
              -0.11972829177975655,
              0.4236998119857162,
              0.1714241443667561,
              0.07723205862566829,
              -0.3796109019778669,
              0.006026614783331752,
              0.3641422995831817,
              -0.11658079724293202,
              0.23016045845579355,
              0.06769974699709565,
              0.06834155770484358,
              0.05430658848490566,
              -0.2039984301896766,
              -0.05863679575268179,
              0.3472379746148363,
              -0.39165164523292334,
              0.18472755365073681,
              0.39301809556782247,
              0.26063813525252044,
              0.1578681709477678,
              0.43396637204568833,
              0.32571046405937526,
              0.07134452727623285,
              0.41160732409916817,
              0.38806008459068836,
              -0.0448293968802318,
              -0.18349959687329828,
              0.2879705514991656,
              -0.10826648301444948,
              0.07006820964161307,
              -0.4445430711144582,
              0.1265879728132859,
              0.34710288264323025,
              -0.07152291114907712,
              -0.2579694772604853,
              -0.21662252394016832,
              0.13308829441666603,
              0.3024085178039968,
              -0.07099022339098156,
              0.33018427952192725,
              -0.28427941573318094,
              -0.30133110273163766,
              -0.18694087606854737,
              0.19467026400379836,
              -0.28730656856205317,
              0.44133792018983514,
              0.08502893617842347,
              0.42118955687619747,
              0.24368457708042116,
              -0.05582670697476715,
              0.18423920364584775,
              -0.2642655362840742,
              -0.1012414873810485,
              0.40364463741425427,
              -0.3593758708331734,
              -0.35412943626288323
            ],
            [
              0.11963609231170268,
              -0.41930418857373297,
              -0.15577897089533507,
              -0.4132350171916187,
              0.17161331386305392,
              -0.16136392371263356,
              -0.08796239253133535,
              -0.14067356328014285,
              0.1906831284519285,
              -0.14447175606619567,
              -0.10072317018639297,
              0.027366973785683514,
              -0.1892677194206044,
              0.299644893896766,
              0.25282740702386947,
              0.443943361658603,
              0.04020695728249848,
              -0.11155226365663111,
              0.3069853615248576,
              0.4035320280119777,
              -0.26049977412912995,
              -0.12944745656568557,
              -0.4076509478269145,
              -0.3620458516990766,
              -0.05203047743998468,
              0.036235252604819836,
              -0.42682288081850855,
              -0.07710003484971821,
              0.435404458316043,
              0.14249133341945708,
              0.05384719292633235,
              0.04425247949548066,
              -0.14356361918617042,
              0.0615664942888543,
              -0.20735037275590004,
              -0.12281791807617992,
              0.24252626637462527,
              -0.4411287221359089,
              -0.39358595525845885,
              0.03841839241795242,
              -0.3545377363683656,
              -0.0347396157681942,
              0.4173570487881079,
              0.2049423854565248,
              0.19693276891484857,
              0.039096689759753646,
              -0.4052566561382264,
              -0.21155243162065746,
              0.17196570897940547,
              0.32466776913497597,
              0.2398707549786195,
              -0.32423630522098396,
              -0.08497698598075658,
              0.15735056286212057,
              0.282779478142038,
              0.05255528704728931,
              -0.4143666541669518,
              -0.14423130084760488,
              -0.11469836407341064
            ],
            [
              -0.3152510175481439,
              -0.007393999071791768,
              -0.279215404484421,
              0.020151166222058238,
              -0.3792474672663957,
              0.33361599140334874,
              0.25331956010777507,
              0.07176606932189315,
              0.25863235755823555,
              0.23158255959860982,
              0.09101710505783558,
              0.17729511265642942,
              0.2764783744700253,
              0.25706016523763536,
              -0.3650308575946838,
              0.3011100484756753,
              0.31059297958854587,
              0.35618886358570306,
              0.18183371897321196,
              -0.17329073993023486,
              0.3875554081052542,
              -0.2838308145990595,
              -0.04263828210532666,
              0.11042617550119758,
              0.10150250173173846,
              0.27593893529847263,
              0.1704695880878717,
              0.26371437816414983,
              0.41921996406745166,
              -0.26397635622415694,
              -0.3516771920956671,
              -0.13941628995817154,
              0.21828655572608113,
              0.12658374309539797,
              0.4069692610530183,
              0.2938769959844649,
              -0.12166890897788107,
              -0.2831943557364866,
              -0.43766432753764095,
              0.35761157346423716,
              0.18449362961109728,
              -0.3974084335612133,
              -0.4116388274822384,
              -0.21430334814358504,
              0.3791718017309904,
              0.1813952073454857,
              0.3767199904890731,
              0.1353917063679546,
              -0.20686946357600391,
              -0.01996663296595216,
              -0.19460464208386838,
              0.25060045793652536,
              -0.05243973622564226,
              -0.20706519212108107,
              -0.33763336865231397,
              0.34021511636674406,
              0.3955315305618569,
              0.3499226692831144,
              0.4348366143414751
            ],
            [
              0.33984266461338847,
              -0.00442344001494348,
              -0.13696413380093872,
              0.022711225342936816,
              0.1448546017985791,
              0.013696742872707546,
              0.43040072615258396,
              0.44937700519803914,
              0.2602066721767187,
              -0.19252015266101807,
              -0.3388133664848283,
              -0.36140562349464744,
              0.3446422343607992,
              0.025054675969295205,
              -0.18097725904081016,
              -0.38468668749555945,
              0.4103900257498026,
              0.3845506527693942,
              -0.3976945552742109,
              0.21958952865097672,
              0.35044849771074954,
              -0.3458094112342224,
              0.07647479914594442,
              -0.108261991571635,
              -0.2767251003999263,
              -0.43861224870197474,
              -0.26961871585808694,
              0.15251873577944935,
              -0.42588185041677207,
              0.366545199486427,
              -0.39771871694829314,
              -0.38400055600795896,
              0.14106766926124692,
              0.25833950706291947,
              0.40167416869662703,
              -0.40954070824664085,
              -0.008880332414992155,
              0.3406031624414027,
              0.19816520833410323,
              -0.2507715891581029,
              0.27938623961526904,
              -0.435284024826251,
              -0.40172524235676976,
              0.12899757090490313,
              -0.24459894485771658,
              -0.4494608437176794,
              0.17282454979140313,
              -0.08351718534249812,
              0.14100022700149567,
              -0.1308400502661243,
              -0.30949300336651503,
              0.1735536230262369,
              -0.38775792766828093,
              0.09250157175119966,
              -0.021536099491640925,
              -0.37343290499411524,
              0.05732101255562157,
              -0.034272733912803235,
              0.13743774904869496
            ],
            [
              -0.2815052216174081,
              -0.08989885104820132,
              0.1959751597372815,
              0.4246452397434041,
              -0.22175166341476144,
              -0.2975878652650863,
              0.025366727099753916,
              -0.14382752487435937,
              0.12777651767246426,
              0.07077496857382358,
              -0.3804610358783975,
              0.17278216460254045,
              0.4377739087678492,
              0.13432296845130623,
              -0.08174485915806144,
              -0.049991635233163835,
              -0.18520426265895368,
              0.02212244065012783,
              0.16192482244223358,
              -0.3419623205205426,
              -0.3635940290289,
              0.05271550670731813,
              0.29264452911447736,
              -0.2995758894598112,
              0.297942408034578,
              0.3295360612682998,
              -0.34248546715825795,
              0.25663090366870167,
              0.10813383457716555,
              -0.056524189026094976,
              -0.1807707727421075,
              -0.004804491600953043,
              -0.1612721852492541,
              -0.3585130888503045,
              0.16931246635504069,
              -0.21301485265139491,
              -0.24892283594235778,
              -0.3393017615424469,
              -0.3991891121026129,
              -0.32505014506168667,
              -0.42656638075131925,
              -0.3737587814452127,
              0.06877229826059193,
              -0.26828148986678574,
              -0.3964951221132651,
              -0.02115237826947123,
              0.05135388392955065,
              0.3078674688236788,
              0.34332645137328655,
              -0.046507092216052114,
              -0.13392185415141286,
              0.07535958713851869,
              0.07241645890753716,
              0.3285483210347593,
              0.05639167784247547,
              -0.322420476959087,
              0.1385953873163089,
              -0.00944356278050691,
              0.11862559311557562
            ],
            [
              0.42609281789045783,
              0.4203949589515105,
              0.07451034192927182,
              -0.09836002481169999,
              -0.38859075566288087,
              -0.3192831630818546,
              0.30424754654522984,
              0.1480254170950502,
              -0.085781364957802,
              -0.26578621300868693,
              -0.11067884105723351,
              0.24505595199298114,
              -0.30074392987880855,
              -0.40892760555725544,
              -0.06781207749154419,
              -0.03589176996611059,
              -0.4015808563213796,
              -0.18035297258757055,
              0.04018410046119243,
              -0.10890675920527429,
              0.06533267218619586,
              0.43265994095709176,
              0.2030830534407869,
              0.35446381552610545,
              0.1322835784871131,
              0.2940149340312928,
              0.2570263555739075,
              -0.27625224853400143,
              -0.4446698360843584,
              -0.018258723593316973,
              0.021073224814608695,
              -0.43220998907927427,
              -0.14070233814418318,
              -0.18225075176451355,
              0.3313521818490699,
              0.05262455677147955,
              0.43167761249933395,
              0.15468027940951287,
              -0.015133293368853629,
              0.42214088696055113,
              -0.34622093313373625,
              0.3273020242340863,
              0.3511355296242982,
              0.2615233574761078,
              -0.286416107439436,
              0.3480377762345597,
              0.21589726698584855,
              -0.44209497682750226,
              0.24968976394739004,
              -0.0337801453890279,
              -0.40025799502618614,
              0.236157231987454,
              0.16958877914585174,
              -0.04270993480458856,
              -0.15161196389235557,
              0.028940158942714334,
              -0.4375835138373077,
              -0.18260251111350953,
              -0.25451808341313154
            ]
          ],
          "biases": [
            0.11482911736238748,
            -0.34854541027452796,
            0.07737501428928227,
            0.19287435051519425,
            -0.158169437921606,
            -0.29132476325612516,
            0.1502598937600851,
            0.3815637869294733,
            -0.16626743115484716,
            -0.04636069640982896,
            -0.2660263159777969,
            -0.040200417512096465
          ]
        },
        {
          "weights": [
            [
              -0.26648436775431034,
              0.2854997855145484,
              -0.2326215473236516,
              0.33120302089955656,
              -0.26180560123175384,
              -0.3112976150587201,
              0.0693527704104781,
              -0.07573895570822059,
              -0.23674037265591322,
              -0.15511544845066963,
              0.01107968664728105,
              0.06055529003497213
            ],
            [
              0.008064963016659021,
              0.3002669690409675,
              0.2945400810334831,
              0.08930644793435931,
              -0.1186564099509269,
              0.18449550922960042,
              0.13515349554363637,
              0.120577660552226,
              0.2760528832208365,
              -0.13577665560878813,
              0.016188166150823236,
              0.30354299480095503
            ],
            [
              0.15952403068076818,
              0.025037203752435743,
              0.2728319748537615,
              -0.3209564915159717,
              0.31883393225725737,
              0.3340341954724863,
              -0.34513763259164987,
              -0.18562536558602005,
              -0.2417849261080846,
              0.05444898821879178,
              0.17099718714598566,
              -0.12190269208513199
            ],
            [
              -0.3402903189649805,
              -0.10341159966774284,
              -0.126197471213527,
              0.2675432994728908,
              -0.31892134132795036,
              0.09098104746080934,
              -0.12259445218369364,
              -0.052983666653744876,
              0.19621419203467666,
              0.25876192590221764,
              0.17928986051119863,
              0.3190163247985765
            ],
            [
              0.17482354699168354,
              -0.26485019675455984,
              0.2629304405301809,
              -0.21304105576127766,
              0.12361537027172743,
              -0.09928802114445716,
              0.019990958063863216,
              0.18827668132726103,
              0.16907743206247686,
              -0.20671552417334169,
              0.29187337772455063,
              -0.15050062085501847
            ],
            [
              -0.17679658820852637,
              0.19197986207436768,
              0.29538614267949015,
              -0.2147953173611313,
              -0.07796563452575356,
              0.33516835225746033,
              -0.13910047486424446,
              -0.1849912430625409,
              -0.1824887497583404,
              0.01741515325848013,
              -0.25727947368286547,
              -0.3242164212279022
            ],
            [
              -0.10976930982433258,
              0.25059639909304676,
              0.20529034982901065,
              0.2552473246352747,
              -0.07656298829242586,
              -0.17932069986127316,
              0.3231980379903689,
              0.055919894343242044,
              -0.08888890510424971,
              0.21109004702884704,
              0.15345066643785685,
              0.0717905991943553
            ],
            [
              -0.2931147513678297,
              -0.3090377735905349,
              0.23921414096839724,
              -0.20975891558919102,
              0.23374989349395034,
              0.15796315032057462,
              0.0824374436168,
              0.11743447103071956,
              -0.0804687238531187,
              0.29821146719623354,
              -0.21303430816624314,
              -0.2627016385318711
            ]
          ],
          "biases": [
            -0.08060996455606073,
            0.03584220537450164,
            -0.07399607901461422,
            -0.10449260037858038,
            0.05608223853632807,
            0.11859351671300827,
            0.17388169332407413,
            0.12146455426700413
          ]
        },
        {
          "weights": [
            [
              -0.24257128627505153,
              -0.006136437063105404,
              0.12579539534635842,
              0.1388947459636256,
              -0.2448748586466536,
              0.0664264012593776,
              -0.1827069103019312,
              -0.12686376739293337
            ],
            [
              0.09325530903879553,
              -0.13423535181209445,
              -0.18833731056656688,
              -0.04932866618037224,
              0.0710473710205406,
              0.1328073135809973,
              0.04197222867514938,
              -0.1962783356430009
            ],
            [
              0.19976065296214074,
              -0.0720164900412783,
              0.1994965891353786,
              0.08696278417482972,
              0.053394167334772646,
              0.11399672739207745,
              0.23159836314152926,
              0.09489278763066977
            ]
          ],
          "biases": [
            0.1764840621035546,
            -0.11891536111943424,
            0.20004975178744644
          ]
        }
      ]
    },
    "reviewBlocked": false,
    "reviewSummary": null,
    "runtimeDisabled": false,
    "runtimeValidation": {
      "totalMovedTicks": 0,
      "totalGoals": 8,
      "samples": [
        {
          "movedTicks": 0,
          "leftScore": 2,
          "rightScore": 3
        },
        {
          "movedTicks": 0,
          "leftScore": 1,
          "rightScore": 2
        }
      ]
    }
  },
  {
    "id": "aggressive-0-9aaccq",
    "name": "Volt accq",
    "schemaVersion": 1,
    "archetype": "aggressive",
    "personality": "Pushes pressure, spends charge, and looks for quick finishes.",
    "generation": 1,
    "lineageId": "aggressive-0-9aaccq",
    "difficultyBand": "absurd",
    "elo": 1048,
    "promotionScore": 1048,
    "controllerParams": {
      "fireThreshold": 0.54
    },
    "mutationProfile": {
      "source": null,
      "kind": "seed"
    },
    "network": {
      "type": "mlp",
      "inputSize": 59,
      "layers": [
        {
          "weights": [
            [
              -0.25631650832947345,
              -0.18849607177544386,
              0.012607593974098564,
              -0.2126441717846319,
              -0.11966728074476123,
              -0.34546769466251137,
              -0.005881665693596006,
              -0.3954645979218185,
              0.14922719215974212,
              -0.08533204172272235,
              0.2792686922242865,
              0.08447562097571791,
              0.25462187840603295,
              -0.004065158916637302,
              0.09551193835213781,
              -0.22519410329405218,
              -0.21407742127776147,
              -0.38603774048388007,
              0.1086603710660711,
              0.2528240842279047,
              -0.24757552798837423,
              -0.238472370011732,
              -0.2203599801985547,
              0.17531446348875762,
              -0.1440011157654226,
              -0.41112675438635055,
              -0.15733553683385254,
              -0.3371493126964197,
              0.25689230652060363,
              0.15865070333238693,
              -0.014988081716001035,
              0.3968583575449884,
              -0.10981170425657183,
              -0.32288592823315415,
              0.26101235349196944,
              -0.0038358623161911967,
              0.10179186095483601,
              0.42235230600927026,
              -0.15049934796988965,
              -0.01389102847315371,
              -0.09515543400775642,
              0.059407231165096164,
              -0.3512569546932355,
              0.35995551191736014,
              -0.33768451313953846,
              -0.19936809148639442,
              0.11473453617654741,
              -0.17469710404984654,
              -0.04906950371805579,
              0.35237065837718545,
              -0.4023103140760213,
              0.1124133066041395,
              -0.18178589288145305,
              0.4489532735897228,
              0.2359189753420651,
              -0.3805732375010848,
              -0.25273392009548845,
              -0.3280373231275007,
              0.17236057058908047
            ],
            [
              0.44938152115792035,
              0.3439907821593806,
              -0.15041698508430273,
              -0.3708484765375033,
              0.06701517873443663,
              -0.3823451508767903,
              -0.11988579884637147,
              -0.2778882805723697,
              -0.17514591997023674,
              -0.02843587703537196,
              0.44488286739215255,
              0.34925667447969316,
              0.06140331435017288,
              0.2967221422819421,
              0.061231275997124614,
              0.1887985526584089,
              -0.4368466626154259,
              0.3437429391313344,
              -0.4155523028690368,
              0.3477819104678929,
              -0.053510005306452516,
              0.04106650489848107,
              -0.13241366813890637,
              -0.04040857201907784,
              0.2857995652360842,
              -0.2763856500852853,
              -0.38882123411167413,
              -0.13305074244271964,
              0.05774442146066577,
              -0.10987988600973041,
              0.11345692479517311,
              -0.027396182832308113,
              0.3104753657709807,
              -0.4416288151871413,
              -0.42738464288413525,
              0.19330095816403628,
              -0.06807510433718562,
              -0.18391651210840793,
              0.016837831120938063,
              0.2226259250426665,
              -0.0008519992930814624,
              0.0386412768624723,
              0.21210758287925274,
              0.07581550357863308,
              -0.03259109111968428,
              0.2878484611166641,
              -0.3472093405667693,
              0.4154588989214972,
              0.3571402994915843,
              -0.3098856081487611,
              0.06916708045173436,
              0.3370291283586994,
              -0.22741230041719973,
              -0.1459506334969774,
              -0.2592098227003589,
              0.15214860979467631,
              0.36254205722361804,
              -0.21551942818332465,
              0.20711384215392173
            ],
            [
              0.18274793608579784,
              0.36192741855047644,
              -0.3729611645685509,
              0.07123680536169559,
              -0.30550861917436123,
              -0.1007077225483954,
              -0.2978671714430675,
              0.1740846693981439,
              -0.36495004619937393,
              -0.29052535160444676,
              -0.24563951266463846,
              0.1732474316842854,
              0.09200418207328767,
              -0.22043385389260947,
              -0.4308126642135903,
              0.4014901863411069,
              -0.43518197243101897,
              -0.10957618514075876,
              0.35926247625611724,
              -0.3079929524101317,
              0.3550958091393113,
              -0.2130029434338212,
              0.33941811115946624,
              -0.40953410665970297,
              0.2750596353085712,
              0.09153992081992328,
              0.2798933080863208,
              0.4367339264368639,
              0.39882495109923183,
              0.3311234283959493,
              -0.28016336378641427,
              -0.039278639922849835,
              -0.38390099073294554,
              -0.04669168037362397,
              -0.34278150235768406,
              -0.049028599192388354,
              0.356584679055959,
              0.1617646710947156,
              -0.14807716466020793,
              0.2002786067314446,
              -0.34732600513380024,
              0.37708248768467456,
              0.15749683796893807,
              -0.3948134344769642,
              0.1599881818285212,
              -0.40185513838659975,
              0.4303358560893685,
              0.391116500319913,
              -0.27899620262905955,
              -0.014258481888100505,
              -0.4353067096089944,
              -0.05859197478275746,
              -0.3882327230880037,
              -0.08478116523474455,
              -0.20476894732564688,
              -0.30433070319704714,
              -0.09700341294519603,
              -0.2983952747192234,
              0.05887322241906077
            ],
            [
              0.20315906556788832,
              0.019822532124817372,
              0.19489997047930957,
              -0.008364244387485087,
              -0.015561881032772363,
              0.42542849339079114,
              -0.2526512204669416,
              0.3342876343522221,
              -0.23696365761570634,
              0.10396277576219291,
              0.2674967840546742,
              0.2910308708902449,
              -0.04172821110114455,
              0.15654909051954746,
              0.38579283929429947,
              -0.23551139063201845,
              -0.12170837160665542,
              0.30742376879788935,
              0.37311602253466847,
              -0.34458294496871533,
              -0.11949491340201349,
              0.22773876716382802,
              0.27499816368799657,
              0.05302238913718611,
              0.07472881099674851,
              -0.06586572979576887,
              0.1951578393112868,
              0.10438291635364294,
              0.4365937405731529,
              -0.36581251679454,
              0.3127231535268948,
              -0.4463986071757972,
              -0.10504470344167204,
              -0.2014685595408082,
              -0.3025711931521073,
              -0.14084990595001728,
              0.3869557095458731,
              -0.3473890582099557,
              -0.09017255811486394,
              -0.17342562738340347,
              -0.04348185108974576,
              0.3040490058716387,
              0.20101018615532668,
              0.24505673318635673,
              0.390197431971319,
              -0.390976495295763,
              0.2281116153812036,
              -0.36472469328437,
              -0.18325853794813157,
              0.06592551707290113,
              0.3311707628890872,
              0.09322799148503691,
              0.36044387554284185,
              -0.3754028454422951,
              0.28388396529480814,
              -0.11729807294905185,
              0.4147966026328504,
              0.05058650393038988,
              0.10504718804731965
            ],
            [
              -0.44035844870377333,
              -0.24251136230304837,
              -0.38844325658865275,
              0.2180325840599835,
              0.14847410623915494,
              0.1282122685108334,
              -0.4245382986031473,
              0.37335608527064323,
              -0.318661905429326,
              0.0786500352434814,
              0.23045864906162025,
              -0.04831749466247857,
              -0.026830597152002155,
              0.37647937790025027,
              -0.3599183197366074,
              -0.41694693630561236,
              -0.1704498516395688,
              0.03386094274464995,
              -0.36141221921425315,
              -0.026277079735882582,
              -0.14270690674893557,
              0.021086524170823396,
              -0.19625429345760495,
              0.16660624234937133,
              0.08521213294006884,
              -0.38236097318585965,
              0.23665749749634415,
              0.21386584213469179,
              -0.282110114232637,
              0.3437686017947272,
              0.0893245154991746,
              0.245954910479486,
              -0.22489594873040916,
              0.4297010057140142,
              0.07181196736637503,
              0.27985032149590555,
              -0.03517601285129786,
              -0.07876101834699512,
              0.22174163090530782,
              0.4444211385212839,
              0.0410739115672186,
              -0.4055922870291397,
              -0.4277520328061655,
              0.1254694329807535,
              0.06361234670039266,
              -0.08753130894619972,
              -0.061142411269247535,
              -0.19426436279900372,
              0.35490957980509846,
              -0.2709483436541632,
              0.25950945750810206,
              0.07223451293539256,
              0.000524685555137694,
              -0.13590075422544032,
              -0.2147316541755572,
              -0.007419284130446613,
              0.3394208266865462,
              -0.12405232954770327,
              0.04879451673477888
            ],
            [
              -0.3684338998049498,
              0.10462530297227204,
              0.23261368812527508,
              0.21815125085413456,
              0.4060493140714243,
              -0.02350601248908788,
              -0.3675241391407326,
              0.04173607709817589,
              0.27801406108774246,
              0.06929578143171966,
              0.26372904314193873,
              -0.2999840168980882,
              0.2336690937867388,
              0.38897948486264794,
              -0.3654551413608715,
              0.002082910900935531,
              0.019768797629512846,
              0.24648486867081373,
              0.4289537447970361,
              -0.03600278010126203,
              0.09339570896700025,
              -0.4349661436630413,
              -0.2348106276942417,
              0.03878077792469412,
              -0.43037536586634817,
              -0.017581331706605852,
              -0.3319532062159851,
              -0.1579012478236109,
              -0.21757151442579925,
              -0.3384779128711671,
              0.4378249516244978,
              0.2580695288954303,
              -0.301420735870488,
              -0.42968170281965284,
              0.15221700172405692,
              0.01834044777788222,
              -0.04965497106313706,
              0.11645349038299173,
              0.05065602029208094,
              -0.23690388752147556,
              0.21647207695059478,
              0.35419382562395185,
              -0.2675973230972886,
              -0.12626052915584296,
              0.04986714322585613,
              -0.2794339093845338,
              0.08594882972538471,
              0.3443216674262658,
              0.2130282542668283,
              0.15201937027741225,
              0.14929385553114116,
              0.14108633743599058,
              0.28109060029964894,
              0.17036308427341282,
              -0.20394800235517324,
              -0.003621925343759358,
              -0.30438383838627486,
              -0.286129642277956,
              0.3688745959661901
            ],
            [
              -0.034802765445783736,
              -0.27585518625564875,
              0.3309821769827977,
              0.05676720009651035,
              0.0357817901764065,
              -0.01623997155111283,
              -0.3525061084656045,
              0.3865145731251687,
              -0.3859333631582558,
              0.17046947702765466,
              -0.38962775110267106,
              0.15243526271078736,
              0.23766560722142457,
              0.4013608682435006,
              -0.28992600194178525,
              0.0921740161953494,
              -0.16829071445390584,
              0.304881204594858,
              -0.1089212766615674,
              0.4453057626960799,
              0.3389993831282482,
              0.06065294060390443,
              0.04973907235544175,
              -0.35059797198046,
              -0.21019308746326715,
              -0.10344144380651414,
              0.27906667012721303,
              0.17916585474740715,
              -0.28284727747086436,
              0.36069700901862234,
              -0.27408621346112344,
              -0.3106136887567118,
              -0.218378350767307,
              -0.31050796341151,
              -0.009784760512411594,
              0.053548493329435586,
              -0.11643348068464547,
              -0.26699837555643174,
              -0.11435210555791855,
              0.035657487390562896,
              0.07831023603212088,
              -0.021477383840829135,
              -0.11539383970666676,
              0.1905566796893254,
              -0.43317583242896945,
              0.0314729253295809,
              -0.40763062045443804,
              -0.16572600735817106,
              -0.37757710735313593,
              -0.07361597379203887,
              -0.21400237013585865,
              -0.386374596809037,
              -0.034265179093927144,
              0.04006178020499647,
              0.1526868578977883,
              0.36203620622400196,
              0.005022075539454818,
              -0.2125625921878964,
              0.34842134155333043
            ],
            [
              -0.18400887104216965,
              -0.38532707034610214,
              -0.31206926659215245,
              -0.41377988657914105,
              -0.08189867399632932,
              0.3301978485658765,
              -0.12399553544819356,
              -0.08738071254920214,
              -0.27161400276236236,
              0.1565270096529275,
              -0.2207312964135781,
              -0.18763688688632102,
              0.0009688390418887138,
              -0.22598251767922192,
              -0.07351128277368844,
              -0.4348009656881914,
              -0.44859720531385394,
              -0.14302712918724866,
              -0.31798700254876167,
              0.05348415111657232,
              0.32365614152513444,
              0.4199191327672452,
              0.022764192265458404,
              0.09265298056416214,
              -0.1597481597447768,
              0.28684476991184055,
              0.21872126951348037,
              0.37680236636660996,
              0.2852818236686289,
              0.24292767802253365,
              0.06110056734178215,
              0.2487412531161681,
              0.10629735162947328,
              0.06204183076042682,
              -0.35585863378364596,
              -0.28632837762124835,
              0.2706900492310524,
              0.010955825122073293,
              0.33426807560026645,
              0.31439737435430287,
              0.1362785186385736,
              0.30852865618653597,
              0.03997249868698418,
              0.13508114323485643,
              -0.3572602317435667,
              0.20111266120802612,
              0.4416149385273457,
              0.41618961563799534,
              -0.21790324291214347,
              0.21320773931220174,
              -0.2929030471248552,
              0.4307269548531622,
              0.16377480570226907,
              -0.26867821121122687,
              -0.30425128005445007,
              0.1611080399248749,
              -0.42892606251407417,
              -0.4227845027111471,
              0.01611028842162341
            ],
            [
              -0.061282222042791545,
              -0.16159298750571907,
              0.3149726807372645,
              0.027747369697317482,
              0.2765335611300543,
              -0.21474334734957665,
              0.09838557871989906,
              -0.008050511428155006,
              -0.22456081551499665,
              -0.2419722127262503,
              0.3767274579266086,
              0.232619996345602,
              -0.0888714503729716,
              -0.29293053306173533,
              -0.17750885642599315,
              0.16397033245302736,
              -0.33173916237428785,
              -0.1747501665260643,
              -0.3144426035229117,
              -0.16654027907643468,
              0.22090645032003522,
              0.2057703391648829,
              0.004050270351581275,
              0.05928906770423055,
              0.09131057455670089,
              0.4257474310928956,
              -0.40891968361102043,
              0.3153788646217436,
              -0.2082688032416627,
              0.24935018811374904,
              -0.20407988301012667,
              -0.14340019156225026,
              -0.09336564287077635,
              -0.06833668760955335,
              -0.44804884318728,
              -0.17948585946578532,
              -0.4466197368688882,
              0.24423769069835544,
              0.15636207286734136,
              0.19433656535111368,
              0.04550336643587798,
              -0.1912463190034032,
              0.32750508568715303,
              -0.00539792615454644,
              0.3623722090618685,
              0.18121000835672021,
              0.1147565418155864,
              0.02506529144011438,
              -0.2019335946533829,
              -0.3611201520077884,
              -0.2545376834459603,
              0.09688111448194832,
              -0.40363808528054507,
              -0.38962488386314365,
              0.2966888661263511,
              0.04290513277519494,
              0.26524713111575693,
              -0.17018842531833797,
              -0.13626294527202845
            ],
            [
              0.3067066481569782,
              0.3916634094435722,
              -0.09471827228553593,
              -0.07492659625131637,
              -0.12719526055734606,
              0.1120215310016647,
              0.3949104617116973,
              0.42200679453089834,
              0.005816123820841313,
              -0.3410276649752632,
              -0.041535054752603176,
              -0.3070212957914919,
              -0.17194687002338468,
              -0.24397284938022495,
              -0.12055640725884587,
              -0.22731442849617453,
              0.07392344672698528,
              0.2934403067920357,
              0.16020024796016516,
              0.31601487945299594,
              0.43257380411960183,
              0.00860914159566164,
              -0.17739808182232084,
              -0.36486470291856676,
              0.1696802108315751,
              0.20038860936183484,
              0.16729525490663946,
              0.11088856109417976,
              0.20083595949690788,
              -0.2343611908843741,
              0.3307877027895302,
              0.10107628803234547,
              -0.27638817073311656,
              0.2947538442676887,
              -0.15831954900640996,
              -0.12499810222070665,
              -0.11010029548779131,
              0.26342880923766643,
              -0.3266312196850777,
              0.18527770531363785,
              0.003538657631725073,
              0.1177903448464349,
              0.4427078200969845,
              -0.21498904712498187,
              -0.2371205965988338,
              -0.43076161842327565,
              0.19468089477159084,
              0.0056855411035940055,
              0.14860396643634885,
              -0.34273112984374166,
              -0.31357161020860075,
              -0.034070129273459315,
              0.057468216167762876,
              -0.0010218736482784153,
              -0.43741642395034436,
              -0.09249837091192603,
              -0.30694628634955734,
              -0.2615061645163223,
              0.033142234571278094
            ],
            [
              -0.2064645474543795,
              -0.04729920867830515,
              -0.39685774797108025,
              0.10441238565836101,
              -0.051772319432348016,
              0.42078228858299555,
              -0.384063714905642,
              0.2982640000758693,
              0.3846764718415216,
              -0.41759322211146355,
              -0.007162611815147102,
              0.348296757764183,
              -0.23348643514327705,
              0.19776621444616468,
              0.36749012684449556,
              -0.25605758065357803,
              -0.4160002946387977,
              0.17819391167722642,
              -0.21866482661571354,
              0.02584906853735447,
              -0.2343246709322557,
              -0.24086076691746713,
              0.09149122070521117,
              0.31309462543576955,
              0.34427149083931,
              -0.2706933022476733,
              0.18900969217065722,
              -0.0712709526065737,
              -0.11393961952999235,
              -0.3606507352553308,
              -0.33512620311230423,
              -0.31171311072539537,
              -0.04244661731645465,
              -0.30566121339797975,
              0.33269271575845777,
              -0.25318510516081005,
              0.004652860877104104,
              0.33839747216552496,
              0.29462763082701715,
              -0.1310440201079473,
              0.06728672725148499,
              -0.4029808181338012,
              0.15719754807651043,
              -0.31979659844655545,
              -0.08735326705500483,
              -0.4312039056792855,
              -0.3788273887010291,
              0.23756810892373323,
              -0.44074400975368916,
              -0.3410407945979387,
              0.15760374872479588,
              0.003807069011963904,
              -0.04052293093409389,
              0.2343136954586953,
              0.022889128932729364,
              -0.2934836353641003,
              -0.2445800533052534,
              0.2460804923437536,
              -0.35762223859783265
            ],
            [
              -0.3476723053492606,
              0.14256439260207118,
              0.03585889509413392,
              0.34925370435230435,
              0.14927832826506346,
              -0.0875193685060367,
              0.41793446301016957,
              -0.27519626514986156,
              0.24712383644655347,
              0.4124306581215933,
              -0.38044779519550503,
              0.059342984086833896,
              0.24062599253375083,
              -0.2831267521250993,
              -0.4275662864791229,
              -0.2729412063024938,
              -0.3791328799445182,
              -0.21699231527745724,
              0.055474688624963166,
              -0.3851598323090002,
              -0.2544106167275459,
              -0.4362785529345274,
              0.18965894957073035,
              0.27609519639518115,
              0.2015646945219487,
              -0.29052007289137693,
              0.22244924604892732,
              -0.23904088810086252,
              0.37593505438417196,
              0.4494926276849583,
              -0.1699988088570535,
              0.3158543230500072,
              0.2281090456992388,
              0.373034533043392,
              0.4204546630382538,
              -0.4035014173015952,
              0.2802071393234655,
              0.34772723594214766,
              0.4161013703327626,
              -0.36014130476396533,
              -0.39707258390262723,
              -0.3387254897737876,
              0.36081146432552486,
              -0.12172087216749787,
              -0.12867315688636155,
              -0.11527687171474099,
              -0.13571855218615383,
              -0.42095454507507385,
              0.368615288590081,
              0.29413253674283624,
              0.3092245387611911,
              0.28676876993849876,
              0.0033983370289206506,
              -0.22118249048944563,
              0.13887838865630328,
              0.41326558766886595,
              -0.2046792984707281,
              0.26628292039968077,
              0.31181134139187633
            ]
          ],
          "biases": [
            0.0690079569350928,
            0.024731830414384603,
            -0.1605021096300334,
            0.3929285892052576,
            0.24605567855760455,
            0.12695222434122116,
            -0.3439828495262191,
            0.25211117465514693,
            -0.052983038825914264,
            0.31610185615718367,
            0.44099738001823424,
            -0.40358013678342103
          ]
        },
        {
          "weights": [
            [
              0.17781579010188578,
              -0.13532858798280356,
              -0.2643915747758001,
              -0.23654700103215873,
              -0.24084753731731323,
              -0.3319718389539048,
              0.20587485558353363,
              0.346214545564726,
              0.02210930734872818,
              0.334483561408706,
              -0.2805599707877263,
              0.08133511662017553
            ],
            [
              -0.19057948372792452,
              -0.09783185799606144,
              -0.01703317086212337,
              -0.05957980351522565,
              0.08464225342031567,
              -0.012943685776554047,
              -0.34525809788610784,
              0.2026129559148103,
              0.05445558994542807,
              -0.2845165485749021,
              0.26884039810393,
              0.2150461464654654
            ],
            [
              -0.24157957616262135,
              0.059887422854080795,
              0.3027609767159447,
              0.10005015321075916,
              -0.30953530103433874,
              -0.10043526338413357,
              0.23966942394617943,
              -0.2670804847963154,
              -0.21890398699324576,
              -0.1643325972603634,
              0.23583367636892943,
              -0.21091009660158305
            ],
            [
              -0.15140389616135508,
              -0.2056331945117563,
              -0.21244202982634305,
              0.3447319916449487,
              0.22096150312572715,
              0.23872482143342494,
              0.06741346521303057,
              -0.2863645251607522,
              -0.2656251021660864,
              -0.3163669296307489,
              -0.16222766526043414,
              0.11016139886341988
            ],
            [
              0.007064165314659475,
              0.2069999745581299,
              -0.2821617795387283,
              0.0356677153147757,
              0.18492136672139167,
              0.1612045977730304,
              -0.0004088492365553975,
              -0.28056283534970133,
              -0.007519543310627341,
              0.16570543402340263,
              0.32411957960575816,
              0.16145749788265673
            ],
            [
              -0.2562527684494853,
              0.22381018907763062,
              -0.269710924080573,
              -0.13964206874370574,
              -0.032890308648347855,
              -0.3174644791521132,
              0.24412634517066178,
              0.008441892499104141,
              -0.16103221147786825,
              -0.24021047363057732,
              0.16766069086734203,
              -0.23721287364605811
            ],
            [
              -0.3369258360005915,
              0.1778629875741899,
              0.2297016265802085,
              -0.09212725900579244,
              -0.2659943539183587,
              0.06210252053570002,
              0.14669243523385375,
              -0.25850689089857043,
              -0.06683250626083463,
              0.26004070199560375,
              -0.2878361876821145,
              0.1715155807789415
            ],
            [
              0.17918148909229784,
              -0.062015225552022456,
              -0.22160317788366227,
              0.2263916917145252,
              -0.1828930407296866,
              -0.15504469820298253,
              0.14676952545996755,
              -0.14396326423157005,
              0.28612258897628634,
              -0.19045797910075635,
              -0.092223950359039,
              -0.255967764579691
            ]
          ],
          "biases": [
            -0.15992979859001932,
            0.06707305612508208,
            0.2546027325093746,
            -0.16125281208660452,
            0.24617528456728904,
            -0.30651391635183245,
            0.01376023539341986,
            -0.028528985660523174
          ]
        },
        {
          "weights": [
            [
              0.0045759143540635705,
              -0.1697958483127877,
              -0.19783170940354466,
              0.05662644642870873,
              0.14123728533741087,
              -0.1409586549270898,
              -0.024792087846435606,
              0.12241604377049953
            ],
            [
              -0.18076799751725048,
              -0.05562584800645709,
              0.0631128791719675,
              -0.07030372356530279,
              0.00556037703063339,
              -0.21422271220944822,
              0.1509783329674974,
              -0.11944800149649382
            ],
            [
              -0.024509085342288017,
              -0.1900268979370594,
              -0.17786776344291866,
              -0.011967780534178019,
              0.24243649560958147,
              0.13978632912039757,
              0.06930531351827085,
              0.12573389790486544
            ]
          ],
          "biases": [
            -0.1350085794692859,
            -0.24880749778822064,
            0.22978390636853874
          ]
        }
      ]
    },
    "reviewBlocked": false,
    "reviewSummary": null,
    "runtimeDisabled": false,
    "runtimeValidation": {
      "totalMovedTicks": 0,
      "totalGoals": 9,
      "samples": [
        {
          "movedTicks": 0,
          "leftScore": 2,
          "rightScore": 3
        },
        {
          "movedTicks": 0,
          "leftScore": 1,
          "rightScore": 3
        }
      ]
    }
  },
  {
    "id": "trickster-0-dtel4o",
    "name": "Glitch el4o",
    "schemaVersion": 1,
    "archetype": "trickster",
    "personality": "Varies tempo and angle pressure without giving up match discipline.",
    "generation": 1,
    "lineageId": "trickster-0-dtel4o",
    "difficultyBand": "absurd",
    "elo": 1033,
    "promotionScore": 1033,
    "controllerParams": {
      "fireThreshold": 0.6
    },
    "mutationProfile": {
      "source": null,
      "kind": "seed"
    },
    "network": {
      "type": "mlp",
      "inputSize": 59,
      "layers": [
        {
          "weights": [
            [
              -0.39592830031178894,
              0.40692475356627256,
              0.4204271240858361,
              0.13029277024324984,
              -0.20764614308718593,
              0.38982607636135075,
              0.33332491137553005,
              0.30157874040305616,
              0.33637631724122913,
              -0.4121357215801254,
              -0.17416216826532036,
              -0.16663948979694396,
              -0.35528193935751917,
              0.22122304989024996,
              0.1681451308541,
              -0.02260868533048779,
              0.025312361866235734,
              -0.4389426763169468,
              -0.29362873595673594,
              0.004509936645627022,
              0.28497981510590764,
              -0.3078181224642322,
              -0.063638581847772,
              -0.25888594114221636,
              0.13762155203148724,
              -0.1995067744748667,
              -0.30132781681604687,
              -0.024984402302652597,
              0.4476272324100137,
              -0.20446407466661184,
              0.14966727748978884,
              0.1598068812629208,
              0.14720903502311558,
              -0.07452677611727268,
              -0.12817121709231288,
              0.36505830644164233,
              -0.08970373689662665,
              -0.03970840880647302,
              0.30255452217534184,
              -0.15428396773058922,
              -0.12932566332165152,
              -0.06083445134572685,
              -0.05035399098414928,
              -0.13588746848981828,
              0.2694432009011507,
              0.4057497754460201,
              0.38555552100297064,
              -0.2675733632175252,
              0.18956716479733587,
              0.0764513025758788,
              0.15994363955687732,
              0.2258991613285616,
              0.1870022068731487,
              0.09024915508925915,
              -0.23542124305386097,
              -0.259345446084626,
              0.004648541891947389,
              -0.2406535518122837,
              0.21220375557895751
            ],
            [
              -0.39614508566446605,
              0.11963654430583119,
              -0.34218995603732766,
              -0.34179675006307664,
              0.11296453240793199,
              -0.08326874594204128,
              0.0852819508407265,
              0.0402676617493853,
              -0.22967146933078766,
              -0.27644608737900855,
              0.17172310799360277,
              -0.06794436110649259,
              -0.3549229103839025,
              0.16802302957512438,
              -0.3394146349746734,
              0.3539483052212745,
              0.013292989949695766,
              -0.1995588965015486,
              -0.4322417059913278,
              -0.13428106186911465,
              -0.4147852883208543,
              -0.12551022875122728,
              0.0386256666155532,
              -0.08309657536447049,
              0.0659819920314476,
              -0.2802644841140136,
              -0.28500305162742734,
              -0.3345110969385132,
              -0.3648410774767399,
              0.067990429722704,
              0.1161825698800385,
              -0.2294815756380558,
              -0.005108711519278586,
              -0.3122248298954219,
              0.3524418087908998,
              0.298176592332311,
              -0.12144709636922926,
              0.26230881724040955,
              0.44837004526052626,
              0.29856594786979257,
              -0.39137284175958487,
              -0.38749452112242583,
              0.4381752611137927,
              -0.39127511882688853,
              0.30654953399207446,
              0.39702989235520364,
              -0.2568750597070903,
              0.1611866879509762,
              0.34139770839829,
              -0.05263693307060748,
              -0.2592368570622057,
              -0.3682212590938434,
              0.12175639236811549,
              0.1458067321451381,
