(function (root) {
  const bots = [
  {
    "id": "aggressive-0-9aaccq",
    "name": "Sniper",
    "schemaVersion": 1,
    "archetype": "aggressive",
    "personality": "Uses gold waves to line up pickups, create punish windows, and convert brief openings into scoring pressure.",
    "generation": 6,
    "lineageId": "aggressive-0-9aaccq",
    "sourceBotId": "aggressive-0-9aaccq",
    "difficultyBand": "absurd",
    "elo": 1669,
    "promotionScore": 1692,
    "selectedCandidateId": "aggressive-0-9aaccq",
    "selectedCandidateGeneration": 6,
    "selectedCandidateTrainingHours": 8.703,
    "selectedCandidatePromotionScore": 1692,
    "metadata": {
      "roleName": "Sniper",
      "designIntent": "Uses gold waves to secure powerups and punish exposed opponents rather than spending charge indiscriminately.",
      "styleTags": [
        "sniper",
        "gold-wave-punish",
        "powerup-hunter",
        "precision-pressure",
        "aggressive",
        "absurd",
        "active-mover",
        "goal-capable"
      ],
      "reviewState": "active",
      "rosterStatus": "published",
      "rosterVersion": 1,
      "source": "bot-roster.js",
      "publishedAt": "2026-03-18T00:20:04.036Z",
      "lineageRoot": "aggressive-0-9aaccq",
      "sourceBotId": "aggressive-0-9aaccq",
      "trainingHours": 8.639,
      "eloTier": "elite",
      "replacesBotId": "aggressive-0-9aaccq",
      "promotionSeries": {
        "seeds": [
          1337,
          9256,
          17175,
          25094
        ],
        "matchesPlayed": 8,
        "candidateMatchPoints": 5,
        "existingMatchPoints": 3,
        "candidateWins": 5,
        "existingWins": 3,
        "draws": 0,
        "goalDiff": 6
      }
    },
    "trainingHours": 8.703,
    "controllerParams": {
      "moveThreshold": 0.5296316772385503,
      "fireThreshold": 0.46503413829041124
    },
    "mutationProfile": {
      "source": "aggressive-291-3isr4j",
      "kind": "clone-mutate"
    },
    "network": {
      "type": "mlp",
      "inputSize": 59,
      "layers": [
        {
          "weights": [
            [
              1.584699210636192,
              0.2703480528213967,
              -0.5654621464782511,
              -0.7008430437317813,
              -1.3424961239185065,
              0.27392258106087936,
              0.5700017001401401,
              -1.719399400418446,
              1.5531749848086884,
              0.5826125593450294,
              0.12266026273668851,
              0.5447551730765583,
              -0.40538662834170547,
              0.6599072738677652,
              0.009444728485037635,
              -0.7121519372068958,
              -1.1811852209632756,
              0.5279016854660148,
              -0.8055044836396672,
              -0.08285508149136006,
              -1.7721923478690949,
              -0.5485929035767068,
              0.18578387448239908,
              0.980840300540869,
              -0.6674044093381009,
              -0.5609667013434685,
              0.05040368822488861,
              0.42766453721996045,
              0.47316719577500876,
              -0.5361931421392384,
              -0.6471393447055114,
              0.8960459424787888,
              -1.2275177439332496,
              -1.0796516772902602,
              1.350734931653309,
              -0.1307884867614149,
              0.1894186171363376,
              1.0851804843049841,
              -0.008526691925554025,
              -1.4064857833075637,
              -1.249641277696554,
              0.5871753306177648,
              -1.155567466310187,
              0.240892572147747,
              -0.6194531735362676,
              -0.10326297466497233,
              0.880342010112487,
              -0.10131876609586596,
              0.07294747710367075,
              0.3271073265608546,
              -0.19828080031024553,
              1.2879523652833236,
              -0.7914216167501735,
              0.27716723532925686,
              -0.014835021972299176,
              -0.16648284472643085,
              -0.5770711494663622,
              -1.516493837115186,
              -0.985978678461992
            ],
            [
              1.597129424992236,
              0.3499733400978403,
              0.6539198004418822,
              0.48164328064812123,
              0.33432402691024543,
              -0.0392174010899278,
              0.800085575148153,
              -0.34925564807054754,
              0.1938749826964552,
              -1.3849193177650279,
              0.9245216246036367,
              -0.1224502320325756,
              -0.7670164954582278,
              -0.3860493264493259,
              0.23112647852674786,
              0.024140290593110125,
              -0.959837047289203,
              2.550303284052598,
              -0.0877162945647693,
              -0.8359755687477693,
              -1.8272599804639802,
              -0.14191708547647194,
              -0.5141702741694574,
              0.4057823653094716,
              0.626873886705863,
              -0.4959590287831661,
              0.39166148135436063,
              0.43284971356083773,
              -0.4350253493050493,
              -0.3849123526936431,
              0.815536767841377,
              -0.7468141441088884,
              0.3653903357036729,
              -0.5415217165024384,
              0.40456568388250563,
              0.7677652702500124,
              -1.6438794152190486,
              0.04211089336504946,
              2.187238357302896,
              0.8584451066673335,
              0.3464826495230704,
              -0.047384850283709166,
              1.0142893078444275,
              0.20214582699848088,
              -0.0018241109064910804,
              0.71035488790131,
              -0.9569446522667624,
              0.20712096907454344,
              0.746337361597153,
              -0.3501999785974842,
              -1.0118779777015703,
              0.44221988039189525,
              -0.4435254656604586,
              0.5915243629343923,
              -0.7280388255366612,
              -0.6115421945382792,
              0.17812361261096207,
              -0.37068029555826126,
              -0.6043254044444873
            ],
            [
              0.3818352102631149,
              0.6259467308622201,
              -1.332392178031475,
              -0.5170855770751224,
              -0.9659526123999219,
              -0.6152165105496407,
              -2.7086980131026324,
              -1.1633479205000619,
              0.6634850657495519,
              -1.2814306150469614,
              -0.11985518086009492,
              1.7885516529819998,
              1.8345583036008732,
              -1.4107930892388691,
              -0.09814104632504157,
              2.2681000165465286,
              0.3834086046165248,
              -1.3985710889041674,
              -0.4137249498670191,
              0.4599739684132253,
              0.9041275498419425,
              -0.41439559087872346,
              0.6074535921754051,
              -0.3687066432492916,
              -0.01575038655321176,
              0.09259134761959242,
              -0.4348660870441895,
              0.550902086884199,
              -0.29957490936644404,
              1.8246391600253256,
              1.0633457130627804,
              0.9444896789619903,
              0.08516294557295616,
              0.6261476935362198,
              1.540350386226513,
              -0.23139859877910046,
              1.1159876651080631,
              0.46155059578513,
              1.6655340639245884,
              0.5715735731089371,
              -0.39625382659922553,
              1.9221189064792197,
              0.7695719143476325,
              -1.0320122774303784,
              -0.18006208164174495,
              -1.310067465907193,
              -1.79363812033638,
              1.3129688978726208,
              0.7130351484230933,
              0.40019212767309265,
              -0.925952624238596,
              -0.4034460073194781,
              -0.83690054977051,
              -0.19331277342404216,
              -0.8061195692209773,
              0.6200253924352767,
              -0.4024730620629653,
              -1.344014592774565,
              0.4223495842641587
            ],
            [
              0.40454635925096766,
              -0.6576602225596074,
              -0.028837538106670446,
              0.23737077666970366,
              0.5418855409520723,
              0.24798619512258893,
              1.436730184841624,
              -1.1913703820197872,
              0.3417850754689938,
              -0.6647869629391933,
              1.4423327267027741,
              0.13017855907619358,
              0.7052017042591784,
              -0.8578516633245796,
              0.5910832824601417,
              0.025471499209686665,
              0.10695061167303044,
              -0.6415280619119709,
              1.4307888622891753,
              -0.7250395200614032,
              0.1729011167726135,
              0.056743893751666455,
              0.0545055285434809,
              -0.1699170841647603,
              0.5140693018318814,
              -0.6957474447526438,
              0.7445599924613654,
              1.3990944784768566,
              0.3756978570670362,
              -0.24450571691085543,
              -0.6070537664574966,
              0.38199914485270514,
              0.7571055865875184,
              -2.122178344472407,
              -1.5225179410557634,
              1.469194210521269,
              0.5301767047634847,
              -0.6019164977258995,
              0.10050182498339333,
              -1.0425818402432472,
              0.4915453796459749,
              1.5155980291164606,
              0.05830956227005821,
              0.7353663605090354,
              1.2579683952663456,
              -0.41936303405586023,
              0.1008254838620902,
              -1.4083853409020972,
              -1.2710816258038617,
              -0.6491459796458476,
              1.358728106914454,
              -0.8162667426495935,
              -0.9695304209107504,
              -0.3719436290715835,
              -0.2850904216014795,
              2.0177447283947756,
              0.8299381420185383,
              0.01364803361087278,
              1.81356404132529
            ],
            [
              -0.5807899859448595,
              -1.2007215081903921,
              -0.19283928855456067,
              0.4231847520809887,
              0.745469148642193,
              -0.27437852784001676,
              -1.3424171979220227,
              -0.34481008515923195,
              -1.2871450958873827,
              -0.16940033397949836,
              0.2202474879027435,
              0.4867823660694179,
              2.0382741455863354,
              0.9258617123920619,
              -0.7471254439587178,
              -1.2791850930021822,
              0.04872167513562412,
              -0.20136509936442606,
              -0.15910889205158352,
              -0.5262841104627601,
              -0.8862122092403143,
              1.1378937142538366,
              -1.2557017009313676,
              -1.4907523415419452,
              0.8574183888092735,
              -1.573956397567732,
              0.2472648505132591,
              1.530560251314341,
              -0.6044912068057979,
              0.5563052023341023,
              -0.3450463851392372,
              -0.23709979839385714,
              0.9486806527122884,
              0.06025231389883386,
              -0.817406670257591,
              1.5709532466637381,
              0.8065965372277787,
              -1.0978221435519289,
              -0.5285297326929033,
              0.5034853224780952,
              1.5071538301365675,
              -0.36431678855284355,
              0.5200156340799166,
              0.5894416019363378,
              0.6693867674544391,
              -1.8690834623461678,
              0.5840005128235024,
              -0.27259678617820926,
              0.10282857399407874,
              -0.890607672000829,
              1.467971148381127,
              0.9858755737458544,
              1.466908582431126,
              1.0109565746367961,
              0.47275973980762104,
              1.2576227152214532,
              0.6228215739415488,
              -0.5691776218946206,
              -0.35401884900626
            ],
            [
              -0.9659594460918146,
              -0.08056171615775426,
              1.35178263438497,
              -0.17361303891030888,
              0.8571765380377159,
              0.023924797393158982,
              0.8876207712599743,
              0.8489466048552576,
              0.376951183591141,
              0.5241514254965616,
              1.38093183096942,
              -0.347946878263067,
              0.645479518055899,
              -0.6626239521718829,
              0.27027457615567474,
              0.40517663167504403,
              -0.9452019755644108,
              0.955322968600024,
              -0.023344821159512905,
              -0.33772626822874946,
              0.7153801426444492,
              0.6462483461060022,
              1.1304926629334762,
              0.25792045695364035,
              -0.5830805543631588,
              -0.5755960943488891,
              -0.9307000746565126,
              -0.39425280877958535,
              -0.6262171089315877,
              -0.8584650998646323,
              0.8257674347886325,
              -0.1617552096860067,
              -0.5347796468210941,
              -2.9401461379013774,
              -0.014449537993760642,
              -0.36443338147568916,
              -1.276669921329028,
              -0.2126711744361731,
              -0.7467957247496053,
              -0.6192757360103593,
              -0.10110315570977335,
              0.9716201452793842,
              0.6214836792651929,
              -0.12695589416219538,
              1.4532620146782191,
              0.1512146899576406,
              -1.101405923939553,
              0.015161367313531102,
              1.3996406790487785,
              1.1507493386726755,
              -0.17256452130383754,
              -0.19895243623022038,
              0.0019773348118883316,
              2.086490324737413,
              -1.217518488183047,
              0.19149504773027312,
              -0.9141903940869204,
              0.2641465797260998,
              2.7566443815838286
            ],
            [
              -1.2371814057761348,
              0.8238162881501767,
              0.7019940517229262,
              -0.9997649531591959,
              -0.14807239991077445,
              0.3640262275402797,
              0.43958728392601887,
              1.7687243507949175,
              0.46119844004747645,
              -1.0512453171207454,
              -1.7409596105998226,
              0.43538750194579373,
              0.3968712989609204,
              0.1914408613191009,
              -1.7139372956097887,
              -0.8557563509452557,
              -0.20260240167987728,
              -1.4947864664862465,
              0.7360275545729571,
              0.8304341921280356,
              0.26326665088472895,
              2.3711994146598845,
              1.1609410075539655,
              -0.044964278529316073,
              -0.49544604257044506,
              0.10385583294796394,
              0.07378979838233818,
              0.6402418854545073,
              -1.1214725056861508,
              -0.5842460916594078,
              0.9577270696666068,
              -2.009944595253781,
              -0.17802747876378996,
              -0.3398970440163733,
              0.7339993876375471,
              0.22433018046116515,
              0.22458884105618251,
              -0.8471494493880014,
              1.5891554158666064,
              0.3049225485244509,
              -0.36774701369097956,
              -0.16857704816628014,
              1.338743584750339,
              -0.20813409251802065,
              -0.5094356072504564,
              0.07766442535105446,
              0.179668096865309,
              -0.2757761396592562,
              0.029869280268012263,
              2.331895964143807,
              -0.34999212241300415,
              0.7462014010594498,
              -0.3157616634088636,
              -1.0121611437883478,
              1.742220975130798,
              -1.0016083998395569,
              1.2206132808328183,
              1.0833605774090385,
              0.1731762702118142
            ],
            [
              -1.8976559108775333,
              -1.2376972354128355,
              1.1972741698762415,
              0.16288714895093637,
              0.5421047574264414,
              0.11362161140339225,
              0.7588464928574876,
              -0.37679934590207,
              -0.5152743440081418,
              1.5626126531693467,
              -0.013192360960922384,
              -0.06096146538795123,
              -0.9853749835356925,
              -0.11619494985260492,
              -0.43607619662050195,
              -1.1959399805329296,
              -0.7141808172455103,
              -0.28565539129393347,
              -1.1540840299849973,
              -0.11091952284360172,
              1.6668215294598483,
              -0.12437256576092084,
              0.40737558963009124,
              -1.4281198200472376,
              -0.2595277238682445,
              0.473536839234051,
              0.4192152136903502,
              1.1277288354690709,
              1.0520202246043064,
              0.6375411632171626,
              0.6404565113994312,
              1.3355227279690383,
              0.5854254968871516,
              0.09474285836866318,
              0.3304384928848266,
              -0.4138716357689548,
              1.407406186439375,
              -0.17609849630235144,
              1.436449473481392,
              -0.5116858258468648,
              0.08235065170820587,
              1.554205533045336,
              0.006307333209916076,
              1.0936765634209868,
              -1.3531441452100093,
              0.20632633663952296,
              0.5104560479734935,
              0.41528062239598756,
              0.9393053564030053,
              0.19530717172625028,
              -0.8615940306039329,
              0.610524571805358,
              1.6457522003345515,
              1.0317013666261978,
              -1.215113174391569,
              0.5888317039849436,
              -1.0160445529078295,
              -2.0956838653696117,
              -0.25296240774034656
            ],
            [
              -1.2989328869032921,
              -0.9123280954657055,
              0.43749388884735213,
              2.0207054329365275,
              0.06356722886983521,
              -0.29311169103018253,
              -0.9771882448544481,
              0.5163578339116278,
              -0.5162934316122141,
              -0.17550909950067384,
              0.9162453629763718,
              0.030262943703744993,
              -0.2141889923709019,
              -0.637577526940909,
              0.14214435132998438,
              0.22444951295558732,
              -0.769431490149517,
              1.4653166323456732,
              1.3247474060071605,
              -2.812715464991138,
              2.1046324428612957,
              0.5846662789836384,
              -0.38345556763989885,
              -0.33295519810674884,
              0.7205806307030397,
              1.193730758263057,
              0.4102636725879666,
              0.4421427637465531,
              0.5417137522584645,
              1.1574572365446394,
              3,
              -1.3671551822354395,
              -0.22586215898271175,
              -0.7818457221654967,
              -0.3817643949690679,
              -0.29913562883964145,
              -1.4588288412749484,
              -0.30025604720701105,
              -0.5194149776351493,
              0.4450905683403349,
              0.9225379065964143,
              -0.4848395672837587,
              -0.2510536115640098,
              0.6533874670396994,
              0.743826121540901,
              -0.25081645058479796,
              -0.7494972507521003,
              0.3823028479562393,
              0.7567588118044172,
              -0.47869520403543586,
              0.5155979014702664,
              -0.00013804263792360771,
              -1.4045161626637586,
              -0.17950245073375398,
              0.5468893364476904,
              0.6580422495122178,
              0.20842210614641302,
              -1.277932539290014,
              -0.031175976756546913
            ],
            [
              0.6856261672587394,
              0.3291033681542926,
              -0.10626823235652351,
              -0.2573743511186929,
              1.1800105091449244,
              0.8753886395581778,
              -0.5068327004017853,
              0.5222127969939204,
              -0.010924433462025596,
              -1.1424192887094298,
              -0.8314860904910568,
              -0.6181635296251433,
              1.2471833936611179,
              1.2281071686196814,
              -0.8567478813412485,
              0.17986619121629424,
              -0.2644441273142993,
              0.05940292850625595,
              2.139609422387789,
              0.64907827731245,
              1.7806306912732217,
              -0.15038689277346193,
              -0.8153981039210312,
              -0.7038926787864517,
              0.4662417649366694,
              -0.11913676879274651,
              -0.4662925922956882,
              1.4130087277026662,
              -0.2427723483303751,
              -0.009581279775301543,
              0.6444550496134428,
              1.006017109341467,
              -0.6828993479178114,
              -0.7853325681077148,
              0.8663509816768318,
              -1.3041187583866425,
              -1.225913411592632,
              -1.0572940918803129,
              -0.267737655694053,
              -1.1831354639900131,
              0.4914831218645389,
              0.9533463195631924,
              -0.9787851239714351,
              -0.07983109507054896,
              -1.979166728063698,
              -0.7858956453426077,
              0.29989423677586263,
              0.7496715735456206,
              -0.008621960508801117,
              -0.47246235098789846,
              -0.3037492800425604,
              -1.0578719382593795,
              0.692676484205627,
              0.42819684997790763,
              -1.5669196062706214,
              0.7345717645992643,
              -2.27848135154027,
              0.6248317738899142,
              0.40585606436275273
            ],
            [
              -0.42676432371712825,
              0.9649486839867811,
              -0.5701936252559544,
              1.1149522326122923,
              0.04394434038392271,
              0.9313187680981206,
              -0.1734608333548283,
              -0.04169237623487223,
              0.2548584049781049,
              0.13260900588246116,
              -0.5107619172729939,
              -0.5146448641946179,
              -1.3344188389038174,
              1.7274826427565237,
              -0.5755215664120537,
              -0.24432889393707888,
              -0.47947532001901255,
              0.2639078877830654,
              -0.6329185276107461,
              0.594837626500636,
              -0.4503047440090111,
              -1.3789045531129691,
              -0.2627591542725245,
              0.46563347888512985,
              1.7207625343552975,
              -0.2564315731002972,
              1.805349170367811,
              -0.04444835309195669,
              -0.058159722645006504,
              -1.4262178136125687,
              -0.10160666297973789,
              0.15951273996932963,
              1.6565732649828786,
              -0.5922713634568137,
              0.07795592847740447,
              -2.4198710514711173,
              -0.4666737058483347,
              -0.3959212278518116,
              0.7254599783614831,
              -0.09173284861375557,
              0.6101555861483241,
              0.4993235153116902,
              0.8872717927222068,
              0.12058517196136159,
              0.4812604107084788,
              0.1511868527304678,
              -0.7017860342661294,
              1.5348044103101475,
              -1.2723129247686118,
              0.3704094634587097,
              1.3102855659273673,
              -1.7374191703538464,
              -1.20090501633547,
              -0.14937252852490496,
              -0.31646977521208675,
              -0.6176414120931489,
              -1.4285974094308698,
              0.7317584780752338,
              0.3913355296978798
            ],
            [
              0.5039494303057821,
              -0.1828533844531279,
              -0.6979912887019254,
              1.1976788263442186,
              -1.024220983815273,
              -0.5866185905144347,
              2.099685706224105,
              0.20435979294373716,
              -0.0843165940976296,
              -0.7734638964658946,
              -0.6833376522602942,
              -0.9912104580551526,
              1.2426400158964337,
              0.7942764363885176,
              -0.7900695853990882,
              -1.5701889166550334,
              -1.3081208806912232,
              1.4832465992059365,
              0.8728236985181965,
              -1.4398077711374886,
              0.027351269553148275,
              1.097964064356472,
              -0.9453822754913221,
              0.7827558315657815,
              1.409722703067104,
              -0.6445168105639336,
              2.419842915150506,
              0.23877691656900307,
              -0.7008742475436767,
              1.2063540187791513,
              0.6464175442092326,
              -0.3436687628474792,
              -0.7628284769913664,
              0.8238269832119909,
              0.42589358692499013,
              1.064066263551318,
              2.23385343513743,
              1.227925706085111,
              0.8962193828061632,
              -1.4958196885112756,
              -1.6685835103130677,
              0.32293933007498804,
              -0.1539859119084376,
              -0.25874792666902485,
              0.11803988406799973,
              0.79907054230455,
              1.8652638083106043,
              0.28301783608257514,
              1.4851103259913865,
              0.7627111713260141,
              -1.0958018532688394,
              0.22556972882302173,
              0.6337607234748797,
              -0.7673814948808113,
              -0.9219751379456784,
              0.7925360283228902,
              0.49379981798969463,
              1.1097032208938789,
              -0.6569724033635171
            ]
          ],
          "biases": [
            0.6476606483875056,
            -0.5291175277667809,
            1.0322101040719418,
            0.7323779624854039,
            -0.30602319943513995,
            -2.5418994322314954,
            -2.044724596594839,
            -0.5672816844701405,
            2.7122763349135113,
            -2.1718757130511195,
            0.2981821256820758,
            -1.5016375614613502
          ]
        },
        {
          "weights": [
            [
              0.46150984884876634,
              -0.9490765416095962,
              0.05596253738427524,
              0.006406159683051749,
              0.6579853105417357,
              -0.27397796210723757,
              -0.11446535458092894,
              0.5820116394261663,
              0.0014976711604050563,
              0.408520944192398,
              -1.0423189453710926,
              -0.26664608792982497
            ],
            [
              0.17001493701046066,
              -0.12963842555671615,
              -0.015461038503290133,
              0.8748118085909626,
              -0.3186266260883128,
              -0.352674495502774,
              -0.02102746146013232,
              -0.09325132466111297,
              0.08456258328252125,
              -2.044711982986239,
              0.795359886493484,
              -0.7324570326560215
            ],
            [
              -0.7861156691344311,
              -0.41608080137031933,
              1.3293624926312166,
              0.043769397858131984,
              -1.2840241216977986,
              1.021711929688234,
              1.6518305146222207,
              0.321562359811211,
              -0.16809330444809437,
              -0.7392578529277654,
              -0.8871463572822751,
              -0.01871045722390144
            ],
            [
              -0.6765800304780434,
              1.1938143916299768,
              -1.300530678980066,
              0.23523469413258227,
              -0.7564714673035006,
              -0.5309051197153714,
              -0.9346987130443456,
              -0.09296129166440587,
              -0.31162118648757664,
              -0.42600683852706295,
              0.4137852510159403,
              -1.338670290069645
            ],
            [
              0.07746353372796483,
              -1.1865077700691011,
              -1.3878148760828481,
              0.21662381340026432,
              -0.5488942020081966,
              0.7962204104087276,
              0.6719200825095314,
              0.5496804009324228,
              -1.1513144064036402,
              -0.9352243493327098,
              0.300905588767571,
              0.4595278008743583
            ],
            [
              0.19633483575410599,
              -0.7532860725773564,
              -0.7168023885503411,
              -0.11400169325768732,
              -0.6409263658970716,
              -1.02996614587689,
              -0.20571891650525365,
              -0.4867301707644951,
              0.2759386538346417,
              -1.4351520098868726,
              -0.0660846987632718,
              0.04038011883837729
            ],
            [
              -1.385129591499779,
              -1.6470059435182693,
              1.4217227276744713,
              -0.5419195828756292,
              -1.0167523517891477,
              0.850023839962337,
              -0.44406306610340746,
              -1.0584670174984503,
              -0.0066380787501060246,
              -1.0160139708777527,
              -2.186549356167156,
              0.17042441574885056
            ],
            [
              0.726167068669387,
              -0.03928755031070025,
              -1.4478141346841533,
              -0.5118465577200761,
              -0.9041399433204962,
              -1.69292469174694,
              -0.2541980646074523,
              -0.15112219584847533,
              -0.8993438430674838,
              0.366512837261509,
              0.18008631892686963,
              -0.2721320042282467
            ]
          ],
          "biases": [
            0.6776428676612929,
            -1.0655524979045452,
            0.8928769939325774,
            0.07638621985877012,
            -0.7604043240944287,
            -0.43223033654026477,
            2.2354739856708443,
            0.03519946619580047
          ]
        },
        {
          "weights": [
            [
              -0.56657401866868,
              0.13095697718532007,
              0.16877231496089456,
              1.3791180836719552,
              -0.9498676050035146,
              0.34428263335364784,
              -0.13716414838728574,
              -0.26355558992343564
            ],
            [
              0.5552580011209972,
              1.5922591302106193,
              -0.2100833759769819,
              0.5726813537682118,
              1.5542080607169992,
              0.9129972795126826,
              -0.2465694026426992,
              -0.18525200486702412
            ],
            [
              -0.7320519065461694,
              -0.2895668642017882,
              -1.0349039546697394,
              -1.0641505649009237,
              0.21756351968244883,
              -1.398362808862101,
              0.5714798924034892,
              0.33115262299887394
            ]
          ],
          "biases": [
            -1.1537193394729357,
            -1.5696025225102708,
            -0.3091439735667092
          ]
        }
      ]
    },
    "reviewBlocked": false,
    "profileBlocked": false,
    "roleFitScore": 274.1,
    "promotionBlockReasons": [],
    "metricAverages": {
      "win": 0.9787234042553191,
      "goals": 4.9787234042553195,
      "goalDiff": 3.5106382978723403,
      "againstGoals": 1.4680851063829787,
      "rally": 5.1063829787234045,
      "longestRally": 5.1063829787234045,
      "durationTicks": 4094.978723404255,
      "paceScore": 1.7292966211617768,
      "shots": 5.127659574468085,
      "shotRate": 1.0984781685780514,
      "powerups": 1.7872340425531914,
      "powerupRate": 0.36743162725955447,
      "ballHits": 8.553191489361701,
      "waveHits": 1.1702127659574468,
      "waveHitRate": 0.24581647364745798,
      "ballHitRate": 2.3447509440068073,
      "activeMatch": 1,
      "inactiveMatch": 0,
      "movedTicks": 3035.553191489362,
      "movedTickRate": 0.7478776499860792,
      "paddleTravel": 10012.429062255525,
      "movementRate": 2.4224824058002223,
      "blueShots": 1.9361702127659575,
      "pinkShots": 0.9574468085106383,
      "goldShots": 2.234042553191489,
      "blueShotShare": 0.1787901523059601,
      "pinkShotShare": 0.11169510234373922,
      "goldShotShare": 0.5393019793928538,
      "nonBlueShots": 3.1914893617021276,
      "nonPinkShots": 4.170212765957447,
      "nonGoldShots": 2.893617021276596,
      "nonBlueShotShare": 0.6509970817365931,
      "nonPinkShotShare": 0.7180921316988141,
      "nonGoldShotShare": 0.2904852546496994,
      "blueBallHits": 0.0851063829787234,
      "pinkBallHits": 0.06382978723404255,
      "goldBallHits": 1.0212765957446808,
      "blueTowardHits": 0,
      "blueAwayHits": 0.0851063829787234,
      "blueResistGrants": 0.0425531914893617,
      "pinkThreatHits": 0.02127659574468085,
      "pinkEmergencyHits": 0.02127659574468085,
      "blueWavePowerups": 0,
      "pinkWavePowerups": 0,
      "goldWavePowerups": 0.7446808510638298,
      "goldPaddleHits": 1.0212765957446808,
      "goldCenterHits": 0.1276595744680851
    },
    "reviewSummary": null
  },
  {
    "id": "control-0-fx20h9",
    "name": "Strategist",
    "schemaVersion": 1,
    "archetype": "control",
    "personality": "Uses blue wave timing to shape rallies, control ball routes, and keep the court predictable.",
    "generation": 10,
    "lineageId": "control-0-fx20h9",
    "sourceBotId": "control-0-fx20h9",
    "difficultyBand": "absurd",
    "elo": 1409,
    "promotionScore": 1409,
    "selectedCandidateId": "control-0-fx20h9",
    "selectedCandidateGeneration": 10,
    "selectedCandidateTrainingHours": 10.612,
    "selectedCandidatePromotionScore": 1409,
    "metadata": {
      "roleName": "Strategist",
      "designIntent": "Uses blue wave for ball control, tempo shaping, and long-term court management instead of pure rushdown.",
      "styleTags": [
        "strategist",
        "blue-wave-control",
        "ball-control",
        "tempo-manager",
        "control",
        "absurd",
        "active-mover",
        "goal-capable"
      ],
      "reviewState": "active",
      "rosterStatus": "published",
      "rosterVersion": 1,
      "source": "bot-roster.js",
      "publishedAt": "2026-03-18T00:20:04.036Z",
      "lineageRoot": "control-0-fx20h9",
      "sourceBotId": "control-0-fx20h9",
      "trainingHours": 10.612,
      "eloTier": "elite",
      "replacesBotId": "control-0-fx20h9",
      "promotionSeries": {
        "seeds": [
          1337,
          9256,
          17175,
          25094
        ],
        "matchesPlayed": 8,
        "candidateMatchPoints": 5.5,
        "existingMatchPoints": 2.5,
        "candidateWins": 5,
        "existingWins": 2,
        "draws": 1,
        "goalDiff": 1
      }
    },
    "trainingHours": 10.612,
    "controllerParams": {
      "moveThreshold": 0.54,
      "fireThreshold": 0.6
    },
    "mutationProfile": {
      "source": "control-3-awab61",
      "kind": "clone-mutate"
    },
    "network": {
      "type": "mlp",
      "inputSize": 59,
      "layers": [
        {
          "weights": [
            [
              0.6833566381081801,
              -0.6831289117739252,
              0.20146175717430076,
              0.9916732358955347,
              0.860781140931227,
              0.9769759032271703,
              -1.370491518296982,
              -1.5545344442031288,
              1.5297895386271814,
              0.20542183331309374,
              0.21159806166433356,
              2.192982857110882,
              -0.24143215926412806,
              -1.119671248989651,
              -0.7141075978365361,
              -0.16218367322991517,
              -1.3614498292558375,
              -0.4370098541700239,
              -0.22258561148168657,
              0.09669408965306753,
              0.9585203962297317,
              0.8235215922790564,
              -1.0907529660615098,
              -1.6026680723160596,
              0.961913599852825,
              -1.0864419175289328,
              0.43477169439904717,
              0.03385376437223383,
              -0.049218315342390795,
              -0.04998794524592542,
              -0.8966275788871596,
              -1.167139764094519,
              0.0030226143406222733,
              0.785110131591267,
              -1.2576642825209574,
              1.0339415557685585,
              -0.4630968661097732,
              0.6153037393852203,
              -2.00148080912209,
              0.18921209389825966,
              -0.6266283827414988,
              -0.5253140653142425,
              -0.9088953555117479,
              -0.5982512004424554,
              -0.7723831419712005,
              0.7635946454216259,
              0.8041897754557507,
              0.8893149455051891,
              0.10754702589626972,
              -0.5394719653949803,
              -0.2019795261273023,
              -0.36826540934615515,
              -1.0834959385228298,
              -0.22366301399124644,
              -0.1924467279537401,
              -0.9485674914760458,
              -0.7667216283984664,
              -0.2426905852968866,
              0.31725184535461426
            ],
            [
              2.308234948852085,
              0.8806598636565188,
              -1.5418635094904878,
              1.049494955986596,
              0.5450866904363072,
              0.42129772357004436,
              0.4851215638684575,
              0.36930226298049396,
              -0.5314632245322716,
              0.44108192492648196,
              0.31004756856552995,
              0.5586804500333707,
              -1.3762510143156639,
              -0.565195008260107,
              1.5055027545886408,
              1.4525450597684015,
              1.3976233500661188,
              -0.8304203015403576,
              0.0907530350651551,
              -1.1454391241949862,
              -1.7801355272629162,
              0.37459901472360635,
              1.8784687713291295,
              0.5990575598154991,
              -1.347154175206369,
              -0.04056747832417984,
              0.62966766269499,
              0.6723941607166781,
              0.5866644478926004,
              -0.11637551640972468,
              0.9367930041359595,
              -0.803446566766375,
              0.0936661226264645,
              -0.7343693814045908,
              0.9078652474696625,
              0.1455471056388991,
              -0.2851407570176087,
              -1.3830677517176537,
              2.037007655196561,
              2.200465222581904,
              0.33206444292068854,
              1.6407843989954347,
              -0.4662068261523308,
              0.5605840346893489,
              -0.925218814668987,
              1.1218099094913714,
              -0.6488070400711042,
              -0.35654322658780035,
              -0.3192749577140794,
              -1.131450617232584,
              0.07408292453846489,
              0.1576314864766579,
              -0.36669408985123686,
              0.11857771602276156,
              0.6888131403625407,
              0.36723180205005856,
              0.9007982478767302,
              -1.3079984537768035,
              0.364367554583993
            ],
            [
              0.6853935130499318,
              0.9500192841437721,
              -1.2598573876249166,
              -0.3397723427439429,
              0.6660546062561011,
              0.41193590053607376,
              0.6885667830876592,
              1.2011833952814308,
              -1.2336158576790615,
              -1.3888712431506895,
              -0.6694343048134139,
              2.475152358772214,
              0.4581829517174659,
              0.1372848132093857,
              0.6271798030831295,
              0.3302525612492657,
              -0.4060653354925725,
              -2.4444432576287607,
              1.1690290128184535,
              -1.1149018283568346,
              -0.47588104219866023,
              1.1120835922070698,
              -1.6520822730870193,
              2.0072691196321157,
              1.3396560416930328,
              -0.11120358699546577,
              -2.0789667868296844,
              0.4926557367051844,
              -1.7977725549136943,
              -0.9138866185779649,
              -0.11557861703987055,
              -1.0920544687903087,
              -1.6659951217002276,
              -1.4983462104370953,
              -1.1308118633918072,
              0.49826829422589775,
              0.9097448515738841,
              -1.8207264886774932,
              0.966190739160188,
              0.7697388621098823,
              -0.03888874245418247,
              -0.9715433551243567,
              0.38861556543698167,
              0.4153759174286837,
              -0.6536381621982565,
              0.49007527219357655,
              1.4339942110332962,
              0.198655609383995,
              -0.45160329599374527,
              0.5877359021639278,
              -1.1986791435040618,
              1.170590909319961,
              0.30775736953146193,
              1.3061008346205505,
              -0.12796370463996473,
              -0.2310149871174679,
              -0.6152974734407394,
              0.3743506501866124,
              -0.3940654924968757
            ],
            [
              -2.4460313182030484,
              -0.9428983332176731,
              0.8285458275218609,
              -0.8430600666236552,
              0.5064976620796812,
              -0.05654178859287214,
              -0.5188665516869739,
              -0.29197223546901124,
              -0.1905148538553354,
              -0.11378075385237285,
              -0.4639469680901981,
              0.49918090497036427,
              -0.03681376216519634,
              -0.16868909491742262,
              -0.8092581160857318,
              0.17424110207184756,
              0.6106262744407027,
              -0.15847720138316176,
              0.5581897891888498,
              -0.8733945445751286,
              2.4707897246965405,
              0.20743031541848028,
              0.9832089017903455,
              -0.06636171634568838,
              -0.16406393584038842,
              -0.6248354117495218,
              0.5053215297412701,
              -0.6980087281809049,
              0.12201387553216742,
              0.07317798441924225,
              -0.5980725346502038,
              0.19880081682836345,
              -0.3849056963615149,
              2.2982303492709875,
              0.2134656147311907,
              0.6784618105870447,
              -1.3906285776929832,
              -0.7472928759824705,
              1.4892565848247274,
              1.3117712008972808,
              -1.0817506395471599,
              1.197907381973765,
              1.265619549412361,
              0.5209045544303392,
              -0.4567422477100711,
              0.45902476297885136,
              -0.7502347454029008,
              0.8820800349897969,
              -0.12910264185274428,
              0.4755432437149013,
              -0.1093642833379097,
              -1.3789807075692944,
              -0.35154431877165804,
              0.3870744099785114,
              -0.025966441339259627,
              0.043653119016971026,
              1.1391107137803127,
              1.5082224483311033,
              -2.9151450097464373
            ],
            [
              -0.3705562706885645,
              -0.7446702310874205,
              -1.6830033985140378,
              -0.42167048371955007,
              0.5178960448467008,
              1.0531604636471086,
              0.4792553466989933,
              0.42065463788839624,
              0.5426986863968788,
              0.2039023498859366,
              -1.4743037963484698,
              -2.1591223159660364,
              1.2128157389390994,
              -0.7516350514449053,
              0.18692744701638456,
              -0.36025466377686494,
              -0.3650566065070764,
              0.03162366053375751,
              -0.05986782116665901,
              0.31884086653715593,
              0.8748827045690893,
              -0.4825450921836527,
              1.7982337885403297,
              0.8254614991664105,
              -0.8786329885856707,
              0.05240442172715934,
              0.40255695930243157,
              -0.7630426790181409,
              0.5211821178966989,
              0.08249190888831806,
              0.43102999080361665,
              0.9325930041332782,
              -1.4534165582922731,
              -0.3512496731116097,
              1.0768814764444288,
              -0.14578549950965403,
              0.6309175208303572,
              0.06129698848446624,
              1.5528637218887449,
              -0.9980501722455226,
              0.24517680376176268,
              1.7769880462236147,
              -0.3789119945746716,
              0.18662024904801133,
              0.8303225838886504,
              -0.373078728299684,
              0.18617115980785306,
              -0.7027061489639915,
              0.7779764053166186,
              2.0875000105587698,
              -0.1893306516522171,
              0.8324328972304976,
              -0.35883269944602625,
              -0.113838343132253,
              -0.15912917482488018,
              0.45666871209933757,
              0.015150669270250668,
              -0.27201884580828256,
              -2.154258455314355
            ],
            [
              -0.8701253940633634,
              1.3387390981391665,
              -0.8798467223760653,
              1.2567978082376619,
              0.365873629662797,
              -0.04337774198485188,
              0.3720282083786074,
              0.39929245732464025,
              2.3352180160129725,
              0.9158774999732082,
              0.08727059407197714,
              -0.5292226064171527,
              0.5919729142230827,
              -0.20765294324498043,
              -0.7906721632780547,
              -1.5006236613224941,
              0.08818345533392773,
              -0.12393558828816953,
              0.7442039634837078,
              1.8234084395897994,
              0.40889320470888635,
              1.7622230007230333,
              0.7829468827301843,
              2.2082985835253006,
              -2.773398547893666,
              -0.141286871924943,
              -0.515129799116746,
              1.2267931589652303,
              1.581214961461792,
              -0.6281504044158155,
              -0.945185955318637,
              0.8781877940736218,
              -0.4047804301787103,
              1.192201368717018,
              -2.794394977959858,
              -0.23415039910071456,
              -1.4296846565379138,
              0.27753383568164547,
              0.004054466333117512,
              0.4789755913250723,
              -0.39076792086373735,
              0.9933991293460475,
              -0.17569196443934804,
              0.07706281423932729,
              -0.003154029509663637,
              1.1098157374912356,
              -0.49048255824006165,
              -0.37994366568751387,
              -0.04536933938671888,
              -1.6284217816354758,
              -0.5586435085919725,
              -0.8290611772603396,
              0.9701570441810178,
              0.980861532489808,
              -1.1356345490622228,
              1.0127706441998598,
              -0.6378398302474685,
              0.1640042744003617,
              -0.8199462591558062
            ],
            [
              1.0413213160594221,
              -0.29963083014159375,
              1.704939339208582,
              0.8031440785649574,
              2.7804175819859784,
              1.7821506303763104,
              0.4389515735334962,
              -0.323204986657238,
              0.39459203555165184,
              2.918358376918336,
              0.36713435011318,
              -0.69606889596926,
              0.4957065134964773,
              0.511289588543412,
              -1.3938673491046392,
              1.1731196371749792,
              2.6469039321751433,
              0.8708377434049466,
              0.8028767689131507,
              0.034677050402092346,
              -0.09907483150366048,
              0.35371423981871786,
              0.7378147266785868,
              -1.3657770281550536,
              -0.28901538028513896,
              0.018116461143780307,
              0.9872043339972183,
              -0.38425500116060946,
              1.3390677307864491,
              -0.937487094180741,
              -0.502587722329582,
              -0.3187577287684988,
              0.23579880269376843,
              1.3637300937353016,
              -1.0770611391617824,
              1.3623594220921773,
              -0.3432975416243783,
              0.21045626597543332,
              -1.839422569568109,
              2.670638590887662,
              0.39032968559444914,
              0.24139171108566795,
              1.3030120463556245,
              -0.4851024164654324,
              1.1364960558955122,
              0.2943340648242319,
              -0.055273187803124166,
              0.43075759011844805,
              0.6733564383308513,
              -0.2726212033276949,
              -0.05001909358751243,
              0.40443219121369745,
              0.6491723333541838,
              0.7062216548087862,
              1.1936299245868522,
              -1.1583321270955274,
              0.11615523006104003,
              1.0709169215443568,
              0.90366194074
            ],
            [
              -0.16515541275932666,
              1.339027885959216,
              -0.2963083211262424,
              0.14575709468482667,
              -0.025041610945997633,
              -0.30667369959472107,
              1.591166421384636,
              -0.8896601713614303,
              -0.8885689750598713,
              -0.36124316574451054,
              -0.04147891906964289,
              -1.1084251730503685,
              -0.4276319408172272,
              -0.43853514754118095,
              0.46427434440434145,
              -0.5936258105409629,
              1.637093595397162,
              0.4145940048477589,
              0.005384465427783813,
              0.3455318968516454,
              0.20648868777718596,
              -1.3529780240601263,
              0.11677808338030413,
              -0.8749936524667283,
              -0.608293709179322,
              -1.5369412286540385,
              0.42556949887416395,
              -0.6093289053908472,
              -0.5521993551784818,
              -1.1535734166348013,
              1.3114136915177232,
              0.32504829223845544,
              0.5938421082606793,
              -0.7133500566756295,
              -0.41984183630485994,
              -0.44886424113601986,
              0.446529247171766,
              -0.16817878830752134,
              0.04496120677611283,
              0.3925917417380783,
              0.21572080464188179,
              2.2662262322410913,
              1.1142146675019924,
              -1.5635799221070306,
              1.8072324959512018,
              -0.9174930918296669,
              1.2388715288718062,
              -0.08716149778846538,
              -1.2852051658743133,
              -0.632001621286911,
              -0.7844279046119317,
              0.02874006177350904,
              -2.418409278021914,
              1.2485196482070238,
              -0.44690612262171237,
              -0.9307674795012781,
              0.6542428063446124,
              0.7112714492055285,
              -0.7197541695632915
            ],
            [
              -0.06743021034886394,
              0.4924903271991856,
              0.2374507643656702,
              -1.5453510830126087,
              0.9123598442850418,
              -0.8773014334369482,
              -0.7960453899945409,
              0.37493233404290977,
              -0.9052295551151742,
              0.028777058212748653,
              0.6581156179242601,
              -1.2554937701381441,
              1.2846847177788043,
              0.6820855438253051,
              -0.24979460445755708,
              1.5391115291638293,
              -1.9367881034995784,
              -0.2386368516690912,
              1.338942085715197,
              0.4016842758657046,
              -0.8321746555819522,
              0.8018166678479215,
              0.1333447076328664,
              -0.6079213826565868,
              0.19315757584126064,
              0.8207356833071212,
              -0.07646211354894894,
              -1.088336259802926,
              1.0262183596692231,
              -1.6384747682409628,
              -1.6882231442676234,
              0.27191942356356047,
              -0.6076059054700466,
              0.6346005324391979,
              -1.4585231705201565,
              0.8457086920557239,
              0.5019534617109008,
              -0.6442211061616047,
              -0.3969934368071807,
              -0.5455893704048509,
              1.6361371784014975,
              1.0080028445493125,
              0.1424625706814992,
              -0.9121834879376075,
              1.7140533799795938,
              1.0407635816257859,
              0.3283462063805592,
              0.02373713338314848,
              0.9925155032193765,
              -0.9360125214927116,
              2.11441932426696,
              1.6793352107913129,
              -0.02168261214741688,
              -1.4481077794784207,
              -0.8965202799836195,
              -1.4757231969141915,
              -0.549715922068526,
              0.6225289046194235,
              -0.6871002702813883
            ],
            [
              0.28845234245670276,
              0.0179595491379132,
              -1.07727241759707,
              0.43927209119162736,
              -0.06705287965980761,
              0.3636166363533791,
              1.0174625917503244,
              0.04888270543804196,
              -0.1147834866108105,
              -0.5198302429345374,
              2.676190184138804,
              0.8354782020573175,
              0.45213938168743956,
              -1.983490608509363,
              0.9161491723632044,
              -1.3566436681455196,
              0.8065027737646947,
              2.0746216141315217,
              0.24734714413594322,
              1.90324318317688,
              0.04908310387519932,
              0.34409795624132994,
              0.21997069493298893,
              -0.20149755976282535,
              0.6736787893443013,
              1.5627508383931092,
              -0.48587808044421243,
              0.9078973579239026,
              -0.26779055462414325,
              -0.8008197419638352,
              -0.018229919466520972,
              -1.1815412451759295,
              -2.3345298589254897,
              1.9030097926555545,
              -0.24227499649589543,
              -1.887459184013006,
              -0.8254234059433929,
              0.02305640751916878,
              -0.6671207276305775,
              -0.3556193157243217,
              0.31163383391774985,
              -1.0354919999567758,
              -0.9051100635043619,
              -0.10592043383396497,
              -1.7513972510964775,
              0.5159675518119199,
              0.1545193145645633,
              0.2474457733051866,
              -0.11903913433658463,
              -0.127124594179091,
              -1.375026138933086,
              0.05134804224612541,
              -0.9423816881615114,
              -0.4029620395385994,
              0.5621042751437468,
              0.08207684619809856,
              0.32651885494259447,
              0.08431701434355018,
              0.42357761607051336
            ],
            [
              -0.40906782106044925,
              -0.18816265176969538,
              0.07516986854477024,
              1.3997559358774436,
              -0.47899628534799293,
              -0.07659589860607398,
              1.5479379709386614,
              -0.5094578757584689,
              2.4879468851419397,
              -1.5424048149264329,
              -0.038237932690736644,
              -0.360092586465581,
              0.7232704877464282,
              0.8656099251590526,
              0.5682605757146645,
              -0.781546973945263,
              -1.0068215971103367,
              2.069960467779756,
              0.2616316209206643,
              0.6134379559333888,
              0.019823469020323947,
              0.25778593683642076,
              -0.6551222940670991,
              -0.9124663942912318,
              -1.5094066045471142,
              -2.0395280886570624,
              0.8818501109321655,
              0.9851305290431743,
              2.2984771686524996,
              -1.0429373259124013,
              -0.5188725018450517,
              -1.2028247991240935,
              0.7873777720980801,
              0.4025163365938668,
              -0.39858553261729546,
              -0.38103935570126296,
              1.204656080990151,
              -0.9761265083100377,
              -0.22504566103313953,
              -0.22127944068437988,
              -1.3236167194217625,
              -0.12019609145451345,
              0.4490735357075397,
              0.7342915529257679,
              0.7300380928767071,
              0.5128317095689949,
              -1.0828073087037322,
              -2.463154775158895,
              -0.08289226493916199,
              0.20084942761365543,
              -0.8074175038922247,
              -0.7990653395311156,
              -0.26947881799935025,
              0.3178818056182302,
              -2.5685656023997967,
              -1.3133539945735453,
              1.7157263073422804,
              1.2409715115963709,
              -0.4198494477398168
            ],
            [
              0.6138296843757839,
              0.34369592776783514,
              0.21318638499038098,
              0.6430950556286906,
              1.186791470669176,
              -1.2583142921734576,
              0.06358696323917265,
              -1.4030036380809763,
              0.01990358961061192,
              -0.9381872295012966,
              -0.7414493798030799,
              -0.46132588116398887,
              1.099037914453958,
              0.9691589054713577,
              -0.34838474632831373,
              0.2898555437351852,
              0.3351490107890956,
              -0.5605295848338236,
              -0.6418399350771862,
              0.8967932341449816,
              -0.7697628422180182,
              -0.3621455066591168,
              -2.1923083229193225,
              0.5994703999382124,
              0.62344865978386,
              0.5207811579699019,
              -0.5370961766096445,
              -1.0995787434347155,
              -1.0495705073004495,
              0.368251157697683,
              -0.9633475074454485,
              -0.6901368989394414,
              0.9691025471653634,
              2.135318018411797,
              -0.17640276537534572,
              2.429022276084714,
              -0.7426281723166231,
              0.5090129991194553,
              -0.5947697307875515,
              0.04962070383964118,
              0.3219210652008078,
              -1.1008368480173252,
              -2.083683822649282,
              0.6276082525270258,
              -1.0864928773653748,
              -0.27393430508512184,
              -0.37848990977041963,
              2.3422428132785185,
              -0.08889485816634389,
              -0.2887984821144075,
              -0.7858171966653134,
              0.1393681415216812,
              0.33329644943749304,
              0.04471225141029911,
              -0.0793907080257365,
              -0.830849612968182,
              0.09549777387127105,
              1.2434134726222617,
              -1.481218187341875
            ]
          ],
          "biases": [
            0.5944943244272876,
            -0.3642803746946262,
            0.2058478454623051,
            1.019750757903007,
            -1.8016770889631082,
            -0.9107030171378689,
            -0.48751115128393224,
            -0.15885612024397375,
            -1.3871292033142453,
            1.1188925844726172,
            -1.815289663383845,
            2.4671784817318674
          ]
        },
        {
          "weights": [
            [
              0.9876192532671049,
              -0.10187175004971603,
              2.8445612909869435,
              -0.47101688311317585,
              0.7245002031824465,
              -2.268178272624277,
              0.8881445692469699,
              0.7258469136393515,
              0.09818127053197426,
              1.7637286759217283,
              -0.5892046553416742,
              0.7018133108714542
            ],
            [
              -1.0422482318653568,
              -2.0187209509294957,
              0.32475808325104677,
              -2.0880117979107053,
              -1.0449995204676295,
              2.840688994989165,
              -0.5469995751920091,
              0.4282232320688729,
              -0.4088534448168815,
              0.6590585058587806,
              -0.8368554326165898,
              -0.7180234230924442
            ],
            [
              0.9839129853397155,
              -0.27329495649156593,
              -0.17712262697944367,
              0.7126119737988399,
              0.3016587632470754,
              -0.5421645149698305,
              -1.078678248579558,
              0.9588932638964212,
              1.2032032164061608,
              -1.0405166236747456,
              0.31421956897341274,
              -0.7450695329126505
            ],
            [
              1.470324951886155,
              -1.0224525199326044,
              -0.19791134912241531,
              0.5773024788857448,
              -1.1223746205612097,
              0.06733890096792279,
              -0.3279029762964195,
              -1.528059979827016,
              -0.7487193463226158,
              -0.02142690469974262,
              1.0248467277995579,
              -1.3788083875670045
            ],
            [
              -0.629046625941271,
              -1.1196546657896471,
              -0.3652285216152733,
              2.3394685993371453,
              0.17153180563134166,
              -0.93151518671747,
              -0.8280680176097415,
              0.18377302688419941,
              -0.5686750829623497,
              -0.1997166731964529,
              -0.17711905338766315,
              -0.025657505251342638
            ],
            [
              -0.5745632976326666,
              -0.3258003639635999,
              1.1885839255425301,
              -0.294765270152592,
              -0.33522742245584736,
              -0.5184377281095924,
              0.30778088922649843,
              -0.9696497209963506,
              -0.7378974903529072,
              -0.8629919096464688,
              -1.0382428614742971,
              -0.26411866265584477
            ],
            [
              -0.17656389955457644,
              -1.2292271613033607,
              0.26249466425499624,
              2.2872626042053406,
              -0.2366491836277665,
              0.23606064059780113,
              0.8133219373225651,
              1.2362914370005516,
              0.3277387811719905,
              -0.090733166724668,
              -0.9971305026653546,
              -1.662656056118117
            ],
            [
              0.5753843874845949,
              -1.5629294997715653,
              1.2354067218151612,
              -0.33806069238787895,
              0.01584669000696265,
              -0.9057787280088929,
              0.18227043876600008,
              0.8793346093139414,
              0.6623188532542836,
              -0.8444887268693038,
              -1.1754579458005814,
              0.9182660006331983
            ]
          ],
          "biases": [
            -0.8607715938696079,
            1.4231824412079455,
            -0.03446114823653541,
            0.4889957193476193,
            -0.5375037041845816,
            1.246947944385727,
            -1.1781239193929398,
            -1.520666590620811
          ]
        },
        {
          "weights": [
            [
              0.33382164676117293,
              -0.47070378555165715,
              -0.0529725228391717,
              0.5070241869935674,
              -1.2245404436853033,
              -0.908067267181802,
              -0.6362308881107686,
              0.049560588012964424
            ],
            [
              0.02063668543571471,
              -0.2767243263888216,
              -1.0457403284379736,
              0.8310462962084599,
              0.4832376565368265,
              -1.1922441666093901,
              0.9317017416881433,
              -1.0485129330897438
            ],
            [
              0.4666802909079736,
              2.7936462377970166,
              -1.0519064489304653,
              0.5163532760860731,
              0.49722331731301195,
              1.3341508519071024,
              -0.31595758860914297,
              0.7158270621933875
            ]
          ],
          "biases": [
            1.311153867629192,
            0.6447933841960889,
            1.834910286430129
          ]
        }
      ]
    },
    "reviewBlocked": false,
    "profileBlocked": false,
    "roleFitScore": 259.21,
    "promotionBlockReasons": [],
    "metricAverages": {
      "win": 0.9148936170212766,
      "goals": 4.680851063829787,
      "goalDiff": 2.851063829787234,
      "againstGoals": 1.8297872340425532,
      "rally": 4.638297872340425,
      "longestRally": 4.638297872340425,
      "durationTicks": 4228.617021276596,
      "paceScore": 1.9340476976029308,
      "shots": 61.04255319148936,
      "shotRate": 14.516078617646109,
      "powerups": 1.3191489361702127,
      "powerupRate": 0.2800822438752697,
      "ballHits": 8.106382978723405,
      "waveHits": 14.680851063829786,
      "waveHitRate": 0.2587745163933437,
      "ballHitRate": 0.1350056354064873,
      "activeMatch": 1,
      "inactiveMatch": 0,
      "movedTicks": 3572.4893617021276,
      "movedTickRate": 0.8460333937287502,
      "paddleTravel": 12891.830013891285,
      "movementRate": 3.0535376300148465,
      "blueShots": 59.8936170212766,
      "pinkShots": 0.0851063829787234,
      "goldShots": 1.0638297872340425,
      "blueShotShare": 0.9773744767543131,
      "pinkShotShare": 0.0011009215648153535,
      "goldShotShare": 0.021524601680871207,
      "nonBlueShots": 1.148936170212766,
      "nonPinkShots": 60.95744680851064,
      "nonGoldShots": 59.97872340425532,
      "nonBlueShotShare": 0.022625523245686553,
      "nonPinkShotShare": 0.9988990784351848,
      "nonGoldShotShare": 0.9784753983191286,
      "blueBallHits": 14.638297872340425,
      "pinkBallHits": 0,
      "goldBallHits": 0.0425531914893617,
      "blueTowardHits": 10.574468085106384,
      "blueAwayHits": 3.851063829787234,
      "blueResistGrants": 0.9574468085106383,
      "pinkThreatHits": 0,
      "pinkEmergencyHits": 0,
      "blueWavePowerups": 0,
      "pinkWavePowerups": 0,
      "goldWavePowerups": 0.02127659574468085,
      "goldPaddleHits": 0.5319148936170213,
      "goldCenterHits": 0
    }
  },
  {
    "id": "control-0-94ckep",
    "name": "Defensive Specialist",
    "schemaVersion": 1,
    "archetype": "control",
    "personality": "Prioritizes pink wave survival windows, stabilizes losing rallies, and buys time to recover position.",
    "generation": 1,
    "lineageId": "control-0-94ckep",
    "sourceBotId": "control-0-94ckep",
    "difficultyBand": "absurd",
    "elo": 1050,
    "promotionScore": 1050,
    "selectedCandidateId": "control-0-94ckep",
    "selectedCandidateGeneration": 1,
    "selectedCandidateTrainingHours": 0,
    "selectedCandidatePromotionScore": 1050,
    "metadata": {
      "roleName": "Defensive Specialist",
      "designIntent": "Prioritizes pink wave usage to stay alive, blunt dangerous pushes, and extend fair recovery windows.",
      "styleTags": [
        "defensive-specialist",
        "pink-wave-defense",
        "survival",
        "reset-rallies",
        "control",
        "absurd",
        "static-lane",
        "goal-capable"
      ],
      "reviewState": "active",
      "rosterStatus": "published",
      "rosterVersion": 1,
      "source": "bot-roster.js",
      "publishedAt": "2026-03-18T00:20:04.036Z",
      "lineageRoot": "control-0-94ckep",
      "sourceBotId": null,
      "trainingHours": 0,
      "eloTier": "elite"
    },
    "trainingHours": 0,
    "controllerParams": {
      "moveThreshold": 0.46,
      "fireThreshold": 0.63
    },
    "mutationProfile": {
      "source": null,
      "kind": "seed"
    },
    "network": {
      "type": "mlp",
      "inputSize": 59,
      "layers": [
        {
          "weights": [
            [
              0.11085987361148,
              0.38470928657334297,
              0.3233258813386783,
              -0.15768996372353286,
              -0.18694782739039512,
              0.26491560672875497,
              -0.38038751506246626,
              -0.06001568043138832,
              -0.28251286153681576,
              -0.21877734151203185,
              -0.3988405649084598,
              0.11154124669265002,
              -0.2701889578951523,
              -0.02967886046972126,
              -0.03721277466975153,
              -0.11899439999833704,
              -0.2938065418973565,
              0.1941064357990399,
              -0.09365344347897918,
              0.41595251590479165,
              0.09002623921260237,
              -0.17083933101966978,
              -0.1775221360847354,
              0.09329107829835266,
              -0.41940336723346267,
              0.15976242909673602,
              0.3180827002041042,
              -0.25205912722740326,
              -0.2928245600312948,
              0.39290213864296675,
              0.1831069814041257,
              0.02871751820202917,
              0.022399986209347845,
              -0.24397972086444497,
              0.3416276411851868,
              0.44569857472088187,
              -0.3022481671767309,
              0.3088639993686229,
              -0.10746705397032201,
              0.0800244898768142,
              0.44834803605917845,
              -0.33049153599422426,
              0.3990759096806869,
              -0.4421228527324274,
              -0.21578636351041497,
              0.26495294014457615,
              -0.28593493402004244,
              0.37710240518208593,
              0.38996093133464454,
              -0.2677060189889744,
              0.43811412749346346,
              0.04462376679293811,
              0.24927537711337208,
              0.27638342930004,
              0.049926977022551,
              0.44586613231804223,
              0.0787317173089832,
              0.19050132958218455,
              0.23447363746818156
            ],
            [
              0.08629514335189015,
              0.4210252510383725,
              0.11028458022046835,
              0.2681893103057519,
              -0.12726488378830256,
              -0.3440439163008705,
              0.2514135019155219,
              -0.42899334446992726,
              0.33289110325276855,
              -0.290007637697272,
              0.34198761961888524,
              0.27816687219310554,
              -0.2984298085793853,
              -0.41128172592725604,
              -0.3415137026226148,
              0.2589851533295587,
              0.16657534916885197,
              -0.2943503895308823,
              -0.2142502846196294,
              -0.07136399990413338,
              0.24511874711606652,
              0.14101105201989414,
              -0.34821111273486166,
              -0.2822768868645653,
              0.009474132000468672,
              0.30646479839924723,
              -0.44385793120600286,
              0.3179898991249502,
              -0.2623230350436643,
              0.4265630470588803,
              -0.27866223114542665,
              0.16062324929516764,
              -0.38513116976246237,
              -0.37092749211005865,
              -0.11702007099520416,
              -0.11429501725360751,
              -0.3620792221510783,
              -0.44775926540605726,
              0.2250830814242363,
              -0.13970497129485013,
              0.3313140814891085,
              0.15802480734419078,
              -0.32443632697686553,
              0.28018018626607955,
              0.40821310111787174,
              -0.308495533419773,
              0.35553998064715414,
              0.08160682513844222,
              0.32378743041772395,
              -0.30319186009000987,
              0.24400478317402305,
              -0.3612802972784266,
              -0.4259027620078996,
              0.030807539680972697,
              -0.010745765618048608,
              0.4286363822640851,
              0.1869263431057334,
              -0.16565399675164372,
              0.13537822030484678
            ],
            [
              0.4056512390496209,
              0.15206090218853205,
              -0.20457231835462153,
              -0.38983840425498784,
              0.11485327023547143,
              -0.16910509052686393,
              -0.060226879874244334,
              0.1267170348437503,
              -0.3581812325399369,
              -0.44300253661349415,
              0.10593578964471817,
              0.3254876864841208,
              0.3826350295683369,
              0.12881429283879697,
              0.21813110432121904,
              0.15357991196215154,
              -0.41859883822035043,
              -0.4354320720769465,
              -0.08212917339988053,
              0.11939725228585303,
              0.22484962132293732,
              -0.24371314994059504,
              -0.36067058821208775,
              0.21747747072950005,
              -0.1941213184967637,
              -0.3825974698411301,
              -0.091408680123277,
              0.36870348318479956,
              0.17538276028353722,
              0.36573307814542205,
              -0.08884767196141184,
              0.06088893015403301,
              -0.3075806174660102,
              -0.26464802348054944,
              -0.22082411048468203,
              0.2989457708783448,
              -0.326691506523639,
              -0.4403621602104977,
              0.24971336948219688,
              0.22347321999259293,
              0.22415105109103026,
              -0.23713284633122386,
              -0.3931607551407069,
              -0.12800308177247643,
              -0.33237609711941335,
              0.02818246486131102,
              0.31226090288255365,
              0.02024705791845918,
              0.032439527870155874,
              -0.2677727733040229,
              -0.3183498161612079,
              -0.32289616609923544,
              -0.1859603367280215,
              -0.20937023477163166,
              0.02170920674689114,
              0.42124908494297414,
              -0.35376972290687264,
              -0.07099391059018671,
              0.25959482782054694
            ],
            [
              -0.09658116430509836,
              -0.33252336841542274,
              0.2667232854757458,
              0.2803924233885482,
              -0.2963109347037971,
              0.2646778324618936,
              0.358064284035936,
              0.15223020133562387,
              0.21214043428190052,
              -0.09125272140372545,
              0.18788412725552917,
              -0.07383982152678073,
              -0.4395269938744605,
              -0.2844482616288588,
              0.08906762064434588,
              0.16736683468334376,
              0.08808427462354303,
              -0.33164860135875646,
              -0.3500458721537143,
              -0.3890285328263417,
              0.08242832268588245,
              -0.17012364682741463,
              0.26820187163539233,
              -0.17840543508064002,
              -0.16258250428363683,
              -0.307563318265602,
              -0.03812786035705358,
              -0.07787649831734599,
              0.03472193058114499,
              0.07870675809681416,
              -0.39659423602279276,
              -0.16276495065540075,
              0.24899404167663305,
              -0.11587533499114215,
              0.23261572408955544,
              0.3548923306865618,
              0.156651625293307,
              0.40358601899351926,
              -0.4442157468991354,
              0.1636111934669316,
              0.07235199809074402,
              -0.39403698630630973,
              0.25737714932765815,
              -0.4171548148384318,
              -0.2952462048036978,
              -0.2868940850486979,
              0.2428189031314105,
              0.37175040263682607,
              0.30837827268987894,
              -0.2665932107018307,
              0.05613009373191744,
              0.004762657312676311,
              -0.20434265651274472,
              0.36013492445927114,
              -0.3262410018593073,
              0.021224998869001865,
              0.25108621981926266,
              -0.2001696084626019,
              0.377273783669807
            ],
            [
              -0.20148238884285094,
              -0.23482385894749314,
              0.426731123495847,
              -0.07129054237157106,
              -0.06681299256160855,
              -0.25450551349204037,
              0.1791264742612839,
              0.2963077602675185,
              -0.38310545571148397,
              -0.1545004121493548,
              0.04684409962501377,
              0.09018500377424062,
              -0.01721967018675059,
              -0.2079449709272012,
              -0.2523294586921111,
              -0.2738050360232592,
              -0.2326866023009643,
              0.07979964909609408,
              -0.12471960301045329,
              0.31478607191238556,
              0.11136671472340823,
              0.3047830059891567,
              0.38988366443663836,
              -0.368743142997846,
              -0.17042746965307742,
              -0.23717157596256586,
              -0.21890309499576688,
              0.44173090676777066,
              -0.37805310599505904,
              -0.3645391009747982,
              -0.03815174228511751,
              0.2168823250103742,
              -0.42881817002780737,
              -0.07087041058111936,
              -0.42248308821581304,
              0.2471979322610423,
              0.08956680321134627,
              -0.3890712650259957,
              -0.18551964391954243,
              -0.12275388557463884,
              -0.15174914589151742,
              0.022058683075010778,
              -0.16569909097161145,
              0.22954368134960532,
              0.33408168449532244,
              -0.2348547823028639,
              0.21120975092053415,
              0.34208612458314747,
              -0.426526837865822,
              0.2852968888822943,
              -0.34176586128305647,
              -0.04650827846489847,
              -0.23171888496726753,
              0.3125289720715955,
              -0.14200050509534776,
              -0.4140120640397072,
              -0.4399912442313507,
              -0.07133674614597112,
              -0.24645725113805383
            ],
            [
              -0.39788864683359865,
              -0.4298166367923841,
              -0.2709337893174961,
              0.15538849490694703,
              -0.20672032185830178,
              0.05740376163739711,
              -0.3924856284633279,
              -0.23149063987657428,
              -0.0820898532634601,
              0.43362519589718435,
              0.05003540008328855,
              0.17036412111483515,
              0.2039016173221171,
              0.40688677243888377,
              0.3156617752276361,
              -0.2506082126637921,
              0.07947699255309999,
              0.16894857545848938,
              -0.26051102809142324,
              -0.31114250784739855,
              0.39969122246839106,
              -0.09364133644849063,
              -0.1037720489082858,
              0.39922044868580997,
              0.12040729529689997,
              0.2845967227360234,
              -0.0006693561561405659,
              0.4143906486220658,
              -0.05940218064934016,
              0.07354069110006094,
              -0.16004617328289897,
              0.11899332250468433,
              0.435723360395059,
              0.21954824421554806,
              0.32177039079833775,
              -0.26708272914402187,
              0.38408289751969277,
              0.16483389604836704,
              0.18159679714590313,
              0.08619454018771648,
              -0.1630965666146949,
              0.1113217439269647,
              -0.2624629510100931,
              0.37404138087294997,
              -0.2687438651919365,
              -0.39803094849921766,
              0.21696562750730664,
              0.10754559009801597,
              -0.2737331624608487,
              0.13082948948722334,
              0.3574217929271981,
              -0.0624142994871363,
              -0.21665888044517487,
              0.13931214376352727,
              -0.2836569644976407,
              -0.44709029502701014,
              -0.2678778800647706,
              0.09827640778385104,
              -0.40977914824616163
            ],
            [
              0.2368821528274566,
              -0.39284490030258895,
              0.06754826547112316,
              -0.11972829177975655,
              0.4236998119857162,
              0.1714241443667561,
              0.07723205862566829,
              -0.3796109019778669,
              0.006026614783331752,
              0.3641422995831817,
              -0.11658079724293202,
              0.23016045845579355,
              0.06769974699709565,
              0.06834155770484358,
              0.05430658848490566,
              -0.2039984301896766,
              -0.05863679575268179,
              0.3472379746148363,
              -0.39165164523292334,
              0.18472755365073681,
              0.39301809556782247,
              0.26063813525252044,
              0.1578681709477678,
              0.43396637204568833,
              0.32571046405937526,
              0.07134452727623285,
              0.41160732409916817,
              0.38806008459068836,
              -0.0448293968802318,
              -0.18349959687329828,
              0.2879705514991656,
              -0.10826648301444948,
              0.07006820964161307,
              -0.4445430711144582,
              0.1265879728132859,
              0.34710288264323025,
              -0.07152291114907712,
              -0.2579694772604853,
              -0.21662252394016832,
              0.13308829441666603,
              0.3024085178039968,
              -0.07099022339098156,
              0.33018427952192725,
              -0.28427941573318094,
              -0.30133110273163766,
              -0.18694087606854737,
              0.19467026400379836,
              -0.28730656856205317,
              0.44133792018983514,
              0.08502893617842347,
              0.42118955687619747,
              0.24368457708042116,
              -0.05582670697476715,
              0.18423920364584775,
              -0.2642655362840742,
              -0.1012414873810485,
              0.40364463741425427,
              -0.3593758708331734,
              -0.35412943626288323
            ],
            [
              0.11963609231170268,
              -0.41930418857373297,
              -0.15577897089533507,
              -0.4132350171916187,
              0.17161331386305392,
              -0.16136392371263356,
              -0.08796239253133535,
              -0.14067356328014285,
              0.1906831284519285,
              -0.14447175606619567,
              -0.10072317018639297,
              0.027366973785683514,
              -0.1892677194206044,
              0.299644893896766,
              0.25282740702386947,
              0.443943361658603,
              0.04020695728249848,
              -0.11155226365663111,
              0.3069853615248576,
              0.4035320280119777,
              -0.26049977412912995,
              -0.12944745656568557,
              -0.4076509478269145,
              -0.3620458516990766,
              -0.05203047743998468,
              0.036235252604819836,
              -0.42682288081850855,
              -0.07710003484971821,
              0.435404458316043,
              0.14249133341945708,
              0.05384719292633235,
              0.04425247949548066,
              -0.14356361918617042,
              0.0615664942888543,
              -0.20735037275590004,
              -0.12281791807617992,
              0.24252626637462527,
              -0.4411287221359089,
              -0.39358595525845885,
              0.03841839241795242,
              -0.3545377363683656,
              -0.0347396157681942,
              0.4173570487881079,
              0.2049423854565248,
              0.19693276891484857,
              0.039096689759753646,
              -0.4052566561382264,
              -0.21155243162065746,
              0.17196570897940547,
              0.32466776913497597,
              0.2398707549786195,
              -0.32423630522098396,
              -0.08497698598075658,
              0.15735056286212057,
              0.282779478142038,
              0.05255528704728931,
              -0.4143666541669518,
              -0.14423130084760488,
              -0.11469836407341064
            ],
            [
              -0.3152510175481439,
              -0.007393999071791768,
              -0.279215404484421,
              0.020151166222058238,
              -0.3792474672663957,
              0.33361599140334874,
              0.25331956010777507,
              0.07176606932189315,
              0.25863235755823555,
              0.23158255959860982,
              0.09101710505783558,
              0.17729511265642942,
              0.2764783744700253,
              0.25706016523763536,
              -0.3650308575946838,
              0.3011100484756753,
              0.31059297958854587,
              0.35618886358570306,
              0.18183371897321196,
              -0.17329073993023486,
              0.3875554081052542,
              -0.2838308145990595,
              -0.04263828210532666,
              0.11042617550119758,
              0.10150250173173846,
              0.27593893529847263,
              0.1704695880878717,
              0.26371437816414983,
              0.41921996406745166,
              -0.26397635622415694,
              -0.3516771920956671,
              -0.13941628995817154,
              0.21828655572608113,
              0.12658374309539797,
              0.4069692610530183,
              0.2938769959844649,
              -0.12166890897788107,
              -0.2831943557364866,
              -0.43766432753764095,
              0.35761157346423716,
              0.18449362961109728,
              -0.3974084335612133,
              -0.4116388274822384,
              -0.21430334814358504,
              0.3791718017309904,
              0.1813952073454857,
              0.3767199904890731,
              0.1353917063679546,
              -0.20686946357600391,
              -0.01996663296595216,
              -0.19460464208386838,
              0.25060045793652536,
              -0.05243973622564226,
              -0.20706519212108107,
              -0.33763336865231397,
              0.34021511636674406,
              0.3955315305618569,
              0.3499226692831144,
              0.4348366143414751
            ],
            [
              0.33984266461338847,
              -0.00442344001494348,
              -0.13696413380093872,
              0.022711225342936816,
              0.1448546017985791,
              0.013696742872707546,
              0.43040072615258396,
              0.44937700519803914,
              0.2602066721767187,
              -0.19252015266101807,
              -0.3388133664848283,
              -0.36140562349464744,
              0.3446422343607992,
              0.025054675969295205,
              -0.18097725904081016,
              -0.38468668749555945,
              0.4103900257498026,
              0.3845506527693942,
              -0.3976945552742109,
              0.21958952865097672,
              0.35044849771074954,
              -0.3458094112342224,
              0.07647479914594442,
              -0.108261991571635,
              -0.2767251003999263,
              -0.43861224870197474,
              -0.26961871585808694,
              0.15251873577944935,
              -0.42588185041677207,
              0.366545199486427,
              -0.39771871694829314,
              -0.38400055600795896,
              0.14106766926124692,
              0.25833950706291947,
              0.40167416869662703,
              -0.40954070824664085,
              -0.008880332414992155,
              0.3406031624414027,
              0.19816520833410323,
              -0.2507715891581029,
              0.27938623961526904,
              -0.435284024826251,
              -0.40172524235676976,
              0.12899757090490313,
              -0.24459894485771658,
              -0.4494608437176794,
              0.17282454979140313,
              -0.08351718534249812,
              0.14100022700149567,
              -0.1308400502661243,
              -0.30949300336651503,
              0.1735536230262369,
              -0.38775792766828093,
              0.09250157175119966,
              -0.021536099491640925,
              -0.37343290499411524,
              0.05732101255562157,
              -0.034272733912803235,
              0.13743774904869496
            ],
            [
              -0.2815052216174081,
              -0.08989885104820132,
              0.1959751597372815,
              0.4246452397434041,
              -0.22175166341476144,
              -0.2975878652650863,
              0.025366727099753916,
              -0.14382752487435937,
              0.12777651767246426,
              0.07077496857382358,
              -0.3804610358783975,
              0.17278216460254045,
              0.4377739087678492,
              0.13432296845130623,
              -0.08174485915806144,
              -0.049991635233163835,
              -0.18520426265895368,
              0.02212244065012783,
              0.16192482244223358,
              -0.3419623205205426,
              -0.3635940290289,
              0.05271550670731813,
              0.29264452911447736,
              -0.2995758894598112,
              0.297942408034578,
              0.3295360612682998,
              -0.34248546715825795,
              0.25663090366870167,
              0.10813383457716555,
              -0.056524189026094976,
              -0.1807707727421075,
              -0.004804491600953043,
              -0.1612721852492541,
              -0.3585130888503045,
              0.16931246635504069,
              -0.21301485265139491,
              -0.24892283594235778,
              -0.3393017615424469,
              -0.3991891121026129,
              -0.32505014506168667,
              -0.42656638075131925,
              -0.3737587814452127,
              0.06877229826059193,
              -0.26828148986678574,
              -0.3964951221132651,
              -0.02115237826947123,
              0.05135388392955065,
              0.3078674688236788,
              0.34332645137328655,
              -0.046507092216052114,
              -0.13392185415141286,
              0.07535958713851869,
              0.07241645890753716,
              0.3285483210347593,
              0.05639167784247547,
              -0.322420476959087,
              0.1385953873163089,
              -0.00944356278050691,
              0.11862559311557562
            ],
            [
              0.42609281789045783,
              0.4203949589515105,
              0.07451034192927182,
              -0.09836002481169999,
              -0.38859075566288087,
              -0.3192831630818546,
              0.30424754654522984,
              0.1480254170950502,
              -0.085781364957802,
              -0.26578621300868693,
              -0.11067884105723351,
              0.24505595199298114,
              -0.30074392987880855,
              -0.40892760555725544,
              -0.06781207749154419,
              -0.03589176996611059,
              -0.4015808563213796,
              -0.18035297258757055,
              0.04018410046119243,
              -0.10890675920527429,
              0.06533267218619586,
              0.43265994095709176,
              0.2030830534407869,
              0.35446381552610545,
              0.1322835784871131,
              0.2940149340312928,
              0.2570263555739075,
              -0.27625224853400143,
              -0.4446698360843584,
              -0.018258723593316973,
              0.021073224814608695,
              -0.43220998907927427,
              -0.14070233814418318,
              -0.18225075176451355,
              0.3313521818490699,
              0.05262455677147955,
              0.43167761249933395,
              0.15468027940951287,
              -0.015133293368853629,
              0.42214088696055113,
              -0.34622093313373625,
              0.3273020242340863,
              0.3511355296242982,
              0.2615233574761078,
              -0.286416107439436,
              0.3480377762345597,
              0.21589726698584855,
              -0.44209497682750226,
              0.24968976394739004,
              -0.0337801453890279,
              -0.40025799502618614,
              0.236157231987454,
              0.16958877914585174,
              -0.04270993480458856,
              -0.15161196389235557,
              0.028940158942714334,
              -0.4375835138373077,
              -0.18260251111350953,
              -0.25451808341313154
            ]
          ],
          "biases": [
            0.11482911736238748,
            -0.34854541027452796,
            0.07737501428928227,
            0.19287435051519425,
            -0.158169437921606,
            -0.29132476325612516,
            0.1502598937600851,
            0.3815637869294733,
            -0.16626743115484716,
            -0.04636069640982896,
            -0.2660263159777969,
            -0.040200417512096465
          ]
        },
        {
          "weights": [
            [
              -0.26648436775431034,
              0.2854997855145484,
              -0.2326215473236516,
              0.33120302089955656,
              -0.26180560123175384,
              -0.3112976150587201,
              0.0693527704104781,
              -0.07573895570822059,
              -0.23674037265591322,
              -0.15511544845066963,
              0.01107968664728105,
              0.06055529003497213
            ],
            [
              0.008064963016659021,
              0.3002669690409675,
              0.2945400810334831,
              0.08930644793435931,
              -0.1186564099509269,
              0.18449550922960042,
              0.13515349554363637,
              0.120577660552226,
              0.2760528832208365,
              -0.13577665560878813,
              0.016188166150823236,
              0.30354299480095503
            ],
            [
              0.15952403068076818,
              0.025037203752435743,
              0.2728319748537615,
              -0.3209564915159717,
              0.31883393225725737,
              0.3340341954724863,
              -0.34513763259164987,
              -0.18562536558602005,
              -0.2417849261080846,
              0.05444898821879178,
              0.17099718714598566,
              -0.12190269208513199
            ],
            [
              -0.3402903189649805,
              -0.10341159966774284,
              -0.126197471213527,
              0.2675432994728908,
              -0.31892134132795036,
              0.09098104746080934,
              -0.12259445218369364,
              -0.052983666653744876,
              0.19621419203467666,
              0.25876192590221764,
              0.17928986051119863,
              0.3190163247985765
            ],
            [
              0.17482354699168354,
              -0.26485019675455984,
              0.2629304405301809,
              -0.21304105576127766,
              0.12361537027172743,
              -0.09928802114445716,
              0.019990958063863216,
              0.18827668132726103,
              0.16907743206247686,
              -0.20671552417334169,
              0.29187337772455063,
              -0.15050062085501847
            ],
            [
              -0.17679658820852637,
              0.19197986207436768,
              0.29538614267949015,
              -0.2147953173611313,
              -0.07796563452575356,
              0.33516835225746033,
              -0.13910047486424446,
              -0.1849912430625409,
              -0.1824887497583404,
              0.01741515325848013,
              -0.25727947368286547,
              -0.3242164212279022
            ],
            [
              -0.10976930982433258,
              0.25059639909304676,
              0.20529034982901065,
              0.2552473246352747,
              -0.07656298829242586,
              -0.17932069986127316,
              0.3231980379903689,
              0.055919894343242044,
              -0.08888890510424971,
              0.21109004702884704,
              0.15345066643785685,
              0.0717905991943553
            ],
            [
              -0.2931147513678297,
              -0.3090377735905349,
              0.23921414096839724,
              -0.20975891558919102,
              0.23374989349395034,
              0.15796315032057462,
              0.0824374436168,
              0.11743447103071956,
              -0.0804687238531187,
              0.29821146719623354,
              -0.21303430816624314,
              -0.2627016385318711
            ]
          ],
          "biases": [
            -0.08060996455606073,
            0.03584220537450164,
            -0.07399607901461422,
            -0.10449260037858038,
            0.05608223853632807,
            0.11859351671300827,
            0.17388169332407413,
            0.12146455426700413
          ]
