{
  "replayId": "defensive-0-31sl2w-vs-aggressive-0-9aaccq-586993847",
  "createdAt": "2026-03-14T21:16:01.247Z",
  "runtimeVersion": "0.3.5",
  "configHash": "3a06a5c9",
  "seed": 586993847,
  "durationTicks": 1173,
  "matchOptions": {
    "demo": true,
    "skipCountdown": true,
    "difficulty": "spicy",
    "scoreLimit": 3,
    "powerupsEnabled": true,
    "trailsEnabled": false,
    "theme": "neon"
  },
  "botIds": [
    "defensive-0-31sl2w",
    "aggressive-0-9aaccq"
  ],
  "leftBot": {
    "id": "defensive-0-31sl2w",
    "name": "Anchor sl2w",
    "schemaVersion": 1,
    "archetype": "defensive",
    "personality": "Covers the lane early and values survival over flair.",
    "generation": 0,
    "lineageId": "defensive-0-31sl2w",
    "elo": 1015.303769652627,
    "fitnessScore": 93,
    "matches": 11,
    "mutationProfile": {
      "source": null,
      "kind": "seed"
    },
    "controllerParams": {
      "fireThreshold": 0.66
    },
    "network": {
      "type": "mlp",
      "inputSize": 59,
      "layers": [
        {
          "weights": [
            [
              -0.27900967381428926,
              0.27942479301709683,
              0.1293739399407059,
              -0.06230284594930709,
              -0.10705869267694652,
              0.023906383942812682,
              0.0437277348479256,
              0.039604471321217714,
              0.03926117853261531,
              0.1444893815321848,
              -0.27837561699561775,
              -0.040384168317541484,
              -0.0943775495979935,
              -0.2677494028816,
              0.2683230249211192,
              0.05869530227500946,
              0.38510599303990606,
              0.11788270964752882,
              -0.3730519824894145,
              -0.2707451564725489,
              -0.2620110566262156,
              -0.0431771223898977,
              -0.18861552332527937,
              -0.07935521523468196,
              0.20846275021322072,
              0.2039833104936406,
              -0.2780485783936456,
              -0.33980467887595295,
              0.1566363733727485,
              -0.2858503555878997,
              0.22004839698784054,
              -0.26914368134457617,
              0.2724074863130227,
              -0.41919281298760325,
              0.05782803345937282,
              -0.057602220796979964,
              -0.1017535594291985,
              -0.2042346336878836,
              -0.4404983640415594,
              -0.3217521982965991,
              -0.2227065097074956,
              -0.15715670641511678,
              0.06278531206771731,
              -0.1864630432566628,
              0.06397904930636288,
              -0.050483872974291445,
              -0.025515633705072104,
              0.3233809332596138,
              0.41157858192455027,
              0.16698241482954473,
              -0.410660683689639,
              -0.3063321992056444,
              -0.21669884221628308,
              -0.33623953715432436,
              -0.33275020408909767,
              -0.21640028783585877,
              -0.15420744598377498,
              -0.24399782493710517,
              -0.30926434085704385
            ],
            [
              0.2101806151913479,
              0.03466031060088426,
              0.021800088370218875,
              0.08874779676552862,
              0.06329338930081577,
              -0.401895124046132,
              -0.29101866390556097,
              -0.21139130860101432,
              0.30033711986616257,
              -0.24822189698461444,
              -0.19598291425500067,
              0.02306669200770557,
              0.09429047021549196,
              0.08909655183088035,
              0.22349584840703757,
              0.3189781931927428,
              -0.3238795217592269,
              0.3311567309545353,
              0.12990481385495514,
              -0.1677006221842021,
              -0.09387636564206332,
              0.24977859305217862,
              0.3018077897373587,
              0.4209209730383009,
              0.1289453156059608,
              0.07432424041908235,
              -0.013267958024516703,
              -0.13867599754594268,
              -0.43644605730660263,
              -0.11130525546614081,
              0.12079898393712939,
              0.3603761319536716,
              -0.14533692605327816,
              0.10292271045036615,
              -0.28290864599402993,
              -0.28591872153338044,
              -0.007871750160120428,
              0.287716170377098,
              0.3772239019162953,
              -0.3962271853582934,
              -0.422081049811095,
              -0.012857360020279885,
              0.14532221225090325,
              0.041669997735880315,
              0.1666471091564745,
              -0.11841479286085814,
              0.18114354426506907,
              -0.03229189112316817,
              -0.08109865675214678,
              0.15854220986366271,
              -0.3545643491204828,
              0.2042806953890249,
              -0.3989524614298716,
              -0.33940050727687776,
              -0.07434959672391415,
              0.1697318542515859,
              0.09210878738667816,
              0.0748990411637351,
              -0.3032415224472061
            ],
            [
              -0.030067611671984195,
              0.2454624087084085,
              -0.22063792850822211,
              -0.0835217515937984,
              -0.06756497228052467,
              0.34368949695490303,
              -0.34874940023291856,
              -0.25569444852881135,
              -0.05097505522426218,
              0.17707036449573935,
              0.35387238152325157,
              -0.0941611496033147,
              0.3145283420104534,
              -0.12315521424170583,
              -0.10924753260333091,
              0.3605905995005742,
              0.2759574111085385,
              -0.11596240138169378,
              -0.37229658651631325,
              0.009395368513651192,
              -0.34944270201958716,
              -0.18745217530522496,
              0.1766244407510385,
              0.13741865339688958,
              -0.006371952965855599,
              -0.36974656116217375,
              0.07800571059342475,
              -0.1673310154583305,
              -0.4261674078181386,
              0.27734072625171396,
              -0.3798915102845058,
              0.24348532101139428,
              -0.18636024026200176,
              0.3127400847617537,
              -0.3555524728260934,
              -0.2521540112094954,
              -0.2481322426814586,
              0.12428284445777536,
              -0.13407432432286442,
              0.2982362475944683,
              -0.191670559393242,
              0.29851388912647964,
              0.3091183205600828,
              -0.2384495773119852,
              -0.3347230260260403,
              0.23927515977993608,
              0.2651882224716246,
              0.17471847392152995,
              0.10951678238343447,
              0.0038788931211456656,
              0.14658793495036662,
              -0.38882247945293785,
              0.330825446289964,
              0.3778623177437112,
              -0.30270684461575004,
              -0.1729023187654093,
              -0.4340624561067671,
              -0.015969921718351543,
              -0.3943454937776551
            ],
            [
              -0.043604469113051894,
              0.43925559350755067,
              -0.11835585571825505,
              0.04681307128630579,
              -0.4292524739401415,
              0.3414160683285445,
              -0.2732194324722514,
              -0.04700286565348506,
              -0.12542977107223124,
              0.15841245800256729,
              -0.3970067197456956,
              -0.19991910606622695,
              -0.27543730039615183,
              -0.15681525408290328,
              0.14375426326878368,
              0.4076340364990756,
              -0.057381943752989176,
              -0.24187541787978262,
              -0.14470870492514223,
              0.29347639947663995,
              -0.014348234049975872,
              0.33062503980472685,
              -0.24768931986764073,
              -0.0788733555469662,
              0.18965629083104432,
              -0.19760770574212075,
              0.0211600860580802,
              0.03343702799174935,
              0.30424589740578084,
              -0.12138669197447598,
              -0.12480696612037719,
              0.26166668885853145,
              0.4315481946570799,
              0.13694563913159072,
              0.23101202817633748,
              0.29052643475588413,
              -0.2376149178715423,
              -0.14950145368929954,
              0.31451702266931536,
              -0.009945538407191635,
              -0.13874654446262866,
              0.3980052879313007,
              0.09267174219712615,
              0.18261359932366758,
              -0.407269369228743,
              0.08948157224804164,
              0.13521227999590338,
              0.3517109422478825,
              -0.09252749865408987,
              -0.12149340093601495,
              0.39918644896242766,
              -0.2530538527294994,
              0.2198793673189357,
              0.13267440798226746,
              -0.08938566672150046,
              -0.008145577716641128,
              0.2898978016572073,
              -0.404976063547656,
              -0.34396203348878773
            ],
            [
              0.44264287396799773,
              0.0953145198058337,
              0.38582541367504747,
              -0.07887627726886422,
              0.4277674299431965,
              -0.303002151218243,
              -0.14728972928132864,
              -0.3599908655276522,
              -0.02026954258326441,
              0.040831659478135406,
              -0.06517595616169274,
              0.43012590429279957,
              -0.07642254112288356,
              0.2558818934485316,
              0.18347502029500903,
              -0.20187219637446105,
              -0.1255486847134307,
              -0.36630809304770084,
              -0.35373396989889444,
              -0.432408235128969,
              0.05386727387085557,
              0.1015941318590194,
              -0.06299286873545498,
              -0.18631584781687707,
              -0.19693341033998876,
              -0.2096001575002447,
              0.10957937256898731,
              -0.309898413810879,
              0.2846098617883399,
              0.1367497676750645,
              0.003298807376995683,
              -0.4107896262779832,
              -0.054134689900092785,
              0.09977178939152509,
              0.35829286901280283,
              -0.1692450909409672,
              0.4467266981257126,
              -0.04855500804260373,
              -0.01625954476185143,
              -0.31501228020060806,
              0.002920526429079473,
              0.319109193328768,
              -0.04376602526754141,
              -0.2301528650801629,
              0.08207847713492811,
              -0.00835783809889108,
              0.29466204419732095,
              -0.2513699635863304,
              0.10544712992850691,
              -0.13627422207500786,
              -0.3086784739047289,
              0.028625152143649756,
              0.2737707850523293,
              -0.22607566975057125,
              0.4499884755117819,
              0.18901123108807952,
              -0.3380932820029557,
              0.1265643444377929,
              0.25750190746039153
            ],
            [
              -0.32551066274754703,
              -0.3973770850338042,
              -0.024591358727775514,
              -0.24280746267177164,
              0.27158854105509816,
              -0.414005465595983,
              -0.058105387492105365,
              -0.40718171442858875,
              -0.05303129721432925,
              -0.02029150484595448,
              -0.12876472561620175,
              0.3146241010632366,
              0.35951873010490093,
              0.24104668004438282,
              0.33402633983641866,
              -0.00739864013157785,
              -0.1149944615084678,
              0.02589820723515004,
              -0.27930065493565054,
              -0.2997636369662359,
              0.303504546568729,
              -0.07932177605107427,
              -0.08559576384723187,
              0.3004850606666878,
              -0.18088386640883983,
              -0.14265849078074097,
              -0.43527121141087266,
              -0.16662830498535186,
              -0.43022086350247263,
              -0.0885042792186141,
              0.4394907205598429,
              -0.0940938787534833,
              -0.33547455018851907,
              0.4147579167969525,
              0.20186676322482527,
              0.15853190703783185,
              -0.0781848169863224,
              -0.2144746124278754,
              0.39073028611019256,
              0.12108929576352238,
              -0.3967312015593052,
              -0.2870937545550987,
              -0.39889527882914994,
              0.17162732840515674,
              0.269158974965103,
              0.06010784301906824,
              -0.23606790751218795,
              0.21597138522192835,
              -0.02054296089336276,
              -0.03489153860136867,
              -0.015528394072316588,
              -0.12820698728319257,
              -0.2971371583873406,
              0.040833786805160345,
              0.31921941933687775,
              -0.3242250671843067,
              -0.13753945883363486,
              0.08579038849566133,
              -0.4241869711317122
            ],
            [
              -0.3895915997447446,
              -0.2370250445790589,
              0.3968541619833559,
              0.3885804765159264,
              -0.16463364525698126,
              -0.07314159641973675,
              -0.03129469065461308,
              -0.2361599385039881,
              -0.28077617960516366,
              -0.14188700700178744,
              -0.16863277719821781,
              0.18107278256211431,
              -0.2334337714361027,
              0.07938948422670365,
              -0.14238630691543222,
              0.0946105826413259,
              -0.048375808820128444,
              0.3269426029874012,
              -0.4418073094915599,
              0.04728387629147619,
              0.14894188495818525,
              -0.3700448399875313,
              0.367493315320462,
              0.40309749150183055,
              -0.1246332222595811,
              -0.36795884873718027,
              0.05731709401588887,
              -0.15883665962610394,
              0.10922888140194119,
              0.24269876279868186,
              0.13819325650110842,
              0.3133853234583512,
              -0.14694986615795644,
              -0.15234019097406418,
              -0.05772485830821097,
              -0.43486139355227355,
              0.17868503106292338,
              0.31626698195468633,
              0.30638677859678864,
              -0.34429427138529717,
              0.13447945271618664,
              0.41074927705340086,
              -0.3762729676673189,
              0.09134288197383285,
              -0.1007710981182754,
              0.21651277507189662,
              0.2690797207178548,
              -0.1794722246238962,
              -0.20648308298550547,
              0.23763661400880665,
              0.25801777734886855,
              -0.06918539239559322,
              0.41329732511658224,
              0.12633351352997124,
              0.3913295483915135,
              -0.4138464675983414,
              0.4346927310107276,
              0.08059928705915809,
              -0.43841941002756357
            ],
            [
              0.4107659283326939,
              0.3287693813676015,
              0.3813748110551387,
              0.29670436510350556,
              0.21663422549609096,
              -0.3342317727394402,
              0.3664906949037686,
              0.1417956023477018,
              -0.3232908852165565,
              -0.2674632943700999,
              0.18384592181537301,
              -0.43018343579024076,
              -0.2384966507088393,
              -0.4117173258913681,
              0.09394387810025365,
              -0.09799220259301365,
              -0.28662355430424213,
              0.3052094965009019,
              -0.43607691200450066,
              -0.21264993832446635,
              -0.4190550054889172,
              0.26781542964745314,
              -0.36130259167402984,
              0.06228297748602927,
              -0.2898473166162148,
              -0.2581870813155547,
              0.2791755774524063,
              0.10477770252618938,
              -0.31991878857370465,
              0.30717877834104,
              -0.4049484097631648,
              0.15129902574699372,
              -0.10478067118674517,
              -0.09100614215712995,
              0.42684417336713526,
              0.3810932801105082,
              0.16045006890781224,
              -0.15564231653697788,
              0.40355999779421836,
              0.3737422785256058,
              -0.28748591677285734,
              0.09617255197372288,
              -0.32667809987906365,
              0.42305122723337263,
              -0.04802323181647807,
              -0.024834990059025588,
              -0.34649623464792967,
              0.17558627121616155,
              -0.10003622397780419,
              -0.4176714971428737,
              -0.4066270910203457,
              0.055249551543965936,
              -0.27491113543510437,
              0.38480780997779224,
              -0.1787770308321342,
              -0.1586780124111101,
              0.2980509216198698,
              0.23396507597062738,
              0.07772981773596258
            ],
            [
              0.2687930854037404,
              0.009934814600273968,
              -0.33102166014723483,
              0.33482692285906523,
              -0.3669660072773695,
              -0.35866186742205175,
              0.11938264912459999,
              -0.21845002588815987,
              0.08688121335580945,
              -0.21226626173593105,
              -0.3571193971205503,
              0.16946009933017195,
              0.3862730347551406,
              -0.36964152900036423,
              0.0788210614817217,
              0.1618602476315573,
              0.1614923644345254,
              -0.3630213206168264,
              0.14486833701375873,
              -0.1377836873754859,
              -0.05795717092696578,
              0.18776670747902244,
              -0.1962314701639116,
              -0.31439074992667887,
              0.25331237765494735,
              0.33227267616894096,
              0.37834731603506955,
              0.18090553551446648,
              -0.379672022187151,
              -0.3129984950646758,
              -0.07393911543767899,
              -0.02308077800553292,
              0.2113101954571903,
              -0.12977497754618525,
              -0.07691416991874576,
              -0.07003749122377485,
              0.10067747980356216,
              -0.09004761264659465,
              0.23074816984590144,
              0.36599910424556586,
              -0.39934616822283714,
              0.14236646632198244,
              -0.16121376799419523,
              0.04240441527217627,
              0.11181738681625575,
              0.39565651542507113,
              0.2959548431681469,
              -0.061296770721673964,
              -0.028693918115459384,
              0.3238020476186648,
              -0.31307920336257666,
              0.33303682871628554,
              -0.24914474138058723,
              -0.28936173263937237,
              -0.003971278876997531,
              0.07146828356198967,
              -0.29268354519736023,
              0.41766642630100254,
              -0.01675911583006382
            ],
            [
              -0.3644022150663659,
              0.3846416854765266,
              -0.37865966556128117,
              0.024483542726375162,
              0.027256300603039563,
              0.3891005918383598,
              0.3015447090379894,
              0.3834739528829232,
              -0.19950542917940767,
              -0.4153977596433833,
              0.3063875516178087,
              -0.18040077290497722,
              0.25849613340105865,
              -0.36824941264931116,
              0.4229365948587656,
              -0.06513700797222555,
              0.3215044275624678,
              -0.4342027446487919,
              0.361482724850066,
              -0.17401100755669177,
              -0.2457011617720127,
              -0.06902971509844065,
              0.3373630107846111,
              0.3964713675901294,
              -0.2872551556443796,
              -0.34117618727032095,
              -0.04695743909105659,
              0.19087902568280699,
              -0.2560934778302908,
              -0.20183247139211744,
              -0.21224032267928125,
              -0.447940979199484,
              0.14881925331428647,
              -0.15391374786850065,
              -0.44669567376840863,
              0.01906837332062423,
              -0.32306247667875143,
              -0.13853008474688977,
              -0.060828072507865726,
              -0.20866827678401023,
              0.3301644722465426,
              0.309945963928476,
              -0.2598779496503994,
              -0.1937214489094913,
              -0.3910478732781485,
              0.4157242265995592,
              0.00006765599828213453,
              0.3051076723029837,
              -0.18283107031602414,
              0.041271913703531025,
              -0.06165389930829406,
              -0.007080006273463369,
              0.14433843791484832,
              -0.3598902751458809,
              0.3738976859254763,
              -0.42667169831693175,
              -0.18711438314057888,
              0.0026033514412119986,
              0.29287253762595356
            ],
            [
              0.3855213559465483,
              -0.3626942409435287,
              0.0061271741520613435,
              0.2478416152764112,
              -0.3757100271061063,
              0.42524406029842793,
              -0.34701490618754177,
              0.07737798211164773,
              0.04295994874555618,
              0.42597832779865713,
              0.4130093709100038,
              0.16846264426130803,
              -0.30202015426475554,
              0.14325144316535443,
              -0.4243450096109882,
              -0.28601039985660465,
              -0.3800844914512709,
              -0.27263436452485623,
              -0.1624591576633975,
              -0.12874544200021773,
              -0.007221264392137528,
              0.09902217881754041,
              -0.2749072793405503,
              0.16351212104782462,
              -0.1748903821455315,
              0.16618744265288116,
              0.024042023462243378,
              0.15162913254462182,
              -0.27394391410052776,
              0.19052118295803666,
              -0.26485555835533886,
              -0.44753751922398805,
              -0.39666063599288465,
              -0.1826359536498785,
              0.1382078996859491,
              -0.38224229381885383,
              -0.42807436287403106,
              0.215763078792952,
              0.30151063911616804,
              -0.19926652230788022,
              -0.06297555319033564,
              0.11581793886143714,
              -0.12940525682643056,
              0.3856895006960258,
              -0.3411874309647828,
              -0.4093229067977518,
              0.13174112183041872,
              -0.07940497188828886,
              0.22436771113425494,
              0.39195899160113185,
              -0.10375762511976064,
              0.340095099247992,
              0.09399323975667358,
              0.24562291335314512,
              0.21201263058464975,
              -0.3096409213263542,
              0.26719325815793127,
              0.25863101247232406,
              0.33041476509533824
            ],
            [
              -0.13828363395296037,
              0.11512675140984356,
              0.19992376053705813,
              0.3698596143862233,
              0.31965234777890145,
              0.3775355268269777,
              -0.01187122198753059,
              0.005688877729699016,
              0.18653628809843212,
              -0.17677913380321117,
              0.3306457535829395,
              0.15069178473204375,
              -0.2473245136672631,
              0.18213824797421693,
              0.3986298587406054,
              0.28010453036986294,
              -0.15277269969228655,
              -0.007178949611261487,
              0.03186480822041631,
              0.23154595813248308,
              -0.023730689403600992,
              0.02611440250184387,
              0.3173396763391793,
              -0.0022787249414250254,
              0.17254051622003316,
              -0.437752202572301,
              -0.25315022114664315,
              0.09557507776189596,
              -0.3057183664524928,
              -0.010857864562422038,
              -0.43246029953006654,
              0.20818627334665507,
              0.2495389240561053,
              0.037161656585522,
              0.23792959190905094,
              -0.2973053951282054,
              -0.19682719465345144,
              -0.23312789043411614,
              -0.26283118436113,
              0.0844143063062802,
              -0.4130689371144399,
              0.32860793648287656,
              -0.06411315996665508,
              -0.43802467728964983,
              -0.12048327850643546,
              0.31946460383478553,
              -0.4097211729269475,
              0.027954101585783066,
              0.08078030536416918,
              0.03743360869120806,
              -0.2856405140133575,
              0.0250579520361498,
              0.40522170171607286,
              -0.2584456475218758,
              0.08037120059598238,
              -0.24704353823326528,
              -0.3366563645889983,
              0.4135727835819125,
              -0.011337635479867459
            ]
          ],
          "biases": [
            -0.3076563270064071,
            0.1731976519804448,
            0.12871004585176707,
            0.34850336078088734,
            -0.08914025465492159,
            -0.13131735124625266,
            -0.04005550257861614,
            0.44966701443772766,
            0.2923925148323178,
            0.37987827316392214,
            0.2465884645935148,
            -0.2086950770812109
          ]
        },
        {
          "weights": [
            [
              0.20296611161902545,
              -0.20536371103953568,
              0.18373972007539122,
              0.14573879800736902,
              -0.022808192996308208,
              0.13003591108135878,
              0.07754515623673797,
              0.22323961318470537,
              -0.011724198749288916,
              0.3442317352397367,
              0.24185697205830364,
              -0.15784497931599617
            ],
            [
              -0.005752714863047004,
              0.27502160929143427,
              0.22758781143929807,
              0.08274576850235461,
              0.0330618639010936,
              0.022874345211312173,
              0.289259122335352,
              -0.25029832997824997,
              0.2584159531164914,
              -0.2628165420843288,
              0.32702792899217453,
              0.2098107609665021
            ],
            [
              0.34732942751143125,
              0.25857630257960407,
              -0.23445416926406323,
              -0.06958413366228342,
              0.18284904519096015,
              -0.14589130382519214,
              0.19702340227086096,
              0.03771533684339374,
              -0.15407946549821644,
              -0.11090732633601873,
              -0.14671118380501866,
              -0.06265793491620571
            ],
            [
              0.14702569709625093,
              0.2876228791894391,
              0.08218464276287704,
              0.34925719541497524,
              0.17605512137524781,
              -0.05552393612451851,
              -0.08285001665353775,
              -0.11544334897771477,
              -0.03881044522859156,
              -0.027807024284265933,
              -0.1435703317634761,
              0.18514258845243603
            ],
            [
              0.2261290562339127,
              -0.2906249424209818,
              0.3404029922792688,
              -0.3091519614914432,
              -0.32100267459172754,
              0.03636370853055268,
              -0.21131520508788526,
              -0.23554139439947902,
              -0.3047637198353186,
              -0.18499002787284552,
              0.274559463490732,
              0.3203590297140181
            ],
            [
              -0.22676365352235733,
              0.20659761312417685,
              -0.22416560712736097,
              0.0007209614850580692,
              -0.30144222697708756,
              -0.028704260638915,
              0.004821587493643164,
              0.14129477806854993,
              -0.32121765217743814,
              0.03478356278501451,
              0.08591426773928106,
              -0.23674898867029695
            ],
            [
              -0.13723485553637146,
              0.2942051407881081,
              -0.09267275873571634,
              -0.05304269511252641,
              0.03138943365775049,
              0.009879125677980482,
              -0.16158141382038593,
              -0.03211014170665294,
              0.3278605342376977,
              0.12232982099521904,
              -0.1294421494472772,
              -0.13930881111882626
            ],
            [
              -0.13102584835141898,
              0.2911837088409811,
              0.061507180915214114,
              0.1654056695755571,
              -0.03623323633801192,
              -0.06865535713732242,
              0.22356685712002217,
              -0.011435490963049232,
              0.3127222230425104,
              -0.06217895247973501,
              0.2557193476008251,
              -0.24146210304461418
            ]
          ],
          "biases": [
            -0.2299831690499559,
            0.3285415686899796,
            0.02521811577025801,
            -0.29637690985109655,
            -0.0767660993617028,
            0.295764734246768,
            -0.07792599874082952,
            0.31339306398294864
          ]
        },
        {
          "weights": [
            [
              -0.007942973054014146,
              -0.17177452356554568,
              -0.07938984234351665,
              0.1235904567874968,
              0.21425873902626336,
              -0.06981623009778559,
              0.17249362473376095,
              0.10945955466013402
            ],
            [
              -0.13343944202642888,
              0.19598895264789462,
              0.05648919311352074,
              -0.1430792025057599,
              -0.21654778788797557,
              -0.2438924484886229,
              0.036071359645575285,
              -0.17885926458984613
            ],
            [
              0.02831273025367409,
              -0.00680942926555872,
              0.01458327833097428,
              0.09893086063675582,
              -0.02603767195250839,
              0.07072975928895175,
              0.027853201259858906,
              -0.07245468453038484
            ]
          ],
          "biases": [
            0.07448662852402776,
            0.026684828219003975,
            0.042484876001253724
          ]
        }
      ]
    }
  },
  "rightBot": {
    "id": "aggressive-0-9aaccq",
    "name": "Volt accq",
    "schemaVersion": 1,
    "archetype": "aggressive",
    "personality": "Pushes pressure, spends charge, and looks for quick finishes.",
    "generation": 0,
    "lineageId": "aggressive-0-9aaccq",
    "elo": 1047.7367119088533,
    "fitnessScore": 847.6,
    "matches": 11,
    "mutationProfile": {
      "source": null,
      "kind": "seed"
    },
    "controllerParams": {
      "fireThreshold": 0.54
    },
    "network": {
      "type": "mlp",
      "inputSize": 59,
      "layers": [
        {
          "weights": [
            [
              -0.25631650832947345,
              -0.18849607177544386,
              0.012607593974098564,
              -0.2126441717846319,
              -0.11966728074476123,
              -0.34546769466251137,
              -0.005881665693596006,
              -0.3954645979218185,
              0.14922719215974212,
              -0.08533204172272235,
              0.2792686922242865,
              0.08447562097571791,
              0.25462187840603295,
              -0.004065158916637302,
              0.09551193835213781,
              -0.22519410329405218,
              -0.21407742127776147,
              -0.38603774048388007,
              0.1086603710660711,
              0.2528240842279047,
              -0.24757552798837423,
              -0.238472370011732,
              -0.2203599801985547,
              0.17531446348875762,
              -0.1440011157654226,
              -0.41112675438635055,
              -0.15733553683385254,
              -0.3371493126964197,
              0.25689230652060363,
              0.15865070333238693,
              -0.014988081716001035,
              0.3968583575449884,
              -0.10981170425657183,
              -0.32288592823315415,
              0.26101235349196944,
              -0.0038358623161911967,
              0.10179186095483601,
              0.42235230600927026,
              -0.15049934796988965,
              -0.01389102847315371,
              -0.09515543400775642,
              0.059407231165096164,
              -0.3512569546932355,
              0.35995551191736014,
              -0.33768451313953846,
              -0.19936809148639442,
              0.11473453617654741,
              -0.17469710404984654,
              -0.04906950371805579,
              0.35237065837718545,
              -0.4023103140760213,
              0.1124133066041395,
              -0.18178589288145305,
              0.4489532735897228,
              0.2359189753420651,
              -0.3805732375010848,
              -0.25273392009548845,
              -0.3280373231275007,
              0.17236057058908047
            ],
            [
              0.44938152115792035,
              0.3439907821593806,
              -0.15041698508430273,
              -0.3708484765375033,
              0.06701517873443663,
              -0.3823451508767903,
              -0.11988579884637147,
              -0.2778882805723697,
              -0.17514591997023674,
              -0.02843587703537196,
              0.44488286739215255,
              0.34925667447969316,
              0.06140331435017288,
              0.2967221422819421,
              0.061231275997124614,
              0.1887985526584089,
              -0.4368466626154259,
              0.3437429391313344,
              -0.4155523028690368,
              0.3477819104678929,
              -0.053510005306452516,
              0.04106650489848107,
              -0.13241366813890637,
              -0.04040857201907784,
              0.2857995652360842,
              -0.2763856500852853,
              -0.38882123411167413,
              -0.13305074244271964,
              0.05774442146066577,
              -0.10987988600973041,
              0.11345692479517311,
              -0.027396182832308113,
              0.3104753657709807,
              -0.4416288151871413,
              -0.42738464288413525,
              0.19330095816403628,
              -0.06807510433718562,
              -0.18391651210840793,
              0.016837831120938063,
              0.2226259250426665,
              -0.0008519992930814624,
              0.0386412768624723,
              0.21210758287925274,
              0.07581550357863308,
              -0.03259109111968428,
              0.2878484611166641,
              -0.3472093405667693,
              0.4154588989214972,
              0.3571402994915843,
              -0.3098856081487611,
              0.06916708045173436,
              0.3370291283586994,
              -0.22741230041719973,
              -0.1459506334969774,
              -0.2592098227003589,
              0.15214860979467631,
              0.36254205722361804,
              -0.21551942818332465,
              0.20711384215392173
            ],
            [
              0.18274793608579784,
              0.36192741855047644,
              -0.3729611645685509,
              0.07123680536169559,
              -0.30550861917436123,
              -0.1007077225483954,
              -0.2978671714430675,
              0.1740846693981439,
              -0.36495004619937393,
              -0.29052535160444676,
              -0.24563951266463846,
              0.1732474316842854,
              0.09200418207328767,
              -0.22043385389260947,
              -0.4308126642135903,
              0.4014901863411069,
              -0.43518197243101897,
              -0.10957618514075876,
              0.35926247625611724,
              -0.3079929524101317,
              0.3550958091393113,
              -0.2130029434338212,
              0.33941811115946624,
              -0.40953410665970297,
              0.2750596353085712,
              0.09153992081992328,
              0.2798933080863208,
              0.4367339264368639,
              0.39882495109923183,
              0.3311234283959493,
              -0.28016336378641427,
              -0.039278639922849835,
              -0.38390099073294554,
              -0.04669168037362397,
              -0.34278150235768406,
              -0.049028599192388354,
              0.356584679055959,
              0.1617646710947156,
              -0.14807716466020793,
              0.2002786067314446,
              -0.34732600513380024,
              0.37708248768467456,
              0.15749683796893807,
              -0.3948134344769642,
              0.1599881818285212,
              -0.40185513838659975,
              0.4303358560893685,
              0.391116500319913,
              -0.27899620262905955,
              -0.014258481888100505,
              -0.4353067096089944,
              -0.05859197478275746,
              -0.3882327230880037,
              -0.08478116523474455,
              -0.20476894732564688,
              -0.30433070319704714,
              -0.09700341294519603,
              -0.2983952747192234,
              0.05887322241906077
            ],
            [
              0.20315906556788832,
              0.019822532124817372,
              0.19489997047930957,
              -0.008364244387485087,
              -0.015561881032772363,
              0.42542849339079114,
              -0.2526512204669416,
              0.3342876343522221,
              -0.23696365761570634,
              0.10396277576219291,
              0.2674967840546742,
              0.2910308708902449,
              -0.04172821110114455,
              0.15654909051954746,
              0.38579283929429947,
              -0.23551139063201845,
              -0.12170837160665542,
              0.30742376879788935,
              0.37311602253466847,
              -0.34458294496871533,
              -0.11949491340201349,
              0.22773876716382802,
              0.27499816368799657,
              0.05302238913718611,
              0.07472881099674851,
              -0.06586572979576887,
              0.1951578393112868,
              0.10438291635364294,
              0.4365937405731529,
              -0.36581251679454,
              0.3127231535268948,
              -0.4463986071757972,
              -0.10504470344167204,
              -0.2014685595408082,
              -0.3025711931521073,
              -0.14084990595001728,
              0.3869557095458731,
              -0.3473890582099557,
              -0.09017255811486394,
              -0.17342562738340347,
              -0.04348185108974576,
              0.3040490058716387,
              0.20101018615532668,
              0.24505673318635673,
              0.390197431971319,
              -0.390976495295763,
              0.2281116153812036,
              -0.36472469328437,
              -0.18325853794813157,
              0.06592551707290113,
              0.3311707628890872,
              0.09322799148503691,
              0.36044387554284185,
              -0.3754028454422951,
              0.28388396529480814,
              -0.11729807294905185,
              0.4147966026328504,
              0.05058650393038988,
              0.10504718804731965
            ],
            [
              -0.44035844870377333,
              -0.24251136230304837,
              -0.38844325658865275,
              0.2180325840599835,
              0.14847410623915494,
              0.1282122685108334,
              -0.4245382986031473,
              0.37335608527064323,
              -0.318661905429326,
              0.0786500352434814,
              0.23045864906162025,
              -0.04831749466247857,
              -0.026830597152002155,
              0.37647937790025027,
              -0.3599183197366074,
              -0.41694693630561236,
              -0.1704498516395688,
              0.03386094274464995,
              -0.36141221921425315,
              -0.026277079735882582,
              -0.14270690674893557,
              0.021086524170823396,
              -0.19625429345760495,
              0.16660624234937133,
              0.08521213294006884,
              -0.38236097318585965,
              0.23665749749634415,
              0.21386584213469179,
              -0.282110114232637,
              0.3437686017947272,
              0.0893245154991746,
              0.245954910479486,
              -0.22489594873040916,
              0.4297010057140142,
              0.07181196736637503,
              0.27985032149590555,
              -0.03517601285129786,
              -0.07876101834699512,
              0.22174163090530782,
              0.4444211385212839,
              0.0410739115672186,
              -0.4055922870291397,
              -0.4277520328061655,
              0.1254694329807535,
              0.06361234670039266,
              -0.08753130894619972,
              -0.061142411269247535,
              -0.19426436279900372,
              0.35490957980509846,
              -0.2709483436541632,
              0.25950945750810206,
              0.07223451293539256,
              0.000524685555137694,
              -0.13590075422544032,
              -0.2147316541755572,
              -0.007419284130446613,
              0.3394208266865462,
              -0.12405232954770327,
              0.04879451673477888
            ],
            [
              -0.3684338998049498,
              0.10462530297227204,
              0.23261368812527508,
              0.21815125085413456,
              0.4060493140714243,
              -0.02350601248908788,
              -0.3675241391407326,
              0.04173607709817589,
              0.27801406108774246,
              0.06929578143171966,
              0.26372904314193873,
              -0.2999840168980882,
              0.2336690937867388,
              0.38897948486264794,
              -0.3654551413608715,
              0.002082910900935531,
              0.019768797629512846,
              0.24648486867081373,
              0.4289537447970361,
              -0.03600278010126203,
              0.09339570896700025,
              -0.4349661436630413,
              -0.2348106276942417,
              0.03878077792469412,
              -0.43037536586634817,
              -0.017581331706605852,
              -0.3319532062159851,
              -0.1579012478236109,
              -0.21757151442579925,
              -0.3384779128711671,
              0.4378249516244978,
              0.2580695288954303,
              -0.301420735870488,
              -0.42968170281965284,
              0.15221700172405692,
              0.01834044777788222,
              -0.04965497106313706,
              0.11645349038299173,
              0.05065602029208094,
              -0.23690388752147556,
              0.21647207695059478,
              0.35419382562395185,
              -0.2675973230972886,
              -0.12626052915584296,
              0.04986714322585613,
              -0.2794339093845338,
              0.08594882972538471,
              0.3443216674262658,
              0.2130282542668283,
              0.15201937027741225,
              0.14929385553114116,
              0.14108633743599058,
              0.28109060029964894,
              0.17036308427341282,
              -0.20394800235517324,
              -0.003621925343759358,
              -0.30438383838627486,
              -0.286129642277956,
              0.3688745959661901
            ],
            [
              -0.034802765445783736,
              -0.27585518625564875,
              0.3309821769827977,
              0.05676720009651035,
              0.0357817901764065,
              -0.01623997155111283,
              -0.3525061084656045,
              0.3865145731251687,
              -0.3859333631582558,
              0.17046947702765466,
              -0.38962775110267106,
              0.15243526271078736,
              0.23766560722142457,
              0.4013608682435006,
              -0.28992600194178525,
              0.0921740161953494,
              -0.16829071445390584,
              0.304881204594858,
              -0.1089212766615674,
              0.4453057626960799,
              0.3389993831282482,
              0.06065294060390443,
              0.04973907235544175,
              -0.35059797198046,
              -0.21019308746326715,
              -0.10344144380651414,
              0.27906667012721303,
              0.17916585474740715,
              -0.28284727747086436,
              0.36069700901862234,
              -0.27408621346112344,
              -0.3106136887567118,
              -0.218378350767307,
              -0.31050796341151,
              -0.009784760512411594,
              0.053548493329435586,
              -0.11643348068464547,
              -0.26699837555643174,
              -0.11435210555791855,
              0.035657487390562896,
              0.07831023603212088,
              -0.021477383840829135,
              -0.11539383970666676,
              0.1905566796893254,
              -0.43317583242896945,
              0.0314729253295809,
              -0.40763062045443804,
              -0.16572600735817106,
              -0.37757710735313593,
              -0.07361597379203887,
              -0.21400237013585865,
              -0.386374596809037,
              -0.034265179093927144,
              0.04006178020499647,
              0.1526868578977883,
              0.36203620622400196,
              0.005022075539454818,
              -0.2125625921878964,
              0.34842134155333043
            ],
            [
              -0.18400887104216965,
              -0.38532707034610214,
              -0.31206926659215245,
              -0.41377988657914105,
              -0.08189867399632932,
              0.3301978485658765,
              -0.12399553544819356,
              -0.08738071254920214,
              -0.27161400276236236,
              0.1565270096529275,
              -0.2207312964135781,
              -0.18763688688632102,
              0.0009688390418887138,
              -0.22598251767922192,
              -0.07351128277368844,
              -0.4348009656881914,
              -0.44859720531385394,
              -0.14302712918724866,
              -0.31798700254876167,
              0.05348415111657232,
              0.32365614152513444,
              0.4199191327672452,
              0.022764192265458404,
              0.09265298056416214,
              -0.1597481597447768,
              0.28684476991184055,
              0.21872126951348037,
              0.37680236636660996,
              0.2852818236686289,
              0.24292767802253365,
              0.06110056734178215,
              0.2487412531161681,
              0.10629735162947328,
              0.06204183076042682,
              -0.35585863378364596,
              -0.28632837762124835,
              0.2706900492310524,
              0.010955825122073293,
              0.33426807560026645,
              0.31439737435430287,
              0.1362785186385736,
              0.30852865618653597,
              0.03997249868698418,
              0.13508114323485643,
              -0.3572602317435667,
              0.20111266120802612,
              0.4416149385273457,
              0.41618961563799534,
              -0.21790324291214347,
              0.21320773931220174,
              -0.2929030471248552,
              0.4307269548531622,
              0.16377480570226907,
              -0.26867821121122687,
              -0.30425128005445007,
              0.1611080399248749,
              -0.42892606251407417,
              -0.4227845027111471,
              0.01611028842162341
            ],
            [
              -0.061282222042791545,
              -0.16159298750571907,
              0.3149726807372645,
              0.027747369697317482,
              0.2765335611300543,
              -0.21474334734957665,
              0.09838557871989906,
              -0.008050511428155006,
              -0.22456081551499665,
              -0.2419722127262503,
              0.3767274579266086,
              0.232619996345602,
              -0.0888714503729716,
              -0.29293053306173533,
              -0.17750885642599315,
              0.16397033245302736,
              -0.33173916237428785,
              -0.1747501665260643,
              -0.3144426035229117,
              -0.16654027907643468,
              0.22090645032003522,
              0.2057703391648829,
              0.004050270351581275,
              0.05928906770423055,
              0.09131057455670089,
              0.4257474310928956,
              -0.40891968361102043,
              0.3153788646217436,
              -0.2082688032416627,
              0.24935018811374904,
              -0.20407988301012667,
              -0.14340019156225026,
              -0.09336564287077635,
              -0.06833668760955335,
              -0.44804884318728,
              -0.17948585946578532,
              -0.4466197368688882,
              0.24423769069835544,
              0.15636207286734136,
              0.19433656535111368,
              0.04550336643587798,
              -0.1912463190034032,
              0.32750508568715303,
              -0.00539792615454644,
              0.3623722090618685,
              0.18121000835672021,
              0.1147565418155864,
              0.02506529144011438,
              -0.2019335946533829,
              -0.3611201520077884,
              -0.2545376834459603,
              0.09688111448194832,
              -0.40363808528054507,
              -0.38962488386314365,
              0.2966888661263511,
              0.04290513277519494,
              0.26524713111575693,
              -0.17018842531833797,
              -0.13626294527202845
            ],
            [
              0.3067066481569782,
              0.3916634094435722,
              -0.09471827228553593,
              -0.07492659625131637,
              -0.12719526055734606,
              0.1120215310016647,
              0.3949104617116973,
              0.42200679453089834,
              0.005816123820841313,
              -0.3410276649752632,
              -0.041535054752603176,
              -0.3070212957914919,
              -0.17194687002338468,
              -0.24397284938022495,
              -0.12055640725884587,
              -0.22731442849617453,
              0.07392344672698528,
              0.2934403067920357,
              0.16020024796016516,
              0.31601487945299594,
              0.43257380411960183,
              0.00860914159566164,
              -0.17739808182232084,
              -0.36486470291856676,
              0.1696802108315751,
              0.20038860936183484,
              0.16729525490663946,
              0.11088856109417976,
              0.20083595949690788,
              -0.2343611908843741,
              0.3307877027895302,
              0.10107628803234547,
              -0.27638817073311656,
              0.2947538442676887,
              -0.15831954900640996,
              -0.12499810222070665,
              -0.11010029548779131,
              0.26342880923766643,
              -0.3266312196850777,
              0.18527770531363785,
              0.003538657631725073,
              0.1177903448464349,
              0.4427078200969845,
              -0.21498904712498187,
              -0.2371205965988338,
              -0.43076161842327565,
              0.19468089477159084,
              0.0056855411035940055,
              0.14860396643634885,
              -0.34273112984374166,
              -0.31357161020860075,
              -0.034070129273459315,
              0.057468216167762876,
              -0.0010218736482784153,
              -0.43741642395034436,
              -0.09249837091192603,
              -0.30694628634955734,
              -0.2615061645163223,
              0.033142234571278094
            ],
            [
              -0.2064645474543795,
              -0.04729920867830515,
              -0.39685774797108025,
              0.10441238565836101,
              -0.051772319432348016,
              0.42078228858299555,
              -0.384063714905642,
              0.2982640000758693,
              0.3846764718415216,
              -0.41759322211146355,
              -0.007162611815147102,
              0.348296757764183,
              -0.23348643514327705,
              0.19776621444616468,
              0.36749012684449556,
              -0.25605758065357803,
              -0.4160002946387977,
              0.17819391167722642,
              -0.21866482661571354,
              0.02584906853735447,
              -0.2343246709322557,
              -0.24086076691746713,
              0.09149122070521117,
              0.31309462543576955,
              0.34427149083931,
              -0.2706933022476733,
              0.18900969217065722,
              -0.0712709526065737,
              -0.11393961952999235,
              -0.3606507352553308,
              -0.33512620311230423,
              -0.31171311072539537,
              -0.04244661731645465,
              -0.30566121339797975,
              0.33269271575845777,
              -0.25318510516081005,
              0.004652860877104104,
              0.33839747216552496,
              0.29462763082701715,
              -0.1310440201079473,
              0.06728672725148499,
              -0.4029808181338012,
              0.15719754807651043,
              -0.31979659844655545,
              -0.08735326705500483,
              -0.4312039056792855,
              -0.3788273887010291,
              0.23756810892373323,
              -0.44074400975368916,
              -0.3410407945979387,
              0.15760374872479588,
              0.003807069011963904,
              -0.04052293093409389,
              0.2343136954586953,
              0.022889128932729364,
              -0.2934836353641003,
              -0.2445800533052534,
              0.2460804923437536,
              -0.35762223859783265
            ],
            [
              -0.3476723053492606,
              0.14256439260207118,
              0.03585889509413392,
              0.34925370435230435,
              0.14927832826506346,
              -0.0875193685060367,
              0.41793446301016957,
              -0.27519626514986156,
              0.24712383644655347,
              0.4124306581215933,
              -0.38044779519550503,
              0.059342984086833896,
              0.24062599253375083,
              -0.2831267521250993,
              -0.4275662864791229,
              -0.2729412063024938,
              -0.3791328799445182,
              -0.21699231527745724,
              0.055474688624963166,
              -0.3851598323090002,
              -0.2544106167275459,
              -0.4362785529345274,
              0.18965894957073035,
              0.27609519639518115,
              0.2015646945219487,
              -0.29052007289137693,
              0.22244924604892732,
              -0.23904088810086252,
              0.37593505438417196,
              0.4494926276849583,
              -0.1699988088570535,
              0.3158543230500072,
              0.2281090456992388,
              0.373034533043392,
              0.4204546630382538,
              -0.4035014173015952,
              0.2802071393234655,
              0.34772723594214766,
              0.4161013703327626,
              -0.36014130476396533,
              -0.39707258390262723,
              -0.3387254897737876,
              0.36081146432552486,
              -0.12172087216749787,
              -0.12867315688636155,
              -0.11527687171474099,
              -0.13571855218615383,
              -0.42095454507507385,
              0.368615288590081,
              0.29413253674283624,
              0.3092245387611911,
              0.28676876993849876,
              0.0033983370289206506,
              -0.22118249048944563,
              0.13887838865630328,
              0.41326558766886595,
              -0.2046792984707281,
              0.26628292039968077,
              0.31181134139187633
            ]
          ],
          "biases": [
            0.0690079569350928,
            0.024731830414384603,
            -0.1605021096300334,
            0.3929285892052576,
            0.24605567855760455,
            0.12695222434122116,
            -0.3439828495262191,
            0.25211117465514693,
            -0.052983038825914264,
            0.31610185615718367,
            0.44099738001823424,
            -0.40358013678342103
          ]
        },
        {
          "weights": [
            [
              0.17781579010188578,
              -0.13532858798280356,
              -0.2643915747758001,
              -0.23654700103215873,
              -0.24084753731731323,
              -0.3319718389539048,
              0.20587485558353363,
              0.346214545564726,
              0.02210930734872818,
              0.334483561408706,
              -0.2805599707877263,
              0.08133511662017553
            ],
            [
              -0.19057948372792452,
              -0.09783185799606144,
              -0.01703317086212337,
              -0.05957980351522565,
              0.08464225342031567,
              -0.012943685776554047,
              -0.34525809788610784,
              0.2026129559148103,
              0.05445558994542807,
              -0.2845165485749021,
              0.26884039810393,
              0.2150461464654654
            ],
            [
              -0.24157957616262135,
              0.059887422854080795,
              0.3027609767159447,
              0.10005015321075916,
              -0.30953530103433874,
              -0.10043526338413357,
              0.23966942394617943,
              -0.2670804847963154,
              -0.21890398699324576,
              -0.1643325972603634,
              0.23583367636892943,
              -0.21091009660158305
            ],
            [
              -0.15140389616135508,
              -0.2056331945117563,
              -0.21244202982634305,
              0.3447319916449487,
              0.22096150312572715,
              0.23872482143342494,
              0.06741346521303057,
              -0.2863645251607522,
              -0.2656251021660864,
              -0.3163669296307489,
              -0.16222766526043414,
              0.11016139886341988
            ],
            [
              0.007064165314659475,
              0.2069999745581299,
              -0.2821617795387283,
              0.0356677153147757,
              0.18492136672139167,
              0.1612045977730304,
              -0.0004088492365553975,
              -0.28056283534970133,
              -0.007519543310627341,
              0.16570543402340263,
              0.32411957960575816,
              0.16145749788265673
            ],
            [
              -0.2562527684494853,
              0.22381018907763062,
              -0.269710924080573,
              -0.13964206874370574,
              -0.032890308648347855,
              -0.3174644791521132,
              0.24412634517066178,
              0.008441892499104141,
              -0.16103221147786825,
              -0.24021047363057732,
              0.16766069086734203,
              -0.23721287364605811
            ],
            [
              -0.3369258360005915,
              0.1778629875741899,
              0.2297016265802085,
              -0.09212725900579244,
              -0.2659943539183587,
              0.06210252053570002,
              0.14669243523385375,
              -0.25850689089857043,
              -0.06683250626083463,
              0.26004070199560375,
              -0.2878361876821145,
              0.1715155807789415
            ],
            [
              0.17918148909229784,
              -0.062015225552022456,
              -0.22160317788366227,
              0.2263916917145252,
              -0.1828930407296866,
              -0.15504469820298253,
              0.14676952545996755,
              -0.14396326423157005,
              0.28612258897628634,
              -0.19045797910075635,
              -0.092223950359039,
              -0.255967764579691
            ]
          ],
          "biases": [
            -0.15992979859001932,
            0.06707305612508208,
            0.2546027325093746,
            -0.16125281208660452,
            0.24617528456728904,
            -0.30651391635183245,
            0.01376023539341986,
            -0.028528985660523174
          ]
        },
        {
          "weights": [
            [
              0.0045759143540635705,
              -0.1697958483127877,
              -0.19783170940354466,
              0.05662644642870873,
              0.14123728533741087,
              -0.1409586549270898,
              -0.024792087846435606,
              0.12241604377049953
            ],
            [
              -0.18076799751725048,
              -0.05562584800645709,
              0.0631128791719675,
              -0.07030372356530279,
              0.00556037703063339,
              -0.21422271220944822,
              0.1509783329674974,
              -0.11944800149649382
            ],
            [
              -0.024509085342288017,
              -0.1900268979370594,
              -0.17786776344291866,
              -0.011967780534178019,
              0.24243649560958147,
              0.13978632912039757,
              0.06930531351827085,
              0.12573389790486544
            ]
          ],
          "biases": [
            -0.1350085794692859,
            -0.24880749778822064,
            0.22978390636853874
          ]
        }
      ]
    }
  },
  "replay": {
    "version": 1,
    "seed": 586993847,
    "configHash": "3a06a5c9",
    "actions": [
      {
        "tick": 2,
        "side": "left",
        "action": {
          "moveAxis": 0,
          "fire": false
        }
      },
      {
        "tick": 2,
        "side": "right",
        "action": {
          "moveAxis": 0,
          "fire": true
        }
      },
      {
        "tick": 4,
        "side": "left",
        "action": {
          "moveAxis": 0,
          "fire": false
        }
      },
      {
        "tick": 4,
        "side": "right",
        "action": {
          "moveAxis": 0,
          "fire": true
        }
      },
      {
        "tick": 6,
        "side": "left",
        "action": {
          "moveAxis": 0,
          "fire": false
        }
      },
      {
        "tick": 6,
        "side": "right",
        "action": {
          "moveAxis": 0,
          "fire": true
        }
      },
      {
        "tick": 8,
        "side": "left",
        "action": {
          "moveAxis": 0,
          "fire": false
        }
      },
      {
        "tick": 8,
        "side": "right",
        "action": {
          "moveAxis": 0,
          "fire": true
        }
      },
      {
        "tick": 10,
        "side": "left",
        "action": {
          "moveAxis": 0,
          "fire": false
        }
      },
      {
        "tick": 10,
        "side": "right",
        "action": {
          "moveAxis": 0,
          "fire": true
        }
      },
      {
        "tick": 12,
        "side": "left",
        "action": {
          "moveAxis": 0,
          "fire": false
        }
      },
      {
        "tick": 12,
        "side": "right",
        "action": {
          "moveAxis": 0,
          "fire": true
        }
      },
      {
        "tick": 14,
        "side": "left",
        "action": {
          "moveAxis": 0,
          "fire": false
        }
      },
      {
        "tick": 14,
        "side": "right",
        "action": {
          "moveAxis": 0,
          "fire": true
        }
      },
      {
        "tick": 16,
        "side": "left",
        "action": {
          "moveAxis": 0,
          "fire": false
        }
      },
      {
        "tick": 16,
        "side": "right",
        "action": {
          "moveAxis": 0,
          "fire": true
        }
      },
      {
        "tick": 18,
        "side": "left",
        "action": {
          "moveAxis": 0,
          "fire": false
        }
      },
      {
        "tick": 18,
        "side": "right",
        "action": {
          "moveAxis": 0,
          "fire": true
        }
      },
      {
        "tick": 20,
        "side": "left",
        "action": {
          "moveAxis": 0,
          "fire": false
        }
      },
      {
        "tick": 20,
        "side": "right",
        "action": {
          "moveAxis": 0,
          "fire": true
        }
      },
      {
        "tick": 22,
        "side": "left",
        "action": {
          "moveAxis": 0,
          "fire": false
        }
      },
      {
        "tick": 22,
        "side": "right",
        "action": {
          "moveAxis": 0,
          "fire": true
        }
      },
      {
        "tick": 24,
        "side": "left",
        "action": {
          "moveAxis": 0,
          "fire": false
        }
      },
      {
        "tick": 24,
        "side": "right",
        "action": {
          "moveAxis": 0,
          "fire": true
        }
      },
      {
        "tick": 26,
        "side": "left",
        "action": {
          "moveAxis": 0,
          "fire": false
        }
      },
      {
        "tick": 26,
        "side": "right",
        "action": {
          "moveAxis": 0,
          "fire": true
        }
      },
      {
        "tick": 28,
        "side": "left",
        "action": {
          "moveAxis": 0,
          "fire": false
        }
      },
      {
        "tick": 28,
        "side": "right",
        "action": {
          "moveAxis": 0,
          "fire": true
        }
      },
      {
        "tick": 30,
        "side": "left",
        "action": {
          "moveAxis": 0,
          "fire": false
        }
      },
      {
        "tick": 30,
        "side": "right",
        "action": {
          "moveAxis": 0,
          "fire": true
        }
      },
      {
        "tick": 32,
        "side": "left",
        "action": {
          "moveAxis": 0,
          "fire": false
        }
      },
      {
        "tick": 32,
        "side": "right",
        "action": {
          "moveAxis": 0,
          "fire": true
        }
      },
      {
        "tick": 34,
        "side": "left",
        "action": {
          "moveAxis": 0,
          "fire": false
        }
      },
      {
        "tick": 34,
        "side": "right",
        "action": {
          "moveAxis": 0,
          "fire": true
        }
      },
      {
        "tick": 36,
        "side": "left",
        "action": {
          "moveAxis": 0,
          "fire": false
        }
      },
      {
        "tick": 36,
        "side": "right",
        "action": {
          "moveAxis": 0,
          "fire": true
        }
      },
      {
        "tick": 38,
        "side": "left",
        "action": {
          "moveAxis": 0,
          "fire": false
        }
      },
      {
        "tick": 38,
        "side": "right",
        "action": {
          "moveAxis": 0,
          "fire": true
        }
      },
      {
        "tick": 40,
        "side": "left",
        "action": {
          "moveAxis": 0,
          "fire": false
        }
      },
      {
        "tick": 40,
        "side": "right",
        "action": {
          "moveAxis": 0,
          "fire": true
        }
      },
      {
        "tick": 42,
        "side": "left",
        "action": {
          "moveAxis": 0,
          "fire": false
        }
      },
      {
        "tick": 42,
        "side": "right",
        "action": {
          "moveAxis": 0,
          "fire": true
        }
      },
      {
        "tick": 44,
        "side": "left",
        "action": {
          "moveAxis": 0,
          "fire": false
        }
      },
      {
        "tick": 44,
        "side": "right",
        "action": {
          "moveAxis": 0,
          "fire": true
        }
      },
      {
        "tick": 46,
        "side": "left",
        "action": {
          "moveAxis": 0,
          "fire": false
        }
      },
      {
        "tick": 46,
        "side": "right",
        "action": {
          "moveAxis": 0,
          "fire": true
        }
      },
      {
        "tick": 48,
        "side": "left",
        "action": {
          "moveAxis": 0,
          "fire": false
        }
      },
      {
        "tick": 48,
        "side": "right",
        "action": {
          "moveAxis": 0,
          "fire": true
        }
      },
      {
        "tick": 50,
        "side": "left",
        "action": {
          "moveAxis": 0,
          "fire": false
        }
      },
      {
        "tick": 50,
        "side": "right",
        "action": {
          "moveAxis": 0,
          "fire": true
        }
      },
      {
        "tick": 52,
        "side": "left",
        "action": {
          "moveAxis": 0,
          "fire": false
        }
      },
      {
        "tick": 52,
        "side": "right",
        "action": {
          "moveAxis": 0,
          "fire": true
        }
      },
      {
        "tick": 54,
        "side": "left",
        "action": {
          "moveAxis": 0,
          "fire": false
        }
      },
      {
        "tick": 54,
        "side": "right",
        "action": {
          "moveAxis": 0,
          "fire": true
        }
      },
      {
        "tick": 56,
        "side": "left",
        "action": {
          "moveAxis": 0,
          "fire": false
        }
      },
      {
        "tick": 56,
        "side": "right",
        "action": {
          "moveAxis": 0,
          "fire": true
        }
      },
      {
        "tick": 58,
        "side": "left",
        "action": {
          "moveAxis": 0,
          "fire": false
        }
      },
      {
        "tick": 58,
        "side": "right",
        "action": {
          "moveAxis": 0,
          "fire": true
        }
      },
      {
        "tick": 60,
        "side": "left",
        "action": {
          "moveAxis": 0,
          "fire": false
        }
      },
      {
        "tick": 60,
        "side": "right",
        "action": {
          "moveAxis": 0,
          "fire": true
        }
      },
      {
        "tick": 62,
        "side": "left",
        "action": {
          "moveAxis": 0,
          "fire": false
        }
      },
      {
        "tick": 62,
        "side": "right",
        "action": {
          "moveAxis": 0,
          "fire": true
        }
      },
      {
        "tick": 64,
        "side": "left",
        "action": {
          "moveAxis": 0,
          "fire": false
        }
      },
      {
        "tick": 64,
        "side": "right",
        "action": {
          "moveAxis": 0,
          "fire": true
        }
      },
      {
        "tick": 66,
        "side": "left",
        "action": {
          "moveAxis": 0,
          "fire": false
        }
      },
      {
        "tick": 66,
        "side": "right",
        "action": {
          "moveAxis": 0,
          "fire": true
        }
      },
      {
        "tick": 68,
        "side": "left",
        "action": {
          "moveAxis": 0,
          "fire": false
        }
      },
      {
        "tick": 68,
        "side": "right",
        "action": {
          "moveAxis": 0,
          "fire": true
        }
      },
      {
        "tick": 70,
        "side": "left",
        "action": {
          "moveAxis": 0,
          "fire": false
        }
      },
      {
        "tick": 70,
        "side": "right",
        "action": {
          "moveAxis": 0,
          "fire": true
        }
      },
      {
        "tick": 72,
        "side": "left",
        "action": {
          "moveAxis": 0,
          "fire": false
        }
      },
      {
        "tick": 72,
        "side": "right",
        "action": {
          "moveAxis": 0,
          "fire": true
        }
      },
      {
        "tick": 74,
        "side": "left",
        "action": {
          "moveAxis": 0,
          "fire": false
        }
      },
      {
        "tick": 74,
        "side": "right",
        "action": {
          "moveAxis": 0,
          "fire": true
        }
      },
      {
        "tick": 76,
        "side": "left",
        "action": {
          "moveAxis": 0,
          "fire": false
        }
      },
      {
        "tick": 76,
        "side": "right",
        "action": {
          "moveAxis": 0,
          "fire": true
        }
      },
      {
        "tick": 78,
        "side": "left",
        "action": {
          "moveAxis": 0,
          "fire": false
        }
      },
      {
        "tick": 78,
        "side": "right",
        "action": {
          "moveAxis": 0,
          "fire": true
        }
      },
      {
        "tick": 80,
        "side": "left",
        "action": {
          "moveAxis": 0,
          "fire": false
        }
      },
      {
        "tick": 80,
        "side": "right",
        "action": {
          "moveAxis": 0,
          "fire": true
        }
      },
      {
        "tick": 82,
        "side": "left",
        "action": {
          "moveAxis": 0,
          "fire": false
        }
      },
      {
        "tick": 82,
        "side": "right",
        "action": {
          "moveAxis": 0,
          "fire": true
        }
      },
      {
        "tick": 84,
        "side": "left",
        "action": {
          "moveAxis": 0,
          "fire": false
        }
      },
      {
        "tick": 84,
        "side": "right",
        "action": {
          "moveAxis": 0,
          "fire": true
        }
      },
      {
        "tick": 86,
        "side": "left",
        "action": {
          "moveAxis": 0,
          "fire": false
        }
      },
      {
        "tick": 86,
        "side": "right",
        "action": {
          "moveAxis": 0,
          "fire": true
        }
      },
      {
        "tick": 88,
        "side": "left",
        "action": {
          "moveAxis": 0,
          "fire": false
        }
      },
      {
        "tick": 88,
        "side": "right",
        "action": {
          "moveAxis": 0,
          "fire": true
        }
      },
      {
        "tick": 90,
        "side": "left",
        "action": {
          "moveAxis": 0,
          "fire": false
        }
      },
      {
        "tick": 90,
        "side": "right",
        "action": {
          "moveAxis": 0,
          "fire": true
        }
      },
      {
        "tick": 92,
        "side": "left",
        "action": {
          "moveAxis": 0,
          "fire": false
        }
      },
      {
        "tick": 92,
        "side": "right",
        "action": {
          "moveAxis": 0,
          "fire": true
        }
      },
      {
        "tick": 94,
        "side": "left",
        "action": {
          "moveAxis": 0,
          "fire": false
        }
      },
      {
        "tick": 94,
        "side": "right",
        "action": {
          "moveAxis": 0,
          "fire": true
        }
      },
      {
        "tick": 96,
        "side": "left",
        "action": {
          "moveAxis": 0,
          "fire": false
        }
      },
      {
        "tick": 96,
        "side": "right",
        "action": {
          "moveAxis": 0,
          "fire": true
        }
      },
      {
        "tick": 98,
        "side": "left",
        "action": {
          "moveAxis": 0,
          "fire": false
        }
      },
      {
        "tick": 98,
        "side": "right",
        "action": {
          "moveAxis": 0,
          "fire": true
        }
      },
      {
        "tick": 100,
        "side": "left",
        "action": {
          "moveAxis": 0,
          "fire": false
        }
      },
      {
        "tick": 100,
        "side": "right",
        "action": {
          "moveAxis": 0,
          "fire": true
        }
      },
      {
        "tick": 102,
        "side": "left",
        "action": {
          "moveAxis": 0,
          "fire": false
        }
      },
      {
        "tick": 102,
        "side": "right",
        "action": {
          "moveAxis": 0,
          "fire": true
        }
      },
      {
        "tick": 104,
        "side": "left",
        "action": {
          "moveAxis": 0,
          "fire": false
        }
      },
      {
        "tick": 104,
        "side": "right",
        "action": {
          "moveAxis": 0,
          "fire": true
        }
      },
      {
        "tick": 106,
        "side": "left",
        "action": {
          "moveAxis": 0,
          "fire": false
        }
      },
      {
        "tick": 106,
        "side": "right",
        "action": {
          "moveAxis": 0,
          "fire": true
        }
      },
      {
        "tick": 108,
        "side": "left",
        "action": {
          "moveAxis": 0,
          "fire": false
        }
      },
      {
        "tick": 108,
        "side": "right",
        "action": {
          "moveAxis": 0,
          "fire": true
        }
      },
      {
        "tick": 110,
        "side": "left",
        "action": {
          "moveAxis": 0,
          "fire": false
        }
      },
      {
        "tick": 110,
        "side": "right",
        "action": {
          "moveAxis": 0,
          "fire": true
        }
      },
      {
        "tick": 112,
        "side": "left",
        "action": {
          "moveAxis": 0,
          "fire": false
        }
      },
      {
        "tick": 112,
        "side": "right",
        "action": {
          "moveAxis": 0,
          "fire": true
        }
      },
      {
        "tick": 114,
        "side": "left",
        "action": {
          "moveAxis": 0,
          "fire": false
        }
      },
      {
        "tick": 114,
        "side": "right",
        "action": {
          "moveAxis": 0,
          "fire": true
        }
      },
      {
        "tick": 116,
        "side": "left",
        "action": {
          "moveAxis": 0,
          "fire": false
        }
      },
      {
        "tick": 116,
        "side": "right",
        "action": {
          "moveAxis": 0,
          "fire": true
        }
      },
      {
        "tick": 118,
        "side": "left",
        "action": {
          "moveAxis": 0,
          "fire": false
        }
      },
      {
        "tick": 118,
        "side": "right",
        "action": {
          "moveAxis": 0,
          "fire": true
        }
      },
      {
        "tick": 120,
        "side": "left",
        "action": {
          "moveAxis": 0,
          "fire": false
        }
      },
      {
        "tick": 120,
        "side": "right",
        "action": {
          "moveAxis": 0,
          "fire": true
        }
      },
      {
        "tick": 122,
        "side": "left",
        "action": {
          "moveAxis": 0,
          "fire": false
        }
      },
      {
        "tick": 122,
        "side": "right",
        "action": {
          "moveAxis": 0,
          "fire": true
        }
      },
      {
        "tick": 124,
        "side": "left",
        "action": {
          "moveAxis": 0,
          "fire": false
        }
      },
      {
        "tick": 124,
        "side": "right",
        "action": {
          "moveAxis": 0,
          "fire": true
        }
      },
      {
        "tick": 126,
        "side": "left",
        "action": {
          "moveAxis": 0,
          "fire": false
        }
      },
      {
        "tick": 126,
        "side": "right",
        "action": {
          "moveAxis": 0,
          "fire": true
        }
      },
      {
        "tick": 128,
        "side": "left",
        "action": {
          "moveAxis": 0,
          "fire": false
        }
      },
      {
        "tick": 128,
        "side": "right",
        "action": {
          "moveAxis": 0,
          "fire": true
        }
      },
      {
        "tick": 130,
        "side": "left",
        "action": {
          "moveAxis": 0,
          "fire": false
        }
      },
      {
        "tick": 130,
        "side": "right",
        "action": {
          "moveAxis": 0,
          "fire": true
        }
      },
      {
        "tick": 132,
        "side": "left",
        "action": {
          "moveAxis": 0,
          "fire": false
        }
      },
      {
        "tick": 132,
        "side": "right",
        "action": {
          "moveAxis": 0,
          "fire": true
        }
      },
      {
        "tick": 134,
        "side": "left",
        "action": {
          "moveAxis": 0,
          "fire": false
        }
      },
      {
        "tick": 134,
        "side": "right",
        "action": {
          "moveAxis": 0,
          "fire": true
        }
      },
      {
        "tick": 136,
        "side": "left",
        "action": {
          "moveAxis": 0,
          "fire": false
        }
      },
      {
        "tick": 136,
        "side": "right",
        "action": {
          "moveAxis": 0,
          "fire": true
        }
      },
      {
        "tick": 138,
        "side": "left",
        "action": {
          "moveAxis": 0,
          "fire": false
        }
      },
      {
        "tick": 138,
        "side": "right",
        "action": {
          "moveAxis": 0,
          "fire": true
        }
      },
      {
        "tick": 140,
        "side": "left",
        "action": {
          "moveAxis": 0,
          "fire": false
        }
      },
      {
        "tick": 140,
        "side": "right",
        "action": {
          "moveAxis": 0,
          "fire": true
        }
      },
      {
        "tick": 142,
        "side": "left",
        "action": {
          "moveAxis": 0,
          "fire": false
        }
      },
      {
        "tick": 142,
        "side": "right",
        "action": {
          "moveAxis": 0,
          "fire": true
        }
      },
      {
        "tick": 144,
        "side": "left",
        "action": {
          "moveAxis": 0,
          "fire": false
        }
      },
      {
        "tick": 144,
        "side": "right",
        "action": {
          "moveAxis": 0,
          "fire": true
        }
      },
      {
        "tick": 146,
        "side": "left",
        "action": {
          "moveAxis": 0,
          "fire": false
        }
      },
      {
        "tick": 146,
        "side": "right",
        "action": {
          "moveAxis": 0,
          "fire": true
        }
      },
      {
        "tick": 148,
        "side": "left",
        "action": {
          "moveAxis": 0,
          "fire": false
        }
      },
      {
        "tick": 148,
        "side": "right",
        "action": {
          "moveAxis": 0,
          "fire": true
        }
      },
      {
        "tick": 150,
        "side": "left",
        "action": {
          "moveAxis": 0,
          "fire": false
        }
      },
      {
        "tick": 150,
        "side": "right",
        "action": {
          "moveAxis": 0,
          "fire": true
        }
      },
      {
        "tick": 152,
        "side": "left",
        "action": {
          "moveAxis": 0,
          "fire": false
        }
      },
      {
        "tick": 152,
        "side": "right",
        "action": {
          "moveAxis": 0,
          "fire": true
        }
      },
      {
        "tick": 154,
        "side": "left",
        "action": {
          "moveAxis": 0,
          "fire": false
        }
      },
      {
        "tick": 154,
        "side": "right",
        "action": {
          "moveAxis": 0,
          "fire": true
        }
      },
      {
        "tick": 156,
        "side": "left",
        "action": {
          "moveAxis": 0,
          "fire": false
        }
      },
      {
        "tick": 156,
        "side": "right",
        "action": {
          "moveAxis": 0,
          "fire": true
        }
      },
      {
        "tick": 158,
        "side": "left",
        "action": {
          "moveAxis": 0,
          "fire": false
        }
      },
      {
        "tick": 158,
        "side": "right",
        "action": {
          "moveAxis": 0,
          "fire": true
        }
      },
      {
        "tick": 160,
        "side": "left",
        "action": {
          "moveAxis": 0,
          "fire": false
        }
      },
      {
        "tick": 160,
        "side": "right",
        "action": {
          "moveAxis": 0,
          "fire": true
        }
      },
      {
        "tick": 162,
        "side": "left",
        "action": {
          "moveAxis": 0,
          "fire": false
        }
      },
      {
        "tick": 162,
        "side": "right",
        "action": {
          "moveAxis": 0,
          "fire": true
        }
      },
      {
        "tick": 164,
        "side": "left",
        "action": {
          "moveAxis": 0,
          "fire": false
        }
      },
      {
        "tick": 164,
        "side": "right",
        "action": {
          "moveAxis": 0,
          "fire": true
        }
      },
      {
        "tick": 166,
        "side": "left",
        "action": {
          "moveAxis": 0,
          "fire": false
        }
      },
      {
        "tick": 166,
        "side": "right",
        "action": {
          "moveAxis": 0,
          "fire": true
        }
      },
      {
        "tick": 168,
        "side": "left",
        "action": {
          "moveAxis": 0,
          "fire": false
        }
      },
      {
        "tick": 168,
        "side": "right",
        "action": {
          "moveAxis": 0,
          "fire": true
        }
      },
      {
        "tick": 170,
        "side": "left",
        "action": {
          "moveAxis": 0,
          "fire": false
        }
      },
      {
        "tick": 170,
        "side": "right",
        "action": {
          "moveAxis": 0,
          "fire": true
        }
      },
      {
        "tick": 172,
        "side": "left",
        "action": {
          "moveAxis": 0,
          "fire": false
        }
      },
      {
        "tick": 172,
        "side": "right",
        "action": {
          "moveAxis": 0,
          "fire": true
        }
      },
      {
        "tick": 174,
        "side": "left",
        "action": {
          "moveAxis": 0,
          "fire": false
        }
      },
      {
        "tick": 174,
        "side": "right",
        "action": {
          "moveAxis": 0,
          "fire": true
        }
      },
      {
        "tick": 176,
        "side": "left",
        "action": {
          "moveAxis": 0,
          "fire": false
        }
      },
      {
        "tick": 176,
        "side": "right",
        "action": {
          "moveAxis": 0,
          "fire": true
        }
      },
      {
        "tick": 178,
        "side": "left",
        "action": {
          "moveAxis": 0,
          "fire": false
        }
      },
      {
        "tick": 178,
        "side": "right",
        "action": {
          "moveAxis": 0,
          "fire": true
        }
      },
      {
        "tick": 180,
        "side": "left",
        "action": {
          "moveAxis": 0,
          "fire": false
        }
      },
      {
        "tick": 180,
        "side": "right",
        "action": {
          "moveAxis": 0,
          "fire": true
        }
      },
      {
        "tick": 182,
        "side": "left",
        "action": {
          "moveAxis": 0,
          "fire": false
        }
      },
      {
        "tick": 182,
        "side": "right",
        "action": {
          "moveAxis": 0,
          "fire": true
        }
      },
      {
        "tick": 184,
        "side": "left",
        "action": {
          "moveAxis": 0,
          "fire": false
        }
      },
      {
        "tick": 184,
        "side": "right",
        "action": {
          "moveAxis": 0,
          "fire": true
        }
      },
      {
        "tick": 186,
        "side": "left",
        "action": {
          "moveAxis": 0,
          "fire": false
        }
      },
      {
        "tick": 186,
        "side": "right",
        "action": {
          "moveAxis": 0,
          "fire": true
        }
      },
      {
        "tick": 188,
        "side": "left",
        "action": {
          "moveAxis": 0,
          "fire": false
        }
      },
      {
        "tick": 188,
        "side": "right",
        "action": {
          "moveAxis": 0,
          "fire": true
        }
      },
      {
        "tick": 190,
        "side": "left",
        "action": {
          "moveAxis": 0,
          "fire": false
        }
      },
      {
        "tick": 190,
        "side": "right",
        "action": {
          "moveAxis": 0,
          "fire": true
        }
      },
      {
        "tick": 192,
        "side": "left",
        "action": {
          "moveAxis": 0,
          "fire": false
        }
      },
      {
        "tick": 192,
        "side": "right",
        "action": {
          "moveAxis": 0,
          "fire": true
        }
      },
      {
        "tick": 194,
        "side": "left",
        "action": {
          "moveAxis": 0,
          "fire": false
        }
      },
      {
        "tick": 194,
        "side": "right",
        "action": {
          "moveAxis": 0,
          "fire": true
        }
      },
      {
        "tick": 196,
        "side": "left",
        "action": {
          "moveAxis": 0,
          "fire": false
        }
      },
      {
        "tick": 196,
        "side": "right",
        "action": {
          "moveAxis": 0,
          "fire": true
        }
      },
      {
        "tick": 198,
        "side": "left",
        "action": {
          "moveAxis": 0,
          "fire": false
        }
      },
      {
        "tick": 198,
        "side": "right",
        "action": {
          "moveAxis": 0,
          "fire": true
        }
      },
      {
        "tick": 200,
        "side": "left",
        "action": {
          "moveAxis": 0,
          "fire": false
        }
      },
      {
        "tick": 200,
        "side": "right",
        "action": {
          "moveAxis": 0,
          "fire": true
        }
      },
      {
        "tick": 202,
        "side": "left",
        "action": {
          "moveAxis": 0,
          "fire": false
        }
      },
      {
        "tick": 202,
        "side": "right",
        "action": {
          "moveAxis": 0,
          "fire": true
        }
      },
      {
        "tick": 204,
        "side": "left",
        "action": {
          "moveAxis": 0,
          "fire": false
        }
      },
      {
        "tick": 204,
        "side": "right",
        "action": {
          "moveAxis": 0,
          "fire": true
        }
      },
      {
        "tick": 206,
        "side": "left",
        "action": {
          "moveAxis": 0,
          "fire": false
        }
      },
      {
        "tick": 206,
        "side": "right",
        "action": {
          "moveAxis": 0,
          "fire": true
        }
      },
      {
        "tick": 208,
        "side": "left",
        "action": {
          "moveAxis": 0,
          "fire": false
        }
      },
      {
        "tick": 208,
        "side": "right",
        "action": {
          "moveAxis": 0,
          "fire": true
        }
      },
      {
        "tick": 210,
        "side": "left",
        "action": {
          "moveAxis": 0,
          "fire": false
        }
      },
      {
        "tick": 210,
        "side": "right",
        "action": {
          "moveAxis": 0,
          "fire": true
        }
      },
      {
        "tick": 212,
        "side": "left",
        "action": {
          "moveAxis": 0,
          "fire": false
        }
      },
      {
        "tick": 212,
        "side": "right",
        "action": {
          "moveAxis": 0,
          "fire": true
        }
      },
      {
        "tick": 214,
        "side": "left",
        "action": {
          "moveAxis": 0,
          "fire": false
        }
      },
      {
        "tick": 214,
        "side": "right",
        "action": {
          "moveAxis": 0,
          "fire": true
        }
      },
      {
        "tick": 216,
        "side": "left",
        "action": {
          "moveAxis": 0,
          "fire": false
        }
      },
      {
        "tick": 216,
        "side": "right",
        "action": {
          "moveAxis": 0,
          "fire": true
        }
      },
      {
        "tick": 218,
        "side": "left",
        "action": {
          "moveAxis": 0,
          "fire": false
        }
      },
      {
        "tick": 218,
        "side": "right",
        "action": {
          "moveAxis": 0,
          "fire": true
        }
      },
      {
        "tick": 220,
        "side": "left",
        "action": {
          "moveAxis": 0,
          "fire": false
        }
      },
      {
        "tick": 220,
        "side": "right",
        "action": {
          "moveAxis": 0,
          "fire": true
        }
      },
      {
        "tick": 222,
        "side": "left",
        "action": {
          "moveAxis": 0,
          "fire": false
        }
      },
      {
        "tick": 222,
        "side": "right",
        "action": {
          "moveAxis": 0,
          "fire": true
        }
      },
      {
        "tick": 224,
        "side": "left",
        "action": {
          "moveAxis": 0,
          "fire": false
        }
      },
      {
        "tick": 224,
        "side": "right",
        "action": {
          "moveAxis": 0,
          "fire": true
        }
      },
      {
        "tick": 226,
        "side": "left",
        "action": {
          "moveAxis": 0,
          "fire": false
        }
      },
      {
        "tick": 226,
        "side": "right",
        "action": {
          "moveAxis": 0,
          "fire": true
        }
      },
      {
        "tick": 228,
        "side": "left",
        "action": {
          "moveAxis": 0,
          "fire": false
        }
      },
      {
        "tick": 228,
        "side": "right",
        "action": {
          "moveAxis": 0,
          "fire": true
        }
      },
      {
        "tick": 230,
        "side": "left",
        "action": {
          "moveAxis": 0,
          "fire": false
        }
      },
      {
        "tick": 230,
        "side": "right",
        "action": {
          "moveAxis": 0,
          "fire": true
        }
      },
      {
        "tick": 232,
        "side": "left",
        "action": {
          "moveAxis": 0,
          "fire": false
        }
      },
      {
        "tick": 232,
        "side": "right",
        "action": {
          "moveAxis": 0,
          "fire": true
        }
      },
      {
        "tick": 234,
        "side": "left",
        "action": {
          "moveAxis": 0,
          "fire": false
        }
      },
      {
        "tick": 234,
        "side": "right",
        "action": {
          "moveAxis": 0,
          "fire": true
        }
      },
      {
        "tick": 236,
        "side": "left",
        "action": {
          "moveAxis": 0,
          "fire": false
        }
      },
      {
        "tick": 236,
        "side": "right",
        "action": {
          "moveAxis": 0,
          "fire": true
        }
      },
      {
        "tick": 238,
        "side": "left",
        "action": {
          "moveAxis": 0,
          "fire": false
        }
      },
      {
        "tick": 238,
        "side": "right",
        "action": {
          "moveAxis": 0,
          "fire": true
        }
      },
      {
        "tick": 240,
        "side": "left",
        "action": {
          "moveAxis": 0,
          "fire": false
        }
      },
      {
        "tick": 240,
        "side": "right",
        "action": {
          "moveAxis": 0,
          "fire": true
        }
      },
      {
        "tick": 242,
        "side": "left",
        "action": {
          "moveAxis": 0,
          "fire": false
        }
      },
      {
        "tick": 242,
        "side": "right",
        "action": {
          "moveAxis": 0,
          "fire": true
        }
      },
      {
        "tick": 244,
        "side": "left",
        "action": {
          "moveAxis": 0,
          "fire": false
        }
      },
      {
        "tick": 244,
        "side": "right",
        "action": {
          "moveAxis": 0,
          "fire": true
        }
      },
      {
        "tick": 246,
        "side": "left",
        "action": {
          "moveAxis": 0,
          "fire": false
        }
      },
      {
        "tick": 246,
        "side": "right",
        "action": {
          "moveAxis": 0,
          "fire": true
        }
      },
      {
        "tick": 248,
        "side": "left",
        "action": {
          "moveAxis": 0,
          "fire": false
        }
      },
      {
        "tick": 248,
        "side": "right",
        "action": {
          "moveAxis": 0,
          "fire": true
        }
      },
      {
        "tick": 250,
        "side": "left",
        "action": {
          "moveAxis": 0,
          "fire": false
        }
      },
      {
        "tick": 250,
        "side": "right",
        "action": {
          "moveAxis": 0,
          "fire": true
        }
      },
      {
        "tick": 252,
        "side": "left",
        "action": {
          "moveAxis": 0,
          "fire": false
        }
      },
      {
        "tick": 252,
        "side": "right",
        "action": {
          "moveAxis": 0,
          "fire": true
        }
      },
      {
        "tick": 254,
        "side": "left",
        "action": {
          "moveAxis": 0,
          "fire": false
        }
      },
      {
        "tick": 254,
        "side": "right",
        "action": {
          "moveAxis": 0,
          "fire": true
        }
      },
      {
        "tick": 256,
        "side": "left",
        "action": {
          "moveAxis": 0,
          "fire": false
        }
      },
      {
        "tick": 256,
        "side": "right",
        "action": {
          "moveAxis": 0,
          "fire": true
        }
      },
      {
        "tick": 258,
        "side": "left",
        "action": {
          "moveAxis": 0,
          "fire": false
        }
      },
      {
        "tick": 258,
        "side": "right",
        "action": {
          "moveAxis": 0,
          "fire": true
        }
      },
      {
        "tick": 260,
        "side": "left",
        "action": {
          "moveAxis": 0,
          "fire": false
        }
      },
      {
        "tick": 260,
        "side": "right",
        "action": {
          "moveAxis": 0,
          "fire": true
        }
      },
      {
