{
  "replayId": "defensive-0-31sl2w-vs-control-0-atrina-324788929",
  "createdAt": "2026-03-14T20:50:52.426Z",
  "runtimeVersion": "0.3.5",
  "configHash": "3a06a5c9",
  "seed": 324788929,
  "durationTicks": 468,
  "matchOptions": {
    "demo": true,
    "skipCountdown": true,
    "difficulty": "spicy",
    "scoreLimit": 2,
    "powerupsEnabled": true,
    "trailsEnabled": false,
    "theme": "neon"
  },
  "botIds": [
    "defensive-0-31sl2w",
    "control-0-atrina"
  ],
  "leftBot": {
    "id": "defensive-0-31sl2w",
    "name": "Anchor sl2w",
    "schemaVersion": 1,
    "archetype": "defensive",
    "personality": "Covers the lane early and values survival over flair.",
    "generation": 0,
    "lineageId": "defensive-0-31sl2w",
    "elo": 989.8395749265634,
    "fitnessScore": 62,
    "matches": 7,
    "mutationProfile": {
      "source": null,
      "kind": "seed"
    },
    "controllerParams": {
      "fireThreshold": 0.66
    },
    "network": {
      "type": "mlp",
      "inputSize": 59,
      "layers": [
        {
          "weights": [
            [
              -0.27900967381428926,
              0.27942479301709683,
              0.1293739399407059,
              -0.06230284594930709,
              -0.10705869267694652,
              0.023906383942812682,
              0.0437277348479256,
              0.039604471321217714,
              0.03926117853261531,
              0.1444893815321848,
              -0.27837561699561775,
              -0.040384168317541484,
              -0.0943775495979935,
              -0.2677494028816,
              0.2683230249211192,
              0.05869530227500946,
              0.38510599303990606,
              0.11788270964752882,
              -0.3730519824894145,
              -0.2707451564725489,
              -0.2620110566262156,
              -0.0431771223898977,
              -0.18861552332527937,
              -0.07935521523468196,
              0.20846275021322072,
              0.2039833104936406,
              -0.2780485783936456,
              -0.33980467887595295,
              0.1566363733727485,
              -0.2858503555878997,
              0.22004839698784054,
              -0.26914368134457617,
              0.2724074863130227,
              -0.41919281298760325,
              0.05782803345937282,
              -0.057602220796979964,
              -0.1017535594291985,
              -0.2042346336878836,
              -0.4404983640415594,
              -0.3217521982965991,
              -0.2227065097074956,
              -0.15715670641511678,
              0.06278531206771731,
              -0.1864630432566628,
              0.06397904930636288,
              -0.050483872974291445,
              -0.025515633705072104,
              0.3233809332596138,
              0.41157858192455027,
              0.16698241482954473,
              -0.410660683689639,
              -0.3063321992056444,
              -0.21669884221628308,
              -0.33623953715432436,
              -0.33275020408909767,
              -0.21640028783585877,
              -0.15420744598377498,
              -0.24399782493710517,
              -0.30926434085704385
            ],
            [
              0.2101806151913479,
              0.03466031060088426,
              0.021800088370218875,
              0.08874779676552862,
              0.06329338930081577,
              -0.401895124046132,
              -0.29101866390556097,
              -0.21139130860101432,
              0.30033711986616257,
              -0.24822189698461444,
              -0.19598291425500067,
              0.02306669200770557,
              0.09429047021549196,
              0.08909655183088035,
              0.22349584840703757,
              0.3189781931927428,
              -0.3238795217592269,
              0.3311567309545353,
              0.12990481385495514,
              -0.1677006221842021,
              -0.09387636564206332,
              0.24977859305217862,
              0.3018077897373587,
              0.4209209730383009,
              0.1289453156059608,
              0.07432424041908235,
              -0.013267958024516703,
              -0.13867599754594268,
              -0.43644605730660263,
              -0.11130525546614081,
              0.12079898393712939,
              0.3603761319536716,
              -0.14533692605327816,
              0.10292271045036615,
              -0.28290864599402993,
              -0.28591872153338044,
              -0.007871750160120428,
              0.287716170377098,
              0.3772239019162953,
              -0.3962271853582934,
              -0.422081049811095,
              -0.012857360020279885,
              0.14532221225090325,
              0.041669997735880315,
              0.1666471091564745,
              -0.11841479286085814,
              0.18114354426506907,
              -0.03229189112316817,
              -0.08109865675214678,
              0.15854220986366271,
              -0.3545643491204828,
              0.2042806953890249,
              -0.3989524614298716,
              -0.33940050727687776,
              -0.07434959672391415,
              0.1697318542515859,
              0.09210878738667816,
              0.0748990411637351,
              -0.3032415224472061
            ],
            [
              -0.030067611671984195,
              0.2454624087084085,
              -0.22063792850822211,
              -0.0835217515937984,
              -0.06756497228052467,
              0.34368949695490303,
              -0.34874940023291856,
              -0.25569444852881135,
              -0.05097505522426218,
              0.17707036449573935,
              0.35387238152325157,
              -0.0941611496033147,
              0.3145283420104534,
              -0.12315521424170583,
              -0.10924753260333091,
              0.3605905995005742,
              0.2759574111085385,
              -0.11596240138169378,
              -0.37229658651631325,
              0.009395368513651192,
              -0.34944270201958716,
              -0.18745217530522496,
              0.1766244407510385,
              0.13741865339688958,
              -0.006371952965855599,
              -0.36974656116217375,
              0.07800571059342475,
              -0.1673310154583305,
              -0.4261674078181386,
              0.27734072625171396,
              -0.3798915102845058,
              0.24348532101139428,
              -0.18636024026200176,
              0.3127400847617537,
              -0.3555524728260934,
              -0.2521540112094954,
              -0.2481322426814586,
              0.12428284445777536,
              -0.13407432432286442,
              0.2982362475944683,
              -0.191670559393242,
              0.29851388912647964,
              0.3091183205600828,
              -0.2384495773119852,
              -0.3347230260260403,
              0.23927515977993608,
              0.2651882224716246,
              0.17471847392152995,
              0.10951678238343447,
              0.0038788931211456656,
              0.14658793495036662,
              -0.38882247945293785,
              0.330825446289964,
              0.3778623177437112,
              -0.30270684461575004,
              -0.1729023187654093,
              -0.4340624561067671,
              -0.015969921718351543,
              -0.3943454937776551
            ],
            [
              -0.043604469113051894,
              0.43925559350755067,
              -0.11835585571825505,
              0.04681307128630579,
              -0.4292524739401415,
              0.3414160683285445,
              -0.2732194324722514,
              -0.04700286565348506,
              -0.12542977107223124,
              0.15841245800256729,
              -0.3970067197456956,
              -0.19991910606622695,
              -0.27543730039615183,
              -0.15681525408290328,
              0.14375426326878368,
              0.4076340364990756,
              -0.057381943752989176,
              -0.24187541787978262,
              -0.14470870492514223,
              0.29347639947663995,
              -0.014348234049975872,
              0.33062503980472685,
              -0.24768931986764073,
              -0.0788733555469662,
              0.18965629083104432,
              -0.19760770574212075,
              0.0211600860580802,
              0.03343702799174935,
              0.30424589740578084,
              -0.12138669197447598,
              -0.12480696612037719,
              0.26166668885853145,
              0.4315481946570799,
              0.13694563913159072,
              0.23101202817633748,
              0.29052643475588413,
              -0.2376149178715423,
              -0.14950145368929954,
              0.31451702266931536,
              -0.009945538407191635,
              -0.13874654446262866,
              0.3980052879313007,
              0.09267174219712615,
              0.18261359932366758,
              -0.407269369228743,
              0.08948157224804164,
              0.13521227999590338,
              0.3517109422478825,
              -0.09252749865408987,
              -0.12149340093601495,
              0.39918644896242766,
              -0.2530538527294994,
              0.2198793673189357,
              0.13267440798226746,
              -0.08938566672150046,
              -0.008145577716641128,
              0.2898978016572073,
              -0.404976063547656,
              -0.34396203348878773
            ],
            [
              0.44264287396799773,
              0.0953145198058337,
              0.38582541367504747,
              -0.07887627726886422,
              0.4277674299431965,
              -0.303002151218243,
              -0.14728972928132864,
              -0.3599908655276522,
              -0.02026954258326441,
              0.040831659478135406,
              -0.06517595616169274,
              0.43012590429279957,
              -0.07642254112288356,
              0.2558818934485316,
              0.18347502029500903,
              -0.20187219637446105,
              -0.1255486847134307,
              -0.36630809304770084,
              -0.35373396989889444,
              -0.432408235128969,
              0.05386727387085557,
              0.1015941318590194,
              -0.06299286873545498,
              -0.18631584781687707,
              -0.19693341033998876,
              -0.2096001575002447,
              0.10957937256898731,
              -0.309898413810879,
              0.2846098617883399,
              0.1367497676750645,
              0.003298807376995683,
              -0.4107896262779832,
              -0.054134689900092785,
              0.09977178939152509,
              0.35829286901280283,
              -0.1692450909409672,
              0.4467266981257126,
              -0.04855500804260373,
              -0.01625954476185143,
              -0.31501228020060806,
              0.002920526429079473,
              0.319109193328768,
              -0.04376602526754141,
              -0.2301528650801629,
              0.08207847713492811,
              -0.00835783809889108,
              0.29466204419732095,
              -0.2513699635863304,
              0.10544712992850691,
              -0.13627422207500786,
              -0.3086784739047289,
              0.028625152143649756,
              0.2737707850523293,
              -0.22607566975057125,
              0.4499884755117819,
              0.18901123108807952,
              -0.3380932820029557,
              0.1265643444377929,
              0.25750190746039153
            ],
            [
              -0.32551066274754703,
              -0.3973770850338042,
              -0.024591358727775514,
              -0.24280746267177164,
              0.27158854105509816,
              -0.414005465595983,
              -0.058105387492105365,
              -0.40718171442858875,
              -0.05303129721432925,
              -0.02029150484595448,
              -0.12876472561620175,
              0.3146241010632366,
              0.35951873010490093,
              0.24104668004438282,
              0.33402633983641866,
              -0.00739864013157785,
              -0.1149944615084678,
              0.02589820723515004,
              -0.27930065493565054,
              -0.2997636369662359,
              0.303504546568729,
              -0.07932177605107427,
              -0.08559576384723187,
              0.3004850606666878,
              -0.18088386640883983,
              -0.14265849078074097,
              -0.43527121141087266,
              -0.16662830498535186,
              -0.43022086350247263,
              -0.0885042792186141,
              0.4394907205598429,
              -0.0940938787534833,
              -0.33547455018851907,
              0.4147579167969525,
              0.20186676322482527,
              0.15853190703783185,
              -0.0781848169863224,
              -0.2144746124278754,
              0.39073028611019256,
              0.12108929576352238,
              -0.3967312015593052,
              -0.2870937545550987,
              -0.39889527882914994,
              0.17162732840515674,
              0.269158974965103,
              0.06010784301906824,
              -0.23606790751218795,
              0.21597138522192835,
              -0.02054296089336276,
              -0.03489153860136867,
              -0.015528394072316588,
              -0.12820698728319257,
              -0.2971371583873406,
              0.040833786805160345,
              0.31921941933687775,
              -0.3242250671843067,
              -0.13753945883363486,
              0.08579038849566133,
              -0.4241869711317122
            ],
            [
              -0.3895915997447446,
              -0.2370250445790589,
              0.3968541619833559,
              0.3885804765159264,
              -0.16463364525698126,
              -0.07314159641973675,
              -0.03129469065461308,
              -0.2361599385039881,
              -0.28077617960516366,
              -0.14188700700178744,
              -0.16863277719821781,
              0.18107278256211431,
              -0.2334337714361027,
              0.07938948422670365,
              -0.14238630691543222,
              0.0946105826413259,
              -0.048375808820128444,
              0.3269426029874012,
              -0.4418073094915599,
              0.04728387629147619,
              0.14894188495818525,
              -0.3700448399875313,
              0.367493315320462,
              0.40309749150183055,
              -0.1246332222595811,
              -0.36795884873718027,
              0.05731709401588887,
              -0.15883665962610394,
              0.10922888140194119,
              0.24269876279868186,
              0.13819325650110842,
              0.3133853234583512,
              -0.14694986615795644,
              -0.15234019097406418,
              -0.05772485830821097,
              -0.43486139355227355,
              0.17868503106292338,
              0.31626698195468633,
              0.30638677859678864,
              -0.34429427138529717,
              0.13447945271618664,
              0.41074927705340086,
              -0.3762729676673189,
              0.09134288197383285,
              -0.1007710981182754,
              0.21651277507189662,
              0.2690797207178548,
              -0.1794722246238962,
              -0.20648308298550547,
              0.23763661400880665,
              0.25801777734886855,
              -0.06918539239559322,
              0.41329732511658224,
              0.12633351352997124,
              0.3913295483915135,
              -0.4138464675983414,
              0.4346927310107276,
              0.08059928705915809,
              -0.43841941002756357
            ],
            [
              0.4107659283326939,
              0.3287693813676015,
              0.3813748110551387,
              0.29670436510350556,
              0.21663422549609096,
              -0.3342317727394402,
              0.3664906949037686,
              0.1417956023477018,
              -0.3232908852165565,
              -0.2674632943700999,
              0.18384592181537301,
              -0.43018343579024076,
              -0.2384966507088393,
              -0.4117173258913681,
              0.09394387810025365,
              -0.09799220259301365,
              -0.28662355430424213,
              0.3052094965009019,
              -0.43607691200450066,
              -0.21264993832446635,
              -0.4190550054889172,
              0.26781542964745314,
              -0.36130259167402984,
              0.06228297748602927,
              -0.2898473166162148,
              -0.2581870813155547,
              0.2791755774524063,
              0.10477770252618938,
              -0.31991878857370465,
              0.30717877834104,
              -0.4049484097631648,
              0.15129902574699372,
              -0.10478067118674517,
              -0.09100614215712995,
              0.42684417336713526,
              0.3810932801105082,
              0.16045006890781224,
              -0.15564231653697788,
              0.40355999779421836,
              0.3737422785256058,
              -0.28748591677285734,
              0.09617255197372288,
              -0.32667809987906365,
              0.42305122723337263,
              -0.04802323181647807,
              -0.024834990059025588,
              -0.34649623464792967,
              0.17558627121616155,
              -0.10003622397780419,
              -0.4176714971428737,
              -0.4066270910203457,
              0.055249551543965936,
              -0.27491113543510437,
              0.38480780997779224,
              -0.1787770308321342,
              -0.1586780124111101,
              0.2980509216198698,
              0.23396507597062738,
              0.07772981773596258
            ],
            [
              0.2687930854037404,
              0.009934814600273968,
              -0.33102166014723483,
              0.33482692285906523,
              -0.3669660072773695,
              -0.35866186742205175,
              0.11938264912459999,
              -0.21845002588815987,
              0.08688121335580945,
              -0.21226626173593105,
              -0.3571193971205503,
              0.16946009933017195,
              0.3862730347551406,
              -0.36964152900036423,
              0.0788210614817217,
              0.1618602476315573,
              0.1614923644345254,
              -0.3630213206168264,
              0.14486833701375873,
              -0.1377836873754859,
              -0.05795717092696578,
              0.18776670747902244,
              -0.1962314701639116,
              -0.31439074992667887,
              0.25331237765494735,
              0.33227267616894096,
              0.37834731603506955,
              0.18090553551446648,
              -0.379672022187151,
              -0.3129984950646758,
              -0.07393911543767899,
              -0.02308077800553292,
              0.2113101954571903,
              -0.12977497754618525,
              -0.07691416991874576,
              -0.07003749122377485,
              0.10067747980356216,
              -0.09004761264659465,
              0.23074816984590144,
              0.36599910424556586,
              -0.39934616822283714,
              0.14236646632198244,
              -0.16121376799419523,
              0.04240441527217627,
              0.11181738681625575,
              0.39565651542507113,
              0.2959548431681469,
              -0.061296770721673964,
              -0.028693918115459384,
              0.3238020476186648,
              -0.31307920336257666,
              0.33303682871628554,
              -0.24914474138058723,
              -0.28936173263937237,
              -0.003971278876997531,
              0.07146828356198967,
              -0.29268354519736023,
              0.41766642630100254,
              -0.01675911583006382
            ],
            [
              -0.3644022150663659,
              0.3846416854765266,
              -0.37865966556128117,
              0.024483542726375162,
              0.027256300603039563,
              0.3891005918383598,
              0.3015447090379894,
              0.3834739528829232,
              -0.19950542917940767,
              -0.4153977596433833,
              0.3063875516178087,
              -0.18040077290497722,
              0.25849613340105865,
              -0.36824941264931116,
              0.4229365948587656,
              -0.06513700797222555,
              0.3215044275624678,
              -0.4342027446487919,
              0.361482724850066,
              -0.17401100755669177,
              -0.2457011617720127,
              -0.06902971509844065,
              0.3373630107846111,
              0.3964713675901294,
              -0.2872551556443796,
              -0.34117618727032095,
              -0.04695743909105659,
              0.19087902568280699,
              -0.2560934778302908,
              -0.20183247139211744,
              -0.21224032267928125,
              -0.447940979199484,
              0.14881925331428647,
              -0.15391374786850065,
              -0.44669567376840863,
              0.01906837332062423,
              -0.32306247667875143,
              -0.13853008474688977,
              -0.060828072507865726,
              -0.20866827678401023,
              0.3301644722465426,
              0.309945963928476,
              -0.2598779496503994,
              -0.1937214489094913,
              -0.3910478732781485,
              0.4157242265995592,
              0.00006765599828213453,
              0.3051076723029837,
              -0.18283107031602414,
              0.041271913703531025,
              -0.06165389930829406,
              -0.007080006273463369,
              0.14433843791484832,
              -0.3598902751458809,
              0.3738976859254763,
              -0.42667169831693175,
              -0.18711438314057888,
              0.0026033514412119986,
              0.29287253762595356
            ],
            [
              0.3855213559465483,
              -0.3626942409435287,
              0.0061271741520613435,
              0.2478416152764112,
              -0.3757100271061063,
              0.42524406029842793,
              -0.34701490618754177,
              0.07737798211164773,
              0.04295994874555618,
              0.42597832779865713,
              0.4130093709100038,
              0.16846264426130803,
              -0.30202015426475554,
              0.14325144316535443,
              -0.4243450096109882,
              -0.28601039985660465,
              -0.3800844914512709,
              -0.27263436452485623,
              -0.1624591576633975,
              -0.12874544200021773,
              -0.007221264392137528,
              0.09902217881754041,
              -0.2749072793405503,
              0.16351212104782462,
              -0.1748903821455315,
              0.16618744265288116,
              0.024042023462243378,
              0.15162913254462182,
              -0.27394391410052776,
              0.19052118295803666,
              -0.26485555835533886,
              -0.44753751922398805,
              -0.39666063599288465,
              -0.1826359536498785,
              0.1382078996859491,
              -0.38224229381885383,
              -0.42807436287403106,
              0.215763078792952,
              0.30151063911616804,
              -0.19926652230788022,
              -0.06297555319033564,
              0.11581793886143714,
              -0.12940525682643056,
              0.3856895006960258,
              -0.3411874309647828,
              -0.4093229067977518,
              0.13174112183041872,
              -0.07940497188828886,
              0.22436771113425494,
              0.39195899160113185,
              -0.10375762511976064,
              0.340095099247992,
              0.09399323975667358,
              0.24562291335314512,
              0.21201263058464975,
              -0.3096409213263542,
              0.26719325815793127,
              0.25863101247232406,
              0.33041476509533824
            ],
            [
              -0.13828363395296037,
              0.11512675140984356,
              0.19992376053705813,
              0.3698596143862233,
              0.31965234777890145,
              0.3775355268269777,
              -0.01187122198753059,
              0.005688877729699016,
              0.18653628809843212,
              -0.17677913380321117,
              0.3306457535829395,
              0.15069178473204375,
              -0.2473245136672631,
              0.18213824797421693,
              0.3986298587406054,
              0.28010453036986294,
              -0.15277269969228655,
              -0.007178949611261487,
              0.03186480822041631,
              0.23154595813248308,
              -0.023730689403600992,
              0.02611440250184387,
              0.3173396763391793,
              -0.0022787249414250254,
              0.17254051622003316,
              -0.437752202572301,
              -0.25315022114664315,
              0.09557507776189596,
              -0.3057183664524928,
              -0.010857864562422038,
              -0.43246029953006654,
              0.20818627334665507,
              0.2495389240561053,
              0.037161656585522,
              0.23792959190905094,
              -0.2973053951282054,
              -0.19682719465345144,
              -0.23312789043411614,
              -0.26283118436113,
              0.0844143063062802,
              -0.4130689371144399,
              0.32860793648287656,
              -0.06411315996665508,
              -0.43802467728964983,
              -0.12048327850643546,
              0.31946460383478553,
              -0.4097211729269475,
              0.027954101585783066,
              0.08078030536416918,
              0.03743360869120806,
              -0.2856405140133575,
              0.0250579520361498,
              0.40522170171607286,
              -0.2584456475218758,
              0.08037120059598238,
              -0.24704353823326528,
              -0.3366563645889983,
              0.4135727835819125,
              -0.011337635479867459
            ]
          ],
          "biases": [
            -0.3076563270064071,
            0.1731976519804448,
            0.12871004585176707,
            0.34850336078088734,
            -0.08914025465492159,
            -0.13131735124625266,
            -0.04005550257861614,
            0.44966701443772766,
            0.2923925148323178,
            0.37987827316392214,
            0.2465884645935148,
            -0.2086950770812109
          ]
        },
        {
          "weights": [
            [
              0.20296611161902545,
              -0.20536371103953568,
              0.18373972007539122,
              0.14573879800736902,
              -0.022808192996308208,
              0.13003591108135878,
              0.07754515623673797,
              0.22323961318470537,
              -0.011724198749288916,
              0.3442317352397367,
              0.24185697205830364,
              -0.15784497931599617
            ],
            [
              -0.005752714863047004,
              0.27502160929143427,
              0.22758781143929807,
              0.08274576850235461,
              0.0330618639010936,
              0.022874345211312173,
              0.289259122335352,
              -0.25029832997824997,
              0.2584159531164914,
              -0.2628165420843288,
              0.32702792899217453,
              0.2098107609665021
            ],
            [
              0.34732942751143125,
              0.25857630257960407,
              -0.23445416926406323,
              -0.06958413366228342,
              0.18284904519096015,
              -0.14589130382519214,
              0.19702340227086096,
              0.03771533684339374,
              -0.15407946549821644,
              -0.11090732633601873,
              -0.14671118380501866,
              -0.06265793491620571
            ],
            [
              0.14702569709625093,
              0.2876228791894391,
              0.08218464276287704,
              0.34925719541497524,
              0.17605512137524781,
              -0.05552393612451851,
              -0.08285001665353775,
              -0.11544334897771477,
              -0.03881044522859156,
              -0.027807024284265933,
              -0.1435703317634761,
              0.18514258845243603
            ],
            [
              0.2261290562339127,
              -0.2906249424209818,
              0.3404029922792688,
              -0.3091519614914432,
              -0.32100267459172754,
              0.03636370853055268,
              -0.21131520508788526,
              -0.23554139439947902,
              -0.3047637198353186,
              -0.18499002787284552,
              0.274559463490732,
              0.3203590297140181
            ],
            [
              -0.22676365352235733,
              0.20659761312417685,
              -0.22416560712736097,
              0.0007209614850580692,
              -0.30144222697708756,
              -0.028704260638915,
              0.004821587493643164,
              0.14129477806854993,
              -0.32121765217743814,
              0.03478356278501451,
              0.08591426773928106,
              -0.23674898867029695
            ],
            [
              -0.13723485553637146,
              0.2942051407881081,
              -0.09267275873571634,
              -0.05304269511252641,
              0.03138943365775049,
              0.009879125677980482,
              -0.16158141382038593,
              -0.03211014170665294,
              0.3278605342376977,
              0.12232982099521904,
              -0.1294421494472772,
              -0.13930881111882626
            ],
            [
              -0.13102584835141898,
              0.2911837088409811,
              0.061507180915214114,
              0.1654056695755571,
              -0.03623323633801192,
              -0.06865535713732242,
              0.22356685712002217,
              -0.011435490963049232,
              0.3127222230425104,
              -0.06217895247973501,
              0.2557193476008251,
              -0.24146210304461418
            ]
          ],
          "biases": [
            -0.2299831690499559,
            0.3285415686899796,
            0.02521811577025801,
            -0.29637690985109655,
            -0.0767660993617028,
            0.295764734246768,
            -0.07792599874082952,
            0.31339306398294864
          ]
        },
        {
          "weights": [
            [
              -0.007942973054014146,
              -0.17177452356554568,
              -0.07938984234351665,
              0.1235904567874968,
              0.21425873902626336,
              -0.06981623009778559,
              0.17249362473376095,
              0.10945955466013402
            ],
            [
              -0.13343944202642888,
              0.19598895264789462,
              0.05648919311352074,
              -0.1430792025057599,
              -0.21654778788797557,
              -0.2438924484886229,
              0.036071359645575285,
              -0.17885926458984613
            ],
            [
              0.02831273025367409,
              -0.00680942926555872,
              0.01458327833097428,
              0.09893086063675582,
              -0.02603767195250839,
              0.07072975928895175,
              0.027853201259858906,
              -0.07245468453038484
            ]
          ],
          "biases": [
            0.07448662852402776,
            0.026684828219003975,
            0.042484876001253724
          ]
        }
      ]
    }
  },
  "rightBot": {
    "id": "control-0-atrina",
    "name": "Weaver rina",
    "schemaVersion": 1,
    "archetype": "control",
    "personality": "Leans into pickups, long exchanges, and court control.",
    "generation": 0,
    "lineageId": "control-0-atrina",
    "elo": 1032.6710773605812,
    "fitnessScore": 387.8,
    "matches": 7,
    "mutationProfile": {
      "source": null,
      "kind": "seed"
    },
    "controllerParams": {
      "fireThreshold": 0.6
    },
    "network": {
      "type": "mlp",
      "inputSize": 59,
      "layers": [
        {
          "weights": [
            [
              -0.3307254495564848,
              0.019980443618260325,
              -0.3589244192233309,
              -0.19312732620164752,
              -0.18204001625999808,
              0.23100755265913905,
              -0.23013634351082146,
              0.06286123115569353,
              0.37849153694696724,
              0.22656222456134856,
              0.2902251719729975,
              0.2509252600371838,
              -0.28860631990246477,
              0.1402936964761466,
              0.4186282907612622,
              0.04126270932611078,
              -0.29469696718733757,
              -0.3739416762487963,
              -0.06192062257323414,
              0.34375503631308674,
              -0.44195452777203176,
              0.11731051148381084,
              0.09146622691769153,
              0.3310359936207533,
              0.3408787403488532,
              -0.32764872908592224,
              -0.22577487321104855,
              0.09080396541394294,
              0.15905899631325157,
              -0.31746136732399466,
              0.05648457070346922,
              0.10802327392157167,
              -0.3898855400970206,
              0.2374238203279674,
              -0.23056813788134606,
              -0.23052438204176726,
              -0.16169245052151382,
              0.2534975678427145,
              0.01497206767089665,
              -0.12257816714700312,
              0.42397512272000315,
              -0.40638078209012746,
              -0.17667257005814463,
              -0.21508942984510213,
              0.43065699592698364,
              0.2226729567395523,
              0.00995572975371033,
              0.1151756558334455,
              0.3241184194106609,
              0.3635715592419729,
              0.06569898922462017,
              0.2022043282398954,
              -0.2290994683513418,
              -0.131193054956384,
              -0.1528727100463584,
              0.22163620081264526,
              0.03130916599184275,
              0.19853748469613494,
              -0.15491172659676522
            ],
            [
              -0.4213860666146502,
              -0.29845402180217206,
              0.16946628307923675,
              -0.0731711681932211,
              -0.29300808410625906,
              -0.2942239686381072,
              -0.20013379405718298,
              -0.24487726448569447,
              0.1936768563464284,
              0.020954471896402538,
              0.2020645933225751,
              -0.36771649606525897,
              0.40602667015045885,
              0.08220016120467336,
              0.04850894592236728,
              -0.3742322854232043,
              -0.35248803184367716,
              0.3056059525581077,
              -0.3893224744359031,
              -0.2788436593255028,
              -0.22565837020520121,
              0.02666498499456793,
              -0.2071362222544849,
              -0.10310301335994154,
              0.1470514342887327,
              0.3924472385086119,
              -0.17831510540563614,
              -0.384846968553029,
              -0.2479403631063178,
              -0.27877777882386,
              -0.4476927648531273,
              0.35262744678184393,
              0.34473200915381313,
              -0.1856414007022977,
              0.07807461863849312,
              0.26717808523681014,
              0.1919487912207842,
              0.2898674243828282,
              0.4451360570266843,
              0.0795511118369177,
              -0.20222537394147366,
              -0.25102212466299534,
              -0.3918559878598899,
              -0.2785475277341902,
              -0.1459269648883492,
              0.30575374457985166,
              0.2117852697847411,
              -0.025586059084162116,
              0.43091761611867696,
              -0.30833678310737017,
              0.015729758399538697,
              -0.20104562337510287,
              0.2417850936530158,
              -0.1305023544933647,
              -0.155335726425983,
              -0.1615340591641143,
              -0.03281047109048814,
              0.08379757781513035,
              0.04995508762076497
            ],
            [
              0.06566288250032813,
              -0.08517669090069831,
              0.30387186671141536,
              0.010308344895020128,
              0.08681289413943886,
              -0.3488951244391501,
              0.06409864397719503,
              -0.18727146273013204,
              -0.0411686603911221,
              -0.11805272167548538,
              0.26208656206727027,
              0.10026708149816842,
              0.21424684280063958,
              -0.23507411386817695,
              0.19167528762482108,
              -0.19891657931730153,
              -0.35585923204198483,
              -0.1833758502267301,
              0.12208596251439303,
              -0.4131456281756982,
              0.16866919132880867,
              -0.38683505037333815,
              -0.19856955343857408,
              -0.09361781934276224,
              -0.23817170674446972,
              0.13307205510791392,
              0.17749320887960493,
              -0.3304169242735952,
              0.014108731225132943,
              -0.36055969500448554,
              0.13130821853410454,
              -0.2719455501995981,
              -0.09946715603582561,
              -0.09757949612103403,
              0.19308060044422745,
              0.3408732474781573,
              0.2661529179196805,
              -0.06074740381445736,
              -0.19948718575760724,
              -0.29283329963218424,
              -0.24755559435579927,
              0.2705747785745189,
              -0.17596706945914775,
              0.21523026698268952,
              -0.30811576279811564,
              0.19209567673970016,
              -0.33935839366167786,
              -0.12249489859677852,
              -0.19330084144603463,
              0.018017756240442395,
              0.08914080031681806,
              0.0072143711149692535,
              0.07445402622688561,
              0.1586612580344081,
              -0.3700618627946824,
              0.20076645885128527,
              0.13177162357605995,
              0.1253798407036811,
              0.3211914636427537
            ],
            [
              0.0429603946628049,
              -0.11093778277281673,
              0.10046086795628072,
              -0.34823163687251507,
              -0.2258201553951949,
              -0.38782488713040947,
              -0.2115398793015629,
              -0.3847880077315495,
              -0.05839575191494078,
              0.08618775503709912,
              0.03413072351831943,
              -0.019525872264057397,
              -0.21021003944333644,
              0.04505506348796189,
              -0.3705925445538014,
              -0.2621538775507361,
              -0.24160749390721323,
              -0.22063138391822576,
              -0.37760511464439334,
              -0.4334195301868022,
              0.16674845369998367,
              -0.001112122228369117,
              0.13820380470715463,
              0.2584338587941602,
              0.06011646087281406,
              0.24354893777053804,
              0.026266416907310488,
              0.060662424308247864,
              -0.350231884396635,
              0.06792665077373386,
              -0.11747022299095988,
              0.37182752389926466,
              -0.30137351222801956,
              0.25718701486475765,
              0.41838983923662454,
              -0.058030512160621585,
              -0.15035675838589668,
              0.2187814943259582,
              -0.10331121606286615,
              0.21327622805256397,
              0.08717928032856435,
              -0.3742944504367188,
              0.2719339615898207,
              0.33149596920702606,
              0.0744993394240737,
              -0.21869529818650335,
              -0.38600484989583494,
              0.17338710415642708,
              0.03368833840359003,
              -0.049576279870234434,
              0.27909647512715313,
              0.030276265321299435,
              0.35149286943487823,
              -0.1991804554592818,
              0.13473198520950974,
              0.053699382464401424,
              -0.41084444224834443,
              0.3198564414633438,
              0.34532346369232986
            ],
            [
              -0.16418512186501175,
              -0.07134027366992086,
              -0.09261776902712882,
              0.11161146713420748,
              -0.30046535544097425,
              -0.39623331252951177,
              -0.38902161628939214,
              0.3257403333904222,
              -0.07618795302696527,
              0.19197596178855747,
              -0.27882185191847386,
              0.3576500298455358,
              0.05002194168046117,
              -0.009976815688423813,
              0.24782604086212814,
              0.17688741604797542,
              0.04339232062920928,
              -0.4205995042109862,
              0.2296009090030566,
              -0.2510133574018255,
              -0.048054800787940624,
              -0.0909349906956777,
              0.23568881708197295,
              0.20419189059175552,
              -0.2407610790571198,
              0.22666718484833837,
              -0.22559817326255144,
              0.41626235903240744,
              0.22877128813415767,
              -0.24745673462748527,
              -0.10340573606081307,
              0.1653136200271547,
              0.301896664313972,
              -0.3269920773804188,
              -0.18053617500700056,
              -0.19554088411387058,
              -0.3517840265762061,
              -0.043239178438670936,
              0.24154039886780085,
              0.02714552809484303,
              0.2513050482608378,
              -0.31141830976121126,
              0.1179787650005892,
              -0.22106498333159835,
              -0.30915266666561364,
              0.13531861826777458,
              -0.13597333354409785,
              0.09383002733811736,
              -0.35425197340082376,
              0.14617346429731698,
              0.014986245660111308,
              -0.1505464125657454,
              -0.0804363273549825,
              -0.1720486745238304,
              -0.007161557581275702,
              -0.3484232434071601,
              -0.43395388992503287,
              0.28007213305681944,
              -0.2789464250206947
            ],
            [
              -0.2380829566391185,
              0.2086366267176345,
              -0.06551131987944246,
              0.11478557693772018,
              0.3319363585906103,
              0.3490200849948451,
              0.4264448502799496,
              0.01726403245702386,
              0.18069979331921787,
              0.3530248889699578,
              -0.06097256960347295,
              -0.07405697673093528,
              -0.11277408320456743,
              0.18976892034988851,
              0.3572360824327916,
              -0.31118564133066684,
              0.2502809064695612,
              0.039685734920203684,
              0.41412912842351945,
              -0.09010118411388249,
              -0.012139280489645899,
              0.44202467675786467,
              -0.10317561321426183,
              -0.030304116918705406,
              0.3371026931796223,
              0.2396934339310974,
              0.27880756244994703,
              -0.17232419836800547,
              0.3240455500781536,
              0.22798135306220502,
              0.2232726875692606,
              0.10047371489927173,
              -0.21149654590990394,
              0.3579959356924519,
              0.41134659787639977,
              0.38126750718802216,
              -0.29980026378761976,
              0.3839067972963676,
              -0.24480539301875978,
              -0.1669870810350403,
              -0.4051962253404781,
              -0.13275012590456756,
              -0.3335610054899007,
              0.04046888567972928,
              0.14787712446413934,
              0.2066099705407396,
              0.11269695607479661,
              -0.007269836263731122,
              0.30841834656894207,
              0.1797373660141602,
              0.3879796111956239,
              0.3847528913291171,
              0.12399610520806163,
              0.23833837523125112,
              0.41661577820777895,
              0.2877971638692543,
              -0.11375858990941197,
              -0.40555279653053733,
              -0.17355401592794806
            ],
            [
              -0.1755330519983545,
              0.05108039563056082,
              0.05576202319934964,
              -0.10429515845607966,
              0.3360032712109387,
              -0.036071744933724406,
              0.10572903323918581,
              0.2418705597287044,
              0.25001178472302854,
              -0.42893539534416053,
              0.0019574390491470697,
              0.2731691033346579,
              0.38549435008317234,
              -0.24157419491093607,
              0.3536150556290522,
              -0.32992008549626917,
              0.12344427234493197,
              0.07304428042843938,
              -0.2571206025313586,
              -0.06461041092406959,
              0.18882127390243114,
              0.12528872941620647,
              0.21347680888138712,
              0.4102833088254556,
              0.1266065856674686,
              -0.4165405745152384,
              -0.25937606245279315,
              -0.19267886043526233,
              0.047430620575323705,
              0.39061392832081765,
              0.12980714414734393,
              -0.026439507608301938,
              0.2501844284590334,
              -0.3011087427847087,
              0.2214406537357718,
              -0.12510557121131569,
              -0.020750163425691425,
              0.09821494957432152,
              0.28966083561535927,
              -0.15985867325216532,
              -0.33766200332902374,
              -0.42797826582100246,
              0.023792877048254012,
              0.01523279577959329,
              -0.4452000451041386,
              -0.10803927979432047,
              0.28291064759250734,
              0.0297218055697158,
              -0.08947838209569454,
              -0.19999187355861067,
              0.33439025399275124,
              -0.4306479872670025,
              0.15140422722324728,
              0.32660074392333627,
              0.11755738493520766,
              0.3001743456115946,
              -0.26002974822185937,
              0.2715099923545495,
              0.373088965122588
            ],
            [
              -0.3155497230123729,
              -0.32143727238290015,
              0.009641298791393638,
              0.17868154523894192,
              -0.10783454154152423,
              0.44943547274451706,
              0.12801042830105872,
              0.05892579748760909,
              -0.11858219937421381,
              -0.41477074529975655,
              0.3041884641861543,
              0.4457569379126653,
              -0.4409741460112855,
              0.08916032428387553,
              0.08229624568484724,
              0.42050547329708937,
              0.2129790824605152,
              0.03575424703303725,
              0.3428335713688284,
              -0.3952197193633765,
              -0.09586320358794183,
              -0.036877185897901656,
              0.1469193208264187,
              0.24660872386302798,
              0.3772424009861425,
              0.14957570813130588,
              0.4147790458984673,
              -0.14199419771321117,
              -0.3002716337330639,
              0.3240129668964073,
              -0.39432417273055764,
              -0.23025739328004421,
              0.22215567596722394,
              -0.2935653687687591,
              0.08554310977924616,
              -0.39973304292652756,
              0.13141425421927125,
              -0.2970968192210421,
              -0.1800563701428473,
              -0.36205435304436834,
              -0.04430581878405065,
              -0.43453366218600425,
              -0.05875900201499462,
              -0.00350914872251451,
              0.3184007330797613,
              -0.22989005763083697,
              -0.2924252713099122,
              0.20876779051031918,
              -0.059864110057242216,
              -0.15255597783252597,
              0.10453637894243002,
              0.13533501222264022,
              0.10943112708628178,
              -0.2920959744136781,
              -0.0975687668658793,
              0.037976711592637005,
              -0.41760803083889186,
              0.22462017133366316,
              -0.42898504659533504
            ],
            [
              -0.19510676607023925,
              0.3293920354451984,
              -0.3102486836956814,
              0.27539960404392333,
              -0.08155350303277374,
              0.3041047897422686,
              -0.42589308992028235,
              0.21382360237184914,
              0.09880156021099538,
              -0.3603762201732025,
              -0.13122420713771135,
              -0.02324921654071659,
              -0.10549787145573646,
              0.12393732082564383,
              0.27515900905709717,
              -0.36027863826602696,
              0.35025571938604116,
              -0.4234296188224107,
              -0.3819802853744477,
              0.37046770532615486,
              -0.2764329847879708,
              0.3429066590499133,
              -0.301260018744506,
              -0.3843153781956062,
              -0.18148988785687833,
              -0.292736121523194,
              0.04973278928082436,
              0.322131617506966,
              -0.2682694289367646,
              -0.011586978239938617,
              -0.13848830410279334,
              0.4092320716939867,
              -0.17892241515219212,
              -0.40905571875628083,
              -0.40732767605222764,
              0.00830424944870174,
              0.259032396459952,
              0.27722745027858764,
              0.029648003540933134,
              0.44685044812504204,
              -0.09795478011947126,
              0.381734305433929,
              -0.08154274569824338,
              -0.15290115717798472,
              0.2264071134617552,
              -0.43203681414015593,
              -0.3695269389543682,
              0.09867607997730375,
              0.2846739833476022,
              0.076857835566625,
              0.4001064183656126,
              -0.44629098793957384,
              0.1861833718372509,
              0.1812226987676695,
              0.443289084546268,
              -0.41638970989733937,
              -0.31977756922133266,
              0.44601646782830356,
              -0.382211152324453
            ],
            [
              -0.09343221927992999,
              0.4155644308542833,
              -0.037231508851982655,
              0.07817050865851342,
              -0.2687666979152709,
              0.33611454160418364,
              -0.1832784365862608,
              -0.1565834186039865,
              -0.3043660874012858,
              0.2402289671357721,
              -0.2875569431344047,
              0.1163708655629307,
              0.14703914138954133,
              -0.26654655367601665,
              0.28879923799540846,
              0.060056124161928896,
              -0.18109563519246877,
              0.21276791403070092,
              0.16916957041248679,
              0.03143345578573644,
              0.08063456083182245,
              0.10711190372239798,
              -0.3423292856896296,
              -0.10845385228749364,
              -0.3399700383190066,
              0.34551562783308326,
              0.0925731230294332,
              -0.09686031688470394,
              0.28193865360226483,
              0.3025722262216732,
              0.23640617912169545,
              -0.09520174025092275,
              0.28615408369805667,
              0.07489955581258982,
              -0.05495123898144812,
              0.43859510037582367,
              -0.23065406139940023,
              0.26201393371447923,
              -0.15045133391395213,
              0.25976264965720475,
              -0.21466551572084427,
              -0.3103424038505182,
              -0.3213235695613548,
              0.21955168833956124,
              -0.26997452178038656,
              0.11856316239573061,
              -0.3385056247003377,
              -0.391330349072814,
              -0.20223905676975848,
              -0.04422509644646198,
              0.07247770400717855,
              -0.18916904262732714,
              -0.010024565923959018,
              0.35810841936618093,
              0.02256807542871684,
              -0.0028835431672632693,
              0.07094465475529432,
              -0.2677101973677054,
              -0.05849869698286057
            ],
            [
              0.09586659092456103,
              0.31374888599384576,
              -0.41272227752488105,
              0.1671753425616771,
              -0.3436618146719411,
              -0.12123410634230823,
              -0.10657686232589185,
              0.26269816963467746,
              -0.19588622082956136,
              0.3557525023352355,
              -0.0821390797616914,
              -0.44532867064699533,
              0.1881373554468155,
              -0.29833048994187267,
              -0.30857703485526145,
              0.2494942263001576,
              0.306294989422895,
              -0.07725878285709768,
              -0.25935123588424175,
              -0.40415689763613044,
              -0.14302557832561433,
              0.23029586202465,
              0.05039597928989679,
              0.09159105902072043,
              0.026958383456803858,
              -0.2822312323143706,
              0.1758959584403783,
              0.3301508397096768,
              -0.1649842455983162,
              -0.142459395644255,
              -0.13571080940309913,
              0.34736366900615395,
              0.2182116973679513,
              0.43877140218392013,
              0.247498595318757,
              0.2651366207515821,
              -0.35476702752057465,
              -0.3542417514603585,
              0.2744004132924602,
              0.30667287327814846,
              0.015202196803875268,
              0.3036177894333378,
              0.009450778970494867,
              0.44267504203598945,
              -0.4177163279615343,
              0.2791646562516689,
              -0.17509807837195696,
              0.06267985599115491,
              0.19592892264481634,
              0.3470300988061354,
              -0.28584150953684,
              -0.1827914901310578,
              -0.17864849434699864,
              0.2249200003920123,
              0.23506904281675817,
              0.4016203792998567,
              -0.3131035092053935,
              0.166885683266446,
              -0.2745708142407239
            ],
            [
              -0.24333863372448833,
              0.4455283141694963,
              0.3930672548012808,
              0.1364606173709035,
              -0.17208899022080004,
              0.16644237090367825,
              0.008678198629058899,
              -0.4250834961421788,
              0.08512091373559087,
              -0.2877902423031628,
              -0.4486078308429569,
              -0.32660748842172327,
              -0.24001757071819158,
              0.2173221685225144,
              0.356726396502927,
              0.04649689311627299,
              0.4055673569440842,
              0.1716361279366538,
              0.12401717710308731,
              0.042550488584674896,
              -0.22303896134253592,
              0.00005648836959153414,
              0.30181401057634505,
              0.3827951547224075,
              -0.43673459405545145,
              -0.3776277457829565,
              0.05989619011525065,
              -0.17972204599063843,
              -0.1866957739228383,
              0.2664729324867949,
              0.002551615610718727,
              -0.006067912210710347,
              -0.4242961026728153,
              -0.33855354131665083,
              -0.14426651049870998,
              0.01885551551822573,
              0.4084380479296669,
              0.2542902211658657,
              -0.2830258551752195,
              0.10370002530980856,
              0.285941366921179,
              -0.18196597807109358,
              -0.38860147926025096,
              -0.05473103213589638,
              0.18652693829499187,
              0.4025986685184762,
              0.09795895828865468,
              -0.31714744451455773,
              0.03700093924999237,
              -0.3346070749685168,
              -0.2596477320883423,
              -0.4074618548154831,
              0.42142092275898907,
              0.31820422648452223,
              0.1775722225662321,
              0.18030001781880856,
              0.3102508650859818,
              0.33641161301638933,
              0.22123815743252637
            ]
          ],
          "biases": [
            0.10006700295489282,
            -0.07365993079729379,
            -0.269265446299687,
            -0.12061601977329701,
            -0.37363751395605505,
            -0.43674908950924873,
            0.44082693171221765,
            0.26145588252693414,
            0.3725820487830788,
            -0.031076264334842563,
            -0.33103332817554476,
            -0.4038323254091665
          ]
        },
        {
          "weights": [
            [
              -0.3280967835104093,
              -0.25808509034104643,
              0.3225400209194049,
              -0.2595523569267243,
              -0.1452964769443497,
              -0.06915862576570361,
              0.23864195286296305,
              -0.0189739199122414,
              -0.2070825773058459,
              0.2539915188215673,
              -0.017461926327086985,
              0.19244786135386674
            ],
            [
              0.09567283554933964,
              -0.2887511536478996,
              0.31935106196906415,
              0.24481005903799086,
              0.1084651322569698,
              0.023838609643280505,
              -0.12538519138470292,
              -0.16764800928067414,
              0.22833636046852915,
              -0.24726449416484683,
              0.12880144948139785,
              -0.018687120149843393
            ],
            [
              -0.28965241597034036,
              -0.024014134961180388,
              0.28034555027261376,
              0.13869020882993935,
              -0.03142428789287805,
              -0.30123281211126596,
              0.1480639120796695,
              -0.15598260478582232,
              0.011850224155932664,
              0.271672117523849,
              0.27575289239175615,
              -0.2862189499661326
            ],
            [
              -0.2211033519124612,
              0.07542961642611772,
              0.2822863209992647,
              -0.3004592294571921,
              0.2652754357317462,
              0.18190529735293237,
              -0.12451008872594684,
              -0.09736419380642473,
              0.1606662076199427,
              -0.3295790010364726,
              0.02276330057065934,
              -0.13964774082414805
            ],
            [
              -0.2649376620538533,
              -0.21249616818968206,
              0.16684147748164832,
              0.10606968516949564,
              -0.048196499701589346,
              -0.2899733010213822,
              0.17520118511747568,
              -0.3354109623702243,
              -0.19162002853117882,
              0.16778433772269635,
              -0.31859876306261864,
              0.09646184016019105
            ],
            [
              -0.2966759726637974,
              -0.33053712514229117,
              -0.30308918794617057,
              0.29403496077284214,
              0.2986581916920841,
              -0.20645460032392293,
              -0.30046977077145126,
              -0.15205439114943145,
              0.285375596745871,
              -0.032744092773646115,
              0.08066023553255945,
              -0.031220607040449974
            ],
            [
              -0.29904758257325736,
              0.17093958330806344,
              -0.026112090866081416,
              0.30668397510889917,
              0.3136116211302578,
              -0.3495912426849827,
              0.33979641329497096,
              0.3071555176051333,
              -0.31465106254909186,
              0.25881858787033707,
              0.0006625010166317224,
              0.2139439376303926
            ],
            [
              -0.1290250377031043,
              0.3410402484470978,
              0.016626333957538007,
              0.3335454092128202,
              -0.05773549482692033,
              -0.053761798609048124,
              0.3077096533961594,
              0.2961311489809304,
              0.22229577326215802,
              0.24683754257857798,
              -0.27522115204483266,
              -0.25878987363539635
            ]
          ],
          "biases": [
            0.08061737320385873,
            -0.15227579623460769,
            -0.21057874700054524,
            -0.3113661529961973,
            -0.03693913638126105,
            0.0926820105407387,
            0.08516997594852,
            -0.026564442459493874
          ]
        },
        {
          "weights": [
            [
              -0.1095094314077869,
              0.1078137158183381,
              -0.02178463712334633,
              -0.11778533016331494,
              0.16237401973921806,
              -0.16947688278742135,
              -0.1420379652408883,
              0.11988949147053063
            ],
            [
              -0.016350409481674433,
              -0.2197253394406289,
              -0.0769612321164459,
              0.037508977693505585,
              -0.08260520687326789,
              -0.05700309632811695,
              0.20047988032456487,
              -0.24377453909255564
            ],
            [
              -0.2198306726058945,
              0.024578025098890066,
              -0.03749708051327616,
              0.20160873234272003,
              0.12531164847314358,
              -0.17889893741812557,
              -0.11774099653121084,
              -0.17606864182744175
            ]
          ],
          "biases": [
            0.16565610258840024,
            -0.2342304033227265,
            0.016058936365880072
          ]
        }
      ]
    }
  },
  "replay": {
    "version": 1,
    "seed": 324788929,
    "configHash": "3a06a5c9",
    "actions": [
      {
        "tick": 2,
        "side": "left",
        "action": {
          "moveAxis": 0,
          "fire": false
        }
      },
      {
        "tick": 2,
        "side": "right",
        "action": {
          "moveAxis": -1,
          "fire": false
        }
      },
      {
        "tick": 4,
        "side": "left",
        "action": {
          "moveAxis": 0,
          "fire": false
        }
      },
      {
        "tick": 4,
        "side": "right",
        "action": {
          "moveAxis": -1,
          "fire": false
        }
      },
      {
        "tick": 6,
        "side": "left",
        "action": {
          "moveAxis": 0,
          "fire": false
        }
      },
      {
        "tick": 6,
        "side": "right",
        "action": {
          "moveAxis": -1,
          "fire": false
        }
      },
      {
        "tick": 8,
        "side": "left",
        "action": {
          "moveAxis": 0,
          "fire": false
        }
      },
      {
        "tick": 8,
        "side": "right",
        "action": {
          "moveAxis": -1,
          "fire": false
        }
      },
      {
        "tick": 10,
        "side": "left",
        "action": {
          "moveAxis": 0,
          "fire": false
        }
      },
      {
        "tick": 10,
        "side": "right",
        "action": {
          "moveAxis": -1,
          "fire": false
        }
      },
      {
        "tick": 12,
        "side": "left",
        "action": {
          "moveAxis": 0,
          "fire": false
        }
      },
      {
        "tick": 12,
        "side": "right",
        "action": {
          "moveAxis": -1,
          "fire": false
        }
      },
      {
        "tick": 14,
        "side": "left",
        "action": {
          "moveAxis": 0,
          "fire": false
        }
      },
      {
        "tick": 14,
        "side": "right",
        "action": {
          "moveAxis": -1,
          "fire": false
        }
      },
      {
        "tick": 16,
        "side": "left",
        "action": {
          "moveAxis": 0,
          "fire": false
        }
      },
      {
        "tick": 16,
        "side": "right",
        "action": {
          "moveAxis": -1,
          "fire": false
        }
      },
      {
        "tick": 18,
        "side": "left",
        "action": {
          "moveAxis": 0,
          "fire": false
        }
      },
      {
        "tick": 18,
        "side": "right",
        "action": {
          "moveAxis": -1,
          "fire": false
        }
      },
      {
        "tick": 20,
        "side": "left",
        "action": {
          "moveAxis": 0,
          "fire": false
        }
      },
      {
        "tick": 20,
        "side": "right",
        "action": {
          "moveAxis": -1,
          "fire": false
        }
      },
      {
        "tick": 22,
        "side": "left",
        "action": {
          "moveAxis": 0,
          "fire": false
        }
      },
      {
        "tick": 22,
        "side": "right",
        "action": {
          "moveAxis": -1,
          "fire": false
        }
      },
      {
        "tick": 24,
        "side": "left",
        "action": {
          "moveAxis": 0,
          "fire": false
        }
      },
      {
        "tick": 24,
        "side": "right",
        "action": {
          "moveAxis": -1,
          "fire": false
        }
      },
      {
        "tick": 26,
        "side": "left",
        "action": {
          "moveAxis": 0,
          "fire": false
        }
      },
      {
        "tick": 26,
        "side": "right",
        "action": {
          "moveAxis": -1,
          "fire": false
        }
      },
      {
        "tick": 28,
        "side": "left",
        "action": {
          "moveAxis": 0,
          "fire": false
        }
      },
      {
        "tick": 28,
        "side": "right",
        "action": {
          "moveAxis": -1,
          "fire": false
        }
      },
      {
        "tick": 30,
        "side": "left",
        "action": {
          "moveAxis": 0,
          "fire": false
        }
      },
      {
        "tick": 30,
        "side": "right",
        "action": {
          "moveAxis": -1,
          "fire": false
        }
      },
      {
        "tick": 32,
        "side": "left",
        "action": {
          "moveAxis": 0,
          "fire": false
        }
      },
      {
        "tick": 32,
        "side": "right",
        "action": {
          "moveAxis": -1,
          "fire": false
        }
      },
      {
        "tick": 34,
        "side": "left",
        "action": {
          "moveAxis": 0,
          "fire": false
        }
      },
      {
        "tick": 34,
        "side": "right",
        "action": {
          "moveAxis": -1,
          "fire": false
        }
      },
      {
        "tick": 36,
        "side": "left",
        "action": {
          "moveAxis": 0,
          "fire": false
        }
      },
      {
        "tick": 36,
        "side": "right",
        "action": {
          "moveAxis": -1,
          "fire": false
        }
      },
      {
        "tick": 38,
        "side": "left",
        "action": {
          "moveAxis": 0,
          "fire": false
        }
      },
      {
        "tick": 38,
        "side": "right",
        "action": {
          "moveAxis": -1,
          "fire": false
        }
      },
      {
        "tick": 40,
        "side": "left",
        "action": {
          "moveAxis": 0,
          "fire": false
        }
      },
      {
        "tick": 40,
        "side": "right",
        "action": {
          "moveAxis": -1,
          "fire": false
        }
      },
      {
        "tick": 42,
        "side": "left",
        "action": {
          "moveAxis": 0,
          "fire": false
        }
      },
      {
        "tick": 42,
        "side": "right",
        "action": {
          "moveAxis": -1,
          "fire": false
        }
      },
      {
        "tick": 44,
        "side": "left",
        "action": {
          "moveAxis": 0,
          "fire": false
        }
      },
      {
        "tick": 44,
        "side": "right",
        "action": {
          "moveAxis": -1,
          "fire": false
        }
      },
      {
        "tick": 46,
        "side": "left",
        "action": {
          "moveAxis": 0,
          "fire": false
        }
      },
      {
        "tick": 46,
        "side": "right",
        "action": {
          "moveAxis": -1,
          "fire": false
        }
      },
      {
        "tick": 48,
        "side": "left",
        "action": {
          "moveAxis": 0,
          "fire": false
        }
      },
      {
        "tick": 48,
        "side": "right",
        "action": {
          "moveAxis": -1,
          "fire": false
        }
      },
      {
        "tick": 50,
        "side": "left",
        "action": {
          "moveAxis": 0,
          "fire": false
        }
      },
      {
        "tick": 50,
        "side": "right",
        "action": {
          "moveAxis": -1,
          "fire": false
        }
      },
      {
        "tick": 52,
        "side": "left",
        "action": {
          "moveAxis": 0,
          "fire": false
        }
      },
      {
        "tick": 52,
        "side": "right",
        "action": {
          "moveAxis": -1,
          "fire": false
        }
      },
      {
        "tick": 54,
        "side": "left",
        "action": {
          "moveAxis": 0,
          "fire": false
        }
      },
      {
        "tick": 54,
        "side": "right",
        "action": {
          "moveAxis": -1,
          "fire": false
        }
      },
      {
        "tick": 56,
        "side": "left",
        "action": {
          "moveAxis": 0,
          "fire": false
        }
      },
      {
        "tick": 56,
        "side": "right",
        "action": {
          "moveAxis": -1,
          "fire": false
        }
      },
      {
        "tick": 58,
        "side": "left",
        "action": {
          "moveAxis": 0,
          "fire": false
        }
      },
      {
        "tick": 58,
        "side": "right",
        "action": {
          "moveAxis": -1,
          "fire": false
        }
      },
      {
        "tick": 60,
        "side": "left",
        "action": {
          "moveAxis": 0,
          "fire": false
        }
      },
      {
        "tick": 60,
        "side": "right",
        "action": {
          "moveAxis": -1,
          "fire": false
        }
      },
      {
        "tick": 62,
        "side": "left",
        "action": {
          "moveAxis": 0,
          "fire": false
        }
      },
      {
        "tick": 62,
        "side": "right",
        "action": {
          "moveAxis": -1,
          "fire": false
        }
      },
      {
        "tick": 64,
        "side": "left",
        "action": {
          "moveAxis": 0,
          "fire": false
        }
      },
      {
        "tick": 64,
        "side": "right",
        "action": {
          "moveAxis": -1,
          "fire": false
        }
      },
      {
        "tick": 66,
        "side": "left",
        "action": {
          "moveAxis": 0,
          "fire": false
        }
      },
      {
        "tick": 66,
        "side": "right",
        "action": {
          "moveAxis": -1,
          "fire": false
        }
      },
      {
        "tick": 68,
        "side": "left",
        "action": {
          "moveAxis": 0,
          "fire": false
        }
      },
      {
        "tick": 68,
        "side": "right",
        "action": {
          "moveAxis": -1,
          "fire": false
        }
      },
      {
        "tick": 70,
        "side": "left",
        "action": {
          "moveAxis": 0,
          "fire": false
        }
      },
      {
        "tick": 70,
        "side": "right",
        "action": {
          "moveAxis": -1,
          "fire": false
        }
      },
      {
        "tick": 72,
        "side": "left",
        "action": {
          "moveAxis": 0,
          "fire": false
        }
      },
      {
        "tick": 72,
        "side": "right",
        "action": {
          "moveAxis": -1,
          "fire": false
        }
      },
      {
        "tick": 74,
        "side": "left",
        "action": {
          "moveAxis": 0,
          "fire": false
        }
      },
      {
        "tick": 74,
        "side": "right",
        "action": {
          "moveAxis": -1,
          "fire": false
        }
      },
      {
        "tick": 76,
        "side": "left",
        "action": {
          "moveAxis": 0,
          "fire": false
        }
      },
      {
        "tick": 76,
        "side": "right",
        "action": {
          "moveAxis": -1,
          "fire": false
        }
      },
      {
        "tick": 78,
        "side": "left",
        "action": {
          "moveAxis": 0,
          "fire": false
        }
      },
      {
        "tick": 78,
        "side": "right",
        "action": {
          "moveAxis": -1,
          "fire": false
        }
      },
      {
        "tick": 80,
        "side": "left",
        "action": {
          "moveAxis": 0,
          "fire": false
        }
      },
      {
        "tick": 80,
        "side": "right",
        "action": {
          "moveAxis": -1,
          "fire": false
        }
      },
      {
        "tick": 82,
        "side": "left",
        "action": {
          "moveAxis": 0,
          "fire": false
        }
      },
      {
        "tick": 82,
        "side": "right",
        "action": {
          "moveAxis": -1,
          "fire": false
        }
      },
      {
        "tick": 84,
        "side": "left",
        "action": {
          "moveAxis": 0,
          "fire": false
        }
      },
      {
        "tick": 84,
        "side": "right",
        "action": {
          "moveAxis": -1,
          "fire": false
        }
      },
      {
        "tick": 86,
        "side": "left",
        "action": {
          "moveAxis": 0,
          "fire": false
        }
      },
      {
        "tick": 86,
        "side": "right",
        "action": {
          "moveAxis": -1,
          "fire": false
        }
      },
      {
        "tick": 88,
        "side": "left",
        "action": {
          "moveAxis": 0,
          "fire": false
        }
      },
      {
        "tick": 88,
        "side": "right",
        "action": {
          "moveAxis": -1,
          "fire": false
        }
      },
      {
        "tick": 90,
        "side": "left",
        "action": {
          "moveAxis": 0,
          "fire": false
        }
      },
      {
        "tick": 90,
        "side": "right",
        "action": {
          "moveAxis": -1,
          "fire": false
        }
      },
      {
        "tick": 92,
        "side": "left",
        "action": {
          "moveAxis": 0,
          "fire": false
        }
      },
      {
        "tick": 92,
        "side": "right",
        "action": {
          "moveAxis": -1,
          "fire": false
        }
      },
      {
        "tick": 94,
        "side": "left",
        "action": {
          "moveAxis": 0,
          "fire": false
        }
      },
      {
        "tick": 94,
        "side": "right",
        "action": {
          "moveAxis": -1,
          "fire": false
        }
      },
      {
        "tick": 96,
        "side": "left",
        "action": {
          "moveAxis": 0,
          "fire": false
        }
      },
      {
        "tick": 96,
        "side": "right",
        "action": {
          "moveAxis": -1,
          "fire": false
        }
      },
      {
        "tick": 98,
        "side": "left",
        "action": {
          "moveAxis": 0,
          "fire": false
        }
      },
      {
        "tick": 98,
        "side": "right",
        "action": {
          "moveAxis": -1,
          "fire": false
        }
      },
      {
        "tick": 100,
        "side": "left",
        "action": {
          "moveAxis": 0,
          "fire": false
        }
      },
      {
        "tick": 100,
        "side": "right",
        "action": {
          "moveAxis": -1,
          "fire": false
        }
      },
      {
        "tick": 102,
        "side": "left",
        "action": {
          "moveAxis": 0,
          "fire": false
        }
      },
      {
        "tick": 102,
        "side": "right",
        "action": {
          "moveAxis": -1,
          "fire": false
        }
      },
      {
        "tick": 104,
        "side": "left",
        "action": {
          "moveAxis": 0,
          "fire": false
        }
      },
      {
        "tick": 104,
        "side": "right",
        "action": {
          "moveAxis": -1,
          "fire": false
        }
      },
      {
        "tick": 106,
        "side": "left",
        "action": {
          "moveAxis": 0,
          "fire": false
        }
      },
      {
        "tick": 106,
        "side": "right",
        "action": {
          "moveAxis": -1,
          "fire": false
        }
      },
      {
        "tick": 108,
        "side": "left",
        "action": {
          "moveAxis": 0,
          "fire": false
        }
      },
      {
        "tick": 108,
        "side": "right",
        "action": {
          "moveAxis": -1,
          "fire": false
        }
      },
      {
        "tick": 110,
        "side": "left",
        "action": {
          "moveAxis": 0,
          "fire": false
        }
      },
      {
        "tick": 110,
        "side": "right",
        "action": {
          "moveAxis": -1,
          "fire": false
        }
      },
      {
        "tick": 112,
        "side": "left",
        "action": {
          "moveAxis": 0,
          "fire": false
        }
      },
      {
        "tick": 112,
        "side": "right",
        "action": {
          "moveAxis": -1,
          "fire": false
        }
      },
      {
        "tick": 114,
        "side": "left",
        "action": {
          "moveAxis": 0,
          "fire": false
        }
      },
      {
        "tick": 114,
        "side": "right",
        "action": {
          "moveAxis": -1,
          "fire": false
        }
      },
      {
        "tick": 116,
        "side": "left",
        "action": {
          "moveAxis": 0,
          "fire": false
        }
      },
      {
        "tick": 116,
        "side": "right",
        "action": {
          "moveAxis": -1,
          "fire": false
        }
      },
      {
        "tick": 118,
        "side": "left",
        "action": {
          "moveAxis": 0,
          "fire": false
        }
      },
      {
        "tick": 118,
        "side": "right",
        "action": {
          "moveAxis": -1,
          "fire": false
        }
      },
      {
        "tick": 120,
        "side": "left",
        "action": {
          "moveAxis": 0,
          "fire": false
        }
      },
      {
        "tick": 120,
        "side": "right",
        "action": {
          "moveAxis": -1,
          "fire": false
        }
      },
      {
        "tick": 122,
        "side": "left",
        "action": {
          "moveAxis": 0,
          "fire": false
        }
      },
      {
        "tick": 122,
        "side": "right",
        "action": {
          "moveAxis": -1,
          "fire": false
        }
      },
      {
        "tick": 124,
        "side": "left",
        "action": {
          "moveAxis": 0,
          "fire": false
        }
      },
      {
        "tick": 124,
        "side": "right",
        "action": {
          "moveAxis": -1,
          "fire": false
        }
      },
      {
        "tick": 126,
        "side": "left",
        "action": {
          "moveAxis": 0,
          "fire": false
        }
      },
      {
        "tick": 126,
        "side": "right",
        "action": {
          "moveAxis": -1,
          "fire": false
        }
      },
      {
        "tick": 128,
        "side": "left",
        "action": {
          "moveAxis": 0,
          "fire": false
        }
      },
      {
        "tick": 128,
        "side": "right",
        "action": {
          "moveAxis": -1,
          "fire": false
        }
      },
      {
        "tick": 130,
        "side": "left",
        "action": {
          "moveAxis": 0,
          "fire": false
        }
      },
      {
        "tick": 130,
        "side": "right",
        "action": {
          "moveAxis": -1,
          "fire": false
        }
      },
      {
        "tick": 132,
        "side": "left",
        "action": {
          "moveAxis": 0,
          "fire": false
        }
      },
      {
        "tick": 132,
        "side": "right",
        "action": {
          "moveAxis": -1,
          "fire": false
        }
      },
      {
        "tick": 134,
        "side": "left",
        "action": {
          "moveAxis": 0,
          "fire": false
        }
      },
      {
        "tick": 134,
        "side": "right",
        "action": {
          "moveAxis": -1,
          "fire": false
        }
      },
      {
        "tick": 136,
        "side": "left",
        "action": {
          "moveAxis": 0,
          "fire": false
        }
      },
      {
        "tick": 136,
        "side": "right",
        "action": {
          "moveAxis": -1,
          "fire": false
        }
      },
      {
        "tick": 138,
        "side": "left",
        "action": {
          "moveAxis": 0,
          "fire": false
        }
      },
      {
        "tick": 138,
        "side": "right",
        "action": {
          "moveAxis": -1,
          "fire": false
        }
      },
      {
        "tick": 140,
        "side": "left",
        "action": {
          "moveAxis": 0,
          "fire": false
        }
      },
      {
        "tick": 140,
        "side": "right",
        "action": {
          "moveAxis": -1,
          "fire": false
        }
      },
      {
        "tick": 142,
        "side": "left",
        "action": {
          "moveAxis": 0,
          "fire": false
        }
      },
      {
        "tick": 142,
        "side": "right",
        "action": {
          "moveAxis": -1,
          "fire": false
        }
      },
      {
        "tick": 144,
        "side": "left",
        "action": {
          "moveAxis": 0,
          "fire": false
        }
      },
      {
        "tick": 144,
        "side": "right",
        "action": {
          "moveAxis": -1,
          "fire": false
        }
      },
      {
        "tick": 146,
        "side": "left",
        "action": {
          "moveAxis": 0,
          "fire": false
        }
      },
      {
        "tick": 146,
        "side": "right",
        "action": {
          "moveAxis": -1,
          "fire": false
        }
      },
      {
        "tick": 148,
        "side": "left",
        "action": {
          "moveAxis": 0,
          "fire": false
        }
      },
      {
        "tick": 148,
        "side": "right",
        "action": {
          "moveAxis": -1,
          "fire": false
        }
      },
      {
        "tick": 150,
        "side": "left",
        "action": {
          "moveAxis": 0,
          "fire": false
        }
      },
      {
        "tick": 150,
        "side": "right",
        "action": {
          "moveAxis": -1,
          "fire": false
        }
      },
      {
        "tick": 152,
        "side": "left",
        "action": {
          "moveAxis": 0,
          "fire": false
        }
      },
      {
        "tick": 152,
        "side": "right",
        "action": {
          "moveAxis": -1,
          "fire": false
        }
      },
      {
        "tick": 154,
        "side": "left",
        "action": {
          "moveAxis": 0,
          "fire": false
        }
      },
      {
        "tick": 154,
        "side": "right",
        "action": {
          "moveAxis": -1,
          "fire": false
        }
      },
      {
        "tick": 156,
        "side": "left",
        "action": {
          "moveAxis": 0,
          "fire": false
        }
      },
      {
        "tick": 156,
        "side": "right",
        "action": {
          "moveAxis": -1,
          "fire": false
        }
      },
      {
        "tick": 158,
        "side": "left",
        "action": {
          "moveAxis": 0,
          "fire": false
        }
      },
      {
        "tick": 158,
        "side": "right",
        "action": {
          "moveAxis": -1,
          "fire": false
        }
      },
      {
        "tick": 160,
        "side": "left",
        "action": {
          "moveAxis": 0,
          "fire": false
        }
      },
      {
        "tick": 160,
        "side": "right",
        "action": {
          "moveAxis": -1,
          "fire": false
        }
      },
      {
        "tick": 162,
        "side": "left",
        "action": {
          "moveAxis": 0,
          "fire": false
        }
      },
      {
        "tick": 162,
        "side": "right",
        "action": {
          "moveAxis": -1,
          "fire": false
        }
      },
      {
        "tick": 164,
        "side": "left",
        "action": {
          "moveAxis": 0,
          "fire": false
        }
      },
      {
        "tick": 164,
        "side": "right",
        "action": {
          "moveAxis": -1,
          "fire": false
        }
      },
      {
        "tick": 166,
        "side": "left",
        "action": {
          "moveAxis": 0,
          "fire": false
        }
      },
      {
        "tick": 166,
        "side": "right",
        "action": {
          "moveAxis": -1,
          "fire": false
        }
      },
      {
        "tick": 168,
        "side": "left",
        "action": {
          "moveAxis": 0,
          "fire": false
        }
      },
      {
        "tick": 168,
        "side": "right",
        "action": {
          "moveAxis": -1,
          "fire": false
        }
      },
      {
        "tick": 170,
        "side": "left",
        "action": {
          "moveAxis": 0,
          "fire": false
        }
      },
      {
        "tick": 170,
        "side": "right",
        "action": {
          "moveAxis": -1,
          "fire": false
        }
      },
      {
        "tick": 172,
        "side": "left",
        "action": {
          "moveAxis": 0,
          "fire": false
        }
      },
      {
        "tick": 172,
        "side": "right",
        "action": {
          "moveAxis": -1,
          "fire": false
        }
      },
      {
        "tick": 174,
        "side": "left",
        "action": {
          "moveAxis": 0,
          "fire": false
        }
      },
      {
        "tick": 174,
        "side": "right",
        "action": {
          "moveAxis": -1,
          "fire": false
        }
      },
      {
        "tick": 176,
        "side": "left",
        "action": {
          "moveAxis": 0,
          "fire": false
        }
      },
      {
        "tick": 176,
        "side": "right",
        "action": {
          "moveAxis": -1,
          "fire": false
        }
      },
      {
        "tick": 178,
        "side": "left",
        "action": {
          "moveAxis": 0,
          "fire": false
        }
      },
      {
        "tick": 178,
        "side": "right",
        "action": {
          "moveAxis": -1,
          "fire": false
        }
      },
      {
        "tick": 180,
        "side": "left",
        "action": {
          "moveAxis": 0,
          "fire": false
        }
      },
      {
        "tick": 180,
        "side": "right",
        "action": {
          "moveAxis": -1,
          "fire": false
        }
      },
      {
        "tick": 182,
        "side": "left",
        "action": {
          "moveAxis": 0,
          "fire": false
        }
      },
      {
        "tick": 182,
        "side": "right",
        "action": {
          "moveAxis": -1,
          "fire": false
        }
      },
      {
        "tick": 184,
        "side": "left",
        "action": {
          "moveAxis": 0,
          "fire": false
        }
      },
      {
        "tick": 184,
        "side": "right",
        "action": {
          "moveAxis": -1,
          "fire": false
        }
      },
      {
        "tick": 186,
        "side": "left",
        "action": {
          "moveAxis": 0,
          "fire": false
        }
      },
      {
        "tick": 186,
        "side": "right",
        "action": {
          "moveAxis": -1,
          "fire": false
        }
      },
      {
        "tick": 188,
        "side": "left",
        "action": {
          "moveAxis": 0,
          "fire": false
        }
      },
      {
        "tick": 188,
        "side": "right",
        "action": {
          "moveAxis": -1,
          "fire": false
        }
      },
      {
        "tick": 190,
        "side": "left",
        "action": {
          "moveAxis": 0,
          "fire": false
        }
      },
      {
        "tick": 190,
        "side": "right",
        "action": {
          "moveAxis": -1,
          "fire": false
        }
      },
      {
        "tick": 192,
        "side": "left",
        "action": {
          "moveAxis": 0,
          "fire": false
        }
      },
      {
        "tick": 192,
        "side": "right",
        "action": {
          "moveAxis": -1,
          "fire": false
        }
      },
      {
        "tick": 194,
        "side": "left",
        "action": {
          "moveAxis": 0,
          "fire": false
        }
      },
      {
        "tick": 194,
        "side": "right",
        "action": {
          "moveAxis": -1,
          "fire": false
        }
      },
      {
        "tick": 196,
        "side": "left",
        "action": {
          "moveAxis": 0,
          "fire": false
        }
      },
      {
        "tick": 196,
        "side": "right",
        "action": {
          "moveAxis": -1,
          "fire": false
        }
      },
      {
        "tick": 198,
        "side": "left",
        "action": {
          "moveAxis": 0,
          "fire": false
        }
      },
      {
        "tick": 198,
        "side": "right",
        "action": {
          "moveAxis": -1,
          "fire": false
        }
      },
      {
        "tick": 200,
        "side": "left",
        "action": {
          "moveAxis": 0,
          "fire": false
        }
      },
      {
        "tick": 200,
        "side": "right",
        "action": {
          "moveAxis": -1,
          "fire": false
        }
      },
      {
        "tick": 202,
        "side": "left",
        "action": {
          "moveAxis": 0,
          "fire": false
        }
      },
      {
        "tick": 202,
        "side": "right",
        "action": {
          "moveAxis": -1,
          "fire": false
        }
      },
      {
        "tick": 204,
        "side": "left",
        "action": {
          "moveAxis": 0,
          "fire": false
        }
      },
      {
        "tick": 204,
        "side": "right",
        "action": {
          "moveAxis": -1,
          "fire": false
        }
      },
      {
        "tick": 206,
        "side": "left",
        "action": {
          "moveAxis": 0,
          "fire": false
        }
      },
      {
        "tick": 206,
        "side": "right",
        "action": {
          "moveAxis": -1,
          "fire": false
        }
      },
      {
        "tick": 208,
        "side": "left",
        "action": {
          "moveAxis": 0,
          "fire": false
        }
      },
      {
        "tick": 208,
        "side": "right",
        "action": {
          "moveAxis": -1,
          "fire": false
        }
      },
      {
        "tick": 210,
        "side": "left",
        "action": {
          "moveAxis": 0,
          "fire": false
        }
      },
      {
        "tick": 210,
        "side": "right",
        "action": {
          "moveAxis": -1,
          "fire": false
        }
      },
      {
        "tick": 212,
        "side": "left",
        "action": {
          "moveAxis": 0,
          "fire": false
        }
      },
      {
        "tick": 212,
        "side": "right",
        "action": {
          "moveAxis": -1,
          "fire": false
        }
      },
      {
        "tick": 214,
        "side": "left",
        "action": {
          "moveAxis": 0,
          "fire": false
        }
      },
      {
        "tick": 214,
        "side": "right",
        "action": {
          "moveAxis": -1,
          "fire": false
        }
      },
      {
        "tick": 216,
        "side": "left",
        "action": {
          "moveAxis": 0,
          "fire": false
        }
      },
      {
        "tick": 216,
        "side": "right",
        "action": {
          "moveAxis": -1,
          "fire": false
        }
      },
      {
        "tick": 218,
        "side": "left",
        "action": {
          "moveAxis": 0,
          "fire": false
        }
      },
      {
        "tick": 218,
        "side": "right",
        "action": {
          "moveAxis": -1,
          "fire": false
        }
      },
      {
        "tick": 220,
        "side": "left",
        "action": {
          "moveAxis": 0,
          "fire": false
        }
      },
      {
        "tick": 220,
        "side": "right",
        "action": {
          "moveAxis": -1,
          "fire": false
        }
      },
      {
        "tick": 222,
        "side": "left",
        "action": {
          "moveAxis": 0,
          "fire": false
        }
      },
      {
        "tick": 222,
        "side": "right",
        "action": {
          "moveAxis": -1,
          "fire": false
        }
      },
      {
        "tick": 224,
        "side": "left",
        "action": {
          "moveAxis": 0,
          "fire": false
        }
      },
      {
        "tick": 224,
        "side": "right",
        "action": {
          "moveAxis": -1,
          "fire": false
        }
      },
      {
        "tick": 226,
        "side": "left",
        "action": {
          "moveAxis": 0,
          "fire": false
        }
      },
      {
        "tick": 226,
        "side": "right",
        "action": {
          "moveAxis": -1,
          "fire": false
        }
      },
      {
        "tick": 228,
        "side": "left",
        "action": {
          "moveAxis": 0,
          "fire": false
        }
      },
      {
        "tick": 228,
        "side": "right",
        "action": {
          "moveAxis": -1,
          "fire": false
        }
      },
      {
        "tick": 230,
        "side": "left",
        "action": {
          "moveAxis": 0,
          "fire": false
        }
      },
      {
        "tick": 230,
        "side": "right",
        "action": {
          "moveAxis": -1,
          "fire": false
        }
      },
      {
        "tick": 232,
        "side": "left",
        "action": {
          "moveAxis": 0,
          "fire": false
        }
      },
      {
        "tick": 232,
        "side": "right",
        "action": {
          "moveAxis": -1,
          "fire": false
        }
      },
      {
        "tick": 234,
        "side": "left",
        "action": {
          "moveAxis": 0,
          "fire": false
        }
      },
      {
        "tick": 234,
        "side": "right",
        "action": {
          "moveAxis": -1,
          "fire": false
        }
      },
      {
        "tick": 236,
        "side": "left",
        "action": {
          "moveAxis": 0,
          "fire": false
        }
      },
      {
        "tick": 236,
        "side": "right",
        "action": {
          "moveAxis": -1,
          "fire": false
        }
      },
      {
        "tick": 238,
        "side": "left",
        "action": {
          "moveAxis": 0,
          "fire": false
        }
      },
      {
        "tick": 238,
        "side": "right",
        "action": {
          "moveAxis": -1,
          "fire": false
        }
      },
      {
        "tick": 240,
        "side": "left",
        "action": {
          "moveAxis": 0,
          "fire": false
        }
      },
      {
        "tick": 240,
        "side": "right",
        "action": {
          "moveAxis": -1,
          "fire": false
        }
      },
      {
        "tick": 242,
        "side": "left",
        "action": {
          "moveAxis": 0,
          "fire": false
        }
      },
      {
        "tick": 242,
        "side": "right",
        "action": {
          "moveAxis": -1,
          "fire": false
        }
      },
      {
        "tick": 244,
        "side": "left",
        "action": {
          "moveAxis": 0,
          "fire": false
        }
      },
      {
        "tick": 244,
        "side": "right",
        "action": {
          "moveAxis": -1,
          "fire": false
        }
      },
      {
        "tick": 246,
        "side": "left",
        "action": {
          "moveAxis": 0,
          "fire": false
        }
      },
      {
        "tick": 246,
        "side": "right",
        "action": {
          "moveAxis": -1,
          "fire": false
        }
      },
      {
        "tick": 248,
        "side": "left",
        "action": {
          "moveAxis": 0,
          "fire": false
        }
      },
      {
        "tick": 248,
        "side": "right",
        "action": {
          "moveAxis": -1,
          "fire": false
        }
      },
      {
        "tick": 250,
        "side": "left",
        "action": {
          "moveAxis": 0,
          "fire": false
        }
      },
      {
        "tick": 250,
        "side": "right",
        "action": {
          "moveAxis": -1,
          "fire": false
        }
      },
      {
        "tick": 252,
        "side": "left",
        "action": {
          "moveAxis": 0,
          "fire": false
        }
      },
      {
        "tick": 252,
        "side": "right",
        "action": {
          "moveAxis": -1,
          "fire": false
        }
      },
      {
        "tick": 254,
        "side": "left",
        "action": {
          "moveAxis": 0,
          "fire": false
        }
      },
      {
        "tick": 254,
        "side": "right",
        "action": {
          "moveAxis": -1,
          "fire": false
        }
      },
      {
        "tick": 256,
        "side": "left",
        "action": {
          "moveAxis": 0,
          "fire": false
        }
      },
      {
        "tick": 256,
        "side": "right",
        "action": {
          "moveAxis": -1,
          "fire": false
        }
      },
      {
        "tick": 258,
        "side": "left",
        "action": {
          "moveAxis": 0,
          "fire": false
        }
      },
      {
        "tick": 258,
        "side": "right",
        "action": {
          "moveAxis": -1,
          "fire": false
        }
      },
      {
        "tick": 260,
        "side": "left",
        "action": {
          "moveAxis": 0,
