{
  "replayId": "defensive-0-31sl2w-vs-defensive-1-c2nf22-178625380",
  "createdAt": "2026-03-14T20:55:24.578Z",
  "runtimeVersion": "0.3.5",
  "configHash": "3a06a5c9",
  "seed": 178625380,
  "durationTicks": 775,
  "matchOptions": {
    "demo": true,
    "skipCountdown": true,
    "difficulty": "spicy",
    "scoreLimit": 3,
    "powerupsEnabled": true,
    "trailsEnabled": false,
    "theme": "neon"
  },
  "botIds": [
    "defensive-0-31sl2w",
    "defensive-1-c2nf22"
  ],
  "leftBot": {
    "id": "defensive-0-31sl2w",
    "name": "Anchor sl2w",
    "schemaVersion": 1,
    "archetype": "defensive",
    "personality": "Covers the lane early and values survival over flair.",
    "generation": 1,
    "lineageId": "defensive-0-31sl2w",
    "elo": 987.1509490842705,
    "fitnessScore": -108.60000000000002,
    "matches": 15,
    "mutationProfile": {
      "source": null,
      "kind": "seed"
    },
    "controllerParams": {
      "fireThreshold": 0.66
    },
    "network": {
      "type": "mlp",
      "inputSize": 59,
      "layers": [
        {
          "weights": [
            [
              -0.27900967381428926,
              0.27942479301709683,
              0.1293739399407059,
              -0.06230284594930709,
              -0.10705869267694652,
              0.023906383942812682,
              0.0437277348479256,
              0.039604471321217714,
              0.03926117853261531,
              0.1444893815321848,
              -0.27837561699561775,
              -0.040384168317541484,
              -0.0943775495979935,
              -0.2677494028816,
              0.2683230249211192,
              0.05869530227500946,
              0.38510599303990606,
              0.11788270964752882,
              -0.3730519824894145,
              -0.2707451564725489,
              -0.2620110566262156,
              -0.0431771223898977,
              -0.18861552332527937,
              -0.07935521523468196,
              0.20846275021322072,
              0.2039833104936406,
              -0.2780485783936456,
              -0.33980467887595295,
              0.1566363733727485,
              -0.2858503555878997,
              0.22004839698784054,
              -0.26914368134457617,
              0.2724074863130227,
              -0.41919281298760325,
              0.05782803345937282,
              -0.057602220796979964,
              -0.1017535594291985,
              -0.2042346336878836,
              -0.4404983640415594,
              -0.3217521982965991,
              -0.2227065097074956,
              -0.15715670641511678,
              0.06278531206771731,
              -0.1864630432566628,
              0.06397904930636288,
              -0.050483872974291445,
              -0.025515633705072104,
              0.3233809332596138,
              0.41157858192455027,
              0.16698241482954473,
              -0.410660683689639,
              -0.3063321992056444,
              -0.21669884221628308,
              -0.33623953715432436,
              -0.33275020408909767,
              -0.21640028783585877,
              -0.15420744598377498,
              -0.24399782493710517,
              -0.30926434085704385
            ],
            [
              0.2101806151913479,
              0.03466031060088426,
              0.021800088370218875,
              0.08874779676552862,
              0.06329338930081577,
              -0.401895124046132,
              -0.29101866390556097,
              -0.21139130860101432,
              0.30033711986616257,
              -0.24822189698461444,
              -0.19598291425500067,
              0.02306669200770557,
              0.09429047021549196,
              0.08909655183088035,
              0.22349584840703757,
              0.3189781931927428,
              -0.3238795217592269,
              0.3311567309545353,
              0.12990481385495514,
              -0.1677006221842021,
              -0.09387636564206332,
              0.24977859305217862,
              0.3018077897373587,
              0.4209209730383009,
              0.1289453156059608,
              0.07432424041908235,
              -0.013267958024516703,
              -0.13867599754594268,
              -0.43644605730660263,
              -0.11130525546614081,
              0.12079898393712939,
              0.3603761319536716,
              -0.14533692605327816,
              0.10292271045036615,
              -0.28290864599402993,
              -0.28591872153338044,
              -0.007871750160120428,
              0.287716170377098,
              0.3772239019162953,
              -0.3962271853582934,
              -0.422081049811095,
              -0.012857360020279885,
              0.14532221225090325,
              0.041669997735880315,
              0.1666471091564745,
              -0.11841479286085814,
              0.18114354426506907,
              -0.03229189112316817,
              -0.08109865675214678,
              0.15854220986366271,
              -0.3545643491204828,
              0.2042806953890249,
              -0.3989524614298716,
              -0.33940050727687776,
              -0.07434959672391415,
              0.1697318542515859,
              0.09210878738667816,
              0.0748990411637351,
              -0.3032415224472061
            ],
            [
              -0.030067611671984195,
              0.2454624087084085,
              -0.22063792850822211,
              -0.0835217515937984,
              -0.06756497228052467,
              0.34368949695490303,
              -0.34874940023291856,
              -0.25569444852881135,
              -0.05097505522426218,
              0.17707036449573935,
              0.35387238152325157,
              -0.0941611496033147,
              0.3145283420104534,
              -0.12315521424170583,
              -0.10924753260333091,
              0.3605905995005742,
              0.2759574111085385,
              -0.11596240138169378,
              -0.37229658651631325,
              0.009395368513651192,
              -0.34944270201958716,
              -0.18745217530522496,
              0.1766244407510385,
              0.13741865339688958,
              -0.006371952965855599,
              -0.36974656116217375,
              0.07800571059342475,
              -0.1673310154583305,
              -0.4261674078181386,
              0.27734072625171396,
              -0.3798915102845058,
              0.24348532101139428,
              -0.18636024026200176,
              0.3127400847617537,
              -0.3555524728260934,
              -0.2521540112094954,
              -0.2481322426814586,
              0.12428284445777536,
              -0.13407432432286442,
              0.2982362475944683,
              -0.191670559393242,
              0.29851388912647964,
              0.3091183205600828,
              -0.2384495773119852,
              -0.3347230260260403,
              0.23927515977993608,
              0.2651882224716246,
              0.17471847392152995,
              0.10951678238343447,
              0.0038788931211456656,
              0.14658793495036662,
              -0.38882247945293785,
              0.330825446289964,
              0.3778623177437112,
              -0.30270684461575004,
              -0.1729023187654093,
              -0.4340624561067671,
              -0.015969921718351543,
              -0.3943454937776551
            ],
            [
              -0.043604469113051894,
              0.43925559350755067,
              -0.11835585571825505,
              0.04681307128630579,
              -0.4292524739401415,
              0.3414160683285445,
              -0.2732194324722514,
              -0.04700286565348506,
              -0.12542977107223124,
              0.15841245800256729,
              -0.3970067197456956,
              -0.19991910606622695,
              -0.27543730039615183,
              -0.15681525408290328,
              0.14375426326878368,
              0.4076340364990756,
              -0.057381943752989176,
              -0.24187541787978262,
              -0.14470870492514223,
              0.29347639947663995,
              -0.014348234049975872,
              0.33062503980472685,
              -0.24768931986764073,
              -0.0788733555469662,
              0.18965629083104432,
              -0.19760770574212075,
              0.0211600860580802,
              0.03343702799174935,
              0.30424589740578084,
              -0.12138669197447598,
              -0.12480696612037719,
              0.26166668885853145,
              0.4315481946570799,
              0.13694563913159072,
              0.23101202817633748,
              0.29052643475588413,
              -0.2376149178715423,
              -0.14950145368929954,
              0.31451702266931536,
              -0.009945538407191635,
              -0.13874654446262866,
              0.3980052879313007,
              0.09267174219712615,
              0.18261359932366758,
              -0.407269369228743,
              0.08948157224804164,
              0.13521227999590338,
              0.3517109422478825,
              -0.09252749865408987,
              -0.12149340093601495,
              0.39918644896242766,
              -0.2530538527294994,
              0.2198793673189357,
              0.13267440798226746,
              -0.08938566672150046,
              -0.008145577716641128,
              0.2898978016572073,
              -0.404976063547656,
              -0.34396203348878773
            ],
            [
              0.44264287396799773,
              0.0953145198058337,
              0.38582541367504747,
              -0.07887627726886422,
              0.4277674299431965,
              -0.303002151218243,
              -0.14728972928132864,
              -0.3599908655276522,
              -0.02026954258326441,
              0.040831659478135406,
              -0.06517595616169274,
              0.43012590429279957,
              -0.07642254112288356,
              0.2558818934485316,
              0.18347502029500903,
              -0.20187219637446105,
              -0.1255486847134307,
              -0.36630809304770084,
              -0.35373396989889444,
              -0.432408235128969,
              0.05386727387085557,
              0.1015941318590194,
              -0.06299286873545498,
              -0.18631584781687707,
              -0.19693341033998876,
              -0.2096001575002447,
              0.10957937256898731,
              -0.309898413810879,
              0.2846098617883399,
              0.1367497676750645,
              0.003298807376995683,
              -0.4107896262779832,
              -0.054134689900092785,
              0.09977178939152509,
              0.35829286901280283,
              -0.1692450909409672,
              0.4467266981257126,
              -0.04855500804260373,
              -0.01625954476185143,
              -0.31501228020060806,
              0.002920526429079473,
              0.319109193328768,
              -0.04376602526754141,
              -0.2301528650801629,
              0.08207847713492811,
              -0.00835783809889108,
              0.29466204419732095,
              -0.2513699635863304,
              0.10544712992850691,
              -0.13627422207500786,
              -0.3086784739047289,
              0.028625152143649756,
              0.2737707850523293,
              -0.22607566975057125,
              0.4499884755117819,
              0.18901123108807952,
              -0.3380932820029557,
              0.1265643444377929,
              0.25750190746039153
            ],
            [
              -0.32551066274754703,
              -0.3973770850338042,
              -0.024591358727775514,
              -0.24280746267177164,
              0.27158854105509816,
              -0.414005465595983,
              -0.058105387492105365,
              -0.40718171442858875,
              -0.05303129721432925,
              -0.02029150484595448,
              -0.12876472561620175,
              0.3146241010632366,
              0.35951873010490093,
              0.24104668004438282,
              0.33402633983641866,
              -0.00739864013157785,
              -0.1149944615084678,
              0.02589820723515004,
              -0.27930065493565054,
              -0.2997636369662359,
              0.303504546568729,
              -0.07932177605107427,
              -0.08559576384723187,
              0.3004850606666878,
              -0.18088386640883983,
              -0.14265849078074097,
              -0.43527121141087266,
              -0.16662830498535186,
              -0.43022086350247263,
              -0.0885042792186141,
              0.4394907205598429,
              -0.0940938787534833,
              -0.33547455018851907,
              0.4147579167969525,
              0.20186676322482527,
              0.15853190703783185,
              -0.0781848169863224,
              -0.2144746124278754,
              0.39073028611019256,
              0.12108929576352238,
              -0.3967312015593052,
              -0.2870937545550987,
              -0.39889527882914994,
              0.17162732840515674,
              0.269158974965103,
              0.06010784301906824,
              -0.23606790751218795,
              0.21597138522192835,
              -0.02054296089336276,
              -0.03489153860136867,
              -0.015528394072316588,
              -0.12820698728319257,
              -0.2971371583873406,
              0.040833786805160345,
              0.31921941933687775,
              -0.3242250671843067,
              -0.13753945883363486,
              0.08579038849566133,
              -0.4241869711317122
            ],
            [
              -0.3895915997447446,
              -0.2370250445790589,
              0.3968541619833559,
              0.3885804765159264,
              -0.16463364525698126,
              -0.07314159641973675,
              -0.03129469065461308,
              -0.2361599385039881,
              -0.28077617960516366,
              -0.14188700700178744,
              -0.16863277719821781,
              0.18107278256211431,
              -0.2334337714361027,
              0.07938948422670365,
              -0.14238630691543222,
              0.0946105826413259,
              -0.048375808820128444,
              0.3269426029874012,
              -0.4418073094915599,
              0.04728387629147619,
              0.14894188495818525,
              -0.3700448399875313,
              0.367493315320462,
              0.40309749150183055,
              -0.1246332222595811,
              -0.36795884873718027,
              0.05731709401588887,
              -0.15883665962610394,
              0.10922888140194119,
              0.24269876279868186,
              0.13819325650110842,
              0.3133853234583512,
              -0.14694986615795644,
              -0.15234019097406418,
              -0.05772485830821097,
              -0.43486139355227355,
              0.17868503106292338,
              0.31626698195468633,
              0.30638677859678864,
              -0.34429427138529717,
              0.13447945271618664,
              0.41074927705340086,
              -0.3762729676673189,
              0.09134288197383285,
              -0.1007710981182754,
              0.21651277507189662,
              0.2690797207178548,
              -0.1794722246238962,
              -0.20648308298550547,
              0.23763661400880665,
              0.25801777734886855,
              -0.06918539239559322,
              0.41329732511658224,
              0.12633351352997124,
              0.3913295483915135,
              -0.4138464675983414,
              0.4346927310107276,
              0.08059928705915809,
              -0.43841941002756357
            ],
            [
              0.4107659283326939,
              0.3287693813676015,
              0.3813748110551387,
              0.29670436510350556,
              0.21663422549609096,
              -0.3342317727394402,
              0.3664906949037686,
              0.1417956023477018,
              -0.3232908852165565,
              -0.2674632943700999,
              0.18384592181537301,
              -0.43018343579024076,
              -0.2384966507088393,
              -0.4117173258913681,
              0.09394387810025365,
              -0.09799220259301365,
              -0.28662355430424213,
              0.3052094965009019,
              -0.43607691200450066,
              -0.21264993832446635,
              -0.4190550054889172,
              0.26781542964745314,
              -0.36130259167402984,
              0.06228297748602927,
              -0.2898473166162148,
              -0.2581870813155547,
              0.2791755774524063,
              0.10477770252618938,
              -0.31991878857370465,
              0.30717877834104,
              -0.4049484097631648,
              0.15129902574699372,
              -0.10478067118674517,
              -0.09100614215712995,
              0.42684417336713526,
              0.3810932801105082,
              0.16045006890781224,
              -0.15564231653697788,
              0.40355999779421836,
              0.3737422785256058,
              -0.28748591677285734,
              0.09617255197372288,
              -0.32667809987906365,
              0.42305122723337263,
              -0.04802323181647807,
              -0.024834990059025588,
              -0.34649623464792967,
              0.17558627121616155,
              -0.10003622397780419,
              -0.4176714971428737,
              -0.4066270910203457,
              0.055249551543965936,
              -0.27491113543510437,
              0.38480780997779224,
              -0.1787770308321342,
              -0.1586780124111101,
              0.2980509216198698,
              0.23396507597062738,
              0.07772981773596258
            ],
            [
              0.2687930854037404,
              0.009934814600273968,
              -0.33102166014723483,
              0.33482692285906523,
              -0.3669660072773695,
              -0.35866186742205175,
              0.11938264912459999,
              -0.21845002588815987,
              0.08688121335580945,
              -0.21226626173593105,
              -0.3571193971205503,
              0.16946009933017195,
              0.3862730347551406,
              -0.36964152900036423,
              0.0788210614817217,
              0.1618602476315573,
              0.1614923644345254,
              -0.3630213206168264,
              0.14486833701375873,
              -0.1377836873754859,
              -0.05795717092696578,
              0.18776670747902244,
              -0.1962314701639116,
              -0.31439074992667887,
              0.25331237765494735,
              0.33227267616894096,
              0.37834731603506955,
              0.18090553551446648,
              -0.379672022187151,
              -0.3129984950646758,
              -0.07393911543767899,
              -0.02308077800553292,
              0.2113101954571903,
              -0.12977497754618525,
              -0.07691416991874576,
              -0.07003749122377485,
              0.10067747980356216,
              -0.09004761264659465,
              0.23074816984590144,
              0.36599910424556586,
              -0.39934616822283714,
              0.14236646632198244,
              -0.16121376799419523,
              0.04240441527217627,
              0.11181738681625575,
              0.39565651542507113,
              0.2959548431681469,
              -0.061296770721673964,
              -0.028693918115459384,
              0.3238020476186648,
              -0.31307920336257666,
              0.33303682871628554,
              -0.24914474138058723,
              -0.28936173263937237,
              -0.003971278876997531,
              0.07146828356198967,
              -0.29268354519736023,
              0.41766642630100254,
              -0.01675911583006382
            ],
            [
              -0.3644022150663659,
              0.3846416854765266,
              -0.37865966556128117,
              0.024483542726375162,
              0.027256300603039563,
              0.3891005918383598,
              0.3015447090379894,
              0.3834739528829232,
              -0.19950542917940767,
              -0.4153977596433833,
              0.3063875516178087,
              -0.18040077290497722,
              0.25849613340105865,
              -0.36824941264931116,
              0.4229365948587656,
              -0.06513700797222555,
              0.3215044275624678,
              -0.4342027446487919,
              0.361482724850066,
              -0.17401100755669177,
              -0.2457011617720127,
              -0.06902971509844065,
              0.3373630107846111,
              0.3964713675901294,
              -0.2872551556443796,
              -0.34117618727032095,
              -0.04695743909105659,
              0.19087902568280699,
              -0.2560934778302908,
              -0.20183247139211744,
              -0.21224032267928125,
              -0.447940979199484,
              0.14881925331428647,
              -0.15391374786850065,
              -0.44669567376840863,
              0.01906837332062423,
              -0.32306247667875143,
              -0.13853008474688977,
              -0.060828072507865726,
              -0.20866827678401023,
              0.3301644722465426,
              0.309945963928476,
              -0.2598779496503994,
              -0.1937214489094913,
              -0.3910478732781485,
              0.4157242265995592,
              0.00006765599828213453,
              0.3051076723029837,
              -0.18283107031602414,
              0.041271913703531025,
              -0.06165389930829406,
              -0.007080006273463369,
              0.14433843791484832,
              -0.3598902751458809,
              0.3738976859254763,
              -0.42667169831693175,
              -0.18711438314057888,
              0.0026033514412119986,
              0.29287253762595356
            ],
            [
              0.3855213559465483,
              -0.3626942409435287,
              0.0061271741520613435,
              0.2478416152764112,
              -0.3757100271061063,
              0.42524406029842793,
              -0.34701490618754177,
              0.07737798211164773,
              0.04295994874555618,
              0.42597832779865713,
              0.4130093709100038,
              0.16846264426130803,
              -0.30202015426475554,
              0.14325144316535443,
              -0.4243450096109882,
              -0.28601039985660465,
              -0.3800844914512709,
              -0.27263436452485623,
              -0.1624591576633975,
              -0.12874544200021773,
              -0.007221264392137528,
              0.09902217881754041,
              -0.2749072793405503,
              0.16351212104782462,
              -0.1748903821455315,
              0.16618744265288116,
              0.024042023462243378,
              0.15162913254462182,
              -0.27394391410052776,
              0.19052118295803666,
              -0.26485555835533886,
              -0.44753751922398805,
              -0.39666063599288465,
              -0.1826359536498785,
              0.1382078996859491,
              -0.38224229381885383,
              -0.42807436287403106,
              0.215763078792952,
              0.30151063911616804,
              -0.19926652230788022,
              -0.06297555319033564,
              0.11581793886143714,
              -0.12940525682643056,
              0.3856895006960258,
              -0.3411874309647828,
              -0.4093229067977518,
              0.13174112183041872,
              -0.07940497188828886,
              0.22436771113425494,
              0.39195899160113185,
              -0.10375762511976064,
              0.340095099247992,
              0.09399323975667358,
              0.24562291335314512,
              0.21201263058464975,
              -0.3096409213263542,
              0.26719325815793127,
              0.25863101247232406,
              0.33041476509533824
            ],
            [
              -0.13828363395296037,
              0.11512675140984356,
              0.19992376053705813,
              0.3698596143862233,
              0.31965234777890145,
              0.3775355268269777,
              -0.01187122198753059,
              0.005688877729699016,
              0.18653628809843212,
              -0.17677913380321117,
              0.3306457535829395,
              0.15069178473204375,
              -0.2473245136672631,
              0.18213824797421693,
              0.3986298587406054,
              0.28010453036986294,
              -0.15277269969228655,
              -0.007178949611261487,
              0.03186480822041631,
              0.23154595813248308,
              -0.023730689403600992,
              0.02611440250184387,
              0.3173396763391793,
              -0.0022787249414250254,
              0.17254051622003316,
              -0.437752202572301,
              -0.25315022114664315,
              0.09557507776189596,
              -0.3057183664524928,
              -0.010857864562422038,
              -0.43246029953006654,
              0.20818627334665507,
              0.2495389240561053,
              0.037161656585522,
              0.23792959190905094,
              -0.2973053951282054,
              -0.19682719465345144,
              -0.23312789043411614,
              -0.26283118436113,
              0.0844143063062802,
              -0.4130689371144399,
              0.32860793648287656,
              -0.06411315996665508,
              -0.43802467728964983,
              -0.12048327850643546,
              0.31946460383478553,
              -0.4097211729269475,
              0.027954101585783066,
              0.08078030536416918,
              0.03743360869120806,
              -0.2856405140133575,
              0.0250579520361498,
              0.40522170171607286,
              -0.2584456475218758,
              0.08037120059598238,
              -0.24704353823326528,
              -0.3366563645889983,
              0.4135727835819125,
              -0.011337635479867459
            ]
          ],
          "biases": [
            -0.3076563270064071,
            0.1731976519804448,
            0.12871004585176707,
            0.34850336078088734,
            -0.08914025465492159,
            -0.13131735124625266,
            -0.04005550257861614,
            0.44966701443772766,
            0.2923925148323178,
            0.37987827316392214,
            0.2465884645935148,
            -0.2086950770812109
          ]
        },
        {
          "weights": [
            [
              0.20296611161902545,
              -0.20536371103953568,
              0.18373972007539122,
              0.14573879800736902,
              -0.022808192996308208,
              0.13003591108135878,
              0.07754515623673797,
              0.22323961318470537,
              -0.011724198749288916,
              0.3442317352397367,
              0.24185697205830364,
              -0.15784497931599617
            ],
            [
              -0.005752714863047004,
              0.27502160929143427,
              0.22758781143929807,
              0.08274576850235461,
              0.0330618639010936,
              0.022874345211312173,
              0.289259122335352,
              -0.25029832997824997,
              0.2584159531164914,
              -0.2628165420843288,
              0.32702792899217453,
              0.2098107609665021
            ],
            [
              0.34732942751143125,
              0.25857630257960407,
              -0.23445416926406323,
              -0.06958413366228342,
              0.18284904519096015,
              -0.14589130382519214,
              0.19702340227086096,
              0.03771533684339374,
              -0.15407946549821644,
              -0.11090732633601873,
              -0.14671118380501866,
              -0.06265793491620571
            ],
            [
              0.14702569709625093,
              0.2876228791894391,
              0.08218464276287704,
              0.34925719541497524,
              0.17605512137524781,
              -0.05552393612451851,
              -0.08285001665353775,
              -0.11544334897771477,
              -0.03881044522859156,
              -0.027807024284265933,
              -0.1435703317634761,
              0.18514258845243603
            ],
            [
              0.2261290562339127,
              -0.2906249424209818,
              0.3404029922792688,
              -0.3091519614914432,
              -0.32100267459172754,
              0.03636370853055268,
              -0.21131520508788526,
              -0.23554139439947902,
              -0.3047637198353186,
              -0.18499002787284552,
              0.274559463490732,
              0.3203590297140181
            ],
            [
              -0.22676365352235733,
              0.20659761312417685,
              -0.22416560712736097,
              0.0007209614850580692,
              -0.30144222697708756,
              -0.028704260638915,
              0.004821587493643164,
              0.14129477806854993,
              -0.32121765217743814,
              0.03478356278501451,
              0.08591426773928106,
              -0.23674898867029695
            ],
            [
              -0.13723485553637146,
              0.2942051407881081,
              -0.09267275873571634,
              -0.05304269511252641,
              0.03138943365775049,
              0.009879125677980482,
              -0.16158141382038593,
              -0.03211014170665294,
              0.3278605342376977,
              0.12232982099521904,
              -0.1294421494472772,
              -0.13930881111882626
            ],
            [
              -0.13102584835141898,
              0.2911837088409811,
              0.061507180915214114,
              0.1654056695755571,
              -0.03623323633801192,
              -0.06865535713732242,
              0.22356685712002217,
              -0.011435490963049232,
              0.3127222230425104,
              -0.06217895247973501,
              0.2557193476008251,
              -0.24146210304461418
            ]
          ],
          "biases": [
            -0.2299831690499559,
            0.3285415686899796,
            0.02521811577025801,
            -0.29637690985109655,
            -0.0767660993617028,
            0.295764734246768,
            -0.07792599874082952,
            0.31339306398294864
          ]
        },
        {
          "weights": [
            [
              -0.007942973054014146,
              -0.17177452356554568,
              -0.07938984234351665,
              0.1235904567874968,
              0.21425873902626336,
              -0.06981623009778559,
              0.17249362473376095,
              0.10945955466013402
            ],
            [
              -0.13343944202642888,
              0.19598895264789462,
              0.05648919311352074,
              -0.1430792025057599,
              -0.21654778788797557,
              -0.2438924484886229,
              0.036071359645575285,
              -0.17885926458984613
            ],
            [
              0.02831273025367409,
              -0.00680942926555872,
              0.01458327833097428,
              0.09893086063675582,
              -0.02603767195250839,
              0.07072975928895175,
              0.027853201259858906,
              -0.07245468453038484
            ]
          ],
          "biases": [
            0.07448662852402776,
            0.026684828219003975,
            0.042484876001253724
          ]
        }
      ]
    }
  },
  "rightBot": {
    "id": "defensive-1-c2nf22",
    "name": "Anchor nf22",
    "schemaVersion": 1,
    "archetype": "defensive",
    "personality": "Covers the lane early and values survival over flair.",
    "generation": 1,
    "lineageId": "defensive-0-31sl2w",
    "elo": 960.7972849866621,
    "fitnessScore": -407.1,
    "matches": 15,
    "mutationProfile": {
      "source": "defensive-0-31sl2w",
      "kind": "clone-mutate"
    },
    "controllerParams": {
      "fireThreshold": 0.66
    },
    "network": {
      "type": "mlp",
      "inputSize": 59,
      "layers": [
        {
          "weights": [
            [
              -0.27900967381428926,
              0.27942479301709683,
              0.2972742814478304,
              -0.06230284594930709,
              -0.10705869267694652,
              0.023906383942812682,
              0.0437277348479256,
              0.039604471321217714,
              -0.28069473045532284,
              0.18097470285021508,
              -0.27837561699561775,
              -0.040384168317541484,
              -0.0943775495979935,
              -0.27821462086668486,
              0.2683230249211192,
              0.05869530227500946,
              0.38510599303990606,
              0.11788270964752882,
              -0.45377196044965273,
              -0.2707451564725489,
              -0.2620110566262156,
              -0.0431771223898977,
              -0.18861552332527937,
              -0.07935521523468196,
              0.15164120547880974,
              0.2039833104936406,
              -0.42122548645981495,
              -0.33980467887595295,
              0.1566363733727485,
              -0.2858503555878997,
              0.22004839698784054,
              0.039040376690990364,
              0.2724074863130227,
              -0.41919281298760325,
              0.06926150227565395,
              -0.057602220796979964,
              -0.1017535594291985,
              -0.2042346336878836,
              -0.4404983640415594,
              -0.3217521982965991,
              -0.2227065097074956,
              -0.15715670641511678,
              0.06278531206771731,
              -0.1864630432566628,
              0.06397904930636288,
              -0.050483872974291445,
              -0.025515633705072104,
              0.3233809332596138,
              0.41157858192455027,
              0.16698241482954473,
              -0.410660683689639,
              -0.3063321992056444,
              -0.21669884221628308,
              -0.33623953715432436,
              -0.33275020408909767,
              -0.21640028783585877,
              -0.15420744598377498,
              -0.24399782493710517,
              -0.3125420106898401
            ],
            [
              0.25050026872386233,
              0.03466031060088426,
              0.021800088370218875,
              0.19333053275009082,
              0.06329338930081577,
              -0.401895124046132,
              -0.29101866390556097,
              -0.1903200889400066,
              0.30033711986616257,
              -0.24822189698461444,
              -0.19598291425500067,
              -0.07003670857149404,
              0.09429047021549196,
              0.08909655183088035,
              0.22349584840703757,
              0.49012216632895145,
              -0.2837197840763288,
              0.3311567309545353,
              0.12990481385495514,
              -0.1677006221842021,
              -0.09387636564206332,
              0.24977859305217862,
              0.3018077897373587,
              0.4209209730383009,
              0.1289453156059608,
              0.07432424041908235,
              -0.013267958024516703,
              -0.13867599754594268,
              -0.43644605730660263,
              0.04122297854761037,
              0.12079898393712939,
              0.3603761319536716,
              -0.14533692605327816,
              0.10292271045036615,
              -0.34785972168876367,
              -0.28591872153338044,
              -0.007871750160120428,
              0.287716170377098,
              0.3772239019162953,
              -0.3962271853582934,
              -0.422081049811095,
              -0.012857360020279885,
              0.14532221225090325,
              -0.015584074675789192,
              0.1666471091564745,
              -0.20404460899164859,
              0.24036474426893958,
              -0.03229189112316817,
              -0.08109865675214678,
              0.15854220986366271,
              -0.3545643491204828,
              0.2042806953890249,
              -0.3989524614298716,
              -0.23461248875474291,
              -0.07434959672391415,
              0.1697318542515859,
              0.2862666492182475,
              0.0748990411637351,
              -0.3032415224472061
            ],
            [
              -0.030067611671984195,
              0.2454624087084085,
              -0.22063792850822211,
              0.07487273270540562,
              -0.06756497228052467,
              0.34368949695490303,
              -0.34874940023291856,
              -0.25569444852881135,
              -0.05097505522426218,
              0.17707036449573935,
              0.35387238152325157,
              -0.0941611496033147,
              0.3145283420104534,
              -0.12315521424170583,
              0.06256270939021268,
              0.3605905995005742,
              0.2759574111085385,
              -0.11596240138169378,
              -0.37229658651631325,
              0.009395368513651192,
              -0.34944270201958716,
              -0.18745217530522496,
              0.1766244407510385,
              0.13741865339688958,
              -0.03449687311089362,
              -0.36974656116217375,
              0.07800571059342475,
              -0.1673310154583305,
              -0.4261674078181386,
              0.27734072625171396,
              -0.3835866504466589,
              0.24348532101139428,
              -0.35409788903028516,
              0.3127400847617537,
              -0.3555524728260934,
              -0.40479923890879876,
              -0.2832898970566033,
              0.12428284445777536,
              -0.13407432432286442,
              0.2982362475944683,
              -0.15880713336342053,
              0.29851388912647964,
              0.055770902244149156,
              -0.2953676930073395,
              -0.3347230260260403,
              0.23927515977993608,
              0.2651882224716246,
              0.17471847392152995,
              0.10951678238343447,
              0.0038788931211456656,
              0.14658793495036662,
              -0.2814725732646239,
              0.47040768665946,
              0.3778623177437112,
              -0.30270684461575004,
              -0.1729023187654093,
              -0.4340624561067671,
              -0.015969921718351543,
              -0.5150064906901912
            ],
            [
              -0.043604469113051894,
              0.43925559350755067,
              -0.11835585571825505,
              0.04681307128630579,
              -0.4292524739401415,
              0.13804134712774402,
              -0.22426442357327633,
              -0.04700286565348506,
              -0.12542977107223124,
              0.04930368304902685,
              -0.3970067197456956,
              -0.19991910606622695,
              -0.27543730039615183,
              -0.15681525408290328,
              0.14375426326878368,
              0.4076340364990756,
              -0.057381943752989176,
              -0.24187541787978262,
              -0.14470870492514223,
              0.29347639947663995,
              -0.014348234049975872,
              0.33062503980472685,
              -0.24768931986764073,
              -0.0788733555469662,
              0.18965629083104432,
              -0.19760770574212075,
              0.0211600860580802,
              0.03343702799174935,
              0.30424589740578084,
              -0.12138669197447598,
              -0.12480696612037719,
              0.26166668885853145,
              0.4958040319383138,
              0.13289645741517175,
              0.23101202817633748,
              0.29052643475588413,
              -0.19402107794024637,
              -0.15606203323524528,
              0.31451702266931536,
              -0.009945538407191635,
              -0.13874654446262866,
              0.3980052879313007,
              0.32097778525945353,
              0.21928299288768552,
              -0.407269369228743,
              0.08948157224804164,
              0.13521227999590338,
              0.39002235922018924,
              0.023585923708880713,
              -0.291290242268905,
              0.4871284755844653,
              -0.2530538527294994,
              0.2198793673189357,
              0.13267440798226746,
              0.019579115381508874,
              -0.008145577716641128,
              0.2898978016572073,
              -0.404976063547656,
              -0.34396203348878773
            ],
            [
              0.36146704954924147,
              0.07833299057515956,
              0.38582541367504747,
              -0.07887627726886422,
              0.4277674299431965,
              -0.303002151218243,
              -0.14728972928132864,
              -0.3599908655276522,
              -0.02026954258326441,
              0.040831659478135406,
              -0.4186015238704881,
              0.45137147695635427,
              -0.07642254112288356,
              0.2823632237431957,
              0.18347502029500903,
              -0.26622782242806187,
              0.07192243029582165,
              -0.36630809304770084,
              -0.35373396989889444,
              -0.6934144115795712,
              0.05386727387085557,
              0.1015941318590194,
              -0.06299286873545498,
              -0.18631584781687707,
              -0.19693341033998876,
              -0.2096001575002447,
              -0.03457364316089953,
              -0.309898413810879,
              0.2846098617883399,
              -0.14099438207223916,
              -0.3502435341116059,
              -0.5095620503790271,
              -0.054134689900092785,
              0.09977178939152509,
              0.35829286901280283,
              -0.1692450909409672,
              0.4467266981257126,
              -0.04855500804260373,
              -0.01625954476185143,
              -0.31501228020060806,
              0.002920526429079473,
              0.319109193328768,
              -0.04376602526754141,
              -0.2301528650801629,
              -0.03258167301745382,
              -0.25727818965420607,
              0.29466204419732095,
              -0.2513699635863304,
              0.10544712992850691,
              -0.13627422207500786,
              -0.3086784739047289,
              0.028625152143649756,
              0.14558462215155046,
              -0.22607566975057125,
              0.4499884755117819,
              0.44045483532972096,
              -0.3380932820029557,
              0.1265643444377929,
              0.25750190746039153
            ],
            [
              -0.32551066274754703,
              -0.3973770850338042,
              -0.024591358727775514,
              -0.24280746267177164,
              0.27158854105509816,
              -0.414005465595983,
              -0.058105387492105365,
              -0.40718171442858875,
              0.06276701181441974,
              -0.02029150484595448,
              -0.10172095878149982,
              0.3146241010632366,
              0.35951873010490093,
              0.01433950877691409,
              0.33402633983641866,
              -0.14712594944973034,
              -0.1149944615084678,
              0.158750607207784,
              -0.27930065493565054,
              -0.4119917510342493,
              0.303504546568729,
              -0.07932177605107427,
              -0.16631368560843535,
              0.3004850606666878,
              -0.18088386640883983,
              -0.14265849078074097,
              -0.43527121141087266,
              -0.18976042383996025,
              -0.43022086350247263,
              -0.0885042792186141,
              0.4394907205598429,
              -0.0940938787534833,
              -0.33547455018851907,
              0.4147579167969525,
              0.20186676322482527,
              0.15853190703783185,
              -0.0781848169863224,
              -0.2144746124278754,
              0.39073028611019256,
              0.12108929576352238,
              -0.3967312015593052,
              -0.3759438308950141,
              -0.39889527882914994,
              0.17162732840515674,
              0.269158974965103,
              0.017416557268637146,
              -0.23606790751218795,
              0.21597138522192835,
              -0.02054296089336276,
              -0.03489153860136867,
              -0.015528394072316588,
              -0.12820698728319257,
              -0.2971371583873406,
              0.04553520615416379,
              0.31921941933687775,
              -0.35145402249156854,
              0.07299840073105465,
              0.007406467874614769,
              -0.4241869711317122
            ],
            [
              -0.3895915997447446,
              -0.3865395416708295,
              0.3968541619833559,
              0.274412582699047,
              -0.16463364525698126,
              -0.07314159641973675,
              -0.03129469065461308,
              -0.2361599385039881,
              -0.28077617960516366,
              -0.14188700700178744,
              -0.3160689977213637,
              0.18107278256211431,
              -0.2334337714361027,
              0.07938948422670365,
              -0.24338451307996511,
              0.0946105826413259,
              -0.048375808820128444,
              0.3269426029874012,
              -0.4418073094915599,
              0.04728387629147619,
              0.14894188495818525,
              -0.384970277878494,
              0.367493315320462,
              0.40309749150183055,
              -0.1246332222595811,
              -0.36795884873718027,
              0.09671707836053826,
              -0.15883665962610394,
              0.10922888140194119,
              0.24269876279868186,
              0.2200633550747814,
              0.3133853234583512,
              -0.14694986615795644,
              -0.15234019097406418,
              -0.05772485830821097,
              -0.43486139355227355,
              0.17868503106292338,
              0.31626698195468633,
              0.520857940992124,
              -0.34429427138529717,
              0.30524180777324483,
              0.41074927705340086,
              -0.3762729676673189,
              0.09134288197383285,
              -0.1007710981182754,
              0.21651277507189662,
              0.2690797207178548,
              -0.1794722246238962,
              -0.20648308298550547,
              0.3758287545606295,
              0.25801777734886855,
              -0.06918539239559322,
              0.41329732511658224,
              0.09720791130790662,
              0.3913295483915135,
              -0.4138464675983414,
              0.4560834319590894,
              0.08059928705915809,
              -0.5160839568209614
            ],
            [
              0.4107659283326939,
              0.3287693813676015,
              0.3813748110551387,
              0.29670436510350556,
              0.4621743590852043,
              -0.3342317727394402,
              0.3664906949037686,
              0.1417956023477018,
              -0.3232908852165565,
              -0.2674632943700999,
              0.23774549908903547,
              -0.43018343579024076,
              -0.2384966507088393,
              -0.4117173258913681,
              0.09394387810025365,
              -0.09799220259301365,
              -0.28662355430424213,
              0.33523864969627926,
              -0.43607691200450066,
              -0.21264993832446635,
              -0.4190550054889172,
              0.26781542964745314,
              -0.36130259167402984,
              0.06228297748602927,
              -0.31429834776979554,
              -0.2581870813155547,
              0.2791755774524063,
              0.10477770252618938,
              -0.31991878857370465,
              0.30717877834104,
              -0.19680348526820776,
              0.15129902574699372,
              -0.10478067118674517,
              -0.09100614215712995,
              0.42684417336713526,
              0.3810932801105082,
              0.16045006890781224,
              -0.2053364822579189,
              0.40355999779421836,
              0.3737422785256058,
              -0.28748591677285734,
              0.09617255197372288,
              -0.32667809987906365,
              0.42305122723337263,
              -0.04802323181647807,
              -0.17774095418817418,
              -0.34649623464792967,
              0.18110647706045502,
              -0.10003622397780419,
              -0.4176714971428737,
              -0.4066270910203457,
              0.055249551543965936,
              -0.27491113543510437,
              0.38480780997779224,
              -0.10468027626743814,
              -0.1586780124111101,
              0.2980509216198698,
              0.23396507597062738,
              0.07772981773596258
            ],
            [
              0.2687930854037404,
              0.009934814600273968,
              -0.3426451757392586,
              0.33482692285906523,
              -0.3669660072773695,
              -0.35866186742205175,
              0.11938264912459999,
              -0.21845002588815987,
              0.08688121335580945,
              -0.40145129596750717,
              -0.3571193971205503,
              0.16946009933017195,
              0.3862730347551406,
              -0.36964152900036423,
              0.306373059746121,
              0.1618602476315573,
              0.1614923644345254,
              -0.3630213206168264,
              0.3906849537045351,
              -0.1377836873754859,
              -0.11976042385849608,
              0.18776670747902244,
              0.034815587065554404,
              -0.31439074992667887,
              0.25331237765494735,
              0.33227267616894096,
              0.37834731603506955,
              0.016288353453849325,
              -0.379672022187151,
              -0.3129984950646758,
              -0.07393911543767899,
              -0.02308077800553292,
              0.2113101954571903,
              -0.03716093328774908,
              -0.10388856366821816,
              0.0838465803520972,
              0.10067747980356216,
              -0.09004761264659465,
              0.23074816984590144,
              0.36599910424556586,
              -0.39934616822283714,
              0.14236646632198244,
              -0.16121376799419523,
              0.04240441527217627,
              0.27898120684588346,
              0.42290711771525336,
              0.2959548431681469,
              -0.061296770721673964,
              -0.09691485091983318,
              0.3238020476186648,
              -0.31307920336257666,
              0.33303682871628554,
              -0.24914474138058723,
              -0.44072480889258453,
              -0.003971278876997531,
              0.07146828356198967,
              -0.29268354519736023,
              0.41766642630100254,
              0.3042502849317812
            ],
            [
              -0.3644022150663659,
              0.3846416854765266,
              -0.37865966556128117,
              0.024483542726375162,
              0.027256300603039563,
              0.3891005918383598,
              0.5853011938397374,
              0.3834739528829232,
              -0.19950542917940767,
              -0.4153977596433833,
              0.07311888330447827,
              -0.18040077290497722,
              0.25849613340105865,
              -0.36824941264931116,
              0.4229365948587656,
              -0.06513700797222555,
              0.3215044275624678,
              -0.4342027446487919,
              0.361482724850066,
              -0.17401100755669177,
              -0.2457011617720127,
              -0.06902971509844065,
              0.3373630107846111,
              0.3964713675901294,
              -0.2872551556443796,
              -0.34117618727032095,
              -0.04695743909105659,
              0.23392466103564916,
              -0.2560934778302908,
              -0.20183247139211744,
              -0.21224032267928125,
              -0.48480699790253035,
              -0.07010721890424934,
              -0.3710401676091491,
              -0.44669567376840863,
              0.01906837332062423,
              -0.5742760310857133,
              -0.13853008474688977,
              -0.060828072507865726,
              -0.20866827678401023,
              0.5505235826493474,
              0.309945963928476,
              -0.2598779496503994,
              -0.2608385640053901,
              -0.3910478732781485,
              0.4157242265995592,
              0.00006765599828213453,
              0.13242227587401945,
              -0.18283107031602414,
              0.041271913703531025,
              -0.06165389930829406,
              -0.2550922535180284,
              0.21655849689651482,
              -0.3598902751458809,
              0.3738976859254763,
              -0.42667169831693175,
              -0.18711438314057888,
              0.0026033514412119986,
              0.37815600256263715
            ],
            [
              0.3855213559465483,
              -0.3626942409435287,
              0.06709088412098693,
              0.2478416152764112,
              -0.3757100271061063,
              0.40236001642558256,
              -0.34701490618754177,
              0.07737798211164773,
              0.04295994874555618,
              0.42597832779865713,
              0.4130093709100038,
              0.09656237437097857,
              -0.30202015426475554,
              0.14325144316535443,
              -0.4243450096109882,
              -0.28601039985660465,
              -0.46774626163279515,
              -0.27263436452485623,
              -0.1624591576633975,
              -0.12874544200021773,
              -0.007221264392137528,
              0.09902217881754041,
              -0.2749072793405503,
              0.16351212104782462,
              -0.1748903821455315,
              -0.02384503703205179,
              0.024042023462243378,
              0.15162913254462182,
              -0.27394391410052776,
              0.19052118295803666,
              -0.274819284719435,
              -0.44753751922398805,
              -0.39666063599288465,
              -0.1826359536498785,
              0.1382078996859491,
              -0.38224229381885383,
              -0.42807436287403106,
              0.215763078792952,
              0.30151063911616804,
              -0.16364531757964068,
              -0.06297555319033564,
              0.11581793886143714,
              -0.09019318404717622,
              0.3856895006960258,
              -0.3411874309647828,
              -0.4093229067977518,
              0.13174112183041872,
              -0.07940497188828886,
              0.22436771113425494,
              0.48676653899032213,
              -0.10375762511976064,
              0.340095099247992,
              0.09399323975667358,
              0.4456086748610744,
              0.2730899017657734,
              -0.18542561025207863,
              0.26719325815793127,
              0.25863101247232406,
              0.33041476509533824
            ],
            [
              -0.13828363395296037,
              0.11512675140984356,
              0.19992376053705813,
              0.3698596143862233,
              0.31965234777890145,
              0.3775355268269777,
              -0.052133993369003734,
              0.005688877729699016,
              0.18653628809843212,
              -0.22578418510028428,
              0.3306457535829395,
              0.15069178473204375,
              -0.1685745165670223,
              0.18213824797421693,
              0.3986298587406054,
              0.28010453036986294,
              -0.05847351896578028,
              0.24519338987309292,
              0.03186480822041631,
              0.23154595813248308,
              -0.16218760667877838,
              0.02611440250184387,
              0.3173396763391793,
              -0.0022787249414250254,
              0.17254051622003316,
              -0.437752202572301,
              -0.25315022114664315,
              -0.0122181640258468,
              -0.15048426165022666,
              -0.010857864562422038,
              -0.43246029953006654,
              0.20818627334665507,
              0.2495389240561053,
              0.037161656585522,
              0.23792959190905094,
              -0.2973053951282054,
              -0.18478061827015232,
              -0.23312789043411614,
              -0.26283118436113,
              0.0844143063062802,
              -0.4130689371144399,
              0.32860793648287656,
              -0.06411315996665508,
              -0.43802467728964983,
              -0.12048327850643546,
              0.31946460383478553,
              -0.4097211729269475,
              0.027954101585783066,
              0.08078030536416918,
              -0.1078222263491746,
              -0.2856405140133575,
              0.0250579520361498,
              0.40522170171607286,
              -0.2584456475218758,
              0.08037120059598238,
              -0.47590792929201503,
              -0.3366563645889983,
              0.4135727835819125,
              -0.1373108344162733
            ]
          ],
          "biases": [
            -0.30871372805107955,
            0.1731976519804448,
            0.12871004585176707,
            0.28180032359502905,
            -0.08914025465492159,
            -0.14721307607419937,
            -0.04005550257861614,
            0.45958367557833074,
            0.1149599164630414,
            0.15805875837109237,
            0.29141784156357253,
            -0.00022143497961676917
          ]
        },
        {
          "weights": [
            [
              0.20296611161902545,
              -0.16086036399933273,
              0.23297317014436747,
              0.14573879800736902,
              -0.022808192996308208,
              -0.022378727649062458,
              0.02804155447492783,
              0.22323961318470537,
              -0.10930617009691344,
              0.3442317352397367,
              0.24185697205830364,
              -0.12094149071761215
            ],
            [
              -0.005752714863047004,
              0.32929627458474275,
              0.22758781143929807,
              0.1008026563077501,
              0.0330618639010936,
              0.022874345211312173,
              0.289259122335352,
              -0.25029832997824997,
              0.2584159531164914,
              -0.2628165420843288,
              0.32702792899217453,
              0.12354091658389361
            ],
            [
              0.2894092720130603,
              0.25857630257960407,
              -0.23445416926406323,
              -0.06958413366228342,
              0.18284904519096015,
              -0.14589130382519214,
              0.19702340227086096,
              0.03771533684339374,
              -0.15407946549821644,
              -0.12119018312237158,
              -0.14671118380501866,
              -0.06265793491620571
            ],
            [
              0.14702569709625093,
              0.2876228791894391,
              0.08218464276287704,
              0.34925719541497524,
              0.17605512137524781,
              -0.05552393612451851,
              -0.08285001665353775,
              0.08918100448589034,
              -0.03881044522859156,
              -0.027807024284265933,
              -0.1435703317634761,
              0.18514258845243603
            ],
            [
              0.2261290562339127,
              -0.2906249424209818,
              0.3404029922792688,
              -0.12419512894519028,
              -0.18596785821278472,
              0.03636370853055268,
              -0.21131520508788526,
              -0.23554139439947902,
              -0.1573954837123501,
              -0.18499002787284552,
              0.274559463490732,
              0.2478689716716575
            ],
            [
              -0.22676365352235733,
              0.14996168023678136,
              -0.22416560712736097,
              0.0007209614850580692,
              -0.30144222697708756,
              0.22228193617569103,
              -0.22211766735289307,
              0.14129477806854993,
              -0.32121765217743814,
              0.03478356278501451,
              0.08591426773928106,
              -0.30913303857234
            ],
            [
              -0.13723485553637146,
              0.2942051407881081,
              -0.09267275873571634,
              -0.22952945117624565,
              0.03138943365775049,
              0.009879125677980482,
              -0.16158141382038593,
              -0.03211014170665294,
              0.3052802756524193,
              0.12232982099521904,
              -0.1294421494472772,
              -0.13930881111882626
            ],
            [
              -0.13102584835141898,
              0.2911837088409811,
              0.2491474220853623,
              0.1654056695755571,
              0.1191301846623529,
              -0.06865535713732242,
              0.22356685712002217,
              -0.011435490963049232,
              0.3127222230425104,
              0.16928619366644582,
              0.2557193476008251,
              -0.24146210304461418
            ]
          ],
          "biases": [
            -0.2299831690499559,
            0.5366459545647384,
            0.02521811577025801,
            -0.4171524930501176,
            -0.0767660993617028,
            0.295764734246768,
            -0.21694989935641257,
            0.23610198243336314
          ]
        },
        {
          "weights": [
            [
              -0.007942973054014146,
              -0.17177452356554568,
              -0.017877119577856086,
              0.1235904567874968,
              0.21425873902626336,
              -0.06981623009778559,
              0.17249362473376095,
              0.10945955466013402
            ],
            [
              -0.13343944202642888,
              0.19598895264789462,
              0.05648919311352074,
              -0.1430792025057599,
              -0.21654778788797557,
              -0.208530685137646,
              0.036071359645575285,
              -0.12040655071234724
            ],
            [
              0.02831273025367409,
              -0.00680942926555872,
              0.01458327833097428,
              0.09893086063675582,
              -0.02603767195250839,
              0.07072975928895175,
              0.027853201259858906,
              -0.07245468453038484
            ]
          ],
          "biases": [
            0.04015227162160078,
            0.07267674559511486,
            -0.058540567996573825
          ]
        }
      ]
    }
  },
  "replay": {
    "version": 1,
    "seed": 178625380,
    "configHash": "3a06a5c9",
    "actions": [
      {
        "tick": 2,
        "side": "left",
        "action": {
          "moveAxis": 0,
          "fire": false
        }
      },
      {
        "tick": 2,
        "side": "right",
        "action": {
          "moveAxis": 1,
          "fire": false
        }
      },
      {
        "tick": 4,
        "side": "left",
        "action": {
          "moveAxis": 0,
          "fire": false
        }
      },
      {
        "tick": 4,
        "side": "right",
        "action": {
          "moveAxis": 0,
          "fire": false
        }
      },
      {
        "tick": 6,
        "side": "left",
        "action": {
          "moveAxis": 0,
          "fire": false
        }
      },
      {
        "tick": 6,
        "side": "right",
        "action": {
          "moveAxis": 0,
          "fire": false
        }
      },
      {
        "tick": 8,
        "side": "left",
        "action": {
          "moveAxis": 0,
          "fire": false
        }
      },
      {
        "tick": 8,
        "side": "right",
        "action": {
          "moveAxis": 1,
          "fire": false
        }
      },
      {
        "tick": 10,
        "side": "left",
        "action": {
          "moveAxis": 0,
          "fire": false
        }
      },
      {
        "tick": 10,
        "side": "right",
        "action": {
          "moveAxis": 0,
          "fire": false
        }
      },
      {
        "tick": 12,
        "side": "left",
        "action": {
          "moveAxis": 0,
          "fire": false
        }
      },
      {
        "tick": 12,
        "side": "right",
        "action": {
          "moveAxis": 0,
          "fire": false
        }
      },
      {
        "tick": 14,
        "side": "left",
        "action": {
          "moveAxis": 0,
          "fire": false
        }
      },
      {
        "tick": 14,
        "side": "right",
        "action": {
          "moveAxis": 0,
          "fire": false
        }
      },
      {
        "tick": 16,
        "side": "left",
        "action": {
          "moveAxis": 0,
          "fire": false
        }
      },
      {
        "tick": 16,
        "side": "right",
        "action": {
          "moveAxis": 0,
          "fire": false
        }
      },
      {
        "tick": 18,
        "side": "left",
        "action": {
          "moveAxis": 0,
          "fire": false
        }
      },
      {
        "tick": 18,
        "side": "right",
        "action": {
          "moveAxis": 0,
          "fire": false
        }
      },
      {
        "tick": 20,
        "side": "left",
        "action": {
          "moveAxis": 0,
          "fire": false
        }
      },
      {
        "tick": 20,
        "side": "right",
        "action": {
          "moveAxis": 0,
          "fire": false
        }
      },
      {
        "tick": 22,
        "side": "left",
        "action": {
          "moveAxis": 0,
          "fire": false
        }
      },
      {
        "tick": 22,
        "side": "right",
        "action": {
          "moveAxis": 0,
          "fire": false
        }
      },
      {
        "tick": 24,
        "side": "left",
        "action": {
          "moveAxis": 0,
          "fire": false
        }
      },
      {
        "tick": 24,
        "side": "right",
        "action": {
          "moveAxis": 0,
          "fire": false
        }
      },
      {
        "tick": 26,
        "side": "left",
        "action": {
          "moveAxis": 0,
          "fire": false
        }
      },
      {
        "tick": 26,
        "side": "right",
        "action": {
          "moveAxis": 0,
          "fire": false
        }
      },
      {
        "tick": 28,
        "side": "left",
        "action": {
          "moveAxis": 0,
          "fire": false
        }
      },
      {
        "tick": 28,
        "side": "right",
        "action": {
          "moveAxis": 0,
          "fire": false
        }
      },
      {
        "tick": 30,
        "side": "left",
        "action": {
          "moveAxis": 0,
          "fire": false
        }
      },
      {
        "tick": 30,
        "side": "right",
        "action": {
          "moveAxis": 0,
          "fire": false
        }
      },
      {
        "tick": 32,
        "side": "left",
        "action": {
          "moveAxis": 0,
          "fire": false
        }
      },
      {
        "tick": 32,
        "side": "right",
        "action": {
          "moveAxis": 0,
          "fire": false
        }
      },
      {
        "tick": 34,
        "side": "left",
        "action": {
          "moveAxis": 0,
          "fire": false
        }
      },
      {
        "tick": 34,
        "side": "right",
        "action": {
          "moveAxis": 0,
          "fire": false
        }
      },
      {
        "tick": 36,
        "side": "left",
        "action": {
          "moveAxis": 0,
          "fire": false
        }
      },
      {
        "tick": 36,
        "side": "right",
        "action": {
          "moveAxis": 0,
          "fire": false
        }
      },
      {
        "tick": 38,
        "side": "left",
        "action": {
          "moveAxis": 0,
          "fire": false
        }
      },
      {
        "tick": 38,
        "side": "right",
        "action": {
          "moveAxis": 0,
          "fire": false
        }
      },
      {
        "tick": 40,
        "side": "left",
        "action": {
          "moveAxis": 0,
          "fire": false
        }
      },
      {
        "tick": 40,
        "side": "right",
        "action": {
          "moveAxis": 0,
          "fire": false
        }
      },
      {
        "tick": 42,
        "side": "left",
        "action": {
          "moveAxis": 0,
          "fire": false
        }
      },
      {
        "tick": 42,
        "side": "right",
        "action": {
          "moveAxis": 0,
          "fire": false
        }
      },
      {
        "tick": 44,
        "side": "left",
        "action": {
          "moveAxis": 0,
          "fire": false
        }
      },
      {
        "tick": 44,
        "side": "right",
        "action": {
          "moveAxis": 0,
          "fire": false
        }
      },
      {
        "tick": 46,
        "side": "left",
        "action": {
          "moveAxis": 0,
          "fire": false
        }
      },
      {
        "tick": 46,
        "side": "right",
        "action": {
          "moveAxis": 0,
          "fire": false
        }
      },
      {
        "tick": 48,
        "side": "left",
        "action": {
          "moveAxis": 0,
          "fire": false
        }
      },
      {
        "tick": 48,
        "side": "right",
        "action": {
          "moveAxis": 0,
          "fire": false
        }
      },
      {
        "tick": 50,
        "side": "left",
        "action": {
          "moveAxis": 0,
          "fire": false
        }
      },
      {
        "tick": 50,
        "side": "right",
        "action": {
          "moveAxis": 0,
          "fire": false
        }
      },
      {
        "tick": 52,
        "side": "left",
        "action": {
          "moveAxis": 0,
          "fire": false
        }
      },
      {
        "tick": 52,
        "side": "right",
        "action": {
          "moveAxis": 0,
          "fire": false
        }
      },
      {
        "tick": 54,
        "side": "left",
        "action": {
          "moveAxis": 0,
          "fire": false
        }
      },
      {
        "tick": 54,
        "side": "right",
        "action": {
          "moveAxis": 0,
          "fire": false
        }
      },
      {
        "tick": 56,
        "side": "left",
        "action": {
          "moveAxis": 0,
          "fire": false
        }
      },
      {
        "tick": 56,
        "side": "right",
        "action": {
          "moveAxis": 0,
          "fire": false
        }
      },
      {
        "tick": 58,
        "side": "left",
        "action": {
          "moveAxis": 0,
          "fire": false
        }
      },
      {
        "tick": 58,
        "side": "right",
        "action": {
          "moveAxis": 0,
          "fire": false
        }
      },
      {
        "tick": 60,
        "side": "left",
        "action": {
          "moveAxis": 0,
          "fire": false
        }
      },
      {
        "tick": 60,
        "side": "right",
        "action": {
          "moveAxis": 0,
          "fire": false
        }
      },
      {
        "tick": 62,
        "side": "left",
        "action": {
          "moveAxis": 0,
          "fire": false
        }
      },
      {
        "tick": 62,
        "side": "right",
        "action": {
          "moveAxis": 0,
          "fire": false
        }
      },
      {
        "tick": 64,
        "side": "left",
        "action": {
          "moveAxis": 0,
          "fire": false
        }
      },
      {
        "tick": 64,
        "side": "right",
        "action": {
          "moveAxis": 0,
          "fire": false
        }
      },
      {
        "tick": 66,
        "side": "left",
        "action": {
          "moveAxis": 0,
          "fire": false
        }
      },
      {
        "tick": 66,
        "side": "right",
        "action": {
          "moveAxis": 0,
          "fire": false
        }
      },
      {
        "tick": 68,
        "side": "left",
        "action": {
          "moveAxis": 0,
          "fire": false
        }
      },
      {
        "tick": 68,
        "side": "right",
        "action": {
          "moveAxis": 0,
          "fire": false
        }
      },
      {
        "tick": 70,
        "side": "left",
        "action": {
          "moveAxis": 0,
          "fire": false
        }
      },
      {
        "tick": 70,
        "side": "right",
        "action": {
          "moveAxis": 0,
          "fire": false
        }
      },
      {
        "tick": 72,
        "side": "left",
        "action": {
          "moveAxis": 0,
          "fire": false
        }
      },
      {
        "tick": 72,
        "side": "right",
        "action": {
          "moveAxis": 0,
          "fire": false
        }
      },
      {
        "tick": 74,
        "side": "left",
        "action": {
          "moveAxis": 0,
          "fire": false
        }
      },
      {
        "tick": 74,
        "side": "right",
        "action": {
          "moveAxis": 0,
          "fire": false
        }
      },
      {
        "tick": 76,
        "side": "left",
        "action": {
          "moveAxis": 0,
          "fire": false
        }
      },
      {
        "tick": 76,
        "side": "right",
        "action": {
          "moveAxis": 0,
          "fire": false
        }
      },
      {
        "tick": 78,
        "side": "left",
        "action": {
          "moveAxis": 0,
          "fire": false
        }
      },
      {
        "tick": 78,
        "side": "right",
        "action": {
          "moveAxis": 0,
          "fire": false
        }
      },
      {
        "tick": 80,
        "side": "left",
        "action": {
          "moveAxis": 0,
          "fire": false
        }
      },
      {
        "tick": 80,
        "side": "right",
        "action": {
          "moveAxis": 0,
          "fire": false
        }
      },
      {
        "tick": 82,
        "side": "left",
        "action": {
          "moveAxis": 0,
          "fire": false
        }
      },
      {
        "tick": 82,
        "side": "right",
        "action": {
          "moveAxis": 0,
          "fire": false
        }
      },
      {
        "tick": 84,
        "side": "left",
        "action": {
          "moveAxis": 0,
          "fire": false
        }
      },
      {
        "tick": 84,
        "side": "right",
        "action": {
          "moveAxis": 0,
          "fire": false
        }
      },
      {
        "tick": 86,
        "side": "left",
        "action": {
          "moveAxis": 0,
          "fire": false
        }
      },
      {
        "tick": 86,
        "side": "right",
        "action": {
          "moveAxis": 1,
          "fire": false
        }
      },
      {
        "tick": 88,
        "side": "left",
        "action": {
          "moveAxis": 0,
          "fire": false
        }
      },
      {
        "tick": 88,
        "side": "right",
        "action": {
          "moveAxis": 1,
          "fire": false
        }
      },
      {
        "tick": 90,
        "side": "left",
        "action": {
          "moveAxis": 0,
          "fire": false
        }
      },
      {
        "tick": 90,
        "side": "right",
        "action": {
          "moveAxis": 0,
          "fire": false
        }
      },
      {
        "tick": 92,
        "side": "left",
        "action": {
          "moveAxis": 0,
          "fire": false
        }
      },
      {
        "tick": 92,
        "side": "right",
        "action": {
          "moveAxis": 1,
          "fire": false
        }
      },
      {
        "tick": 94,
        "side": "left",
        "action": {
          "moveAxis": 0,
          "fire": false
        }
      },
      {
        "tick": 94,
        "side": "right",
        "action": {
          "moveAxis": 0,
          "fire": false
        }
      },
      {
        "tick": 96,
        "side": "left",
        "action": {
          "moveAxis": 0,
          "fire": false
        }
      },
      {
        "tick": 96,
        "side": "right",
        "action": {
          "moveAxis": 1,
          "fire": false
        }
      },
      {
        "tick": 98,
        "side": "left",
        "action": {
          "moveAxis": 0,
          "fire": false
        }
      },
      {
        "tick": 98,
        "side": "right",
        "action": {
          "moveAxis": 0,
          "fire": false
        }
      },
      {
        "tick": 100,
        "side": "left",
        "action": {
          "moveAxis": 0,
          "fire": false
        }
      },
      {
        "tick": 100,
        "side": "right",
        "action": {
          "moveAxis": 1,
          "fire": false
        }
      },
      {
        "tick": 102,
        "side": "left",
        "action": {
          "moveAxis": 0,
          "fire": false
        }
      },
      {
        "tick": 102,
        "side": "right",
        "action": {
          "moveAxis": 0,
          "fire": false
        }
      },
      {
        "tick": 104,
        "side": "left",
        "action": {
          "moveAxis": 0,
          "fire": false
        }
      },
      {
        "tick": 104,
        "side": "right",
        "action": {
          "moveAxis": 1,
          "fire": false
        }
      },
      {
        "tick": 106,
        "side": "left",
        "action": {
          "moveAxis": 0,
          "fire": false
        }
      },
      {
        "tick": 106,
        "side": "right",
        "action": {
          "moveAxis": 0,
          "fire": false
        }
      },
      {
        "tick": 108,
        "side": "left",
        "action": {
          "moveAxis": 0,
          "fire": false
        }
      },
      {
        "tick": 108,
        "side": "right",
        "action": {
          "moveAxis": 1,
          "fire": false
        }
      },
      {
        "tick": 110,
        "side": "left",
        "action": {
          "moveAxis": 0,
          "fire": false
        }
      },
      {
        "tick": 110,
        "side": "right",
        "action": {
          "moveAxis": 0,
          "fire": false
        }
      },
      {
        "tick": 112,
        "side": "left",
        "action": {
          "moveAxis": 0,
          "fire": false
        }
      },
      {
        "tick": 112,
        "side": "right",
        "action": {
          "moveAxis": 1,
          "fire": false
        }
      },
      {
        "tick": 114,
        "side": "left",
        "action": {
          "moveAxis": 0,
          "fire": false
        }
      },
      {
        "tick": 114,
        "side": "right",
        "action": {
          "moveAxis": 0,
          "fire": false
        }
      },
      {
        "tick": 116,
        "side": "left",
        "action": {
          "moveAxis": 0,
          "fire": false
        }
      },
      {
        "tick": 116,
        "side": "right",
        "action": {
          "moveAxis": 1,
          "fire": false
        }
      },
      {
        "tick": 118,
        "side": "left",
        "action": {
          "moveAxis": 0,
          "fire": false
        }
      },
      {
        "tick": 118,
        "side": "right",
        "action": {
          "moveAxis": 0,
          "fire": false
        }
      },
      {
        "tick": 120,
        "side": "left",
        "action": {
          "moveAxis": 0,
          "fire": false
        }
      },
      {
        "tick": 120,
        "side": "right",
        "action": {
          "moveAxis": 1,
          "fire": false
        }
      },
      {
        "tick": 122,
        "side": "left",
        "action": {
          "moveAxis": 0,
          "fire": false
        }
      },
      {
        "tick": 122,
        "side": "right",
        "action": {
          "moveAxis": 0,
          "fire": false
        }
      },
      {
        "tick": 124,
        "side": "left",
        "action": {
          "moveAxis": 0,
          "fire": false
        }
      },
      {
        "tick": 124,
        "side": "right",
        "action": {
          "moveAxis": 1,
          "fire": false
        }
      },
      {
        "tick": 126,
        "side": "left",
        "action": {
          "moveAxis": 0,
          "fire": false
        }
      },
      {
        "tick": 126,
        "side": "right",
        "action": {
          "moveAxis": 1,
          "fire": false
        }
      },
      {
        "tick": 128,
        "side": "left",
        "action": {
          "moveAxis": 0,
          "fire": false
        }
      },
      {
        "tick": 128,
        "side": "right",
        "action": {
          "moveAxis": 0,
          "fire": false
        }
      },
      {
        "tick": 130,
        "side": "left",
        "action": {
          "moveAxis": 0,
          "fire": false
        }
      },
      {
        "tick": 130,
        "side": "right",
        "action": {
          "moveAxis": 1,
          "fire": false
        }
      },
      {
        "tick": 132,
        "side": "left",
        "action": {
          "moveAxis": 0,
          "fire": false
        }
      },
      {
        "tick": 132,
        "side": "right",
        "action": {
          "moveAxis": 0,
          "fire": false
        }
      },
      {
        "tick": 134,
        "side": "left",
        "action": {
          "moveAxis": 0,
          "fire": false
        }
      },
      {
        "tick": 134,
        "side": "right",
        "action": {
          "moveAxis": 1,
          "fire": false
        }
      },
      {
        "tick": 136,
        "side": "left",
        "action": {
          "moveAxis": 0,
          "fire": false
        }
      },
      {
        "tick": 136,
        "side": "right",
        "action": {
          "moveAxis": 1,
          "fire": false
        }
      },
      {
        "tick": 138,
        "side": "left",
        "action": {
          "moveAxis": 0,
          "fire": false
        }
      },
      {
        "tick": 138,
        "side": "right",
        "action": {
          "moveAxis": 0,
          "fire": false
        }
      },
      {
        "tick": 140,
        "side": "left",
        "action": {
          "moveAxis": 0,
          "fire": false
        }
      },
      {
        "tick": 140,
        "side": "right",
        "action": {
          "moveAxis": 1,
          "fire": false
        }
      },
      {
        "tick": 142,
        "side": "left",
        "action": {
          "moveAxis": 0,
          "fire": false
        }
      },
      {
        "tick": 142,
        "side": "right",
        "action": {
          "moveAxis": 0,
          "fire": false
        }
      },
      {
        "tick": 144,
        "side": "left",
        "action": {
          "moveAxis": 0,
          "fire": false
        }
      },
      {
        "tick": 144,
        "side": "right",
        "action": {
          "moveAxis": 1,
          "fire": false
        }
      },
      {
        "tick": 146,
        "side": "left",
        "action": {
          "moveAxis": 0,
          "fire": false
        }
      },
      {
        "tick": 146,
        "side": "right",
        "action": {
          "moveAxis": 1,
          "fire": false
        }
      },
      {
        "tick": 148,
        "side": "left",
        "action": {
          "moveAxis": 0,
          "fire": false
        }
      },
      {
        "tick": 148,
        "side": "right",
        "action": {
          "moveAxis": 0,
          "fire": false
        }
      },
      {
        "tick": 150,
        "side": "left",
        "action": {
          "moveAxis": 0,
          "fire": false
        }
      },
      {
        "tick": 150,
        "side": "right",
        "action": {
          "moveAxis": 1,
          "fire": false
        }
      },
      {
        "tick": 152,
        "side": "left",
        "action": {
          "moveAxis": 0,
          "fire": false
        }
      },
      {
        "tick": 152,
        "side": "right",
        "action": {
          "moveAxis": 1,
          "fire": false
        }
      },
      {
        "tick": 154,
        "side": "left",
        "action": {
          "moveAxis": 0,
          "fire": false
        }
      },
      {
        "tick": 154,
        "side": "right",
        "action": {
          "moveAxis": 0,
          "fire": false
        }
      },
      {
        "tick": 156,
        "side": "left",
        "action": {
          "moveAxis": 0,
          "fire": false
        }
      },
      {
        "tick": 156,
        "side": "right",
        "action": {
          "moveAxis": 1,
          "fire": false
        }
      },
      {
        "tick": 158,
        "side": "left",
        "action": {
          "moveAxis": 0,
          "fire": false
        }
      },
      {
        "tick": 158,
        "side": "right",
        "action": {
          "moveAxis": 1,
          "fire": false
        }
      },
      {
        "tick": 160,
        "side": "left",
        "action": {
          "moveAxis": 0,
          "fire": false
        }
      },
      {
        "tick": 160,
        "side": "right",
        "action": {
          "moveAxis": 1,
          "fire": false
        }
      },
      {
        "tick": 162,
        "side": "left",
        "action": {
          "moveAxis": 0,
          "fire": false
        }
      },
      {
        "tick": 162,
        "side": "right",
        "action": {
          "moveAxis": 1,
          "fire": false
        }
      },
      {
        "tick": 164,
        "side": "left",
        "action": {
          "moveAxis": 0,
          "fire": false
        }
      },
      {
        "tick": 164,
        "side": "right",
        "action": {
          "moveAxis": 1,
          "fire": false
        }
      },
      {
        "tick": 166,
        "side": "left",
        "action": {
          "moveAxis": 0,
          "fire": false
        }
      },
      {
        "tick": 166,
        "side": "right",
        "action": {
          "moveAxis": 1,
          "fire": false
        }
      },
      {
        "tick": 168,
        "side": "left",
        "action": {
          "moveAxis": 0,
          "fire": false
        }
      },
      {
        "tick": 168,
        "side": "right",
        "action": {
          "moveAxis": 1,
          "fire": false
        }
      },
      {
        "tick": 170,
        "side": "left",
        "action": {
          "moveAxis": 0,
          "fire": false
        }
      },
      {
        "tick": 170,
        "side": "right",
        "action": {
          "moveAxis": 1,
          "fire": false
        }
      },
      {
        "tick": 172,
        "side": "left",
        "action": {
          "moveAxis": 0,
          "fire": false
        }
      },
      {
        "tick": 172,
        "side": "right",
        "action": {
          "moveAxis": 1,
          "fire": false
        }
      },
      {
        "tick": 174,
        "side": "left",
        "action": {
          "moveAxis": 0,
          "fire": false
        }
      },
      {
        "tick": 174,
        "side": "right",
        "action": {
          "moveAxis": 1,
          "fire": false
        }
      },
      {
        "tick": 176,
        "side": "left",
        "action": {
          "moveAxis": 0,
          "fire": false
        }
      },
      {
        "tick": 176,
        "side": "right",
        "action": {
          "moveAxis": 1,
          "fire": false
        }
      },
      {
        "tick": 178,
        "side": "left",
        "action": {
          "moveAxis": 0,
          "fire": false
        }
      },
      {
        "tick": 178,
        "side": "right",
        "action": {
          "moveAxis": 1,
          "fire": false
        }
      },
      {
        "tick": 180,
        "side": "left",
        "action": {
          "moveAxis": 0,
          "fire": false
        }
      },
      {
        "tick": 180,
        "side": "right",
        "action": {
          "moveAxis": 1,
          "fire": false
        }
      },
      {
        "tick": 182,
        "side": "left",
        "action": {
          "moveAxis": 0,
          "fire": false
        }
      },
      {
        "tick": 182,
        "side": "right",
        "action": {
          "moveAxis": 1,
          "fire": false
        }
      },
      {
        "tick": 184,
        "side": "left",
        "action": {
          "moveAxis": 0,
          "fire": false
        }
      },
      {
        "tick": 184,
        "side": "right",
        "action": {
          "moveAxis": 1,
          "fire": false
        }
      },
      {
        "tick": 186,
        "side": "left",
        "action": {
          "moveAxis": 0,
          "fire": false
        }
      },
      {
        "tick": 186,
        "side": "right",
        "action": {
          "moveAxis": 1,
          "fire": false
        }
      },
      {
        "tick": 188,
        "side": "left",
        "action": {
          "moveAxis": 0,
          "fire": false
        }
      },
      {
        "tick": 188,
        "side": "right",
        "action": {
          "moveAxis": 1,
          "fire": false
        }
      },
      {
        "tick": 190,
        "side": "left",
        "action": {
          "moveAxis": 0,
          "fire": false
        }
      },
      {
        "tick": 190,
        "side": "right",
        "action": {
          "moveAxis": 1,
          "fire": false
        }
      },
      {
        "tick": 192,
        "side": "left",
        "action": {
          "moveAxis": 0,
          "fire": false
        }
      },
      {
        "tick": 192,
        "side": "right",
        "action": {
          "moveAxis": 1,
          "fire": false
        }
      },
      {
        "tick": 194,
        "side": "left",
        "action": {
          "moveAxis": 0,
          "fire": false
        }
      },
      {
        "tick": 194,
        "side": "right",
        "action": {
          "moveAxis": 1,
          "fire": false
        }
      },
      {
        "tick": 196,
        "side": "left",
        "action": {
          "moveAxis": 0,
          "fire": false
        }
      },
      {
        "tick": 196,
        "side": "right",
        "action": {
          "moveAxis": 1,
          "fire": false
        }
      },
      {
        "tick": 198,
        "side": "left",
        "action": {
          "moveAxis": 0,
          "fire": false
        }
      },
      {
        "tick": 198,
        "side": "right",
        "action": {
          "moveAxis": 1,
          "fire": false
        }
      },
      {
        "tick": 200,
        "side": "left",
        "action": {
          "moveAxis": 0,
          "fire": false
        }
      },
      {
        "tick": 200,
        "side": "right",
        "action": {
          "moveAxis": 1,
          "fire": false
        }
      },
      {
        "tick": 202,
        "side": "left",
        "action": {
          "moveAxis": 0,
          "fire": false
        }
      },
      {
        "tick": 202,
        "side": "right",
        "action": {
          "moveAxis": 1,
          "fire": false
        }
      },
      {
        "tick": 204,
        "side": "left",
        "action": {
          "moveAxis": 0,
          "fire": false
        }
      },
      {
        "tick": 204,
        "side": "right",
        "action": {
          "moveAxis": 1,
          "fire": false
        }
      },
      {
        "tick": 206,
        "side": "left",
        "action": {
          "moveAxis": 0,
          "fire": false
        }
      },
      {
        "tick": 206,
        "side": "right",
        "action": {
          "moveAxis": 1,
          "fire": false
        }
      },
      {
        "tick": 208,
        "side": "left",
        "action": {
          "moveAxis": 0,
          "fire": false
        }
      },
      {
        "tick": 208,
        "side": "right",
        "action": {
          "moveAxis": 1,
          "fire": false
        }
      },
      {
        "tick": 210,
        "side": "left",
        "action": {
          "moveAxis": 0,
          "fire": false
        }
      },
      {
        "tick": 210,
        "side": "right",
        "action": {
          "moveAxis": 1,
          "fire": false
        }
      },
      {
        "tick": 212,
        "side": "left",
        "action": {
          "moveAxis": 0,
          "fire": false
        }
      },
      {
        "tick": 212,
        "side": "right",
        "action": {
          "moveAxis": 1,
          "fire": false
        }
      },
      {
        "tick": 214,
        "side": "left",
        "action": {
          "moveAxis": 0,
          "fire": false
        }
      },
      {
        "tick": 214,
        "side": "right",
        "action": {
          "moveAxis": 1,
          "fire": false
        }
      },
      {
        "tick": 216,
        "side": "left",
        "action": {
          "moveAxis": 0,
          "fire": false
        }
      },
      {
        "tick": 216,
        "side": "right",
        "action": {
          "moveAxis": 1,
          "fire": false
        }
      },
      {
        "tick": 218,
        "side": "left",
        "action": {
          "moveAxis": 0,
          "fire": false
        }
      },
      {
        "tick": 218,
        "side": "right",
        "action": {
          "moveAxis": 1,
          "fire": false
        }
      },
      {
        "tick": 220,
        "side": "left",
        "action": {
          "moveAxis": 0,
          "fire": false
        }
      },
      {
        "tick": 220,
        "side": "right",
        "action": {
          "moveAxis": 1,
          "fire": false
        }
      },
      {
        "tick": 222,
        "side": "left",
        "action": {
          "moveAxis": 0,
          "fire": false
        }
      },
      {
        "tick": 222,
        "side": "right",
        "action": {
          "moveAxis": 1,
          "fire": false
        }
      },
      {
        "tick": 224,
        "side": "left",
        "action": {
          "moveAxis": 0,
          "fire": false
        }
      },
      {
        "tick": 224,
        "side": "right",
        "action": {
          "moveAxis": 1,
          "fire": false
        }
      },
      {
        "tick": 226,
        "side": "left",
        "action": {
          "moveAxis": 0,
          "fire": false
        }
      },
      {
        "tick": 226,
        "side": "right",
        "action": {
          "moveAxis": 1,
          "fire": false
        }
      },
      {
        "tick": 228,
        "side": "left",
        "action": {
          "moveAxis": 0,
          "fire": false
        }
      },
      {
        "tick": 228,
        "side": "right",
        "action": {
          "moveAxis": 1,
          "fire": false
        }
      },
      {
        "tick": 230,
        "side": "left",
        "action": {
          "moveAxis": 0,
          "fire": false
        }
      },
      {
        "tick": 230,
        "side": "right",
        "action": {
          "moveAxis": 1,
          "fire": false
        }
      },
      {
        "tick": 232,
        "side": "left",
        "action": {
          "moveAxis": 0,
          "fire": false
        }
      },
      {
        "tick": 232,
        "side": "right",
        "action": {
          "moveAxis": 1,
          "fire": false
        }
      },
      {
        "tick": 234,
        "side": "left",
        "action": {
          "moveAxis": 0,
          "fire": false
        }
      },
      {
        "tick": 234,
        "side": "right",
        "action": {
          "moveAxis": 1,
          "fire": false
        }
      },
      {
        "tick": 236,
        "side": "left",
        "action": {
          "moveAxis": 0,
          "fire": false
        }
      },
      {
        "tick": 236,
        "side": "right",
        "action": {
          "moveAxis": 1,
          "fire": false
        }
      },
      {
        "tick": 238,
        "side": "left",
        "action": {
          "moveAxis": 0,
          "fire": false
        }
      },
      {
        "tick": 238,
        "side": "right",
        "action": {
          "moveAxis": 1,
          "fire": false
        }
      },
      {
        "tick": 240,
        "side": "left",
        "action": {
          "moveAxis": 0,
          "fire": false
        }
      },
      {
        "tick": 240,
        "side": "right",
        "action": {
          "moveAxis": 1,
          "fire": false
        }
      },
      {
        "tick": 242,
        "side": "left",
        "action": {
          "moveAxis": 0,
          "fire": false
        }
      },
      {
        "tick": 242,
        "side": "right",
        "action": {
          "moveAxis": 1,
          "fire": false
        }
      },
      {
        "tick": 244,
        "side": "left",
        "action": {
          "moveAxis": 0,
          "fire": false
        }
      },
      {
        "tick": 244,
        "side": "right",
        "action": {
          "moveAxis": 1,
          "fire": false
        }
      },
      {
        "tick": 246,
        "side": "left",
        "action": {
          "moveAxis": 0,
          "fire": false
        }
      },
      {
        "tick": 246,
        "side": "right",
        "action": {
          "moveAxis": 1,
          "fire": false
        }
      },
      {
        "tick": 248,
        "side": "left",
        "action": {
          "moveAxis": 0,
          "fire": false
        }
      },
      {
        "tick": 248,
        "side": "right",
        "action": {
          "moveAxis": 1,
          "fire": false
        }
      },
      {
        "tick": 250,
        "side": "left",
        "action": {
          "moveAxis": 0,
          "fire": false
        }
      },
      {
        "tick": 250,
        "side": "right",
        "action": {
          "moveAxis": 1,
          "fire": false
        }
      },
      {
        "tick": 252,
        "side": "left",
        "action": {
          "moveAxis": 0,
          "fire": false
        }
      },
      {
        "tick": 252,
        "side": "right",
        "action": {
          "moveAxis": 1,
          "fire": false
        }
      },
      {
        "tick": 254,
        "side": "left",
        "action": {
          "moveAxis": 0,
          "fire": false
        }
      },
      {
        "tick": 254,
        "side": "right",
        "action": {
          "moveAxis": 1,
          "fire": false
        }
      },
      {
        "tick": 256,
        "side": "left",
        "action": {
          "moveAxis": 0,
          "fire": false
        }
      },
      {
        "tick": 256,
        "side": "right",
        "action": {
          "moveAxis": 1,
          "fire": false
        }
      },
      {
        "tick": 258,
        "side": "left",
        "action": {
          "moveAxis": 0,
          "fire": false
        }
      },
      {
        "tick": 258,
        "side": "right",
        "action": {
          "moveAxis": 1,
          "fire": false
        }
      },
      {
        "tick": 260,
        "side": "left",
        "action": {
          "moveAxis": 0,
          "fire": false
        }
      },
