{
  "replayId": "defensive-0-31sl2w-vs-defensive-0-9qp1e0-551500369",
  "createdAt": "2026-03-14T20:50:52.392Z",
  "runtimeVersion": "0.3.5",
  "configHash": "3a06a5c9",
  "seed": 551500369,
  "durationTicks": 460,
  "matchOptions": {
    "demo": true,
    "skipCountdown": true,
    "difficulty": "spicy",
    "scoreLimit": 2,
    "powerupsEnabled": true,
    "trailsEnabled": false,
    "theme": "neon"
  },
  "botIds": [
    "defensive-0-31sl2w",
    "defensive-0-9qp1e0"
  ],
  "leftBot": {
    "id": "defensive-0-31sl2w",
    "name": "Anchor sl2w",
    "schemaVersion": 1,
    "archetype": "defensive",
    "personality": "Covers the lane early and values survival over flair.",
    "generation": 0,
    "lineageId": "defensive-0-31sl2w",
    "elo": 989.8395749265634,
    "fitnessScore": 62,
    "matches": 7,
    "mutationProfile": {
      "source": null,
      "kind": "seed"
    },
    "controllerParams": {
      "fireThreshold": 0.66
    },
    "network": {
      "type": "mlp",
      "inputSize": 59,
      "layers": [
        {
          "weights": [
            [
              -0.27900967381428926,
              0.27942479301709683,
              0.1293739399407059,
              -0.06230284594930709,
              -0.10705869267694652,
              0.023906383942812682,
              0.0437277348479256,
              0.039604471321217714,
              0.03926117853261531,
              0.1444893815321848,
              -0.27837561699561775,
              -0.040384168317541484,
              -0.0943775495979935,
              -0.2677494028816,
              0.2683230249211192,
              0.05869530227500946,
              0.38510599303990606,
              0.11788270964752882,
              -0.3730519824894145,
              -0.2707451564725489,
              -0.2620110566262156,
              -0.0431771223898977,
              -0.18861552332527937,
              -0.07935521523468196,
              0.20846275021322072,
              0.2039833104936406,
              -0.2780485783936456,
              -0.33980467887595295,
              0.1566363733727485,
              -0.2858503555878997,
              0.22004839698784054,
              -0.26914368134457617,
              0.2724074863130227,
              -0.41919281298760325,
              0.05782803345937282,
              -0.057602220796979964,
              -0.1017535594291985,
              -0.2042346336878836,
              -0.4404983640415594,
              -0.3217521982965991,
              -0.2227065097074956,
              -0.15715670641511678,
              0.06278531206771731,
              -0.1864630432566628,
              0.06397904930636288,
              -0.050483872974291445,
              -0.025515633705072104,
              0.3233809332596138,
              0.41157858192455027,
              0.16698241482954473,
              -0.410660683689639,
              -0.3063321992056444,
              -0.21669884221628308,
              -0.33623953715432436,
              -0.33275020408909767,
              -0.21640028783585877,
              -0.15420744598377498,
              -0.24399782493710517,
              -0.30926434085704385
            ],
            [
              0.2101806151913479,
              0.03466031060088426,
              0.021800088370218875,
              0.08874779676552862,
              0.06329338930081577,
              -0.401895124046132,
              -0.29101866390556097,
              -0.21139130860101432,
              0.30033711986616257,
              -0.24822189698461444,
              -0.19598291425500067,
              0.02306669200770557,
              0.09429047021549196,
              0.08909655183088035,
              0.22349584840703757,
              0.3189781931927428,
              -0.3238795217592269,
              0.3311567309545353,
              0.12990481385495514,
              -0.1677006221842021,
              -0.09387636564206332,
              0.24977859305217862,
              0.3018077897373587,
              0.4209209730383009,
              0.1289453156059608,
              0.07432424041908235,
              -0.013267958024516703,
              -0.13867599754594268,
              -0.43644605730660263,
              -0.11130525546614081,
              0.12079898393712939,
              0.3603761319536716,
              -0.14533692605327816,
              0.10292271045036615,
              -0.28290864599402993,
              -0.28591872153338044,
              -0.007871750160120428,
              0.287716170377098,
              0.3772239019162953,
              -0.3962271853582934,
              -0.422081049811095,
              -0.012857360020279885,
              0.14532221225090325,
              0.041669997735880315,
              0.1666471091564745,
              -0.11841479286085814,
              0.18114354426506907,
              -0.03229189112316817,
              -0.08109865675214678,
              0.15854220986366271,
              -0.3545643491204828,
              0.2042806953890249,
              -0.3989524614298716,
              -0.33940050727687776,
              -0.07434959672391415,
              0.1697318542515859,
              0.09210878738667816,
              0.0748990411637351,
              -0.3032415224472061
            ],
            [
              -0.030067611671984195,
              0.2454624087084085,
              -0.22063792850822211,
              -0.0835217515937984,
              -0.06756497228052467,
              0.34368949695490303,
              -0.34874940023291856,
              -0.25569444852881135,
              -0.05097505522426218,
              0.17707036449573935,
              0.35387238152325157,
              -0.0941611496033147,
              0.3145283420104534,
              -0.12315521424170583,
              -0.10924753260333091,
              0.3605905995005742,
              0.2759574111085385,
              -0.11596240138169378,
              -0.37229658651631325,
              0.009395368513651192,
              -0.34944270201958716,
              -0.18745217530522496,
              0.1766244407510385,
              0.13741865339688958,
              -0.006371952965855599,
              -0.36974656116217375,
              0.07800571059342475,
              -0.1673310154583305,
              -0.4261674078181386,
              0.27734072625171396,
              -0.3798915102845058,
              0.24348532101139428,
              -0.18636024026200176,
              0.3127400847617537,
              -0.3555524728260934,
              -0.2521540112094954,
              -0.2481322426814586,
              0.12428284445777536,
              -0.13407432432286442,
              0.2982362475944683,
              -0.191670559393242,
              0.29851388912647964,
              0.3091183205600828,
              -0.2384495773119852,
              -0.3347230260260403,
              0.23927515977993608,
              0.2651882224716246,
              0.17471847392152995,
              0.10951678238343447,
              0.0038788931211456656,
              0.14658793495036662,
              -0.38882247945293785,
              0.330825446289964,
              0.3778623177437112,
              -0.30270684461575004,
              -0.1729023187654093,
              -0.4340624561067671,
              -0.015969921718351543,
              -0.3943454937776551
            ],
            [
              -0.043604469113051894,
              0.43925559350755067,
              -0.11835585571825505,
              0.04681307128630579,
              -0.4292524739401415,
              0.3414160683285445,
              -0.2732194324722514,
              -0.04700286565348506,
              -0.12542977107223124,
              0.15841245800256729,
              -0.3970067197456956,
              -0.19991910606622695,
              -0.27543730039615183,
              -0.15681525408290328,
              0.14375426326878368,
              0.4076340364990756,
              -0.057381943752989176,
              -0.24187541787978262,
              -0.14470870492514223,
              0.29347639947663995,
              -0.014348234049975872,
              0.33062503980472685,
              -0.24768931986764073,
              -0.0788733555469662,
              0.18965629083104432,
              -0.19760770574212075,
              0.0211600860580802,
              0.03343702799174935,
              0.30424589740578084,
              -0.12138669197447598,
              -0.12480696612037719,
              0.26166668885853145,
              0.4315481946570799,
              0.13694563913159072,
              0.23101202817633748,
              0.29052643475588413,
              -0.2376149178715423,
              -0.14950145368929954,
              0.31451702266931536,
              -0.009945538407191635,
              -0.13874654446262866,
              0.3980052879313007,
              0.09267174219712615,
              0.18261359932366758,
              -0.407269369228743,
              0.08948157224804164,
              0.13521227999590338,
              0.3517109422478825,
              -0.09252749865408987,
              -0.12149340093601495,
              0.39918644896242766,
              -0.2530538527294994,
              0.2198793673189357,
              0.13267440798226746,
              -0.08938566672150046,
              -0.008145577716641128,
              0.2898978016572073,
              -0.404976063547656,
              -0.34396203348878773
            ],
            [
              0.44264287396799773,
              0.0953145198058337,
              0.38582541367504747,
              -0.07887627726886422,
              0.4277674299431965,
              -0.303002151218243,
              -0.14728972928132864,
              -0.3599908655276522,
              -0.02026954258326441,
              0.040831659478135406,
              -0.06517595616169274,
              0.43012590429279957,
              -0.07642254112288356,
              0.2558818934485316,
              0.18347502029500903,
              -0.20187219637446105,
              -0.1255486847134307,
              -0.36630809304770084,
              -0.35373396989889444,
              -0.432408235128969,
              0.05386727387085557,
              0.1015941318590194,
              -0.06299286873545498,
              -0.18631584781687707,
              -0.19693341033998876,
              -0.2096001575002447,
              0.10957937256898731,
              -0.309898413810879,
              0.2846098617883399,
              0.1367497676750645,
              0.003298807376995683,
              -0.4107896262779832,
              -0.054134689900092785,
              0.09977178939152509,
              0.35829286901280283,
              -0.1692450909409672,
              0.4467266981257126,
              -0.04855500804260373,
              -0.01625954476185143,
              -0.31501228020060806,
              0.002920526429079473,
              0.319109193328768,
              -0.04376602526754141,
              -0.2301528650801629,
              0.08207847713492811,
              -0.00835783809889108,
              0.29466204419732095,
              -0.2513699635863304,
              0.10544712992850691,
              -0.13627422207500786,
              -0.3086784739047289,
              0.028625152143649756,
              0.2737707850523293,
              -0.22607566975057125,
              0.4499884755117819,
              0.18901123108807952,
              -0.3380932820029557,
              0.1265643444377929,
              0.25750190746039153
            ],
            [
              -0.32551066274754703,
              -0.3973770850338042,
              -0.024591358727775514,
              -0.24280746267177164,
              0.27158854105509816,
              -0.414005465595983,
              -0.058105387492105365,
              -0.40718171442858875,
              -0.05303129721432925,
              -0.02029150484595448,
              -0.12876472561620175,
              0.3146241010632366,
              0.35951873010490093,
              0.24104668004438282,
              0.33402633983641866,
              -0.00739864013157785,
              -0.1149944615084678,
              0.02589820723515004,
              -0.27930065493565054,
              -0.2997636369662359,
              0.303504546568729,
              -0.07932177605107427,
              -0.08559576384723187,
              0.3004850606666878,
              -0.18088386640883983,
              -0.14265849078074097,
              -0.43527121141087266,
              -0.16662830498535186,
              -0.43022086350247263,
              -0.0885042792186141,
              0.4394907205598429,
              -0.0940938787534833,
              -0.33547455018851907,
              0.4147579167969525,
              0.20186676322482527,
              0.15853190703783185,
              -0.0781848169863224,
              -0.2144746124278754,
              0.39073028611019256,
              0.12108929576352238,
              -0.3967312015593052,
              -0.2870937545550987,
              -0.39889527882914994,
              0.17162732840515674,
              0.269158974965103,
              0.06010784301906824,
              -0.23606790751218795,
              0.21597138522192835,
              -0.02054296089336276,
              -0.03489153860136867,
              -0.015528394072316588,
              -0.12820698728319257,
              -0.2971371583873406,
              0.040833786805160345,
              0.31921941933687775,
              -0.3242250671843067,
              -0.13753945883363486,
              0.08579038849566133,
              -0.4241869711317122
            ],
            [
              -0.3895915997447446,
              -0.2370250445790589,
              0.3968541619833559,
              0.3885804765159264,
              -0.16463364525698126,
              -0.07314159641973675,
              -0.03129469065461308,
              -0.2361599385039881,
              -0.28077617960516366,
              -0.14188700700178744,
              -0.16863277719821781,
              0.18107278256211431,
              -0.2334337714361027,
              0.07938948422670365,
              -0.14238630691543222,
              0.0946105826413259,
              -0.048375808820128444,
              0.3269426029874012,
              -0.4418073094915599,
              0.04728387629147619,
              0.14894188495818525,
              -0.3700448399875313,
              0.367493315320462,
              0.40309749150183055,
              -0.1246332222595811,
              -0.36795884873718027,
              0.05731709401588887,
              -0.15883665962610394,
              0.10922888140194119,
              0.24269876279868186,
              0.13819325650110842,
              0.3133853234583512,
              -0.14694986615795644,
              -0.15234019097406418,
              -0.05772485830821097,
              -0.43486139355227355,
              0.17868503106292338,
              0.31626698195468633,
              0.30638677859678864,
              -0.34429427138529717,
              0.13447945271618664,
              0.41074927705340086,
              -0.3762729676673189,
              0.09134288197383285,
              -0.1007710981182754,
              0.21651277507189662,
              0.2690797207178548,
              -0.1794722246238962,
              -0.20648308298550547,
              0.23763661400880665,
              0.25801777734886855,
              -0.06918539239559322,
              0.41329732511658224,
              0.12633351352997124,
              0.3913295483915135,
              -0.4138464675983414,
              0.4346927310107276,
              0.08059928705915809,
              -0.43841941002756357
            ],
            [
              0.4107659283326939,
              0.3287693813676015,
              0.3813748110551387,
              0.29670436510350556,
              0.21663422549609096,
              -0.3342317727394402,
              0.3664906949037686,
              0.1417956023477018,
              -0.3232908852165565,
              -0.2674632943700999,
              0.18384592181537301,
              -0.43018343579024076,
              -0.2384966507088393,
              -0.4117173258913681,
              0.09394387810025365,
              -0.09799220259301365,
              -0.28662355430424213,
              0.3052094965009019,
              -0.43607691200450066,
              -0.21264993832446635,
              -0.4190550054889172,
              0.26781542964745314,
              -0.36130259167402984,
              0.06228297748602927,
              -0.2898473166162148,
              -0.2581870813155547,
              0.2791755774524063,
              0.10477770252618938,
              -0.31991878857370465,
              0.30717877834104,
              -0.4049484097631648,
              0.15129902574699372,
              -0.10478067118674517,
              -0.09100614215712995,
              0.42684417336713526,
              0.3810932801105082,
              0.16045006890781224,
              -0.15564231653697788,
              0.40355999779421836,
              0.3737422785256058,
              -0.28748591677285734,
              0.09617255197372288,
              -0.32667809987906365,
              0.42305122723337263,
              -0.04802323181647807,
              -0.024834990059025588,
              -0.34649623464792967,
              0.17558627121616155,
              -0.10003622397780419,
              -0.4176714971428737,
              -0.4066270910203457,
              0.055249551543965936,
              -0.27491113543510437,
              0.38480780997779224,
              -0.1787770308321342,
              -0.1586780124111101,
              0.2980509216198698,
              0.23396507597062738,
              0.07772981773596258
            ],
            [
              0.2687930854037404,
              0.009934814600273968,
              -0.33102166014723483,
              0.33482692285906523,
              -0.3669660072773695,
              -0.35866186742205175,
              0.11938264912459999,
              -0.21845002588815987,
              0.08688121335580945,
              -0.21226626173593105,
              -0.3571193971205503,
              0.16946009933017195,
              0.3862730347551406,
              -0.36964152900036423,
              0.0788210614817217,
              0.1618602476315573,
              0.1614923644345254,
              -0.3630213206168264,
              0.14486833701375873,
              -0.1377836873754859,
              -0.05795717092696578,
              0.18776670747902244,
              -0.1962314701639116,
              -0.31439074992667887,
              0.25331237765494735,
              0.33227267616894096,
              0.37834731603506955,
              0.18090553551446648,
              -0.379672022187151,
              -0.3129984950646758,
              -0.07393911543767899,
              -0.02308077800553292,
              0.2113101954571903,
              -0.12977497754618525,
              -0.07691416991874576,
              -0.07003749122377485,
              0.10067747980356216,
              -0.09004761264659465,
              0.23074816984590144,
              0.36599910424556586,
              -0.39934616822283714,
              0.14236646632198244,
              -0.16121376799419523,
              0.04240441527217627,
              0.11181738681625575,
              0.39565651542507113,
              0.2959548431681469,
              -0.061296770721673964,
              -0.028693918115459384,
              0.3238020476186648,
              -0.31307920336257666,
              0.33303682871628554,
              -0.24914474138058723,
              -0.28936173263937237,
              -0.003971278876997531,
              0.07146828356198967,
              -0.29268354519736023,
              0.41766642630100254,
              -0.01675911583006382
            ],
            [
              -0.3644022150663659,
              0.3846416854765266,
              -0.37865966556128117,
              0.024483542726375162,
              0.027256300603039563,
              0.3891005918383598,
              0.3015447090379894,
              0.3834739528829232,
              -0.19950542917940767,
              -0.4153977596433833,
              0.3063875516178087,
              -0.18040077290497722,
              0.25849613340105865,
              -0.36824941264931116,
              0.4229365948587656,
              -0.06513700797222555,
              0.3215044275624678,
              -0.4342027446487919,
              0.361482724850066,
              -0.17401100755669177,
              -0.2457011617720127,
              -0.06902971509844065,
              0.3373630107846111,
              0.3964713675901294,
              -0.2872551556443796,
              -0.34117618727032095,
              -0.04695743909105659,
              0.19087902568280699,
              -0.2560934778302908,
              -0.20183247139211744,
              -0.21224032267928125,
              -0.447940979199484,
              0.14881925331428647,
              -0.15391374786850065,
              -0.44669567376840863,
              0.01906837332062423,
              -0.32306247667875143,
              -0.13853008474688977,
              -0.060828072507865726,
              -0.20866827678401023,
              0.3301644722465426,
              0.309945963928476,
              -0.2598779496503994,
              -0.1937214489094913,
              -0.3910478732781485,
              0.4157242265995592,
              0.00006765599828213453,
              0.3051076723029837,
              -0.18283107031602414,
              0.041271913703531025,
              -0.06165389930829406,
              -0.007080006273463369,
              0.14433843791484832,
              -0.3598902751458809,
              0.3738976859254763,
              -0.42667169831693175,
              -0.18711438314057888,
              0.0026033514412119986,
              0.29287253762595356
            ],
            [
              0.3855213559465483,
              -0.3626942409435287,
              0.0061271741520613435,
              0.2478416152764112,
              -0.3757100271061063,
              0.42524406029842793,
              -0.34701490618754177,
              0.07737798211164773,
              0.04295994874555618,
              0.42597832779865713,
              0.4130093709100038,
              0.16846264426130803,
              -0.30202015426475554,
              0.14325144316535443,
              -0.4243450096109882,
              -0.28601039985660465,
              -0.3800844914512709,
              -0.27263436452485623,
              -0.1624591576633975,
              -0.12874544200021773,
              -0.007221264392137528,
              0.09902217881754041,
              -0.2749072793405503,
              0.16351212104782462,
              -0.1748903821455315,
              0.16618744265288116,
              0.024042023462243378,
              0.15162913254462182,
              -0.27394391410052776,
              0.19052118295803666,
              -0.26485555835533886,
              -0.44753751922398805,
              -0.39666063599288465,
              -0.1826359536498785,
              0.1382078996859491,
              -0.38224229381885383,
              -0.42807436287403106,
              0.215763078792952,
              0.30151063911616804,
              -0.19926652230788022,
              -0.06297555319033564,
              0.11581793886143714,
              -0.12940525682643056,
              0.3856895006960258,
              -0.3411874309647828,
              -0.4093229067977518,
              0.13174112183041872,
              -0.07940497188828886,
              0.22436771113425494,
              0.39195899160113185,
              -0.10375762511976064,
              0.340095099247992,
              0.09399323975667358,
              0.24562291335314512,
              0.21201263058464975,
              -0.3096409213263542,
              0.26719325815793127,
              0.25863101247232406,
              0.33041476509533824
            ],
            [
              -0.13828363395296037,
              0.11512675140984356,
              0.19992376053705813,
              0.3698596143862233,
              0.31965234777890145,
              0.3775355268269777,
              -0.01187122198753059,
              0.005688877729699016,
              0.18653628809843212,
              -0.17677913380321117,
              0.3306457535829395,
              0.15069178473204375,
              -0.2473245136672631,
              0.18213824797421693,
              0.3986298587406054,
              0.28010453036986294,
              -0.15277269969228655,
              -0.007178949611261487,
              0.03186480822041631,
              0.23154595813248308,
              -0.023730689403600992,
              0.02611440250184387,
              0.3173396763391793,
              -0.0022787249414250254,
              0.17254051622003316,
              -0.437752202572301,
              -0.25315022114664315,
              0.09557507776189596,
              -0.3057183664524928,
              -0.010857864562422038,
              -0.43246029953006654,
              0.20818627334665507,
              0.2495389240561053,
              0.037161656585522,
              0.23792959190905094,
              -0.2973053951282054,
              -0.19682719465345144,
              -0.23312789043411614,
              -0.26283118436113,
              0.0844143063062802,
              -0.4130689371144399,
              0.32860793648287656,
              -0.06411315996665508,
              -0.43802467728964983,
              -0.12048327850643546,
              0.31946460383478553,
              -0.4097211729269475,
              0.027954101585783066,
              0.08078030536416918,
              0.03743360869120806,
              -0.2856405140133575,
              0.0250579520361498,
              0.40522170171607286,
              -0.2584456475218758,
              0.08037120059598238,
              -0.24704353823326528,
              -0.3366563645889983,
              0.4135727835819125,
              -0.011337635479867459
            ]
          ],
          "biases": [
            -0.3076563270064071,
            0.1731976519804448,
            0.12871004585176707,
            0.34850336078088734,
            -0.08914025465492159,
            -0.13131735124625266,
            -0.04005550257861614,
            0.44966701443772766,
            0.2923925148323178,
            0.37987827316392214,
            0.2465884645935148,
            -0.2086950770812109
          ]
        },
        {
          "weights": [
            [
              0.20296611161902545,
              -0.20536371103953568,
              0.18373972007539122,
              0.14573879800736902,
              -0.022808192996308208,
              0.13003591108135878,
              0.07754515623673797,
              0.22323961318470537,
              -0.011724198749288916,
              0.3442317352397367,
              0.24185697205830364,
              -0.15784497931599617
            ],
            [
              -0.005752714863047004,
              0.27502160929143427,
              0.22758781143929807,
              0.08274576850235461,
              0.0330618639010936,
              0.022874345211312173,
              0.289259122335352,
              -0.25029832997824997,
              0.2584159531164914,
              -0.2628165420843288,
              0.32702792899217453,
              0.2098107609665021
            ],
            [
              0.34732942751143125,
              0.25857630257960407,
              -0.23445416926406323,
              -0.06958413366228342,
              0.18284904519096015,
              -0.14589130382519214,
              0.19702340227086096,
              0.03771533684339374,
              -0.15407946549821644,
              -0.11090732633601873,
              -0.14671118380501866,
              -0.06265793491620571
            ],
            [
              0.14702569709625093,
              0.2876228791894391,
              0.08218464276287704,
              0.34925719541497524,
              0.17605512137524781,
              -0.05552393612451851,
              -0.08285001665353775,
              -0.11544334897771477,
              -0.03881044522859156,
              -0.027807024284265933,
              -0.1435703317634761,
              0.18514258845243603
            ],
            [
              0.2261290562339127,
              -0.2906249424209818,
              0.3404029922792688,
              -0.3091519614914432,
              -0.32100267459172754,
              0.03636370853055268,
              -0.21131520508788526,
              -0.23554139439947902,
              -0.3047637198353186,
              -0.18499002787284552,
              0.274559463490732,
              0.3203590297140181
            ],
            [
              -0.22676365352235733,
              0.20659761312417685,
              -0.22416560712736097,
              0.0007209614850580692,
              -0.30144222697708756,
              -0.028704260638915,
              0.004821587493643164,
              0.14129477806854993,
              -0.32121765217743814,
              0.03478356278501451,
              0.08591426773928106,
              -0.23674898867029695
            ],
            [
              -0.13723485553637146,
              0.2942051407881081,
              -0.09267275873571634,
              -0.05304269511252641,
              0.03138943365775049,
              0.009879125677980482,
              -0.16158141382038593,
              -0.03211014170665294,
              0.3278605342376977,
              0.12232982099521904,
              -0.1294421494472772,
              -0.13930881111882626
            ],
            [
              -0.13102584835141898,
              0.2911837088409811,
              0.061507180915214114,
              0.1654056695755571,
              -0.03623323633801192,
              -0.06865535713732242,
              0.22356685712002217,
              -0.011435490963049232,
              0.3127222230425104,
              -0.06217895247973501,
              0.2557193476008251,
              -0.24146210304461418
            ]
          ],
          "biases": [
            -0.2299831690499559,
            0.3285415686899796,
            0.02521811577025801,
            -0.29637690985109655,
            -0.0767660993617028,
            0.295764734246768,
            -0.07792599874082952,
            0.31339306398294864
          ]
        },
        {
          "weights": [
            [
              -0.007942973054014146,
              -0.17177452356554568,
              -0.07938984234351665,
              0.1235904567874968,
              0.21425873902626336,
              -0.06981623009778559,
              0.17249362473376095,
              0.10945955466013402
            ],
            [
              -0.13343944202642888,
              0.19598895264789462,
              0.05648919311352074,
              -0.1430792025057599,
              -0.21654778788797557,
              -0.2438924484886229,
              0.036071359645575285,
              -0.17885926458984613
            ],
            [
              0.02831273025367409,
              -0.00680942926555872,
              0.01458327833097428,
              0.09893086063675582,
              -0.02603767195250839,
              0.07072975928895175,
              0.027853201259858906,
              -0.07245468453038484
            ]
          ],
          "biases": [
            0.07448662852402776,
            0.026684828219003975,
            0.042484876001253724
          ]
        }
      ]
    }
  },
  "rightBot": {
    "id": "defensive-0-9qp1e0",
    "name": "Anchor p1e0",
    "schemaVersion": 1,
    "archetype": "defensive",
    "personality": "Covers the lane early and values survival over flair.",
    "generation": 0,
    "lineageId": "defensive-0-9qp1e0",
    "elo": 989.1531203212382,
    "fitnessScore": 45.5,
    "matches": 7,
    "mutationProfile": {
      "source": null,
      "kind": "seed"
    },
    "controllerParams": {
      "fireThreshold": 0.66
    },
    "network": {
      "type": "mlp",
      "inputSize": 59,
      "layers": [
        {
          "weights": [
            [
              0.10533958885353059,
              -0.06778878984041513,
              -0.16702938785310836,
              -0.13411904743406922,
              0.3973469365853816,
              -0.011320338165387512,
              -0.320671399240382,
              -0.328151902067475,
              0.06509061958640815,
              0.3008900526445359,
              -0.17572699058800936,
              0.35030247238464657,
              0.1765304242959246,
              0.28906197734177114,
              -0.17509451522491873,
              -0.2760450868634507,
              -0.17158806673251092,
              0.4124110941309482,
              0.30826469413004814,
              -0.2287509882124141,
              0.41045570361893624,
              0.02777091006282717,
              -0.017084427340887488,
              0.365513149369508,
              -0.0895034353947267,
              0.23354898551478984,
              0.008288183435797692,
              0.3477672785986215,
              -0.16244168956764043,
              -0.19982741286512465,
              0.29605901639442894,
              -0.43098391906823963,
              0.4255363730946556,
              -0.1347665731329471,
              0.2926712055690587,
              0.08680652116890997,
              -0.08569536684080958,
              0.3323768764268607,
              -0.41635487785097214,
              -0.049291001795791094,
              0.11301353427115828,
              -0.27739987985696646,
              -0.35342445408459755,
              0.2088823784608394,
              -0.3252192457672209,
              -0.22478522316087038,
              -0.08192157335579396,
              0.09125485417898745,
              -0.3370481114834547,
              -0.14354176023043694,
              -0.394104262185283,
              0.3518165579997003,
              -0.315477740066126,
              0.433364571724087,
              0.31656546697486193,
              -0.11619025943800808,
              -0.011410713102668524,
              0.25555441228207204,
              0.26614675575401636
            ],
            [
              -0.12332469464745373,
              0.3336635509505868,
              -0.29170380234718324,
              -0.2678175314096734,
              -0.42040929053910076,
              -0.12038417444564402,
              0.17529308628290893,
              0.38854698159266265,
              -0.42172273623291406,
              -0.39388334748800846,
              0.034941034577786925,
              -0.23231342509388925,
              0.028699486842378975,
              0.18956731064245105,
              -0.3584683833410964,
              -0.20261273877695204,
              0.26795432553626597,
              0.2394462830387056,
              0.06634965206030756,
              0.36102954614907506,
              0.18379849910270424,
              0.03200032829772681,
              -0.2027995255077258,
              0.1692934947554022,
              -0.3965329946950078,
              0.2856360437348485,
              0.4068015846423805,
              -0.23494715276174247,
              0.17947916798293592,
              0.37617185970302675,
              0.2268334061605856,
              -0.2614895023405552,
              0.34532195893116296,
              -0.3274634008063004,
              0.2880413425387815,
              -0.12515672156587243,
              0.4029969813767821,
              0.3472450640285388,
              -0.28331553521566094,
              -0.11133300857618451,
              -0.09590768634807319,
              -0.3768285417929292,
              -0.16358484830707312,
              -0.3852782673435286,
              -0.3008931793039665,
              -0.13615784836001696,
              0.18014672328718007,
              -0.4375812519807369,
              0.14813414672389627,
              0.2046221734955907,
              0.07215770725160837,
              -0.40289549392182383,
              0.40649109694641083,
              -0.11414643230382353,
              -0.4293151684803888,
              -0.28110369031783194,
              -0.4118839218746871,
              -0.24991768423933536,
              -0.2034777570515871
            ],
            [
              -0.03728942612651736,
              0.19379087851848453,
              0.44400998395867647,
              -0.438551869452931,
              -0.2963045954704285,
              -0.3263648930937052,
              -0.3174159395042807,
              -0.42286513787694274,
              -0.3901153502985835,
              -0.43723009214736525,
              0.4406032011145726,
              -0.0866901409579441,
              0.10978991633746774,
              -0.14463821290992201,
              -0.3490951816085726,
              -0.1313343652524054,
              -0.17616782819386573,
              -0.37432576606515794,
              -0.1836660235421732,
              0.028432323737069966,
              -0.037947053695097564,
              0.27784822618123145,
              0.1267797610256821,
              -0.32852871806826445,
              -0.1181401168461889,
              0.3380094889551401,
              -0.3925815446767956,
              -0.03462696676142514,
              -0.19511732223909348,
              0.35848741969093684,
              -0.14016156876459718,
              -0.18847050592303277,
              0.07288842794951052,
              -0.1904477057280019,
              0.44060112240258603,
              -0.06507449406199158,
              0.27555156250018625,
              -0.012055833195336164,
              -0.03556223837658763,
              -0.1795529708499089,
              -0.21671330665703864,
              0.0010508381528779864,
              -0.099779876251705,
              -0.10756274135783316,
              -0.20596601804718376,
              -0.3969372819643468,
              -0.2823740104911849,
              0.3654513443587348,
              -0.09002964037936181,
              0.22776298373937606,
              -0.35678492817096413,
              -0.16596915358677508,
              0.41383492383174597,
              -0.2542742555262521,
              0.42889506686478857,
              0.3487764335470274,
              0.1675413197139278,
              -0.4360134496819228,
              0.01804711155127734
            ],
            [
              -0.09022566250059753,
              0.35517453993670645,
              0.017352954600937665,
              0.37264889131765816,
              -0.2811968886991963,
              -0.31536062015220523,
              -0.26726460345089437,
              0.230386038729921,
              -0.0847567150136456,
              0.1984916438581422,
              -0.42777052621822803,
              -0.27653524023480713,
              0.21764513875823469,
              0.35127714690752326,
              -0.09751660062465817,
              -0.4405691073043272,
              0.04691676800139249,
              -0.35876863086596134,
              -0.3874807092128322,
              -0.3480603250209242,
              0.11871179617010057,
              -0.21961487468797714,
              0.3852307346183807,
              0.24495411480311305,
              -0.3227530065458268,
              -0.009220538777299225,
              0.4451971671776846,
              0.1787482203450054,
              -0.0879254149273038,
              0.4311327550560236,
              0.3857971136458218,
              -0.00165665193926543,
              0.12580840615555644,
              -0.19332798728719355,
              0.010806974465958774,
              0.11304846124257893,
              -0.40171838784590364,
              -0.10641452372074127,
              -0.19005558667704464,
              -0.2845829104073346,
              0.11122239343822003,
              -0.26528939057607204,
              0.4410182136576623,
              0.38724547780584545,
              -0.20841644648462535,
              0.039135674200952056,
              -0.2298391394549981,
              -0.16198020356241613,
              -0.2834924260620028,
              0.1308680535759777,
              0.14691272196359934,
              0.07080443180166185,
              -0.32552341392729434,
              0.05251337417867035,
              -0.12873345189727844,
              -0.43106461940333246,
              -0.3712151508545503,
              0.19482526655774565,
              0.20497087303083392
            ],
            [
              -0.2626501440536231,
              -0.25594714111648503,
              0.1461085403803736,
              -0.00657626751344651,
              0.44689074454363437,
              -0.07899100792128592,
              0.3121797939296812,
              -0.0934154181741178,
              0.06151100588031113,
              -0.39909880883060395,
              0.2392901667393744,
              -0.3673900871537626,
              0.3884938696632162,
              -0.013981590536423028,
              -0.10904001910239458,
              -0.25993647042196244,
              0.016123770293779673,
              -0.25661371930036697,
              -0.35748496251180767,
              -0.3359384246170521,
              -0.16582644644659014,
              0.1497018654132262,
              0.07423751077149064,
              -0.41710857418365777,
              0.3313863343326375,
              -0.07045426585245877,
              0.15856736688874662,
              0.107067910884507,
              -0.33156121855136006,
              0.046415609610266986,
              0.11063698581419885,
              -0.16150656065437943,
              -0.06557894507423044,
              -0.08457466468680651,
              -0.26378247526008636,
              -0.08431445185560733,
              -0.025178437493741514,
              0.11096027037128807,
              -0.20210143534932287,
              0.3665534244384617,
              -0.09437956754118204,
              0.11991748432628811,
              0.12239050429780036,
              0.2871979560703039,
              0.21451021288521588,
              0.13442404833622276,
              0.3815377766266465,
              0.39087187782861293,
              0.055088455346412955,
              0.44869652269408106,
              0.043080529337748884,
              0.3369630299275741,
              0.4277093301527202,
              -0.007932879589498043,
              0.26293200734071437,
              -0.25681905287783596,
              -0.11946214707568288,
              0.22781401234678925,
              0.348352116253227
            ],
            [
              -0.21288220651913434,
              -0.37393882996402683,
              0.17537057551089674,
              0.16281859944574537,
              0.11918568005785346,
              0.06095186839811504,
              -0.239155635307543,
              -0.42451009873766454,
              -0.38647555662319066,
              -0.24839543213602155,
              0.15658131265081465,
              -0.25592884530778975,
              0.1849487141473219,
              0.09663048614747823,
              0.38698777367826553,
              -0.35219734304118905,
              -0.19347170172259212,
              -0.10785646147560328,
              0.31654033027589323,
              -0.23473272293340416,
              0.16660033666994423,
              -0.19363666868302973,
              -0.16439620354212822,
              0.12124987312126904,
              -0.31602555359713735,
              -0.08005763988476247,
              -0.282025010464713,
              0.43085009150672704,
              -0.37505650394596163,
              0.14082756922580303,
              -0.04530519812833518,
              -0.004664663434959949,
              0.3841036896687001,
              0.013156407466158272,
              -0.15037345387972892,
              0.279904354386963,
              0.43859597502741965,
              -0.04151542454492301,
              -0.2657351925736293,
              0.06224411227740347,
              0.1769692250993103,
              0.30447476799599826,
              0.3736734371166676,
              0.05674218346830458,
              0.1485042303800583,
              0.15010914795566352,
              0.42646165809128433,
              0.16928721209987999,
              0.1371470330050215,
              -0.2611046793172136,
              0.2474350112490356,
              -0.12864163673948498,
              0.07009522304870189,
              0.187452630023472,
              0.1907941985176876,
              -0.4247822838602588,
              -0.24964150220621378,
              -0.25957234629895537,
              0.003949285810813308
            ],
            [
              0.41499329342041164,
              -0.18241855327505618,
              -0.09846711913123728,
              0.4187984113348648,
              0.4437394584529102,
              0.188413360202685,
              0.12298549495171755,
              -0.19959623662289233,
              -0.2086333659477532,
              0.08478005861397833,
              -0.038862609397619964,
              -0.04201856127474457,
              -0.21235913280397653,
              -0.03249481217935681,
              -0.22706896006129682,
              0.32984434347599745,
              -0.43905349387787285,
              0.19552632600534708,
              -0.24219234266784043,
              0.3860423729522154,
              -0.1287179765990004,
              -0.07752440704498441,
              0.06604954765643925,
              0.33994563147425655,
              0.2965406143572182,
              -0.14136835348326712,
              -0.028842176171019675,
              0.061342878732830286,
              -0.01262138094753027,
              0.425210724840872,
              -0.4448562690988183,
              0.2812373644905165,
              -0.3506723098224029,
              -0.22245624493807556,
              0.06756764652673156,
              0.4345657053636387,
              -0.3752863533329219,
              -0.18941076225601136,
              -0.14337968754116445,
              -0.21831665891222657,
              -0.23960676840506495,
              0.3733596086036414,
              0.07649879276286811,
              -0.08815023663919419,
              -0.05935748058836907,
              0.09369668383151293,
              0.3868264109361917,
              -0.3297047357540578,
              -0.26682054384145887,
              0.053003963408991696,
              -0.3886475260835141,
              -0.33740402238909156,
              0.37007479669991883,
              0.25702926178928465,
              0.18529623015783728,
              0.2023241867311299,
              -0.3770526137435809,
              0.12206928986124695,
              -0.4408555651316419
            ],
            [
              -0.047650274843908845,
              0.2699635238852352,
              0.4281511285342276,
              0.22636426391545683,
              -0.39655096319038424,
              -0.30170888223219666,
              -0.4116965442197397,
              -0.445469885179773,
              -0.38278270864393565,
              -0.07168033670168371,
              0.040031479415483774,
              -0.44596594988834115,
              -0.14118564538657666,
              -0.2804205134510994,
              -0.08945153506938368,
              -0.20562754003331066,
              -0.11414858624339104,
              -0.401196221052669,
              -0.37634552749805156,
              0.17793369172140958,
              0.02006795152556151,
              0.20802783316466958,
              0.3838443152373657,
              -0.010367956780828537,
              0.016705110808834436,
              -0.03210467586759478,
              -0.11018391000106931,
              0.17203813784290106,
              0.17654247789178043,
              -0.19154460327699782,
              -0.2181279975688085,
              0.09958075659815223,
              -0.15921072803903372,
              0.044252938614226876,
              -0.05868020227644593,
              0.3662822420010343,
              -0.21413960955105724,
              -0.115353824920021,
              0.4170664867619053,
              -0.20091862559784204,
              -0.11817618019413204,
              0.264062638906762,
              0.4028145486256108,
              -0.1189919811906293,
              -0.04935246775858104,
              0.2798292917199433,
              0.4203124493826181,
              -0.330045337532647,
              -0.3645152280572802,
              -0.07098054669331759,
              0.15890376325696706,
              0.2675495688803494,
              0.2916743651032448,
              -0.39411349841393534,
              -0.4305824336595833,
              0.034847259940579536,
              -0.059512953367084266,
              0.004510190826840699,
              0.26315000450704246
            ],
            [
              0.22402643042150885,
              0.3316561769228429,
              0.15103939943946898,
              0.2445829934673384,
              0.12077672705054283,
              0.001723025506362319,
              -0.44936488664243374,
              -0.3947228244272992,
              -0.1530314184492454,
              0.4185937298694626,
              -0.38025199687108396,
              -0.1439255487173796,
              -0.12273845993913711,
              -0.09374028900638223,
              -0.1453736245399341,
              0.2870407222537324,
              0.28471673713065687,
              -0.10902705774642528,
              0.43514980017207566,
              -0.15699540339410306,
              0.4317223511170596,
              -0.381744224159047,
              -0.1191222018096596,
              -0.20985600587446243,
              0.06586473863571883,
              -0.32522082156501714,
              -0.36208878967445346,
              -0.1072522102855146,
              -0.32011173851788044,
              -0.09416705360636116,
              -0.3396220610942692,
              -0.3956065911334008,
              -0.002876109885983169,
              -0.24747992295306176,
              0.3017666165716946,
              0.10452904666308314,
              -0.39946092024911195,
              0.11988863905426116,
              -0.2968605683650822,
              0.3857455385383219,
              -0.07804015811998398,
              0.3580746126361191,
              0.36915392833761873,
              -0.41180208600126206,
              -0.35847664810717106,
              -0.44281154258642347,
              0.042628884734585884,
              -0.37184039514977485,
              -0.07573190038092435,
              -0.30939162215217947,
              -0.08586178219411522,
              -0.24319084421731532,
              -0.12815523552708327,
              -0.2105771724600345,
              -0.4117015425581485,
              -0.008914489089511335,
              0.008025893568992614,
              0.16178778482135386,
              -0.2523494717432186
            ],
            [
              -0.3834882501047105,
              -0.26234782200772316,
              -0.22103783350903541,
              -0.0020626753102988005,
              0.2653202483430505,
              -0.38865669609513137,
              0.3747418263461441,
              0.28028961389791224,
              -0.04988610330037773,
              -0.16340171524789185,
              0.3412464077118784,
              0.32694716651458294,
              0.05730325696058571,
              -0.23551346682943405,
              -0.030083871725946666,
              0.10764590324833989,
              -0.032345100911334156,
              -0.31346618304960433,
              -0.2866212356602773,
              -0.16379124072846027,
              -0.05537611513864249,
              -0.3509498518193141,
              -0.032265686569735406,
              -0.2953140359837562,
              0.22125242217443883,
              -0.21000442800577732,
              -0.2609203042695299,
              0.1767025047680363,
              0.32584509879816326,
              -0.15747480844147504,
              -0.2821812784764916,
              0.05626794460695237,
              -0.14251718823798,
              0.21549762622453272,
              -0.3240471753291786,
              -0.059265686804428695,
              -0.09125024999957532,
              0.14415937091689557,
              -0.10842890166677535,
              0.1891453733900562,
              -0.2997767550637946,
              -0.42304595501627773,
              0.4223901679040864,
              0.17466818585526198,
              -0.1977255965815857,
              0.0981809915509075,
              -0.3317990531679243,
              -0.13479898783843966,
              -0.06076994903851301,
              0.08304339910391718,
              -0.2754433776950464,
              0.16558262065518647,
              -0.2328060699859634,
              -0.22842536908574404,
              0.16622259719297292,
              -0.44749187934212387,
              -0.40519135419745,
              -0.4417513498105109,
              0.317579207662493
            ],
            [
              0.2983798696193844,
              -0.3048928254749626,
              -0.18702352477703243,
              -0.392666822578758,
              0.20712060970254242,
              -0.243888962874189,
              0.2666372131789103,
              -0.25541865834966304,
              -0.048728825873695314,
              -0.24177936986088752,
              -0.4447434943635017,
              0.04217621963471174,
              -0.4492426518816501,
              0.3690952432807535,
              0.3668306068517268,
              -0.31423645857721566,
              -0.25335885426029564,
              -0.00742329319473356,
              -0.15058479916770012,
              0.04487761566415429,
              0.07429412486962975,
              -0.23499917190056294,
              -0.39687568712979554,
              -0.1861678001470864,
              0.3663768850034103,
              -0.28836852363310755,
              -0.32540464696940036,
              0.44642513694707303,
              0.15203587675932795,
              0.06307192370295525,
              0.23530950222630054,
              -0.36956168550532315,
              -0.08088287618011236,
              0.11770027438178658,
              -0.19070350464899094,
              -0.2696360282599926,
              0.08487106722313911,
              -0.4498778008623049,
              -0.014745298214256764,
              0.10322503249626606,
              -0.002401935565285385,
              0.28517275855410845,
              0.24978250928688794,
              -0.25759636585135015,
              -0.42595446787308905,
              0.12461693203076721,
              0.18360695124138146,
              -0.006579560972750187,
              -0.35007812425028534,
              -0.29725869724061343,
              0.3897663615876809,
              -0.10759819701779634,
              -0.30723518959712237,
              -0.44891109752934427,
              -0.17244662360753865,
              -0.03211568088736385,
              -0.35832897322252394,
              -0.336544124619104,
              0.39552619589958343
            ],
            [
              -0.3842277204617858,
              0.21402267068624498,
              0.42000179341994226,
              -0.16044833678752185,
              0.2379686953732744,
              0.407164467824623,
              -0.31467029184568673,
              0.1208560703555122,
              -0.44104966695886105,
              0.19861230868846177,
              -0.3821212184848264,
              0.013675056584179402,
              0.06302315045613796,
              0.17437855296302587,
              -0.03568656505085528,
              -0.210482294135727,
              -0.3472526588710025,
              -0.04518764612730593,
              -0.16562277583871038,
              0.19190290239639582,
              0.18196320198476315,
              0.3008703254163265,
              -0.0946866132086143,
              -0.32226236367132516,
              -0.4318664465099573,
              -0.07681985422968865,
              -0.3621841734275222,
              0.10606715523172171,
              0.19138171020895242,
              0.18079189953859895,
              -0.2887862204806879,
              -0.2949346802663058,
              0.1706600609701127,
              -0.028135497914627196,
              -0.39753718064166604,
              -0.3727252644952387,
              0.34142487309873104,
              -0.3956692768726498,
              -0.08737067396286875,
              -0.11825108318589628,
              0.046802975493483244,
              0.2638817628845573,
              -0.3390282485168427,
              -0.28233020394109193,
              -0.26367199171800165,
              0.3168177465442568,
              0.13242493111174555,
              -0.19726567002944648,
              0.1895801906939596,
              -0.24758302350528538,
              0.043681891076266764,
              0.2619918121956289,
              0.35670514481607823,
              -0.08956878490280361,
              0.045785940298810605,
              -0.4445314523298293,
              0.13530994928441942,
              0.07752021651249379,
              0.29467334803193806
            ]
          ],
          "biases": [
            -0.1879202006617561,
            -0.30919130954425783,
            -0.13384896281640976,
            0.219703276315704,
            -0.4147273056674749,
            0.3156184271676466,
            -0.3783855201210827,
            -0.3140413974411786,
            -0.11747174053452909,
            0.10169517591129988,
            0.13417923180386424,
            0.4020572989946231
          ]
        },
        {
          "weights": [
            [
              -0.011946946312673389,
              -0.25127820135094225,
              0.20156471056398004,
              0.12538027456030248,
              -0.28958191329147664,
              -0.23487958214245735,
              0.3296277404762804,
              -0.21519950630608944,
              -0.279517909605056,
              0.2581962652038783,
              -0.34774520052596924,
              0.22824629740789532
            ],
            [
              -0.038543634489178656,
              -0.2663638693746179,
              -0.15014772559516132,
              -0.08862813559826463,
              -0.2555102841230109,
              -0.322082511940971,
              0.17789829506073146,
              0.19104564115405082,
              -0.28431697126943617,
              0.2685448801377788,
              0.1283735545584932,
              0.20901913202833383
            ],
            [
              -0.1385137641336769,
              -0.18006874006241558,
              0.10890887076966464,
              0.17294470546767116,
              -0.3391835028072819,
              -0.00013396635185927152,
              -0.2240751025499776,
              0.2711738007608801,
              0.3138227697927505,
              -0.09215106195770204,
              0.2885543172014877,
              0.10736300866119564
            ],
            [
              0.3386462173424661,
              0.08678962008561938,
              0.11164777388330548,
              -0.11556465020403266,
              -0.12579603909980505,
              -0.2686674619093537,
              -0.3274995642248541,
              -0.1440475543262437,
              0.2250010255957022,
              -0.048721104231663044,
              -0.14103885954245923,
              -0.30284157071728257
            ],
            [
              -0.1575359801761806,
              0.1462929954053834,
              -0.02426500138826668,
              0.09706380986608565,
              -0.3133833375759423,
              0.22937511866912244,
              -0.22429724691901354,
              0.27538894633762534,
              0.12525941974017768,
              0.10847452960442751,
              -0.23931602996308354,
              -0.20366403372026978
            ],
            [
              -0.13586851130239663,
              0.1419455522438511,
              0.3349702978506684,
              -0.05077523572836071,
              0.09814604532439261,
              0.22098760639782994,
              0.14114282361697406,
              -0.04104342751670628,
              -0.1890713040716946,
              0.14615727243945,
              0.330558329843916,
              -0.09566216596867888
            ],
            [
              0.0939453390892595,
              0.01892029559239745,
              -0.1591395817231387,
              0.33509885566309094,
              -0.20501421068329362,
              0.1815706941531971,
              -0.10684267212636768,
              0.1839178482070565,
              0.14813210172578692,
              -0.19149417523294687,
              0.03559726984240114,
              0.3087409591069445
            ],
            [
              -0.12770619962830096,
              -0.32123134359717365,
              -0.3103275675559416,
              0.057556296396069226,
              0.05781815478112548,
              0.34481213744729755,
              -0.22799977557733653,
              -0.2778025482548401,
              0.10294678211212158,
              -0.2558073267806321,
              -0.1000179456314072,
              -0.24695893214084205
            ]
          ],
          "biases": [
            -0.25927004958502947,
            -0.17065015889238566,
            0.22932819630950688,
            0.2156957085477188,
            0.33818043624050914,
            0.1464530968107283,
            0.16027407865040003,
            0.008244949462823569
          ]
        },
        {
          "weights": [
            [
              0.1811795918038115,
              -0.19711972039658576,
              -0.1422646533465013,
              0.24581557128112763,
              -0.051264226087369025,
              -0.09824202943127602,
              0.06090552220121026,
              0.2320055040763691
            ],
            [
              -0.18392767407931387,
              -0.1994763899128884,
              -0.1997168994275853,
              0.20427051780279726,
              0.16690978524275124,
              0.009255697601474822,
              -0.09509020345285535,
              0.15105450875125825
            ],
            [
              0.13306268025189638,
              -0.1851829863153398,
              0.1808440830791369,
              0.12066380307078362,
              -0.03343254455830902,
              0.10754302644636482,
              0.22333377227187157,
              -0.011552461888641119
            ]
          ],
          "biases": [
            0.1834625848568976,
            -0.05382737296167761,
            0.019042982370592654
          ]
        }
      ]
    }
  },
  "replay": {
    "version": 1,
    "seed": 551500369,
    "configHash": "3a06a5c9",
    "actions": [
      {
        "tick": 2,
        "side": "left",
        "action": {
          "moveAxis": 0,
          "fire": false
        }
      },
      {
        "tick": 2,
        "side": "right",
        "action": {
          "moveAxis": -1,
          "fire": false
        }
      },
      {
        "tick": 4,
        "side": "left",
        "action": {
          "moveAxis": 0,
          "fire": false
        }
      },
      {
        "tick": 4,
        "side": "right",
        "action": {
          "moveAxis": -1,
          "fire": false
        }
      },
      {
        "tick": 6,
        "side": "left",
        "action": {
          "moveAxis": 0,
          "fire": false
        }
      },
      {
        "tick": 6,
        "side": "right",
        "action": {
          "moveAxis": -1,
          "fire": false
        }
      },
      {
        "tick": 8,
        "side": "left",
        "action": {
          "moveAxis": 0,
          "fire": false
        }
      },
      {
        "tick": 8,
        "side": "right",
        "action": {
          "moveAxis": -1,
          "fire": false
        }
      },
      {
        "tick": 10,
        "side": "left",
        "action": {
          "moveAxis": 0,
          "fire": false
        }
      },
      {
        "tick": 10,
        "side": "right",
        "action": {
          "moveAxis": -1,
          "fire": false
        }
      },
      {
        "tick": 12,
        "side": "left",
        "action": {
          "moveAxis": 0,
          "fire": false
        }
      },
      {
        "tick": 12,
        "side": "right",
        "action": {
          "moveAxis": -1,
          "fire": false
        }
      },
      {
        "tick": 14,
        "side": "left",
        "action": {
          "moveAxis": 0,
          "fire": false
        }
      },
      {
        "tick": 14,
        "side": "right",
        "action": {
          "moveAxis": -1,
          "fire": false
        }
      },
      {
        "tick": 16,
        "side": "left",
        "action": {
          "moveAxis": 0,
          "fire": false
        }
      },
      {
        "tick": 16,
        "side": "right",
        "action": {
          "moveAxis": -1,
          "fire": false
        }
      },
      {
        "tick": 18,
        "side": "left",
        "action": {
          "moveAxis": 0,
          "fire": false
        }
      },
      {
        "tick": 18,
        "side": "right",
        "action": {
          "moveAxis": -1,
          "fire": false
        }
      },
      {
        "tick": 20,
        "side": "left",
        "action": {
          "moveAxis": 0,
          "fire": false
        }
      },
      {
        "tick": 20,
        "side": "right",
        "action": {
          "moveAxis": -1,
          "fire": false
        }
      },
      {
        "tick": 22,
        "side": "left",
        "action": {
          "moveAxis": 0,
          "fire": false
        }
      },
      {
        "tick": 22,
        "side": "right",
        "action": {
          "moveAxis": -1,
          "fire": false
        }
      },
      {
        "tick": 24,
        "side": "left",
        "action": {
          "moveAxis": 0,
          "fire": false
        }
      },
      {
        "tick": 24,
        "side": "right",
        "action": {
          "moveAxis": -1,
          "fire": false
        }
      },
      {
        "tick": 26,
        "side": "left",
        "action": {
          "moveAxis": 0,
          "fire": false
        }
      },
      {
        "tick": 26,
        "side": "right",
        "action": {
          "moveAxis": -1,
          "fire": false
        }
      },
      {
        "tick": 28,
        "side": "left",
        "action": {
          "moveAxis": 0,
          "fire": false
        }
      },
      {
        "tick": 28,
        "side": "right",
        "action": {
          "moveAxis": -1,
          "fire": false
        }
      },
      {
        "tick": 30,
        "side": "left",
        "action": {
          "moveAxis": 0,
          "fire": false
        }
      },
      {
        "tick": 30,
        "side": "right",
        "action": {
          "moveAxis": -1,
          "fire": false
        }
      },
      {
        "tick": 32,
        "side": "left",
        "action": {
          "moveAxis": 0,
          "fire": false
        }
      },
      {
        "tick": 32,
        "side": "right",
        "action": {
          "moveAxis": -1,
          "fire": false
        }
      },
      {
        "tick": 34,
        "side": "left",
        "action": {
          "moveAxis": 0,
          "fire": false
        }
      },
      {
        "tick": 34,
        "side": "right",
        "action": {
          "moveAxis": -1,
          "fire": false
        }
      },
      {
        "tick": 36,
        "side": "left",
        "action": {
          "moveAxis": 0,
          "fire": false
        }
      },
      {
        "tick": 36,
        "side": "right",
        "action": {
          "moveAxis": -1,
          "fire": false
        }
      },
      {
        "tick": 38,
        "side": "left",
        "action": {
          "moveAxis": 0,
          "fire": false
        }
      },
      {
        "tick": 38,
        "side": "right",
        "action": {
          "moveAxis": -1,
          "fire": false
        }
      },
      {
        "tick": 40,
        "side": "left",
        "action": {
          "moveAxis": 0,
          "fire": false
        }
      },
      {
        "tick": 40,
        "side": "right",
        "action": {
          "moveAxis": -1,
          "fire": false
        }
      },
      {
        "tick": 42,
        "side": "left",
        "action": {
          "moveAxis": 0,
          "fire": false
        }
      },
      {
        "tick": 42,
        "side": "right",
        "action": {
          "moveAxis": -1,
          "fire": false
        }
      },
      {
        "tick": 44,
        "side": "left",
        "action": {
          "moveAxis": 0,
          "fire": false
        }
      },
      {
        "tick": 44,
        "side": "right",
        "action": {
          "moveAxis": -1,
          "fire": false
        }
      },
      {
        "tick": 46,
        "side": "left",
        "action": {
          "moveAxis": 0,
          "fire": false
        }
      },
      {
        "tick": 46,
        "side": "right",
        "action": {
          "moveAxis": -1,
          "fire": false
        }
      },
      {
        "tick": 48,
        "side": "left",
        "action": {
          "moveAxis": 0,
          "fire": false
        }
      },
      {
        "tick": 48,
        "side": "right",
        "action": {
          "moveAxis": -1,
          "fire": false
        }
      },
      {
        "tick": 50,
        "side": "left",
        "action": {
          "moveAxis": 0,
          "fire": false
        }
      },
      {
        "tick": 50,
        "side": "right",
        "action": {
          "moveAxis": -1,
          "fire": false
        }
      },
      {
        "tick": 52,
        "side": "left",
        "action": {
          "moveAxis": 0,
          "fire": false
        }
      },
      {
        "tick": 52,
        "side": "right",
        "action": {
          "moveAxis": -1,
          "fire": false
        }
      },
      {
        "tick": 54,
        "side": "left",
        "action": {
          "moveAxis": 0,
          "fire": false
        }
      },
      {
        "tick": 54,
        "side": "right",
        "action": {
          "moveAxis": -1,
          "fire": false
        }
      },
      {
        "tick": 56,
        "side": "left",
        "action": {
          "moveAxis": 0,
          "fire": false
        }
      },
      {
        "tick": 56,
        "side": "right",
        "action": {
          "moveAxis": -1,
          "fire": false
        }
      },
      {
        "tick": 58,
        "side": "left",
        "action": {
          "moveAxis": 0,
          "fire": false
        }
      },
      {
        "tick": 58,
        "side": "right",
        "action": {
          "moveAxis": -1,
          "fire": false
        }
      },
      {
        "tick": 60,
        "side": "left",
        "action": {
          "moveAxis": 0,
          "fire": false
        }
      },
      {
        "tick": 60,
        "side": "right",
        "action": {
          "moveAxis": -1,
          "fire": false
        }
      },
      {
        "tick": 62,
        "side": "left",
        "action": {
          "moveAxis": 0,
          "fire": false
        }
      },
      {
        "tick": 62,
        "side": "right",
        "action": {
          "moveAxis": -1,
          "fire": false
        }
      },
      {
        "tick": 64,
        "side": "left",
        "action": {
          "moveAxis": 0,
          "fire": false
        }
      },
      {
        "tick": 64,
        "side": "right",
        "action": {
          "moveAxis": -1,
          "fire": false
        }
      },
      {
        "tick": 66,
        "side": "left",
        "action": {
          "moveAxis": 0,
          "fire": false
        }
      },
      {
        "tick": 66,
        "side": "right",
        "action": {
          "moveAxis": -1,
          "fire": false
        }
      },
      {
        "tick": 68,
        "side": "left",
        "action": {
          "moveAxis": 0,
          "fire": false
        }
      },
      {
        "tick": 68,
        "side": "right",
        "action": {
          "moveAxis": -1,
          "fire": false
        }
      },
      {
        "tick": 70,
        "side": "left",
        "action": {
          "moveAxis": 0,
          "fire": false
        }
      },
      {
        "tick": 70,
        "side": "right",
        "action": {
          "moveAxis": -1,
          "fire": false
        }
      },
      {
        "tick": 72,
        "side": "left",
        "action": {
          "moveAxis": 0,
          "fire": false
        }
      },
      {
        "tick": 72,
        "side": "right",
        "action": {
          "moveAxis": -1,
          "fire": false
        }
      },
      {
        "tick": 74,
        "side": "left",
        "action": {
          "moveAxis": 0,
          "fire": false
        }
      },
      {
        "tick": 74,
        "side": "right",
        "action": {
          "moveAxis": -1,
          "fire": false
        }
      },
      {
        "tick": 76,
        "side": "left",
        "action": {
          "moveAxis": 0,
          "fire": false
        }
      },
      {
        "tick": 76,
        "side": "right",
        "action": {
          "moveAxis": -1,
          "fire": false
        }
      },
      {
        "tick": 78,
        "side": "left",
        "action": {
          "moveAxis": 0,
          "fire": false
        }
      },
      {
        "tick": 78,
        "side": "right",
        "action": {
          "moveAxis": -1,
          "fire": false
        }
      },
      {
        "tick": 80,
        "side": "left",
        "action": {
          "moveAxis": 0,
          "fire": false
        }
      },
      {
        "tick": 80,
        "side": "right",
        "action": {
          "moveAxis": -1,
          "fire": false
        }
      },
      {
        "tick": 82,
        "side": "left",
        "action": {
          "moveAxis": 0,
          "fire": false
        }
      },
      {
        "tick": 82,
        "side": "right",
        "action": {
          "moveAxis": -1,
          "fire": false
        }
      },
      {
        "tick": 84,
        "side": "left",
        "action": {
          "moveAxis": 0,
          "fire": false
        }
      },
      {
        "tick": 84,
        "side": "right",
        "action": {
          "moveAxis": -1,
          "fire": false
        }
      },
      {
        "tick": 86,
        "side": "left",
        "action": {
          "moveAxis": 0,
          "fire": false
        }
      },
      {
        "tick": 86,
        "side": "right",
        "action": {
          "moveAxis": -1,
          "fire": false
        }
      },
      {
        "tick": 88,
        "side": "left",
        "action": {
          "moveAxis": 0,
          "fire": false
        }
      },
      {
        "tick": 88,
        "side": "right",
        "action": {
          "moveAxis": -1,
          "fire": false
        }
      },
      {
        "tick": 90,
        "side": "left",
        "action": {
          "moveAxis": 0,
          "fire": false
        }
      },
      {
        "tick": 90,
        "side": "right",
        "action": {
          "moveAxis": -1,
          "fire": false
        }
      },
      {
        "tick": 92,
        "side": "left",
        "action": {
          "moveAxis": 0,
          "fire": false
        }
      },
      {
        "tick": 92,
        "side": "right",
        "action": {
          "moveAxis": -1,
          "fire": false
        }
      },
      {
        "tick": 94,
        "side": "left",
        "action": {
          "moveAxis": 0,
          "fire": false
        }
      },
      {
        "tick": 94,
        "side": "right",
        "action": {
          "moveAxis": -1,
          "fire": false
        }
      },
      {
        "tick": 96,
        "side": "left",
        "action": {
          "moveAxis": 0,
          "fire": false
        }
      },
      {
        "tick": 96,
        "side": "right",
        "action": {
          "moveAxis": -1,
          "fire": false
        }
      },
      {
        "tick": 98,
        "side": "left",
        "action": {
          "moveAxis": 0,
          "fire": false
        }
      },
      {
        "tick": 98,
        "side": "right",
        "action": {
          "moveAxis": -1,
          "fire": false
        }
      },
      {
        "tick": 100,
        "side": "left",
        "action": {
          "moveAxis": 0,
          "fire": false
        }
      },
      {
        "tick": 100,
        "side": "right",
        "action": {
          "moveAxis": -1,
          "fire": false
        }
      },
      {
        "tick": 102,
        "side": "left",
        "action": {
          "moveAxis": 0,
          "fire": false
        }
      },
      {
        "tick": 102,
        "side": "right",
        "action": {
          "moveAxis": -1,
          "fire": false
        }
      },
      {
        "tick": 104,
        "side": "left",
        "action": {
          "moveAxis": 0,
          "fire": false
        }
      },
      {
        "tick": 104,
        "side": "right",
        "action": {
          "moveAxis": -1,
          "fire": false
        }
      },
      {
        "tick": 106,
        "side": "left",
        "action": {
          "moveAxis": 0,
          "fire": false
        }
      },
      {
        "tick": 106,
        "side": "right",
        "action": {
          "moveAxis": -1,
          "fire": false
        }
      },
      {
        "tick": 108,
        "side": "left",
        "action": {
          "moveAxis": 0,
          "fire": false
        }
      },
      {
        "tick": 108,
        "side": "right",
        "action": {
          "moveAxis": -1,
          "fire": false
        }
      },
      {
        "tick": 110,
        "side": "left",
        "action": {
          "moveAxis": 0,
          "fire": false
        }
      },
      {
        "tick": 110,
        "side": "right",
        "action": {
          "moveAxis": -1,
          "fire": false
        }
      },
      {
        "tick": 112,
        "side": "left",
        "action": {
          "moveAxis": 0,
          "fire": false
        }
      },
      {
        "tick": 112,
        "side": "right",
        "action": {
          "moveAxis": -1,
          "fire": false
        }
      },
      {
        "tick": 114,
        "side": "left",
        "action": {
          "moveAxis": 0,
          "fire": false
        }
      },
      {
        "tick": 114,
        "side": "right",
        "action": {
          "moveAxis": -1,
          "fire": false
        }
      },
      {
        "tick": 116,
        "side": "left",
        "action": {
          "moveAxis": 0,
          "fire": false
        }
      },
      {
        "tick": 116,
        "side": "right",
        "action": {
          "moveAxis": -1,
          "fire": false
        }
      },
      {
        "tick": 118,
        "side": "left",
        "action": {
          "moveAxis": 0,
          "fire": false
        }
      },
      {
        "tick": 118,
        "side": "right",
        "action": {
          "moveAxis": -1,
          "fire": false
        }
      },
      {
        "tick": 120,
        "side": "left",
        "action": {
          "moveAxis": 0,
          "fire": false
        }
      },
      {
        "tick": 120,
        "side": "right",
        "action": {
          "moveAxis": -1,
          "fire": false
        }
      },
      {
        "tick": 122,
        "side": "left",
        "action": {
          "moveAxis": 0,
          "fire": false
        }
      },
      {
        "tick": 122,
        "side": "right",
        "action": {
          "moveAxis": -1,
          "fire": false
        }
      },
      {
        "tick": 124,
        "side": "left",
        "action": {
          "moveAxis": 0,
          "fire": false
        }
      },
      {
        "tick": 124,
        "side": "right",
        "action": {
          "moveAxis": -1,
          "fire": false
        }
      },
      {
        "tick": 126,
        "side": "left",
        "action": {
          "moveAxis": 0,
          "fire": false
        }
      },
      {
        "tick": 126,
        "side": "right",
        "action": {
          "moveAxis": -1,
          "fire": false
        }
      },
      {
        "tick": 128,
        "side": "left",
        "action": {
          "moveAxis": 0,
          "fire": false
        }
      },
      {
        "tick": 128,
        "side": "right",
        "action": {
          "moveAxis": -1,
          "fire": false
        }
      },
      {
        "tick": 130,
        "side": "left",
        "action": {
          "moveAxis": 0,
          "fire": false
        }
      },
      {
        "tick": 130,
        "side": "right",
        "action": {
          "moveAxis": -1,
          "fire": false
        }
      },
      {
        "tick": 132,
        "side": "left",
        "action": {
          "moveAxis": 0,
          "fire": false
        }
      },
      {
        "tick": 132,
        "side": "right",
        "action": {
          "moveAxis": -1,
          "fire": false
        }
      },
      {
        "tick": 134,
        "side": "left",
        "action": {
          "moveAxis": 0,
          "fire": false
        }
      },
      {
        "tick": 134,
        "side": "right",
        "action": {
          "moveAxis": -1,
          "fire": false
        }
      },
      {
        "tick": 136,
        "side": "left",
        "action": {
          "moveAxis": 0,
          "fire": false
        }
      },
      {
        "tick": 136,
        "side": "right",
        "action": {
          "moveAxis": -1,
          "fire": false
        }
      },
      {
        "tick": 138,
        "side": "left",
        "action": {
          "moveAxis": 0,
          "fire": false
        }
      },
      {
        "tick": 138,
        "side": "right",
        "action": {
          "moveAxis": -1,
          "fire": false
        }
      },
      {
        "tick": 140,
        "side": "left",
        "action": {
          "moveAxis": 0,
          "fire": false
        }
      },
      {
        "tick": 140,
        "side": "right",
        "action": {
          "moveAxis": -1,
          "fire": false
        }
      },
      {
        "tick": 142,
        "side": "left",
        "action": {
          "moveAxis": 0,
          "fire": false
        }
      },
      {
        "tick": 142,
        "side": "right",
        "action": {
          "moveAxis": -1,
          "fire": false
        }
      },
      {
        "tick": 144,
        "side": "left",
        "action": {
          "moveAxis": 0,
          "fire": false
        }
      },
      {
        "tick": 144,
        "side": "right",
        "action": {
          "moveAxis": -1,
          "fire": false
        }
      },
      {
        "tick": 146,
        "side": "left",
        "action": {
          "moveAxis": 0,
          "fire": false
        }
      },
      {
        "tick": 146,
        "side": "right",
        "action": {
          "moveAxis": -1,
          "fire": false
        }
      },
      {
        "tick": 148,
        "side": "left",
        "action": {
          "moveAxis": 0,
          "fire": false
        }
      },
      {
        "tick": 148,
        "side": "right",
        "action": {
          "moveAxis": -1,
          "fire": false
        }
      },
      {
        "tick": 150,
        "side": "left",
        "action": {
          "moveAxis": 0,
          "fire": false
        }
      },
      {
        "tick": 150,
        "side": "right",
        "action": {
          "moveAxis": -1,
          "fire": false
        }
      },
      {
        "tick": 152,
        "side": "left",
        "action": {
          "moveAxis": 0,
          "fire": false
        }
      },
      {
        "tick": 152,
        "side": "right",
        "action": {
          "moveAxis": -1,
          "fire": false
        }
      },
      {
        "tick": 154,
        "side": "left",
        "action": {
          "moveAxis": 0,
          "fire": false
        }
      },
      {
        "tick": 154,
        "side": "right",
        "action": {
          "moveAxis": -1,
          "fire": false
        }
      },
      {
        "tick": 156,
        "side": "left",
        "action": {
          "moveAxis": 0,
          "fire": false
        }
      },
      {
        "tick": 156,
        "side": "right",
        "action": {
          "moveAxis": -1,
          "fire": false
        }
      },
      {
        "tick": 158,
        "side": "left",
        "action": {
          "moveAxis": 0,
          "fire": false
        }
      },
      {
        "tick": 158,
        "side": "right",
        "action": {
          "moveAxis": -1,
          "fire": false
        }
      },
      {
        "tick": 160,
        "side": "left",
        "action": {
          "moveAxis": 0,
          "fire": false
        }
      },
      {
        "tick": 160,
        "side": "right",
        "action": {
          "moveAxis": -1,
          "fire": false
        }
      },
      {
        "tick": 162,
        "side": "left",
        "action": {
          "moveAxis": 0,
          "fire": false
        }
      },
      {
        "tick": 162,
        "side": "right",
        "action": {
          "moveAxis": -1,
          "fire": false
        }
      },
      {
        "tick": 164,
        "side": "left",
        "action": {
          "moveAxis": 0,
          "fire": false
        }
      },
      {
        "tick": 164,
        "side": "right",
        "action": {
          "moveAxis": -1,
          "fire": false
        }
      },
      {
        "tick": 166,
        "side": "left",
        "action": {
          "moveAxis": 0,
          "fire": false
        }
      },
      {
        "tick": 166,
        "side": "right",
        "action": {
          "moveAxis": -1,
          "fire": false
        }
      },
      {
        "tick": 168,
        "side": "left",
        "action": {
          "moveAxis": 0,
          "fire": false
        }
      },
      {
        "tick": 168,
        "side": "right",
        "action": {
          "moveAxis": -1,
          "fire": false
        }
      },
      {
        "tick": 170,
        "side": "left",
        "action": {
          "moveAxis": 0,
          "fire": false
        }
      },
      {
        "tick": 170,
        "side": "right",
        "action": {
          "moveAxis": -1,
          "fire": false
        }
      },
      {
        "tick": 172,
        "side": "left",
        "action": {
          "moveAxis": 0,
          "fire": false
        }
      },
      {
        "tick": 172,
        "side": "right",
        "action": {
          "moveAxis": -1,
          "fire": false
        }
      },
      {
        "tick": 174,
        "side": "left",
        "action": {
          "moveAxis": 0,
          "fire": false
        }
      },
      {
        "tick": 174,
        "side": "right",
        "action": {
          "moveAxis": -1,
          "fire": false
        }
      },
      {
        "tick": 176,
        "side": "left",
        "action": {
          "moveAxis": 0,
          "fire": false
        }
      },
      {
        "tick": 176,
        "side": "right",
        "action": {
          "moveAxis": -1,
          "fire": false
        }
      },
      {
        "tick": 178,
        "side": "left",
        "action": {
          "moveAxis": 0,
          "fire": false
        }
      },
      {
        "tick": 178,
        "side": "right",
        "action": {
          "moveAxis": -1,
          "fire": false
        }
      },
      {
        "tick": 180,
        "side": "left",
        "action": {
          "moveAxis": 0,
          "fire": false
        }
      },
      {
        "tick": 180,
        "side": "right",
        "action": {
          "moveAxis": -1,
          "fire": false
        }
      },
      {
        "tick": 182,
        "side": "left",
        "action": {
          "moveAxis": 0,
          "fire": false
        }
      },
      {
        "tick": 182,
        "side": "right",
        "action": {
          "moveAxis": -1,
          "fire": false
        }
      },
      {
        "tick": 184,
        "side": "left",
        "action": {
          "moveAxis": 0,
          "fire": false
        }
      },
      {
        "tick": 184,
        "side": "right",
        "action": {
          "moveAxis": -1,
          "fire": false
        }
      },
      {
        "tick": 186,
        "side": "left",
        "action": {
          "moveAxis": 0,
          "fire": false
        }
      },
      {
        "tick": 186,
        "side": "right",
        "action": {
          "moveAxis": -1,
          "fire": false
        }
      },
      {
        "tick": 188,
        "side": "left",
        "action": {
          "moveAxis": 0,
          "fire": false
        }
      },
      {
        "tick": 188,
        "side": "right",
        "action": {
          "moveAxis": -1,
          "fire": false
        }
      },
      {
        "tick": 190,
        "side": "left",
        "action": {
          "moveAxis": 0,
          "fire": false
        }
      },
      {
        "tick": 190,
        "side": "right",
        "action": {
          "moveAxis": -1,
          "fire": false
        }
      },
      {
        "tick": 192,
        "side": "left",
        "action": {
          "moveAxis": 0,
          "fire": false
        }
      },
      {
        "tick": 192,
        "side": "right",
        "action": {
          "moveAxis": -1,
          "fire": false
        }
      },
      {
        "tick": 194,
        "side": "left",
        "action": {
          "moveAxis": 0,
          "fire": false
        }
      },
      {
        "tick": 194,
        "side": "right",
        "action": {
          "moveAxis": -1,
          "fire": false
        }
      },
      {
        "tick": 196,
        "side": "left",
        "action": {
          "moveAxis": 0,
          "fire": false
        }
      },
      {
        "tick": 196,
        "side": "right",
        "action": {
          "moveAxis": -1,
          "fire": false
        }
      },
      {
        "tick": 198,
        "side": "left",
        "action": {
          "moveAxis": 0,
          "fire": false
        }
      },
      {
        "tick": 198,
        "side": "right",
        "action": {
          "moveAxis": -1,
          "fire": false
        }
      },
      {
        "tick": 200,
        "side": "left",
        "action": {
          "moveAxis": 0,
          "fire": false
        }
      },
      {
        "tick": 200,
        "side": "right",
        "action": {
          "moveAxis": -1,
          "fire": false
        }
      },
      {
        "tick": 202,
        "side": "left",
        "action": {
          "moveAxis": 0,
          "fire": false
        }
      },
      {
        "tick": 202,
        "side": "right",
        "action": {
          "moveAxis": -1,
          "fire": false
        }
      },
      {
        "tick": 204,
        "side": "left",
        "action": {
          "moveAxis": 0,
          "fire": false
        }
      },
      {
        "tick": 204,
        "side": "right",
        "action": {
          "moveAxis": -1,
          "fire": false
        }
      },
      {
        "tick": 206,
        "side": "left",
        "action": {
          "moveAxis": 0,
          "fire": false
        }
      },
      {
        "tick": 206,
        "side": "right",
        "action": {
          "moveAxis": -1,
          "fire": false
        }
      },
      {
        "tick": 208,
        "side": "left",
        "action": {
          "moveAxis": 0,
          "fire": false
        }
      },
      {
        "tick": 208,
        "side": "right",
        "action": {
          "moveAxis": -1,
          "fire": false
        }
      },
      {
        "tick": 210,
        "side": "left",
        "action": {
          "moveAxis": 0,
          "fire": false
        }
      },
      {
        "tick": 210,
        "side": "right",
        "action": {
          "moveAxis": -1,
          "fire": false
        }
      },
      {
        "tick": 212,
        "side": "left",
        "action": {
          "moveAxis": 0,
          "fire": false
        }
      },
      {
        "tick": 212,
        "side": "right",
        "action": {
          "moveAxis": -1,
          "fire": false
        }
      },
      {
        "tick": 214,
        "side": "left",
        "action": {
          "moveAxis": 0,
          "fire": false
        }
      },
      {
        "tick": 214,
        "side": "right",
        "action": {
          "moveAxis": -1,
          "fire": false
        }
      },
      {
        "tick": 216,
        "side": "left",
        "action": {
          "moveAxis": 0,
          "fire": false
        }
      },
      {
        "tick": 216,
        "side": "right",
        "action": {
          "moveAxis": -1,
          "fire": false
        }
      },
      {
        "tick": 218,
        "side": "left",
        "action": {
          "moveAxis": 0,
          "fire": false
        }
      },
      {
        "tick": 218,
        "side": "right",
        "action": {
          "moveAxis": -1,
          "fire": false
        }
      },
      {
        "tick": 220,
        "side": "left",
        "action": {
          "moveAxis": 0,
          "fire": false
        }
      },
      {
        "tick": 220,
        "side": "right",
        "action": {
          "moveAxis": -1,
          "fire": false
        }
      },
      {
        "tick": 222,
        "side": "left",
        "action": {
          "moveAxis": 0,
          "fire": false
        }
      },
      {
        "tick": 222,
        "side": "right",
        "action": {
          "moveAxis": -1,
          "fire": false
        }
      },
      {
        "tick": 224,
        "side": "left",
        "action": {
          "moveAxis": 0,
          "fire": false
        }
      },
      {
        "tick": 224,
        "side": "right",
        "action": {
          "moveAxis": -1,
          "fire": false
        }
      },
      {
        "tick": 226,
        "side": "left",
        "action": {
          "moveAxis": 0,
          "fire": false
        }
      },
      {
        "tick": 226,
        "side": "right",
        "action": {
          "moveAxis": -1,
          "fire": false
        }
      },
      {
        "tick": 228,
        "side": "left",
        "action": {
          "moveAxis": 0,
          "fire": false
        }
      },
      {
        "tick": 228,
        "side": "right",
        "action": {
          "moveAxis": -1,
          "fire": false
        }
      },
      {
        "tick": 230,
        "side": "left",
        "action": {
          "moveAxis": 0,
          "fire": false
        }
      },
      {
        "tick": 230,
        "side": "right",
        "action": {
          "moveAxis": -1,
          "fire": false
        }
      },
      {
        "tick": 232,
        "side": "left",
        "action": {
          "moveAxis": 0,
          "fire": false
        }
      },
      {
        "tick": 232,
        "side": "right",
        "action": {
          "moveAxis": -1,
          "fire": false
        }
      },
      {
        "tick": 234,
        "side": "left",
        "action": {
          "moveAxis": 0,
          "fire": false
        }
      },
      {
        "tick": 234,
        "side": "right",
        "action": {
          "moveAxis": -1,
          "fire": false
        }
      },
      {
        "tick": 236,
        "side": "left",
        "action": {
          "moveAxis": 0,
          "fire": false
        }
      },
      {
        "tick": 236,
        "side": "right",
        "action": {
          "moveAxis": -1,
          "fire": false
        }
      },
      {
        "tick": 238,
        "side": "left",
        "action": {
          "moveAxis": 0,
          "fire": false
        }
      },
      {
        "tick": 238,
        "side": "right",
        "action": {
          "moveAxis": -1,
          "fire": false
        }
      },
      {
        "tick": 240,
        "side": "left",
        "action": {
          "moveAxis": 0,
          "fire": false
        }
      },
      {
        "tick": 240,
        "side": "right",
        "action": {
          "moveAxis": -1,
          "fire": false
        }
      },
      {
        "tick": 242,
        "side": "left",
        "action": {
          "moveAxis": 0,
          "fire": false
        }
      },
      {
        "tick": 242,
        "side": "right",
        "action": {
          "moveAxis": -1,
          "fire": false
        }
      },
      {
        "tick": 244,
        "side": "left",
        "action": {
          "moveAxis": 0,
          "fire": false
        }
      },
      {
        "tick": 244,
        "side": "right",
        "action": {
          "moveAxis": -1,
          "fire": false
        }
      },
      {
        "tick": 246,
        "side": "left",
        "action": {
          "moveAxis": 0,
          "fire": false
        }
      },
      {
        "tick": 246,
        "side": "right",
        "action": {
          "moveAxis": -1,
          "fire": false
        }
      },
      {
        "tick": 248,
        "side": "left",
        "action": {
          "moveAxis": 0,
          "fire": false
        }
      },
      {
        "tick": 248,
        "side": "right",
        "action": {
          "moveAxis": -1,
          "fire": false
        }
      },
      {
        "tick": 250,
        "side": "left",
        "action": {
          "moveAxis": 0,
          "fire": false
        }
      },
      {
        "tick": 250,
        "side": "right",
        "action": {
          "moveAxis": -1,
          "fire": false
        }
      },
      {
        "tick": 252,
        "side": "left",
        "action": {
          "moveAxis": 0,
          "fire": false
        }
      },
      {
        "tick": 252,
        "side": "right",
        "action": {
          "moveAxis": -1,
          "fire": false
        }
      },
      {
        "tick": 254,
        "side": "left",
        "action": {
          "moveAxis": 0,
          "fire": false
        }
      },
      {
        "tick": 254,
        "side": "right",
        "action": {
          "moveAxis": -1,
          "fire": false
        }
      },
      {
        "tick": 256,
        "side": "left",
        "action": {
          "moveAxis": 0,
          "fire": false
        }
      },
      {
        "tick": 256,
        "side": "right",
        "action": {
          "moveAxis": -1,
          "fire": false
        }
      },
      {
        "tick": 258,
        "side": "left",
        "action": {
          "moveAxis": 0,
          "fire": false
        }
      },
      {
        "tick": 258,
        "side": "right",
        "action": {
          "moveAxis": -1,
          "fire": false
        }
      },
      {
        "tick": 260,
